{"out":[{"layers":[{"out_depth":2,"out_sx":1,"out_sy":1,"layer_type":"input"},{"out_depth":13,"out_sx":1,"out_sy":1,"layer_type":"fc","num_inputs":2,"l1_decay_mul":0,"l2_decay_mul":1,"filters":[{"sx":1,"sy":1,"depth":2,"w":{"0":-8.43432231822155,"1":2.259207493286293}},{"sx":1,"sy":1,"depth":2,"w":{"0":1.5934824447130203,"1":2.4764104728332286}},{"sx":1,"sy":1,"depth":2,"w":{"0":2.7556076928060316,"1":0.5103065582936251}},{"sx":1,"sy":1,"depth":2,"w":{"0":-4.069022141397896,"1":-0.5059265598260965}},{"sx":1,"sy":1,"depth":2,"w":{"0":-4.239423820149106,"1":-3.0326755197667885}},{"sx":1,"sy":1,"depth":2,"w":{"0":-4.979957259994033,"1":4.287528351734695}},{"sx":1,"sy":1,"depth":2,"w":{"0":1.151106668537414,"1":-4.745384663874864}},{"sx":1,"sy":1,"depth":2,"w":{"0":-2.431516230718932,"1":2.4807513763198736}},{"sx":1,"sy":1,"depth":2,"w":{"0":3.1878543060380973,"1":6.008462154400573}},{"sx":1,"sy":1,"depth":2,"w":{"0":-5.1536848938776805,"1":1.1827358998160884}},{"sx":1,"sy":1,"depth":2,"w":{"0":3.40315481934405,"1":2.9361357372480987}},{"sx":1,"sy":1,"depth":2,"w":{"0":2.75985976659421,"1":2.582279727937036}},{"sx":1,"sy":1,"depth":2,"w":{"0":-4.458163406431613,"1":-3.625484411676468}}],"biases":{"sx":1,"sy":1,"depth":13,"w":{"0":-1.0523986957178344,"1":-6.526624611036007,"2":3.8836246246228985,"3":-0.10047228464647323,"4":2.790807097410269,"5":2.141803801901921,"6":4.152309548735681,"7":0.297256207338067,"8":1.6120042696961234,"9":-6.5625567846564605,"10":-3.802309948489874,"11":-1.0735577524286886,"12":3.6963720048658235}}},{"out_depth":13,"out_sx":1,"out_sy":1,"layer_type":"sigmoid"},{"out_depth":13,"out_sx":1,"out_sy":1,"layer_type":"fc","num_inputs":13,"l1_decay_mul":0,"l2_decay_mul":1,"filters":[{"sx":1,"sy":1,"depth":13,"w":{"0":0.886068339290371,"1":-0.6203985824688406,"2":-0.9001524061248236,"3":1.2582557850287148,"4":2.583259983041854,"5":3.954069220373644,"6":-2.6526318854233457,"7":1.3148432146231,"8":1.011387569229403,"9":0.6010417198481532,"10":-1.0601605422208233,"11":-1.739279006841374,"12":2.077856812255136}},{"sx":1,"sy":1,"depth":13,"w":{"0":2.619830328137276,"1":0.19894199383366853,"2":2.64609211142169,"3":0.8875784215568362,"4":-1.4564779155347725,"5":-2.9671925887469577,"6":-1.8487453983723074,"7":-1.5461596737480994,"8":1.1536045708081226,"9":0.5258877140780709,"10":0.9347244369234504,"11":1.3504602445685425,"12":-1.7415458979467338}},{"sx":1,"sy":1,"depth":13,"w":{"0":2.8056160296064148,"1":1.1487846746589823,"2":-0.7529758782060262,"3":0.503166064293205,"4":-1.0083743141188903,"5":-0.33466435071334294,"6":-2.601896417833887,"7":0.4361149313352576,"8":-1.2971608489778905,"9":2.749931947671782,"10":1.7760011076700162,"11":0.27829504620388423,"12":-1.26696555234205}},{"sx":1,"sy":1,"depth":13,"w":{"0":-4.262379295624512,"1":0.7881971160930425,"2":1.1833600706538754,"3":-2.0578383954324697,"4":-0.7321536838304792,"5":-0.7800964694019825,"6":1.2858787151539213,"7":-0.03503632365019842,"8":0.3656088834629039,"9":-0.8571852319077343,"10":-0.04969124069996001,"11":1.0207333562985543,"12":0.44690821776343237}},{"sx":1,"sy":1,"depth":13,"w":{"0":1.7417659146767919,"1":0.1377814513294184,"2":-2.224636632398887,"3":0.8525700938216296,"4":1.1960657693204728,"5":-0.5817746677513086,"6":2.5582556068508846,"7":-0.810151396821308,"8":-3.084768611066561,"9":3.7098469640110427,"10":-0.17130713764839645,"11":-2.3434063895290067,"12":0.6963608015633055}},{"sx":1,"sy":1,"depth":13,"w":{"0":-1.5458869803251656,"1":-0.25458437683768,"2":1.422422077427964,"3":-0.725329752988992,"4":0.01052946048106222,"5":-3.665296759900377,"6":2.6461495867431513,"7":-2.3063533983510087,"8":-0.575504200718839,"9":-0.8078942722426303,"10":0.27473460388295745,"11":0.6626681674179795,"12":0.37109475465604597}},{"sx":1,"sy":1,"depth":13,"w":{"0":-3.702802485407018,"1":-0.7575730934515335,"2":-1.3395349155420233,"3":1.0376655856403432,"4":4.854041090802702,"5":3.2401103029357206,"6":2.3398677039275824,"7":1.3596539592280925,"8":-1.8090258861346538,"9":-0.5721704182657085,"10":-4.035458128147105,"11":-3.9880789903479945,"12":5.370422685440896}},{"sx":1,"sy":1,"depth":13,"w":{"0":-4.650232080591552,"1":1.3791456657656622,"2":1.4839643938699885,"3":-2.4296070089505424,"4":-0.5896448603613961,"5":-1.0857463776809244,"6":1.0739148431465055,"7":-0.11921671620654598,"8":0.25000054911644093,"9":-1.1966115182594106,"10":-0.3870984215249184,"11":1.691041522264445,"12":1.1347389262969985}},{"sx":1,"sy":1,"depth":13,"w":{"0":-0.5090613043990155,"1":2.926112588304732,"2":-0.7631911648230314,"3":-0.6455449367826024,"4":1.042191548325493,"5":-1.917526407975355,"6":-0.44172217103128414,"7":0.8539953429382117,"8":-0.8640395760867469,"9":3.4009344779816635,"10":0.6538592848835353,"11":-0.5218448995230487,"12":0.803135673261721}},{"sx":1,"sy":1,"depth":13,"w":{"0":0.4114306035299918,"1":-2.3140230392716243,"2":-0.0822615066811067,"3":0.6306573112783002,"4":-0.3939374045492706,"5":0.4753685582245228,"6":-0.7499217815980437,"7":0.41516099468494677,"8":4.081281012874669,"9":-2.976442786309832,"10":-2.127810584425123,"11":-1.3959321236205713,"12":-0.552835763034036}},{"sx":1,"sy":1,"depth":13,"w":{"0":1.4566900431543202,"1":4.4387066201667,"2":2.3694553489524206,"3":-1.810380311440153,"4":0.7893410204969045,"5":-4.094823078376513,"6":0.05315101689958877,"7":-0.6209681588103816,"8":-2.5541230174133833,"9":4.645354823847697,"10":0.12051953988632542,"11":0.1937544577862169,"12":1.0429149161514306}},{"sx":1,"sy":1,"depth":13,"w":{"0":0.5369591670233892,"1":0.1644129856530699,"2":0.7111717853474707,"3":-0.13096270430121895,"4":-0.9482360046114942,"5":-0.2159970498022083,"6":0.7705361678931126,"7":-0.6544234254519362,"8":2.657262072618781,"9":-3.4943609634938877,"10":-0.2990429597939704,"11":0.126862300700353,"12":-0.977998192602268}},{"sx":1,"sy":1,"depth":13,"w":{"0":1.6839226912649023,"1":3.915747695509929,"2":-3.438555943820831,"3":1.025592594874921,"4":-1.2086193068996127,"5":-1.4797082582524894,"6":0.814570438759561,"7":-0.9648050121893362,"8":-2.9935135934657837,"9":5.393104495536439,"10":5.432207489199125,"11":1.8445733752111042,"12":-2.01381724198291}}],"biases":{"sx":1,"sy":1,"depth":13,"w":{"0":-0.9651716401710804,"1":1.1129296189330775,"2":0.7731872095622015,"3":0.4608684145363774,"4":0.4268297825687815,"5":1.0598895029867772,"6":-0.9510232341910266,"7":0.6347700977648045,"8":0.6323955874459828,"9":-0.8508730154044672,"10":0.6683484488730763,"11":-0.4089735853997461,"12":1.9039056492779969}}},{"out_depth":13,"out_sx":1,"out_sy":1,"layer_type":"sigmoid"},{"out_depth":14,"out_sx":1,"out_sy":1,"layer_type":"fc","num_inputs":13,"l1_decay_mul":0,"l2_decay_mul":1,"filters":[{"sx":1,"sy":1,"depth":13,"w":{"0":0.3578972805406184,"1":0.15409169467110517,"2":-0.13552860611275644,"3":-1.0832492645730063,"4":-1.670365202509681,"5":-0.26093871782989586,"6":1.2040800844887312,"7":-1.6506985233410998,"8":-2.435762112085685,"9":2.0495771537770366,"10":-2.376541149030774,"11":1.1259716945909406,"12":1.9154653613359691}},{"sx":1,"sy":1,"depth":13,"w":{"0":-0.7672002492176343,"1":-0.5451921452069626,"2":-0.2559905394861343,"3":-0.11820696773770549,"4":-0.0933255174447555,"5":0.02634404790929954,"6":-0.48743397013369294,"7":-0.10091689321725714,"8":0.07540926304101062,"9":-0.19630950554057655,"10":-0.22339339638386727,"11":-0.65342456640472,"12":-0.5672588947057967}},{"sx":1,"sy":1,"depth":13,"w":{"0":1.0863765490419475,"1":-2.299223735155636,"2":-1.71845450497193,"3":-1.4715418534569729,"4":-1.6184055808189644,"5":-0.08694139269338147,"6":2.121873571783296,"7":-1.5761084026504162,"8":0.06166325061956706,"9":0.9060827582612136,"10":-0.5884597030151582,"11":1.4618588343069032,"12":2.7901283701300996}},{"sx":1,"sy":1,"depth":13,"w":{"0":-2.4570055481017565,"1":3.604654732030009,"2":-0.9726880769080937,"3":-0.5251163511969885,"4":-1.295802654481438,"5":2.054580013911393,"6":-6.178847762975866,"7":-0.5315292370093663,"8":-0.5097487541580148,"9":1.217813424473014,"10":1.4090273026290725,"11":3.227539785649727,"12":-4.7982997709571515}},{"sx":1,"sy":1,"depth":13,"w":{"0":0.649832615472076,"1":0.22815922026986177,"2":-0.3724349032280631,"3":-1.0581186069120336,"4":-1.9577783218699885,"5":-0.3717417168768811,"6":2.0805635331200945,"7":-1.1122326619478082,"8":-0.7950610092535929,"9":0.2375969266812303,"10":-0.24296998482903395,"11":0.8009490027863959,"12":1.0621372525026465}},{"sx":1,"sy":1,"depth":13,"w":{"0":-0.6266344352073032,"1":3.908014554054214,"2":1.461594380285513,"3":-1.373856625242187,"4":1.077997153939245,"5":4.385283677580577,"6":-0.8284569226090992,"7":-0.9861593703693786,"8":2.555223147245795,"9":-0.9387158681366772,"10":4.096154036225532,"11":-0.04192199903139936,"12":-3.876479352955346}},{"sx":1,"sy":1,"depth":13,"w":{"0":-0.6895389374784167,"1":-0.30239706234557645,"2":-0.4465919595877562,"3":0.0033548696555555204,"4":-0.33250247246538567,"5":-0.010440413589334735,"6":-0.13307031787319748,"7":-0.3704769144683238,"8":-0.2393519318730349,"9":-0.9672221121694947,"10":-0.19105786342029477,"11":-0.3657865106079151,"12":-0.35251635288959826}},{"sx":1,"sy":1,"depth":13,"w":{"0":4.906151787164733,"1":-2.5617926044463046,"2":1.2803867839824143,"3":2.135599333538038,"4":-2.44331544323701,"5":-0.09895659103218692,"6":7.076759975479176,"7":4.008210369573242,"8":-0.9575634977333576,"9":-1.0928687652499123,"10":-2.7946722152291303,"11":-1.6429490016002182,"12":5.328928350990453}},{"sx":1,"sy":1,"depth":13,"w":{"0":-0.6460023611653019,"1":-0.7904492656022772,"2":-0.20185784964885872,"3":-0.4137446204736781,"4":-0.08937419389512091,"5":-0.33670854620710644,"6":-0.5393553317603883,"7":-0.16231437644770388,"8":-0.24172487320097338,"9":-0.39767426287681024,"10":-0.10024663881883071,"11":-0.3923577040112964,"12":-0.5048736705530145}},{"sx":1,"sy":1,"depth":13,"w":{"0":1.638480502769063,"1":-1.1828349224656736,"2":2.3999240817916005,"3":-1.3736463719258676,"4":6.25257360612535,"5":-1.3582148275057293,"6":-5.513094081418201,"7":-1.837192401351838,"8":1.053793061356404,"9":3.6107586340098137,"10":-0.7888738826839009,"11":-0.9157109351784136,"12":-2.6912491392347895}},{"sx":1,"sy":1,"depth":13,"w":{"0":-0.7755399590154528,"1":-0.493156467465701,"2":-0.2768865263093086,"3":-0.4034240591056999,"4":-0.16143511276059072,"5":0.2226999422346326,"6":-0.36457098001004884,"7":0.06411990673398571,"8":-0.43124812871200835,"9":-0.4370060277012419,"10":-0.10463547639958894,"11":-0.5790974255336838,"12":-0.3804700284687326}},{"sx":1,"sy":1,"depth":13,"w":{"0":-0.7503094265484517,"1":-0.4248831886842865,"2":-0.18838973490496846,"3":-0.09635359028001024,"4":-0.35517646245479156,"5":-0.0553648120181903,"6":-0.5737452954578767,"7":-0.33655696560996906,"8":-0.05091418601283014,"9":-0.5032343006204164,"10":-0.4153076543699302,"11":-0.5534792054874081,"12":-0.23252260731651014}},{"sx":1,"sy":1,"depth":13,"w":{"0":2.483016303859507,"1":0.5863728870878463,"2":-3.158066983599096,"3":2.2135718352282705,"4":-1.910782810413067,"5":-3.106526566213125,"6":0.7878998174877989,"7":1.2580826872072837,"8":-1.279179762664129,"9":1.3639867490594295,"10":-3.2028723998032986,"11":1.6735381438337087,"12":-2.2694968398980753}},{"sx":1,"sy":1,"depth":13,"w":{"0":-4.442851400155317,"1":-0.38358357490156525,"2":1.808393372422158,"3":3.1108298145380022,"4":4.105114649464315,"5":-0.4385742056541607,"6":1.035051742418228,"7":3.3585065682945365,"8":3.7302105989276635,"9":-4.670251508289326,"10":6.152064261252978,"11":-3.8052415755291027,"12":4.482013218668527}}],"biases":{"sx":1,"sy":1,"depth":14,"w":{"0":-0.12007252277340869,"1":-1.2198006183746883,"2":0.8981600118057227,"3":3.237916367925788,"4":0.2506093542649278,"5":0.7786429312427081,"6":-1.0953718602405573,"7":-1.7743592228516443,"8":-1.0073194836514423,"9":1.2737038420820743,"10":-1.0902101814595513,"11":-1.1784182493432398,"12":-0.25281018650063414,"13":1.2993298178740242}}},{"out_depth":14,"out_sx":1,"out_sy":1,"layer_type":"softmax","num_inputs":14}]},{"layers":[{"out_depth":2,"out_sx":1,"out_sy":1,"layer_type":"input"},{"out_depth":13,"out_sx":1,"out_sy":1,"layer_type":"fc","num_inputs":2,"l1_decay_mul":0,"l2_decay_mul":1,"filters":[{"sx":1,"sy":1,"depth":2,"w":{"0":0.862366050310068,"1":-4.608251258645813}},{"sx":1,"sy":1,"depth":2,"w":{"0":6.940572812335663,"1":-1.1042901406897352}},{"sx":1,"sy":1,"depth":2,"w":{"0":3.0937245044550528,"1":-2.360629081846013}},{"sx":1,"sy":1,"depth":2,"w":{"0":-0.5530979383141128,"1":-4.079619858365291}},{"sx":1,"sy":1,"depth":2,"w":{"0":0.9562678460609402,"1":-3.3281514633689335}},{"sx":1,"sy":1,"depth":2,"w":{"0":-3.405130666844815,"1":-3.3251297484016686}},{"sx":1,"sy":1,"depth":2,"w":{"0":-6.760064768500541,"1":2.416345282747877}},{"sx":1,"sy":1,"depth":2,"w":{"0":-1.7967793998023824,"1":-2.3792775441801983}},{"sx":1,"sy":1,"depth":2,"w":{"0":-4.831317044051656,"1":-0.18535230952579054}},{"sx":1,"sy":1,"depth":2,"w":{"0":-4.358618569283531,"1":0.328024269319715}},{"sx":1,"sy":1,"depth":2,"w":{"0":-1.3678544804511774,"1":2.6387313772499734}},{"sx":1,"sy":1,"depth":2,"w":{"0":8.076206331980242,"1":2.1379938063889563}},{"sx":1,"sy":1,"depth":2,"w":{"0":-6.218367799332366,"1":0.4615046203563796}}],"biases":{"sx":1,"sy":1,"depth":13,"w":{"0":1.2613113751462828,"1":-4.7915917492445494,"2":-6.473645887084296,"3":4.157581449858234,"4":-7.924376148049753,"5":0.6191895699558029,"6":2.5031793694983087,"7":-3.4529454286265873,"8":7.055444626366508,"9":4.48043502700042,"10":5.666117584279049,"11":7.390926717321008,"12":2.9369460680214874}}},{"out_depth":13,"out_sx":1,"out_sy":1,"layer_type":"sigmoid"},{"out_depth":13,"out_sx":1,"out_sy":1,"layer_type":"fc","num_inputs":13,"l1_decay_mul":0,"l2_decay_mul":1,"filters":[{"sx":1,"sy":1,"depth":13,"w":{"0":-3.2488123141483034,"1":-1.9617668192669282,"2":2.2347074322327223,"3":-3.9205218827126247,"4":1.71457630980674,"5":2.120687989752611,"6":5.400006999087889,"7":2.5036851932036277,"8":-5.430434358373605,"9":-2.121224630929607,"10":-0.15849577496119943,"11":4.75676288455221,"12":2.659652821437494}},{"sx":1,"sy":1,"depth":13,"w":{"0":-3.89418596862575,"1":0.32223364303568225,"2":-1.7150108557206307,"3":-2.5616867322479493,"4":-0.25171509463449043,"5":-0.10775010219424294,"6":1.055094318444494,"7":-0.5459308398698565,"8":-0.6414174756284585,"9":0.2027045541250657,"10":1.2768259449651498,"11":1.3087502164076106,"12":0.5617245029308192}},{"sx":1,"sy":1,"depth":13,"w":{"0":-1.532598735613906,"1":2.3343341575853,"2":-3.438343515705592,"3":-0.5702846152661946,"4":-1.1712592264981512,"5":-3.423164370552608,"6":-0.8053995526227345,"7":-1.30434223755058,"8":0.29352690131683873,"9":-1.3074108943621099,"10":1.8033861146845198,"11":0.8296878002387935,"12":-1.398189438925714}},{"sx":1,"sy":1,"depth":13,"w":{"0":-0.9180463594542247,"1":4.075343561047871,"2":-1.245054225631975,"3":-1.9867383952626643,"4":0.72722989363065,"5":-1.9682122927693442,"6":-0.9718417072762024,"7":-0.5688585239346806,"8":-5.581927327193195,"9":-4.511047357105382,"10":1.3801864400790624,"11":1.564498713280303,"12":-2.356536230802795}},{"sx":1,"sy":1,"depth":13,"w":{"0":-0.21743584120991044,"1":-1.4787849324517344,"2":0.5850592671224291,"3":-0.4001151203337112,"4":3.0052610094027123,"5":0.716835010969493,"6":-1.3694036776001521,"7":3.3406969919577207,"8":0.2811241863501071,"9":0.6009510843691376,"10":-2.962156510486279,"11":-1.7605627482409067,"12":0.641978822405545}},{"sx":1,"sy":1,"depth":13,"w":{"0":1.4148686038652025,"1":2.348426386302015,"2":1.297365774703361,"3":1.533101384083691,"4":1.422361143688218,"5":-0.63918974882615,"6":-4.125380153055932,"7":-0.4580286035325916,"8":0.6430666418288636,"9":-0.957738622270393,"10":-0.5421177980088249,"11":-1.0917158216804255,"12":-1.905642947869158}},{"sx":1,"sy":1,"depth":13,"w":{"0":3.0275504307705354,"1":-2.8757124443234394,"2":-2.123772654444,"3":3.1014838754552128,"4":-4.224447752529963,"5":-2.4027778570750056,"6":0.5607446529885983,"7":-0.8330845112666219,"8":-3.264221238215277,"9":0.21346501635476559,"10":2.460828026732136,"11":2.4010953891619615,"12":1.4171275347836965}},{"sx":1,"sy":1,"depth":13,"w":{"0":-0.23467706233908128,"1":2.1289678599971826,"2":2.0441310271378814,"3":-0.1515166956703211,"4":4.911741546311101,"5":1.3877809246105752,"6":-0.8735846645503985,"7":3.187064817540215,"8":-1.2024732658432637,"9":-0.903870817095129,"10":-4.279768390593245,"11":-4.34877084563663,"12":-1.9133791166695018}},{"sx":1,"sy":1,"depth":13,"w":{"0":-0.5397856229494966,"1":-0.10873306960089475,"2":1.0026201361996157,"3":-0.8429075539474096,"4":-0.7070290755229162,"5":2.3038593935648626,"6":3.0967402213976594,"7":-0.5474074896287612,"8":-2.6226335671169427,"9":0.2516334504686035,"10":-0.14474127483799643,"11":1.1748284303501155,"12":0.29581154590130265}},{"sx":1,"sy":1,"depth":13,"w":{"0":0.8639579493873741,"1":0.8061530111893508,"2":4.433835107599776,"3":0.03636639486771888,"4":2.5438904485174985,"5":3.2603652659940106,"6":0.686633858169361,"7":3.065996470372529,"8":-4.695814031449735,"9":-0.8860372354400092,"10":-2.581117265767752,"11":-0.26260812578917164,"12":0.27217228256074527}},{"sx":1,"sy":1,"depth":13,"w":{"0":0.25323075727959876,"1":-2.7105451534599765,"2":0.9417022743667194,"3":0.2702491341806302,"4":-0.3403729101750818,"5":2.00243685200114,"6":1.0593177923658736,"7":-0.790230605508027,"8":-1.644299138572919,"9":1.6581333080169929,"10":0.08571971297511598,"11":0.2597711831761596,"12":1.7420908575094471}},{"sx":1,"sy":1,"depth":13,"w":{"0":0.25636056731915535,"1":4.8863785224980685,"2":1.7903175640550666,"3":0.18752114874716952,"4":0.808076974035319,"5":0.5281954449683287,"6":-2.3088414066795817,"7":-0.6070929548580741,"8":-0.35899141220228326,"9":-1.8580754038866067,"10":-0.4077058827763195,"11":1.5357041500726916,"12":-4.008551830827081}},{"sx":1,"sy":1,"depth":13,"w":{"0":-1.1862834393432056,"1":2.8941409021646476,"2":2.0386386586346905,"3":-1.4682431639464373,"4":1.8811895680039452,"5":0.6924531575735515,"6":-0.25886543960374087,"7":0.49297330902080067,"8":-3.6229367070510623,"9":-3.9198641234284395,"10":-1.4000756769387515,"11":0.3066797704776066,"12":-2.0179689923966113}}],"biases":{"sx":1,"sy":1,"depth":13,"w":{"0":1.407470755355947,"1":1.9712326947991607,"2":0.5510298105560741,"3":2.0720114810117467,"4":-0.9225862298826765,"5":0.9328264306065083,"6":-0.1124360029947831,"7":-0.6533057061798889,"8":0.006828497731413994,"9":1.391580453151325,"10":0.11856458902260837,"11":0.39313359063211145,"12":0.6436570944592379}}},{"out_depth":13,"out_sx":1,"out_sy":1,"layer_type":"sigmoid"},{"out_depth":14,"out_sx":1,"out_sy":1,"layer_type":"fc","num_inputs":13,"l1_decay_mul":0,"l2_decay_mul":1,"filters":[{"sx":1,"sy":1,"depth":13,"w":{"0":-2.7692578855371797,"1":-1.8015805707132109,"2":-0.3967193318895109,"3":5.801125549666935,"4":0.939867591434749,"5":0.892368794070806,"6":2.3548237484056274,"7":1.669281221615727,"8":-1.466559346964541,"9":-2.960797664722313,"10":1.8566648817760807,"11":-2.321128740917341,"12":-1.5931866033868898}},{"sx":1,"sy":1,"depth":13,"w":{"0":-0.19996148424564766,"1":-0.14098639286420717,"2":-0.09218373344035173,"3":-0.33166109153301226,"4":-0.4050398313289809,"5":-0.603063480156535,"6":-0.4457973174724237,"7":-0.2432955265738648,"8":-0.07153386582603648,"9":-0.5019136105862717,"10":-0.38305805369194035,"11":-0.6936202629263459,"12":-0.20673245425864203}},{"sx":1,"sy":1,"depth":13,"w":{"0":1.5592688875683796,"1":-0.46493555544738924,"2":-1.3773802695016715,"3":-1.4678429938166575,"4":-0.22573806959022708,"5":1.174609899584666,"6":-1.301281395041394,"7":2.1130884204855014,"8":-1.7398891195021584,"9":2.8549974548322417,"10":-1.8636853334224095,"11":0.7967328998769406,"12":-2.1183030797751146}},{"sx":1,"sy":1,"depth":13,"w":{"0":-4.509498555227268,"1":1.9267734784508779,"2":2.709342394431345,"3":0.21018977804771952,"4":0.8507204112565786,"5":2.6500286744863932,"6":-4.0159909792985475,"7":1.1012132149030744,"8":1.1973584264486594,"9":-0.6307095022000309,"10":1.1330708325791539,"11":3.6555716737261803,"12":0.3060522426850838}},{"sx":1,"sy":1,"depth":13,"w":{"0":-1.3516906921145262,"1":-0.7842453782377677,"2":-2.778852527283835,"3":-1.7748012161576454,"4":-3.5027121974630715,"5":1.2779256295357069,"6":-2.1783489346565226,"7":-3.152862402809502,"8":-0.0999161903146393,"9":2.1653986999397423,"10":-0.21084008296972925,"11":2.39090689906617,"12":-1.198313611604302}},{"sx":1,"sy":1,"depth":13,"w":{"0":-4.829042404238585,"1":-4.370593571745839,"2":2.9701047615288174,"3":-6.129003319948973,"4":2.998025636361924,"5":2.0471776351773907,"6":4.198159487511003,"7":-0.46617822754835586,"8":-1.9895805369649997,"9":3.1249472408846084,"10":-2.5742152963919755,"11":-1.9433621491382373,"12":5.930946501847551}},{"sx":1,"sy":1,"depth":13,"w":{"0":-0.09793430009340412,"1":-0.05486382786442857,"2":-0.11254059438182064,"3":-0.20200354727248798,"4":-0.4076718604962523,"5":-0.7325218776646325,"6":-0.41507268052133917,"7":-0.21242570555751739,"8":-0.17609227177710046,"9":-0.5057837812665193,"10":-0.4852055262134231,"11":-0.5707329124938477,"12":-0.2269947379926086}},{"sx":1,"sy":1,"depth":13,"w":{"0":0.09819645834824725,"1":0.27305447266762767,"2":0.03625850188972854,"3":3.962714032824376,"4":2.398640337686224,"5":0.8937274596107184,"6":-2.375517772360154,"7":5.185575272380474,"8":-0.5197316395771383,"9":-3.6154158504398164,"10":0.7330360850774721,"11":3.988239910357502,"12":-2.4826560852417483}},{"sx":1,"sy":1,"depth":13,"w":{"0":-0.30775266964714987,"1":-0.19177537488468724,"2":-0.14235822936276568,"3":-0.12987577078447854,"4":-0.34014479158634126,"5":-0.6479997676493556,"6":-0.288056388692782,"7":-0.2633737045872218,"8":-0.2609161551886036,"9":-0.39980875002113553,"10":-0.4964581140466819,"11":-0.6522530328905068,"12":-0.16322250518681694}},{"sx":1,"sy":1,"depth":13,"w":{"0":3.764470620971857,"1":2.318456481228716,"2":-1.1723983527703414,"3":-0.06329767889858486,"4":1.8305426844805457,"5":1.1331602569017836,"6":1.3317886155011005,"7":0.4009986215569106,"8":-0.009051287632510886,"9":-3.384368145335661,"10":0.7615479734802988,"11":-0.4884062134957497,"12":1.2548321986158197}},{"sx":1,"sy":1,"depth":13,"w":{"0":1.8723117810759313,"1":3.0512077908480992,"2":-0.20140669210397366,"3":-3.297661821216418,"4":-1.429675957392183,"5":-0.5455290804009767,"6":-1.2054817503703281,"7":-3.8490089138478294,"8":1.5414309972970244,"9":3.9623861947293304,"10":0.5217472089015325,"11":-0.5723472829129025,"12":-1.5678615540999774}},{"sx":1,"sy":1,"depth":13,"w":{"0":-0.2459388892721204,"1":-0.061348498684811945,"2":-0.21994168750649576,"3":-0.26644608423274846,"4":-0.41831020886885795,"5":-0.533950670534834,"6":-0.2803940696337755,"7":-0.14837120521582306,"8":-0.26595415860539534,"9":-0.5776445197804376,"10":-0.43491508769297516,"11":-0.7131402895714154,"12":-0.08220862225832827}},{"sx":1,"sy":1,"depth":13,"w":{"0":-2.0358987448482955,"1":0.9576238241970764,"2":5.071418902569029,"3":-0.7975418106336983,"4":-0.6872267936726898,"5":-2.1578191314211703,"6":1.9806732771380584,"7":-0.32799057596396264,"8":0.10777919876207465,"9":-2.4943793320437297,"10":-0.5924911176960056,"11":-0.1256016873138196,"12":-2.097828362126794}},{"sx":1,"sy":1,"depth":13,"w":{"0":8.777709876083073,"1":-0.30242770712925676,"2":-4.701316338890205,"3":4.606493900983168,"4":-2.241004790453847,"5":-5.010512781930228,"6":2.532673610673254,"7":-1.4819460167029836,"8":4.030269769855551,"9":3.057577145746762,"10":1.1726201138203503,"11":-3.307158783980749,"12":4.149079344008633}}],"biases":{"sx":1,"sy":1,"depth":14,"w":{"0":1.213182250836015,"1":-1.4691953616656301,"2":1.0037597957465807,"3":0.3160396999996419,"4":0.6178186349909566,"5":1.0588876073912834,"6":-1.418462870419367,"7":0.17715232050241012,"8":-1.5441844009484722,"9":0.497197259894313,"10":1.847599237899144,"11":-1.5276308841146744,"12":-0.25879223666619533,"13":-0.5133710534461045}}},{"out_depth":14,"out_sx":1,"out_sy":1,"layer_type":"softmax","num_inputs":14}]},{"layers":[{"out_depth":2,"out_sx":1,"out_sy":1,"layer_type":"input"},{"out_depth":13,"out_sx":1,"out_sy":1,"layer_type":"fc","num_inputs":2,"l1_decay_mul":0,"l2_decay_mul":1,"filters":[{"sx":1,"sy":1,"depth":2,"w":{"0":-4.406348487548397,"1":1.0197419716530267}},{"sx":1,"sy":1,"depth":2,"w":{"0":-1.718662805474965,"1":0.8738407296166141}},{"sx":1,"sy":1,"depth":2,"w":{"0":4.271134876120265,"1":5.531974234809469}},{"sx":1,"sy":1,"depth":2,"w":{"0":-3.265810341977186,"1":1.0708727479415119}},{"sx":1,"sy":1,"depth":2,"w":{"0":-3.0455528925231614,"1":-1.1037857087708163}},{"sx":1,"sy":1,"depth":2,"w":{"0":-3.045603814658571,"1":-0.9111885366115384}},{"sx":1,"sy":1,"depth":2,"w":{"0":1.2059237892737076,"1":4.841978386859591}},{"sx":1,"sy":1,"depth":2,"w":{"0":3.138079141733375,"1":-2.489394626207547}},{"sx":1,"sy":1,"depth":2,"w":{"0":-1.833279158194457,"1":-3.075246305408845}},{"sx":1,"sy":1,"depth":2,"w":{"0":3.272017037236537,"1":-5.824994286041181}},{"sx":1,"sy":1,"depth":2,"w":{"0":4.3763077186853145,"1":0.36568967908435657}},{"sx":1,"sy":1,"depth":2,"w":{"0":0.09829027748194981,"1":-4.1136034541054265}},{"sx":1,"sy":1,"depth":2,"w":{"0":-2.3383158585086563,"1":2.205034866394212}}],"biases":{"sx":1,"sy":1,"depth":13,"w":{"0":2.69494847565387,"1":4.437315656163374,"2":-1.6918132986769143,"3":-4.9713275463851545,"4":-1.7158459130080566,"5":-1.2109965540074412,"6":2.622513269510061,"7":-2.924967007051335,"8":2.762904453421047,"9":0.7309742566553556,"10":-1.1669712343209633,"11":9.300563234705844,"12":3.5262145151245456}}},{"out_depth":13,"out_sx":1,"out_sy":1,"layer_type":"sigmoid"},{"out_depth":13,"out_sx":1,"out_sy":1,"layer_type":"fc","num_inputs":13,"l1_decay_mul":0,"l2_decay_mul":1,"filters":[{"sx":1,"sy":1,"depth":13,"w":{"0":0.19112646544341388,"1":-1.4573306567689337,"2":-2.1441404402152466,"3":2.7661934406040762,"4":1.689604516505804,"5":0.9268207748274901,"6":-0.6702626910240906,"7":-1.0838040092702443,"8":-0.08498874785196175,"9":2.038902937791718,"10":4.3749779932492086,"11":-5.732005603631063,"12":0.514700191169063}},{"sx":1,"sy":1,"depth":13,"w":{"0":-1.2684081790507364,"1":2.2041537955301753,"2":1.0323595064541833,"3":-0.2678398817587059,"4":-1.0567565499757263,"5":-0.5824138410572349,"6":-0.3416416826666335,"7":-0.5519276347419996,"8":1.8685483421257167,"9":-1.4580087421119965,"10":-1.9374975226489675,"11":2.1190360989148127,"12":0.036391320297860616}},{"sx":1,"sy":1,"depth":13,"w":{"0":1.6600585809333976,"1":-1.9732866955110573,"2":-1.7141252004974876,"3":0.46538620236935396,"4":1.3702605761744424,"5":1.4023594270416628,"6":1.0152679239359947,"7":-0.7439697910938232,"8":-1.721601664320461,"9":2.5040953126587397,"10":3.284583955764216,"11":-2.7122254692899426,"12":-1.45004951930625}},{"sx":1,"sy":1,"depth":13,"w":{"0":-0.8838211888957385,"1":2.646581061085686,"2":4.190430783842218,"3":-0.3972404238261788,"4":-1.1092498630205458,"5":-0.7327628059777586,"6":1.3172987066002242,"7":0.6026530408738492,"8":-0.8560538759420961,"9":-0.6598260776872134,"10":-1.6451803050756233,"11":0.27702719383408014,"12":-0.4061567266292758}},{"sx":1,"sy":1,"depth":13,"w":{"0":1.4575450394411273,"1":0.1774665861404361,"2":0.5276282417377143,"3":1.635835188889587,"4":1.9639152843047245,"5":2.2150466426938786,"6":-1.0723854852355383,"7":-0.8912296341571556,"8":-1.4850302979836476,"9":0.04529155887251188,"10":-2.3487346673973355,"11":-3.263517407894543,"12":0.430682306168828}},{"sx":1,"sy":1,"depth":13,"w":{"0":0.5437371916039593,"1":-0.7455304115086806,"2":-1.5269083524860392,"3":0.02729603504953191,"4":0.6317895200499904,"5":0.2923650138417657,"6":-0.0648341995172304,"7":2.616657209255193,"8":-0.04575744338689601,"9":3.125052450403821,"10":-0.18600172408047508,"11":-0.3498445647954841,"12":-3.066080441642525}},{"sx":1,"sy":1,"depth":13,"w":{"0":-0.22418906510349265,"1":2.127031386894918,"2":1.7444274684701802,"3":-0.9183079815405001,"4":-1.19548362173884,"5":-0.636034806512077,"6":0.905486501889732,"7":-0.19699067284672422,"8":-0.3166271055927989,"9":-0.6550124659389711,"10":-0.9166593034232843,"11":0.7652074000394496,"12":0.2527600385510235}},{"sx":1,"sy":1,"depth":13,"w":{"0":0.3815943635573082,"1":-0.05713869397714939,"2":-0.4296990681577961,"3":4.727712224950774,"4":1.0675943070763,"5":0.6171602576590272,"6":-0.7629290643198303,"7":0.6071869088581887,"8":1.993052462267493,"9":2.1926444814941326,"10":0.15706319851059775,"11":-3.959998159603569,"12":-2.330735079739728}},{"sx":1,"sy":1,"depth":13,"w":{"0":-0.22474156298453743,"1":0.5994351123111824,"2":0.6670224135437179,"3":-0.3704937830069424,"4":-3.232362317605486,"5":-3.5659763418665387,"6":0.44944438192323233,"7":2.948947101179128,"8":-2.6463410125676172,"9":-3.3452216515929116,"10":-0.19752669599871725,"11":-5.120734095628576,"12":2.572375466864767}},{"sx":1,"sy":1,"depth":13,"w":{"0":0.6517763382463474,"1":-0.41102875743609135,"2":-1.228521104265923,"3":1.8491407138476075,"4":0.6173942457186472,"5":-0.05605587950503415,"6":0.8057975331100872,"7":-0.31171177900358865,"8":0.6287520800711094,"9":2.6501967528072163,"10":1.531617856668047,"11":-2.4681511513109045,"12":-0.5521471293232781}},{"sx":1,"sy":1,"depth":13,"w":{"0":1.233178332715323,"1":0.6137700968316201,"2":2.4015922826586458,"3":-0.2281060096529699,"4":0.6696693169882751,"5":0.5002514767167093,"6":4.4337766125757385,"7":-0.7855221955597183,"8":-1.3169490994747346,"9":-1.8652085187845746,"10":-1.5247697076984321,"11":0.4286085927015651,"12":3.3207507694581637}},{"sx":1,"sy":1,"depth":13,"w":{"0":5.968619463543148,"1":-0.5418400080537199,"2":-2.081615048316703,"3":0.9144828999898899,"4":1.5367957017432445,"5":1.1901440391483058,"6":-3.2236853147967577,"7":-1.6339083949479694,"8":1.0877551805718806,"9":1.9316749143134042,"10":-1.9117823580004236,"11":0.47469262520654965,"12":0.8200548560480136}},{"sx":1,"sy":1,"depth":13,"w":{"0":1.349695502899717,"1":0.5970967729850443,"2":0.7003406854810695,"3":0.2882219886613035,"4":0.984460521818936,"5":0.9827688400249641,"6":1.339080448287478,"7":-3.3536529839634492,"8":-2.4007863480258247,"9":2.2890201703577104,"10":-0.3190544709765164,"11":-1.9091189323824729,"12":0.31776306195148535}}],"biases":{"sx":1,"sy":1,"depth":13,"w":{"0":2.022339088486637,"1":-0.9794776822481628,"2":0.6909417303618375,"3":-0.46972907586054113,"4":0.8558351893603989,"5":0.2940224154722178,"6":-0.22332392789344566,"7":1.0723127180006662,"8":-0.0034219870110837576,"9":0.820214227416825,"10":0.1837740667880416,"11":2.343290316121811,"12":0.4520396011454252}}},{"out_depth":13,"out_sx":1,"out_sy":1,"layer_type":"sigmoid"},{"out_depth":14,"out_sx":1,"out_sy":1,"layer_type":"fc","num_inputs":13,"l1_decay_mul":0,"l2_decay_mul":1,"filters":[{"sx":1,"sy":1,"depth":13,"w":{"0":0.05170044378106049,"1":-0.2823887863278446,"2":-0.6577070757590209,"3":-0.683990007626932,"4":-0.040508153134875984,"5":-0.4646856465739634,"6":-0.41322251331136267,"7":-0.19589041539101013,"8":-0.17491058422991415,"9":-0.08638803184324376,"10":-0.506714184565518,"11":-0.5128039694555372,"12":-0.3370717685328107}},{"sx":1,"sy":1,"depth":13,"w":{"0":-0.20834108249789723,"1":-0.6508020781908468,"2":-0.3305770571042307,"3":-0.4536548006651647,"4":-0.16741638272517398,"5":-0.0212138568401211,"6":-0.49482344391977595,"7":-0.26127951051366693,"8":-0.21372761327803166,"9":-0.19743356432498368,"10":-0.48547534999731,"11":0.1741106169075288,"12":-0.2784535102335588}},{"sx":1,"sy":1,"depth":13,"w":{"0":-2.02849667235883,"1":-0.036852988614041106,"2":-1.2165667274397243,"3":0.48599084328242564,"4":2.1270130813716235,"5":-0.3394311361294681,"6":0.36464911669337385,"7":-1.5218733646138776,"8":7.650862700311106,"9":-0.4570588191583232,"10":0.25412006362243755,"11":3.18720844285805,"12":-3.0232343536170476}},{"sx":1,"sy":1,"depth":13,"w":{"0":-0.2952330849951306,"1":0.6354324571924741,"2":0.6641485079700122,"3":0.5288190822685982,"4":0.4340996604030422,"5":-0.2646304123353789,"6":0.10100025128705825,"7":-2.099216182273157,"8":0.5038977352473525,"9":-0.3711108934124231,"10":1.672160284308039,"11":-1.5888016042488073,"12":3.4577053761963525}},{"sx":1,"sy":1,"depth":13,"w":{"0":0.18179756068717265,"1":-0.26314671851552685,"2":-0.4574647655915737,"3":-0.5735608543877603,"4":-0.43151230481086933,"5":-0.5075342634286604,"6":-0.47490018491511143,"7":0.08462194374813464,"8":-0.16618632087577714,"9":-0.037723502695783145,"10":-0.35986242680612873,"11":0.03629457273436586,"12":-0.5242043386874894}},{"sx":1,"sy":1,"depth":13,"w":{"0":3.5840765932736613,"1":0.23026661948192192,"2":-0.14528641991856106,"3":3.5993391945027766,"4":-1.6414343550934551,"5":-2.6208743500435596,"6":1.8185147060279268,"7":4.645009426089202,"8":1.513815961894183,"9":2.8972188469493783,"10":-5.054914321454776,"11":3.5535125812888397,"12":0.2521404273187531}},{"sx":1,"sy":1,"depth":13,"w":{"0":-0.15675450222444962,"1":-0.28188608407473176,"2":-0.2596637537800275,"3":-0.8225763113845518,"4":-0.06989916400904651,"5":0.05695486460755535,"6":-0.8411222593403382,"7":-0.3446680568590875,"8":-0.15410021396968096,"9":-0.19935399884982213,"10":-0.029471569169385,"11":-0.2752797119513369,"12":-0.3716752501283283}},{"sx":1,"sy":1,"depth":13,"w":{"0":-1.72532027079871,"1":0.6045448688870282,"2":0.6394342574448194,"3":-1.450034096698302,"4":4.745501871447158,"5":3.6416082245454677,"6":0.6640765643532276,"7":-3.1350237734414264,"8":-5.930373207565199,"9":-0.3445829269975936,"10":3.0330420092607944,"11":-0.02664623746607901,"12":1.0675761714168768}},{"sx":1,"sy":1,"depth":13,"w":{"0":-0.23493623055550183,"1":-0.5235782428821071,"2":-0.35823470819815234,"3":-0.654508117433074,"4":-0.17545138561101997,"5":-0.08098815339214456,"6":-0.5131595929334571,"7":-0.11842825948942326,"8":-0.29902680780911506,"9":-0.16504143065410773,"10":-0.396134067679449,"11":-0.19303026500446147,"12":-0.4984828017676874}},{"sx":1,"sy":1,"depth":13,"w":{"0":-3.2315000689080744,"1":3.213139664378157,"2":-1.251274811202259,"3":2.446727901714736,"4":-2.294563684732142,"5":1.06244202690966,"6":2.1178638983607794,"7":3.3787165580784917,"8":0.649703800954122,"9":0.12702973929487818,"10":-1.7015808222692674,"11":-4.631675553882327,"12":-1.9967367479425226}},{"sx":1,"sy":1,"depth":13,"w":{"0":-0.14774801567109092,"1":-0.5571272340798729,"2":-0.17717560425129994,"3":-0.4538647976870054,"4":-0.5614988719369594,"5":-0.27894718722837136,"6":-0.8082982082281387,"7":-0.28087235108458425,"8":-0.15892411407623228,"9":0.17606318563322423,"10":-0.04158147235588055,"11":-0.28970048832753625,"12":-0.5121578949730466}},{"sx":1,"sy":1,"depth":13,"w":{"0":-0.2542981672124889,"1":-0.6049227118618007,"2":-0.30056116517115344,"3":-0.6681575439606409,"4":0.14869884010026527,"5":-0.5715852412141338,"6":-0.3722226504748732,"7":-0.21114293011080548,"8":-0.513612978483834,"9":0.1720641635715073,"10":-0.18605844335627478,"11":-0.18159115090959993,"12":-0.48120966964002854}},{"sx":1,"sy":1,"depth":13,"w":{"0":-1.7270181738471126,"1":2.2479215229071166,"2":-2.252930682359694,"3":0.7061388240301689,"4":-1.7194566974903027,"5":-2.358998174668539,"6":0.9264773756814285,"7":-0.9478856572341646,"8":-0.5888234771275485,"9":-2.656837324181345,"10":1.3099945180533055,"11":-3.806973593050901,"12":0.3568956577101934}},{"sx":1,"sy":1,"depth":13,"w":{"0":6.264834854579151,"1":-3.236556932265844,"2":5.657767186514621,"3":-2.955740626664329,"4":-1.0481323839032055,"5":2.6909318526467705,"6":-2.2773184779934934,"7":1.0796677118566416,"8":-0.8927692587986414,"9":2.5499961034379295,"10":2.884687253599795,"11":4.678573971415497,"12":2.1161183362687295}}],"biases":{"sx":1,"sy":1,"depth":14,"w":{"0":-0.7182792745166774,"1":-0.9409377637609345,"2":-0.45576509134578475,"3":0.4455794650713906,"4":-1.0603907298653554,"5":0.6015504806605241,"6":-0.9118241169839736,"7":1.1420580548045978,"8":-0.6289198505314155,"9":1.7033519099894645,"10":-0.9386116888311921,"11":-0.8071579921739573,"12":0.8828871809347477,"13":1.6864594165485567}}},{"out_depth":14,"out_sx":1,"out_sy":1,"layer_type":"softmax","num_inputs":14}]},{"layers":[{"out_depth":2,"out_sx":1,"out_sy":1,"layer_type":"input"},{"out_depth":13,"out_sx":1,"out_sy":1,"layer_type":"fc","num_inputs":2,"l1_decay_mul":0,"l2_decay_mul":1,"filters":[{"sx":1,"sy":1,"depth":2,"w":{"0":-0.9775751874286065,"1":3.742806051436908}},{"sx":1,"sy":1,"depth":2,"w":{"0":1.1288181618634752,"1":-5.934332818902036}},{"sx":1,"sy":1,"depth":2,"w":{"0":-4.761285031596219,"1":2.370724538601935}},{"sx":1,"sy":1,"depth":2,"w":{"0":-7.249096763070325,"1":-1.021231189652735}},{"sx":1,"sy":1,"depth":2,"w":{"0":-0.07292321066908442,"1":-6.742659259715306}},{"sx":1,"sy":1,"depth":2,"w":{"0":2.371335508340853,"1":-5.1785960014971995}},{"sx":1,"sy":1,"depth":2,"w":{"0":-3.338481674202963,"1":2.1778359891562067}},{"sx":1,"sy":1,"depth":2,"w":{"0":3.7921535052408863,"1":-4.967661150982648}},{"sx":1,"sy":1,"depth":2,"w":{"0":4.749957546633599,"1":1.8049153038536532}},{"sx":1,"sy":1,"depth":2,"w":{"0":-0.6519669231085702,"1":2.404353838698948}},{"sx":1,"sy":1,"depth":2,"w":{"0":1.240074802743886,"1":4.518220217105913}},{"sx":1,"sy":1,"depth":2,"w":{"0":0.3206566582635878,"1":-5.958524105833882}},{"sx":1,"sy":1,"depth":2,"w":{"0":-3.9055232060788714,"1":0.7726463749118017}}],"biases":{"sx":1,"sy":1,"depth":13,"w":{"0":4.490467829439119,"1":-4.889322052300635,"2":-2.6365182152644713,"3":-3.5614593042455347,"4":-2.38604448804658,"5":-1.3452968320855807,"6":3.293874777987725,"7":2.5958787770225142,"8":-3.953716407358079,"9":-0.1332458699020451,"10":-1.4367760013328312,"11":-1.6187141122886415,"12":1.580864165214724}}},{"out_depth":13,"out_sx":1,"out_sy":1,"layer_type":"sigmoid"},{"out_depth":13,"out_sx":1,"out_sy":1,"layer_type":"fc","num_inputs":13,"l1_decay_mul":0,"l2_decay_mul":1,"filters":[{"sx":1,"sy":1,"depth":13,"w":{"0":1.9425259278321438,"1":-2.7169264915116527,"2":-0.4488396808135621,"3":-3.037132993165457,"4":-0.3252839623348707,"5":-0.017053532959122285,"6":-0.49963675991979756,"7":-0.08395336659633076,"8":3.384545058251852,"9":0.7077511121582012,"10":1.383446174483272,"11":-0.2582652377561435,"12":-0.27276353433892475}},{"sx":1,"sy":1,"depth":13,"w":{"0":0.023372220088450017,"1":-0.4150167898980382,"2":0.14850096740785657,"3":-0.4361360091899241,"4":-0.4235118151385592,"5":-2.813944559374339,"6":-0.8396355222516992,"7":-0.228950999022819,"8":-0.11256570659559062,"9":1.5796834191131235,"10":0.08788520659050175,"11":-0.6654372219366338,"12":-0.165561138987693}},{"sx":1,"sy":1,"depth":13,"w":{"0":1.4148219096567964,"1":-0.9764887087943787,"2":0.5594664564102129,"3":-0.5624015796072508,"4":-1.4968167924017293,"5":-4.727050057609441,"6":0.22346281673015214,"7":-1.6175930954752686,"8":0.06706471347077156,"9":2.570053278362175,"10":1.679413593750033,"11":-1.9319482821249385,"12":0.4498928006075099}},{"sx":1,"sy":1,"depth":13,"w":{"0":-3.1707360414053567,"1":0.982879930646039,"2":3.490588651766405,"3":-3.6671415970696226,"4":4.797023559646483,"5":-1.1887464041643065,"6":0.22700893282836773,"7":-1.7110898708569044,"8":-1.1462054141929274,"9":-1.3025824817556213,"10":-3.646942049190928,"11":3.727753552891581,"12":-0.1721193472327466}},{"sx":1,"sy":1,"depth":13,"w":{"0":-0.0870562289587051,"1":0.9000952976101834,"2":1.825296463070147,"3":1.0220586579363686,"4":-0.9728976979788686,"5":-1.3686658279957196,"6":0.3749081577008537,"7":-6.681510637810951,"8":-0.5085555008553376,"9":-0.11852349984286788,"10":0.474993717726989,"11":-1.0772286012110046,"12":1.3835441319033677}},{"sx":1,"sy":1,"depth":13,"w":{"0":-1.7466458418099002,"1":2.3571851211396497,"2":0.2665958425496263,"3":0.44753323505341364,"4":4.597369863044442,"5":-0.3335095363868237,"6":1.0445402090804028,"7":0.0597910827889312,"8":-2.930667746211975,"9":-0.7910065019143849,"10":-3.6402651390181506,"11":4.548900306004702,"12":0.8763783878780148}},{"sx":1,"sy":1,"depth":13,"w":{"0":0.27936459038524064,"1":1.304239595374314,"2":-0.9240457436054532,"3":-1.7167652761350305,"4":2.007628757459718,"5":0.08691581471964835,"6":-0.9413220947840091,"7":1.4208233399458574,"8":2.5752846234066964,"9":0.07696847320916654,"10":0.21234384336979417,"11":1.4223353146871207,"12":-2.2036685592472196}},{"sx":1,"sy":1,"depth":13,"w":{"0":1.026487453695532,"1":-1.5443052619746604,"2":0.9099491025946664,"3":0.10968331390242023,"4":0.1836017225554258,"5":-2.229375913439082,"6":2.320221241865497,"7":-0.12754634533164505,"8":0.12810691771294788,"9":-0.25251141548321293,"10":-0.7139100556566784,"11":0.4171294259828533,"12":-0.3770087761311852}},{"sx":1,"sy":1,"depth":13,"w":{"0":2.6658252201657744,"1":-4.541008720770745,"2":2.6328138938545687,"3":1.2825836121171004,"4":-2.3173817898042053,"5":1.4192606288982332,"6":0.08118452462885416,"7":-0.7680384605367165,"8":-2.879385303459693,"9":2.5318896710988508,"10":0.7715791560814496,"11":-3.5926190657115953,"12":1.662648348881264}},{"sx":1,"sy":1,"depth":13,"w":{"0":-2.283018507709938,"1":4.259981053307835,"2":-1.1852306911899622,"3":-3.4197955072627475,"4":1.1895913615936784,"5":-1.1745625716010004,"6":-4.093069447511161,"7":3.0673911317682694,"8":2.7994917461669298,"9":-0.6704247883039687,"10":1.9113568386505788,"11":0.36233952993919033,"12":-2.7302263740112567}},{"sx":1,"sy":1,"depth":13,"w":{"0":1.930121769989644,"1":-1.5081575013254154,"2":-0.508455692022516,"3":-0.032636600123883905,"4":1.3263666660868958,"5":-0.24090839142370438,"6":0.8756586927135882,"7":-0.5849916225153772,"8":3.3712123530720466,"9":-1.3513881316470224,"10":-1.3408485830078876,"11":1.2539263854618634,"12":-0.8226286044638994}},{"sx":1,"sy":1,"depth":13,"w":{"0":-4.489378743614613,"1":1.7136469765851554,"2":2.9293139717992758,"3":1.0239195181274456,"4":1.7242317717860658,"5":-0.13629396260347065,"6":-1.0783912072571045,"7":-1.7187139614624403,"8":1.2788692926857639,"9":-1.7283010301721744,"10":-3.017849630502127,"11":0.6250547208647801,"12":-3.1298813981696045}},{"sx":1,"sy":1,"depth":13,"w":{"0":-1.7546491271750877,"1":2.5631689816178236,"2":-2.4469041488036853,"3":5.437315592990305,"4":-2.587712610356439,"5":-0.33492147872709016,"6":3.4400533292360707,"7":-0.5076302686389718,"8":0.14087775838861338,"9":-2.1137639199258462,"10":2.430060218848234,"11":-3.2225359802850546,"12":1.1917267157771068}}],"biases":{"sx":1,"sy":1,"depth":13,"w":{"0":-0.20847715849032133,"1":-0.4226731779042534,"2":1.0783117082538782,"3":-0.754893231606745,"4":0.8857833269378881,"5":0.14242273099063676,"6":-0.022682920350746996,"7":-0.46682308838315145,"8":-0.7757959325167819,"9":-0.44769680633125036,"10":-1.279027936596018,"11":0.029253349178474507,"12":-0.19067647543140223}}},{"out_depth":13,"out_sx":1,"out_sy":1,"layer_type":"sigmoid"},{"out_depth":14,"out_sx":1,"out_sy":1,"layer_type":"fc","num_inputs":13,"l1_decay_mul":0,"l2_decay_mul":1,"filters":[{"sx":1,"sy":1,"depth":13,"w":{"0":-0.4924804383224944,"1":-1.6510904994087539,"2":0.0889629390148568,"3":-0.2411352098820092,"4":-0.05316912240257317,"5":3.15618613965707,"6":-1.4469674729092754,"7":-2.37153545673515,"8":3.5011927872944564,"9":4.877807163747248,"10":-0.3520534248388519,"11":-2.0069656978763493,"12":0.5624223086057724}},{"sx":1,"sy":1,"depth":13,"w":{"0":-0.6036794470351954,"1":-0.3589585578328496,"2":-0.07357300187089826,"3":-0.34840963514929424,"4":-5.053988239135508e-7,"5":-0.18598800711058924,"6":-0.26178382678294454,"7":-0.31268982746817275,"8":-0.23643452808319598,"9":-0.23967160824904005,"10":-0.5556951104655277,"11":-0.24307844109559343,"12":-0.2938745426832579}},{"sx":1,"sy":1,"depth":13,"w":{"0":-1.1628960929478518,"1":0.38200245579801445,"2":-0.762430197097509,"3":-2.116017995440905,"4":-0.14407469549211016,"5":1.59080386110604,"6":-1.385409027565755,"7":0.42770579641481493,"8":2.239886346997039,"9":-1.878020398528331,"10":0.04412428640656059,"11":-0.32097843190919717,"12":1.5022074630438635}},{"sx":1,"sy":1,"depth":13,"w":{"0":-2.745499560676669,"1":-1.0871728292496547,"2":-1.5890504148954492,"3":-0.7657923392497837,"4":0.7457049705746475,"5":-2.816490295973598,"6":0.7584972697917962,"7":2.6858007732039586,"8":-1.5778207402436706,"9":2.1127719626596586,"10":3.3259095511435177,"11":3.4206784079883503,"12":3.5863759501125902}},{"sx":1,"sy":1,"depth":13,"w":{"0":0.8144130794391284,"1":-0.32096053055041607,"2":-2.5864084817522466,"3":1.0389490242634505,"4":-0.2633289260061543,"5":-0.08029351019933412,"6":1.5509762155172426,"7":-0.02450047935703985,"8":-2.7594827112185687,"9":1.3920786507231497,"10":1.088091619755116,"11":-4.222589330348359,"12":-3.431398410432427}},{"sx":1,"sy":1,"depth":13,"w":{"0":3.2626521032642612,"1":1.0165199280553192,"2":-3.6623820276746586,"3":6.886309054863829,"4":-4.3221880158401325,"5":-3.1111433581881056,"6":4.065588607618204,"7":0.28916091767640245,"8":4.112257400108767,"9":-5.737402580568951,"10":2.7794287957090877,"11":1.854369582609394,"12":-2.344135260311698}},{"sx":1,"sy":1,"depth":13,"w":{"0":-0.3985758010053177,"1":-0.39894473067070924,"2":-0.12882990492669535,"3":-0.014941258705813816,"4":0.0434395491799845,"5":-0.46122779410399495,"6":-0.38412552079296314,"7":-0.1985825680383709,"8":-0.21744938089034166,"9":-0.3842496361995184,"10":-0.47328245380293965,"11":-0.17123516782336132,"12":-0.3303983457944609}},{"sx":1,"sy":1,"depth":13,"w":{"0":0.6099968518483558,"1":1.7007116814573742,"2":2.3649002390326017,"3":-4.8299550760976375,"4":-0.9930265574288983,"5":5.527976766094278,"6":1.583998626611861,"7":-0.1951391509148185,"8":-3.4689166666757765,"9":-0.08732226453396193,"10":0.17893476197879482,"11":-4.047717540613868,"12":1.4712467461640886}},{"sx":1,"sy":1,"depth":13,"w":{"0":-0.4345238013446914,"1":-0.2833216190824527,"2":-0.26380599230564217,"3":-0.30470743562392016,"4":-0.10483537637700582,"5":-0.4572356694191764,"6":-0.1356834290741066,"7":-0.2514360527732271,"8":-0.26863581452650753,"9":-0.4723018075865165,"10":-0.6157558307905038,"11":-0.17147359881049892,"12":-0.09088224925424931}},{"sx":1,"sy":1,"depth":13,"w":{"0":-0.337393974537642,"1":-0.43448590702089823,"2":-0.10170880233286189,"3":-0.009453888027952325,"4":-0.0733077348713585,"5":-0.36028845279070176,"6":-0.4311839447801231,"7":-0.5375716728888404,"8":-0.3845555430542309,"9":-0.24445721597611475,"10":-0.4830637593865913,"11":-0.07420213018518942,"12":-0.06249927537489702}},{"sx":1,"sy":1,"depth":13,"w":{"0":-0.5325190456100988,"1":-0.361416463881129,"2":-0.10425994948762532,"3":-0.20308759233794166,"4":-0.10445535160781574,"5":-0.456437739454392,"6":-0.45390792654559337,"7":-0.3841983957522857,"8":-0.24133467194889693,"9":-0.04408628007572387,"10":-0.23254313042067226,"11":-0.2809122738326435,"12":-0.42315761757849335}},{"sx":1,"sy":1,"depth":13,"w":{"0":-0.031802019546204596,"1":-0.2876732105775916,"2":-0.12267822284197197,"3":-0.23793076015017856,"4":-0.02946080617320681,"5":-0.4061778971875007,"6":-0.6631182980919245,"7":-0.0020740854568281346,"8":-0.46220359957179086,"9":-0.3443824854389727,"10":-0.4496653311078554,"11":-0.35505843011466187,"12":-0.1897279943128805}},{"sx":1,"sy":1,"depth":13,"w":{"0":-0.3570042735862675,"1":1.372536073108409,"2":2.9859223730048625,"3":-0.687628234557413,"4":-0.4625033739575051,"5":-1.7167502834572563,"6":-0.06324090962293413,"7":0.7659928121950068,"8":0.30898996023140096,"9":1.873670443756189,"10":-1.244081602341438,"11":-0.5260436344379419,"12":-0.3071846731961145}},{"sx":1,"sy":1,"depth":13,"w":{"0":2.534790867088815,"1":0.36584477911358587,"2":3.584798841525978,"3":2.568743165160082,"4":6.133377478183852,"5":0.004802540098540394,"6":-1.3199654851952207,"7":-0.9924891680228595,"8":-0.8383298654780901,"9":-0.9591516018505758,"10":-2.7946895435623684,"11":6.324267850855858,"12":0.6751994214904222}}],"biases":{"sx":1,"sy":1,"depth":14,"w":{"0":-0.27225839736000146,"1":-1.1781888053067624,"2":0.2804692499452106,"3":3.3282823051446555,"4":1.10797457333251,"5":1.0558660098613148,"6":-1.141769808491705,"7":0.20837822213733825,"8":-1.1184684714840063,"9":-1.181093153995556,"10":-1.2168939748585286,"11":-1.1816076824297848,"12":-1.082811296947179,"13":2.3921212304525485}}},{"out_depth":14,"out_sx":1,"out_sy":1,"layer_type":"softmax","num_inputs":14}]},{"layers":[{"out_depth":2,"out_sx":1,"out_sy":1,"layer_type":"input"},{"out_depth":13,"out_sx":1,"out_sy":1,"layer_type":"fc","num_inputs":2,"l1_decay_mul":0,"l2_decay_mul":1,"filters":[{"sx":1,"sy":1,"depth":2,"w":{"0":-0.9868590186189717,"1":3.7799564944335193}},{"sx":1,"sy":1,"depth":2,"w":{"0":-1.1490149589932253,"1":5.032404140908318}},{"sx":1,"sy":1,"depth":2,"w":{"0":-0.9748833878881974,"1":3.5346255209832806}},{"sx":1,"sy":1,"depth":2,"w":{"0":-2.0740636820765728,"1":-6.6973995458360145}},{"sx":1,"sy":1,"depth":2,"w":{"0":-3.9706522625679264,"1":2.147912170676948}},{"sx":1,"sy":1,"depth":2,"w":{"0":4.556868601341092,"1":5.367055735242949}},{"sx":1,"sy":1,"depth":2,"w":{"0":2.8499322274312573,"1":0.62438441330844}},{"sx":1,"sy":1,"depth":2,"w":{"0":-1.4341984930729337,"1":4.435109035081993}},{"sx":1,"sy":1,"depth":2,"w":{"0":0.29471357976968726,"1":6.304542240206896}},{"sx":1,"sy":1,"depth":2,"w":{"0":-3.377086766924811,"1":-2.0431746712618253}},{"sx":1,"sy":1,"depth":2,"w":{"0":-2.9216662777628652,"1":-4.754808859971375}},{"sx":1,"sy":1,"depth":2,"w":{"0":-2.4835012605649447,"1":4.872067661298374}},{"sx":1,"sy":1,"depth":2,"w":{"0":-4.9884323275379705,"1":-3.0999612800206386}}],"biases":{"sx":1,"sy":1,"depth":13,"w":{"0":1.9551438674683799,"1":-1.7508542298516439,"2":-1.54018159730685,"3":3.1906562078028227,"4":1.1352780108780616,"5":-4.367584979927291,"6":-3.9594695741673323,"7":4.623792548271623,"8":5.679534781404079,"9":0.17935304969984936,"10":-2.535965835005815,"11":6.949185890890977,"12":-0.6846726254461515}}},{"out_depth":13,"out_sx":1,"out_sy":1,"layer_type":"sigmoid"},{"out_depth":13,"out_sx":1,"out_sy":1,"layer_type":"fc","num_inputs":13,"l1_decay_mul":0,"l2_decay_mul":1,"filters":[{"sx":1,"sy":1,"depth":13,"w":{"0":1.9336395331468947,"1":0.9134991330232538,"2":0.830134434663524,"3":0.2599133816641061,"4":-2.099014884828668,"5":2.3468699936655897,"6":-1.4676198421806395,"7":2.644881085255219,"8":2.942113160487515,"9":0.05301526557425046,"10":2.6794222397815544,"11":-3.0747278177924575,"12":0.3067747246774928}},{"sx":1,"sy":1,"depth":13,"w":{"0":1.7567592276131931,"1":1.8727299110025621,"2":2.0275697748222097,"3":-1.2442880952010638,"4":1.1667091897379493,"5":-1.3474316642028545,"6":-1.5846672081026445,"7":1.9226319257753863,"8":0.038270025813301994,"9":0.9437138483539197,"10":1.6469901286594677,"11":-4.926916383018821,"12":2.117432390181273}},{"sx":1,"sy":1,"depth":13,"w":{"0":2.171003426417159,"1":1.4212360190584714,"2":0.8713718437999065,"3":-3.9373016493047266,"4":-2.1349752887445193,"5":-0.5405906880392378,"6":0.34627676073090785,"7":1.8250491562218647,"8":0.5562097520815751,"9":-2.2099160417965975,"10":-0.5920500134800641,"11":2.4638892445746845,"12":-2.3684964947954694}},{"sx":1,"sy":1,"depth":13,"w":{"0":1.0352774722474136,"1":-1.1808228658956115,"2":-0.6462702150109656,"3":0.08495464267294962,"4":-0.313550718478397,"5":2.543968624727012,"6":1.490869897242417,"7":0.683705955670299,"8":1.5844432702165088,"9":-1.0072097483967917,"10":-3.2222703351845303,"11":1.3656988881687844,"12":-0.6104652548117833}},{"sx":1,"sy":1,"depth":13,"w":{"0":0.9539801718978391,"1":0.572275413198244,"2":0.5825982978536243,"3":-3.4851124365585346,"4":3.148753928309779,"5":5.808231643988473,"6":0.587656785773002,"7":-0.007110347828665482,"8":0.3572194784013224,"9":0.9938736846279767,"10":-1.1351120783946247,"11":3.3969948280450906,"12":0.7671375869319678}},{"sx":1,"sy":1,"depth":13,"w":{"0":-2.4197495860089897,"1":4.030074554833256,"2":2.2870187306439718,"3":-3.7036741389454204,"4":-1.5786846665769338,"5":-4.820096590483818,"6":-0.23027896477748802,"7":-2.8877330099509058,"8":5.647891585008641,"9":-1.3991580815724582,"10":8.225369588386698,"11":-2.5547580928862326,"12":-3.504907902730072}},{"sx":1,"sy":1,"depth":13,"w":{"0":-1.8802181933619388,"1":0.6111969930715315,"2":0.41428510698454724,"3":-1.673980604703831,"4":3.02216731182789,"5":0.7184247313903652,"6":-1.1246272544944536,"7":-4.351547433016632,"8":-0.2975176922054139,"9":1.6608149451115768,"10":-1.447181403458945,"11":-0.06130889330692909,"12":1.6053646204042813}},{"sx":1,"sy":1,"depth":13,"w":{"0":-0.7714324897880761,"1":-0.6409999998269792,"2":-0.41956018079791424,"3":-0.9098196095939433,"4":-0.6438976197158701,"5":1.4598144538969957,"6":3.612982106986739,"7":-1.1176721057745294,"8":-0.12275160597042215,"9":-1.597089688735535,"10":1.0881171966625323,"11":-1.7658878683043884,"12":-1.6070736746682837}},{"sx":1,"sy":1,"depth":13,"w":{"0":1.4553634105064361,"1":2.3843506909153294,"2":1.4513335984051767,"3":-3.2945781940872365,"4":-0.7515323257813376,"5":-0.15025361503116064,"6":-0.15652846395400655,"7":0.9511254857844018,"8":-0.10215742568293974,"9":-0.06526629591666819,"10":-0.6490428835381644,"11":0.7608699870217731,"12":-0.43577032816096356}},{"sx":1,"sy":1,"depth":13,"w":{"0":-0.1329906013151637,"1":0.994871897640076,"2":0.043637911524494886,"3":-1.5092466550104877,"4":-0.5001012225263378,"5":0.06477559762523258,"6":0.32749511792773744,"7":0.42870716518528856,"8":-1.1630483399172231,"9":0.7109754585286789,"10":-1.0630349319011894,"11":2.1419663601024896,"12":0.8235265746897514}},{"sx":1,"sy":1,"depth":13,"w":{"0":-2.450629030101719,"1":-1.1016349604797635,"2":-0.3800606318727736,"3":1.9699451634195095,"4":-0.026539986081631568,"5":1.559516981271656,"6":2.732563316619296,"7":-2.2373489214791342,"8":0.12124928125783528,"9":-1.6819971896312986,"10":0.23765883474163854,"11":-2.2194723673687986,"12":-1.8774754575086092}},{"sx":1,"sy":1,"depth":13,"w":{"0":-0.895975614995996,"1":0.21833652981009552,"2":0.3929921629001073,"3":0.6463215921318531,"4":0.9654312747363054,"5":-0.04960385117875013,"6":-3.352940133737728,"7":-0.10674195567394268,"8":-0.8434147427919679,"9":2.432158351232746,"10":2.895396977664496,"11":-0.5372704415484317,"12":2.6213023742260417}},{"sx":1,"sy":1,"depth":13,"w":{"0":-1.3801731799659014,"1":-1.0114952714725645,"2":-1.6824455971791588,"3":1.1294259669556521,"4":-2.0668135134252785,"5":1.3137266773019842,"6":-1.012479852976699,"7":0.5195122644684479,"8":-4.380311416520359,"9":0.1543480769821619,"10":-1.4417996084791995,"11":3.5242001335037494,"12":-0.3763093257559728}}],"biases":{"sx":1,"sy":1,"depth":13,"w":{"0":-0.46111352897533375,"1":-2.4587778917453647,"2":-0.5724140705547536,"3":-0.19030508256417994,"4":-1.8633000980263377,"5":3.70892678308203,"6":-0.4388727972461675,"7":-0.15019681335710264,"8":-1.4770933198082328,"9":0.6722776553189163,"10":-0.4117036954120363,"11":-1.5589028746642912,"12":0.8226041083302005}}},{"out_depth":13,"out_sx":1,"out_sy":1,"layer_type":"sigmoid"},{"out_depth":14,"out_sx":1,"out_sy":1,"layer_type":"fc","num_inputs":13,"l1_decay_mul":0,"l2_decay_mul":1,"filters":[{"sx":1,"sy":1,"depth":13,"w":{"0":-0.32206211436197335,"1":-1.129603909967523,"2":1.833413082924065,"3":2.988811740942477,"4":-3.738325621621103,"5":-4.4362860654687,"6":2.163495965015518,"7":0.30179121346447524,"8":3.8394903280040706,"9":1.3450287889358479,"10":-1.8712840649512923,"11":2.5154730572998854,"12":1.4231529153231117}},{"sx":1,"sy":1,"depth":13,"w":{"0":-0.5532978690989406,"1":-0.12854346625918325,"2":-0.048172965718626504,"3":-0.7798290180511229,"4":-0.743114588431637,"5":-0.007988428928153522,"6":-0.03640336222526998,"7":-0.628660179300774,"8":-0.06071610779383944,"9":-0.48625717203148594,"10":-0.3954770537976411,"11":-0.6512478462122351,"12":-0.07549721189960798}},{"sx":1,"sy":1,"depth":13,"w":{"0":-0.3694780418743682,"1":-1.0028301840473717,"2":-2.8964437199467947,"3":3.2738816058426057,"4":4.899577673354246,"5":-8.214612197262497,"6":-2.024842899142366,"7":0.5174397308192131,"8":-1.4318278596892546,"9":0.2144163797039463,"10":0.670864773773517,"11":0.522993933491318,"12":1.9767996385702842}},{"sx":1,"sy":1,"depth":13,"w":{"0":4.998784090072464,"1":6.639740504803579,"2":-1.1805592116294092,"3":-0.06710039147539078,"4":-3.6592563906555937,"5":-3.3416036121974075,"6":0.8907813031186187,"7":2.6669634802925826,"8":0.306082350686635,"9":-1.374541700328677,"10":3.4096485450039875,"11":1.8647637892129292,"12":-3.9399965919956483}},{"sx":1,"sy":1,"depth":13,"w":{"0":-2.5379433405935816,"1":-1.5554567455433976,"2":2.407487078830066,"3":0.5096543854678537,"4":-0.12852235151486258,"5":-1.1850948275647395,"6":2.391191515768679,"7":1.3392717694305114,"8":-0.08597139950927807,"9":1.4579656663646388,"10":1.5666566523276986,"11":-0.17231127229599852,"12":1.7122461770997226}},{"sx":1,"sy":1,"depth":13,"w":{"0":-1.5098985957728575,"1":2.6540548916181863,"2":-4.477184163241596,"3":0.5224775532960244,"4":3.6837489354875443,"5":6.67156425752313,"6":-0.11299337369060143,"7":0.6838948111428992,"8":-2.9403813043108036,"9":0.2390037469543001,"10":0.42530029820701243,"11":-0.3691829792914767,"12":-3.0377893079529614}},{"sx":1,"sy":1,"depth":13,"w":{"0":-0.500929274464902,"1":-0.4052815848888132,"2":0.08256553406972139,"3":-0.4389465017161551,"4":-0.6946851779314857,"5":-0.8161344752171654,"6":-0.40568689883861303,"7":-0.32977154550896476,"8":-0.2656935638546541,"9":-0.3393143184835396,"10":-0.485130268002461,"11":-0.5200437534164831,"12":-0.30925435028318204}},{"sx":1,"sy":1,"depth":13,"w":{"0":-3.3414250464939315,"1":-3.9148930103186044,"2":2.302711051664717,"3":-1.090056532388698,"4":4.909300598161123,"5":-0.39320544255467077,"6":3.695784926280377,"7":-0.2994023568888097,"8":2.2083986851701067,"9":1.7306384157672927,"10":0.14008024348549653,"11":-2.9067237246992703,"12":0.5338154493430776}},{"sx":1,"sy":1,"depth":13,"w":{"0":1.720865357454025,"1":-0.909085432454197,"2":-0.8225466872696989,"3":2.265572813141711,"4":-0.03951029459074261,"5":-0.3964735366211683,"6":-0.8314427477333652,"7":0.6246665229061172,"8":0.11800292468209087,"9":-1.1650976748134478,"10":1.605453865075794,"11":-1.7585090351278625,"12":-0.6621686447774878}},{"sx":1,"sy":1,"depth":13,"w":{"0":-0.7769289885295628,"1":-0.5214709954549241,"2":-0.03285052345372272,"3":-0.6147766580005668,"4":-0.4334793698905563,"5":-0.3619194794552365,"6":-0.3401201697928875,"7":-0.3013351718884815,"8":-0.5361268501168656,"9":-0.4173157924887153,"10":0.03479363274447342,"11":-0.5714968897604843,"12":-0.40749230364286804}},{"sx":1,"sy":1,"depth":13,"w":{"0":-0.704166677633005,"1":-0.09488842475731851,"2":-0.1363141767960459,"3":-0.5188615450201061,"4":-0.4385046915186933,"5":-0.554041900164185,"6":-0.14214288526446575,"7":-0.06400559534963664,"8":-0.21773878451519127,"9":-0.7072332919850538,"10":-0.4348328974763723,"11":-0.5763811775490286,"12":-0.24359037618301102}},{"sx":1,"sy":1,"depth":13,"w":{"0":-0.446705214574299,"1":-0.2721532623836397,"2":-0.1612478582961703,"3":-0.37165236807275204,"4":-0.6452543938758176,"5":-0.20525984356251142,"6":-0.43091433855204353,"7":-0.1554677202070522,"8":-0.3690882494264512,"9":-0.6308234716387734,"10":-0.3213720446097548,"11":-0.5497742625147249,"12":-0.4828673917947146}},{"sx":1,"sy":1,"depth":13,"w":{"0":1.3751925629670396,"1":-0.965386355967367,"2":-0.6167410177831151,"3":-3.0217571465155566,"4":-3.285388901302728,"5":3.399584462320439,"6":-1.9861722898454506,"7":-0.15238376945950083,"8":-0.7313290042181869,"9":-1.2813137872945508,"10":0.2626957625555556,"11":4.080577340931393,"12":0.21692457877779803}},{"sx":1,"sy":1,"depth":13,"w":{"0":1.8191304766840013,"1":1.2478810041694282,"2":4.243792497725487,"3":-2.965917610158799,"4":0.19197375498542696,"5":9.462313453036797,"6":-3.3316868136018907,"7":-4.003501919136176,"8":0.5714194018596813,"9":2.223079787194065,"10":-3.5967097158107246,"11":-2.488682785305618,"12":3.849858450388366}}],"biases":{"sx":1,"sy":1,"depth":14,"w":{"0":1.8823433854522338,"1":-1.1580849083249984,"2":-0.6505297569691998,"3":1.3128027014541699,"4":1.3118693399177028,"5":0.8442957441584371,"6":-1.0283261060341613,"7":1.066960800361586,"8":-0.3414094766808779,"9":-1.2075680086068072,"10":-1.1712001695548024,"11":-1.3032209434409567,"12":-0.5511198628538171,"13":0.9931872611213444}}},{"out_depth":14,"out_sx":1,"out_sy":1,"layer_type":"softmax","num_inputs":14}]},{"layers":[{"out_depth":2,"out_sx":1,"out_sy":1,"layer_type":"input"},{"out_depth":13,"out_sx":1,"out_sy":1,"layer_type":"fc","num_inputs":2,"l1_decay_mul":0,"l2_decay_mul":1,"filters":[{"sx":1,"sy":1,"depth":2,"w":{"0":-5.34986548363619,"1":1.247785468655733}},{"sx":1,"sy":1,"depth":2,"w":{"0":7.682600801467291,"1":3.526937893130839}},{"sx":1,"sy":1,"depth":2,"w":{"0":-2.7506274620207463,"1":3.3871546837869033}},{"sx":1,"sy":1,"depth":2,"w":{"0":-1.7223290000191729,"1":4.570357237348803}},{"sx":1,"sy":1,"depth":2,"w":{"0":3.7463889899768867,"1":-1.210408909367109}},{"sx":1,"sy":1,"depth":2,"w":{"0":1.9212937436443704,"1":4.041436698613097}},{"sx":1,"sy":1,"depth":2,"w":{"0":2.1398464605607073,"1":-2.495220864492758}},{"sx":1,"sy":1,"depth":2,"w":{"0":3.009961500029426,"1":-4.0729083068261165}},{"sx":1,"sy":1,"depth":2,"w":{"0":5.576795463515893,"1":4.465606003695772}},{"sx":1,"sy":1,"depth":2,"w":{"0":-4.627014020944001,"1":-4.7315890799349045}},{"sx":1,"sy":1,"depth":2,"w":{"0":1.5772038631147487,"1":5.7395489604359025}},{"sx":1,"sy":1,"depth":2,"w":{"0":2.975514478429237,"1":-1.2732751193176781}},{"sx":1,"sy":1,"depth":2,"w":{"0":-0.46997185359755195,"1":6.171852619378862}}],"biases":{"sx":1,"sy":1,"depth":13,"w":{"0":4.2441786677464215,"1":1.4961517733925487,"2":-0.8619054231894195,"3":-6.338666240113516,"4":8.697175280508175,"5":-1.6510760006242784,"6":3.0850772769594688,"7":3.184657690459819,"8":-6.852541376961759,"9":3.1131438308985513,"10":0.11236199953802711,"11":6.146709620593236,"12":3.30126231802506}}},{"out_depth":13,"out_sx":1,"out_sy":1,"layer_type":"sigmoid"},{"out_depth":13,"out_sx":1,"out_sy":1,"layer_type":"fc","num_inputs":13,"l1_decay_mul":0,"l2_decay_mul":1,"filters":[{"sx":1,"sy":1,"depth":13,"w":{"0":-3.057007564895044,"1":-0.7397875070647209,"2":-2.616490297167096,"3":-0.9070015724800302,"4":0.6299798045340982,"5":-1.8611274968112457,"6":1.7587479458323128,"7":2.176977660542005,"8":1.9818949302835325,"9":-0.33852673357527013,"10":-1.2435017869662894,"11":0.37287299831064735,"12":-2.0690164151293104}},{"sx":1,"sy":1,"depth":13,"w":{"0":-1.2462598624182333,"1":0.09856825575979612,"2":0.02584857143289101,"3":-0.15311261401760698,"4":1.8661943627392097,"5":-0.7561189194848594,"6":-2.700932020645318,"7":-3.49764657203416,"8":2.692842465652172,"9":5.035797299330408,"10":-0.16225594932676862,"11":3.5886793993180306,"12":-3.113834206383178}},{"sx":1,"sy":1,"depth":13,"w":{"0":4.147444054248133,"1":2.117980753253331,"2":-1.5397729198335037,"3":-3.85483802867972,"4":-5.398657225710493,"5":-0.5289366848977931,"6":1.2748816786913597,"7":2.2556252608110214,"8":1.9562380108418018,"9":1.295482192790266,"10":0.38673694265771513,"11":-3.307346105328141,"12":1.3473612371475034}},{"sx":1,"sy":1,"depth":13,"w":{"0":-0.5767946906747691,"1":-2.6461754367459394,"2":-3.5120536937966755,"3":-2.9277644276798918,"4":2.924960094819927,"5":-2.459161044718784,"6":1.44367403473972,"7":2.7624865480954215,"8":-1.385021960878721,"9":2.088509394173903,"10":-1.5778585969385917,"11":1.4851458006789398,"12":0.9306808361023924}},{"sx":1,"sy":1,"depth":13,"w":{"0":1.609842123922719,"1":0.7586325545755302,"2":3.7401124529407546,"3":-2.607393899600038,"4":-3.337028369239215,"5":1.4069088758052377,"6":-1.926108080254814,"7":-2.554418864625088,"8":6.2342510775785955,"9":0.5492171180223939,"10":-1.5113104910528403,"11":-3.106005322437188,"12":0.198246725260779}},{"sx":1,"sy":1,"depth":13,"w":{"0":-1.2237484784151993,"1":1.070910166186478,"2":1.6996094282335132,"3":-1.518785813665041,"4":3.595933263249965,"5":-0.13225010706541393,"6":0.5949865047558238,"7":1.5665798052563917,"8":-7.743717177683964,"9":-0.6208070252535156,"10":-1.5494557652130505,"11":-0.005108040488774992,"12":1.182555319262179}},{"sx":1,"sy":1,"depth":13,"w":{"0":-0.07985757824486624,"1":-2.9871664255696073,"2":0.7356653959344409,"3":3.0412569227661526,"4":0.4966480935431091,"5":0.35291987040054534,"6":-1.568234324597031,"7":-0.16968625654310487,"8":-1.5603847985965047,"9":3.7383951212852717,"10":-1.0259947526049542,"11":1.4343714653614437,"12":-1.7222404235297042}},{"sx":1,"sy":1,"depth":13,"w":{"0":-0.17303668246887424,"1":0.7426800900110122,"2":0.27668241243872554,"3":1.367483633045501,"4":-0.40554723135286075,"5":1.7108870315167959,"6":-0.8222062974430314,"7":-1.167404693203943,"8":0.5078471103912339,"9":-1.7306603577268822,"10":1.2061687430497638,"11":-0.008779039137725694,"12":4.286748760393643}},{"sx":1,"sy":1,"depth":13,"w":{"0":-2.6839889869670945,"1":-4.329020431711351,"2":0.49882319724362784,"3":3.7117574316531954,"4":1.270972661867056,"5":1.7602045770279073,"6":-0.8117042035592908,"7":-1.028050662696207,"8":-0.708507834533735,"9":2.239599802642085,"10":-3.238828549775025,"11":0.08155952990592046,"12":-2.779410584850101}},{"sx":1,"sy":1,"depth":13,"w":{"0":-0.1859973959075494,"1":-3.0610299722022405,"2":-1.0455503242661288,"3":2.4825514133873594,"4":1.3597594783966866,"5":-0.8493438487816082,"6":-0.5630825077498957,"7":-0.4194032732625516,"8":2.1787981714612923,"9":-1.8393761128440873,"10":1.2449051129557014,"11":1.4034912478405046,"12":-0.3560909158970401}},{"sx":1,"sy":1,"depth":13,"w":{"0":-4.043147567284616,"1":-3.329278187813926,"2":1.2758370864595205,"3":-0.8296978557742587,"4":0.8349340494915878,"5":1.2130486374979341,"6":2.2393917250807744,"7":-0.07810959159776497,"8":1.662711567191413,"9":-1.6389540408309389,"10":0.7611485475905464,"11":1.3564899069097505,"12":-0.2590244499790433}},{"sx":1,"sy":1,"depth":13,"w":{"0":-3.1524317552925227,"1":5.037276570992895,"2":0.7382319225882067,"3":-1.5769698314397276,"4":-0.4665272646952508,"5":0.137802011626596,"6":-0.436516081529441,"7":-1.1481632491307519,"8":-3.062939743737926,"9":-2.757847829423455,"10":1.0651465123602863,"11":-1.3944326050140037,"12":1.3056993558769903}},{"sx":1,"sy":1,"depth":13,"w":{"0":-0.8655058987286903,"1":-2.529941120021799,"2":0.0973297787183668,"3":2.328575817321667,"4":-2.431501637393006,"5":1.3426039637693543,"6":-0.35946321999017666,"7":-0.3613301159050587,"8":-1.2446699448723284,"9":-0.5288295593293183,"10":-0.01937422101161258,"11":-2.1649690422251164,"12":0.590999572789095}}],"biases":{"sx":1,"sy":1,"depth":13,"w":{"0":-0.7921560576054008,"1":-1.4035405368955147,"2":1.572359280667796,"3":-1.1065576793178542,"4":1.145100431801385,"5":1.289178115424967,"6":1.4250060349161877,"7":-0.4231096040229763,"8":0.7688178154739076,"9":-0.9232667229224009,"10":-0.28357943513941347,"11":-0.8138364273020064,"12":0.12964971571426462}}},{"out_depth":13,"out_sx":1,"out_sy":1,"layer_type":"sigmoid"},{"out_depth":14,"out_sx":1,"out_sy":1,"layer_type":"fc","num_inputs":13,"l1_decay_mul":0,"l2_decay_mul":1,"filters":[{"sx":1,"sy":1,"depth":13,"w":{"0":-0.17320622672017988,"1":1.8859559658674756,"2":-2.6696074876268168,"3":-1.12504159150924,"4":1.5368621267398463,"5":-2.9535380667975084,"6":-0.008777981447400933,"7":-0.5822179773160708,"8":-0.6310035965697095,"9":1.227913925028312,"10":2.7403153085990533,"11":1.7369707949901922,"12":-0.6862099466178564}},{"sx":1,"sy":1,"depth":13,"w":{"0":-0.029435655576063348,"1":-0.5708881297100397,"2":-0.22028322630741684,"3":-0.1670537767518013,"4":-0.40445651344577055,"5":-0.41136791240120785,"6":-0.636174462283712,"7":-0.8815464785685514,"8":-0.008862177859293914,"9":-0.15628739456055912,"10":-0.228493829195089,"11":-0.06574548544122433,"12":-0.26477597864722974}},{"sx":1,"sy":1,"depth":13,"w":{"0":-3.7634843331767125,"1":-1.3190717157739509,"2":1.1009013427373344,"3":8.451756674356751,"4":2.184597926350881,"5":1.6983566763660893,"6":-1.5033341450653244,"7":1.2487239530091079,"8":0.5922334560830662,"9":-1.3645998706360911,"10":-4.212533441094811,"11":1.767009331716074,"12":-2.337304234373704}},{"sx":1,"sy":1,"depth":13,"w":{"0":-0.39542129082000804,"1":1.6514948144517865,"2":1.7969974739793666,"3":-4.470246621461227,"4":1.4098480107944016,"5":3.5177403577172814,"6":-0.3629293134362001,"7":-1.300864305785887,"8":4.559678628359497,"9":-3.8054090923064923,"10":3.054442773097667,"11":5.924560882534383,"12":-0.20192426356072396}},{"sx":1,"sy":1,"depth":13,"w":{"0":-1.9085953477404891,"1":5.3345815543585,"2":-0.5481175809602745,"3":-0.6863974736837636,"4":3.285465981161021,"5":-2.3488876333219886,"6":2.0414464587226324,"7":-2.923156366824572,"8":2.176198878150639,"9":1.0219976435237006,"10":-2.9961208896045517,"11":-2.5462319890633642,"12":-0.8629572523985604}},{"sx":1,"sy":1,"depth":13,"w":{"0":3.2897501772490276,"1":-2.3776753334655174,"2":3.188234860855093,"3":0.12374122967104023,"4":4.1891267931202245,"5":-0.880840853624727,"6":-3.791984208962652,"7":3.7661684497743226,"8":2.0717597090523374,"9":0.24282455980770234,"10":1.5319984475858064,"11":0.21992130492772685,"12":2.102489458021216}},{"sx":1,"sy":1,"depth":13,"w":{"0":-0.13497464667182202,"1":-0.6063295906467872,"2":-0.6105603072510191,"3":0.07899881424608675,"4":-0.9396514819993704,"5":-0.2901124887358978,"6":-0.31039880057926394,"7":-0.34745898936689507,"8":-0.012411560723253638,"9":-0.25945209741726694,"10":-0.0018224556733511031,"11":-0.19233049037845518,"12":-0.20282204140304852}},{"sx":1,"sy":1,"depth":13,"w":{"0":3.1517640268016804,"1":-5.028836560283548,"2":-6.856600170813393,"3":0.6862509540791193,"4":-2.3432072706595486,"5":5.449903604899347,"6":-0.33223263692667593,"7":2.671177854915453,"8":-2.701929562264927,"9":2.671804060782264,"10":0.8624975214156109,"11":-0.1503832394365854,"12":0.6811801838274116}},{"sx":1,"sy":1,"depth":13,"w":{"0":-0.5514894644145815,"1":-0.46327038095836887,"2":-0.3393471965762276,"3":-0.3382961387681589,"4":-0.20895468106004186,"5":-0.38693235138582693,"6":-0.6468760943727249,"7":-0.7002027971329164,"8":-0.10686423174743294,"9":-0.420263042586945,"10":-0.35311981132478504,"11":-0.2949259860555031,"12":-0.13307581366797624}},{"sx":1,"sy":1,"depth":13,"w":{"0":1.7920739666180225,"1":-0.3393889491258872,"2":-1.5470934966684144,"3":-0.6121795079368956,"4":-0.5593751651333703,"5":2.126706159117039,"6":1.6921462327643422,"7":-0.7620390723093381,"8":0.10809484845596891,"9":0.8875255284856569,"10":1.0510043120183883,"11":-3.9537272285447775,"12":2.7427995261119107}},{"sx":1,"sy":1,"depth":13,"w":{"0":-0.07204263792432583,"1":-0.44862786205104965,"2":-0.14203282752675847,"3":-0.5530723480319456,"4":-0.29821694733362625,"5":-0.5887991495222289,"6":-0.5178057314850768,"7":-0.4508786707504021,"8":-0.2732749503113147,"9":-0.46472600044483253,"10":0.0468434805975213,"11":-0.45025501563402887,"12":0.1436839487938398}},{"sx":1,"sy":1,"depth":13,"w":{"0":-0.34652693708014026,"1":-0.5343246985349411,"2":-0.36740813737948136,"3":-0.03566268186071737,"4":-0.3989242461742151,"5":-0.5712193170720121,"6":-0.7127858504716256,"7":-0.4094949013847161,"8":-0.170889994660598,"9":-0.2080091422066783,"10":0.027443555650886586,"11":-0.3625075021296243,"12":-0.1607742007303966}},{"sx":1,"sy":1,"depth":13,"w":{"0":-0.15148455261234445,"1":-0.44107620077380794,"2":-0.2937554027811151,"3":-0.4555375645185888,"4":-0.14083438546525504,"5":-0.3980385504119009,"6":-0.27349174680901356,"7":-0.8739631085374295,"8":-0.05376576023297342,"9":-0.3954367148504365,"10":-0.3648365391116192,"11":-0.20110409081233882,"12":-0.27044503727466496}},{"sx":1,"sy":1,"depth":13,"w":{"0":0.36655818335025603,"1":2.8517689918365825,"2":6.444957343236892,"3":-0.15968111906035798,"4":-6.5772626866598385,"5":-4.038762484421663,"6":5.149134821827541,"7":0.9503079763355264,"8":-5.571136982064762,"9":1.8195495457245705,"10":-1.8102126211394702,"11":-0.8889433004505081,"12":-0.6496807848629924}}],"biases":{"sx":1,"sy":1,"depth":14,"w":{"0":-1.2822026955356456,"1":-0.8269945453963133,"2":-0.17466738511991878,"3":0.23831917636859246,"4":0.7515434051919335,"5":-0.7670808705549557,"6":-1.0740414908970004,"7":0.7163634118026957,"8":-0.7629417227868213,"9":0.5726702228484905,"10":-1.1479511290643891,"11":-0.9829197241320915,"12":-1.0424027969722978,"13":5.782306144247813}}},{"out_depth":14,"out_sx":1,"out_sy":1,"layer_type":"softmax","num_inputs":14}]},{"layers":[{"out_depth":2,"out_sx":1,"out_sy":1,"layer_type":"input"},{"out_depth":13,"out_sx":1,"out_sy":1,"layer_type":"fc","num_inputs":2,"l1_decay_mul":0,"l2_decay_mul":1,"filters":[{"sx":1,"sy":1,"depth":2,"w":{"0":-6.8334448253975895,"1":-0.7185324037029663}},{"sx":1,"sy":1,"depth":2,"w":{"0":-4.143841226622433,"1":0.9770553176946498}},{"sx":1,"sy":1,"depth":2,"w":{"0":-1.8284118196990307,"1":4.628792714466619}},{"sx":1,"sy":1,"depth":2,"w":{"0":4.536242302517655,"1":0.9696692088841969}},{"sx":1,"sy":1,"depth":2,"w":{"0":5.285534713086621,"1":-3.5046426483649267}},{"sx":1,"sy":1,"depth":2,"w":{"0":0.26598831283176033,"1":5.654054375031482}},{"sx":1,"sy":1,"depth":2,"w":{"0":-0.7368251804018119,"1":-5.08743681061101}},{"sx":1,"sy":1,"depth":2,"w":{"0":3.1420278212840818,"1":-4.749467908491704}},{"sx":1,"sy":1,"depth":2,"w":{"0":-0.057962490693511025,"1":3.714163002930585}},{"sx":1,"sy":1,"depth":2,"w":{"0":-4.307831676613378,"1":6.872185173655743}},{"sx":1,"sy":1,"depth":2,"w":{"0":2.917226629714699,"1":-1.306813968315585}},{"sx":1,"sy":1,"depth":2,"w":{"0":0.53095138226804,"1":4.110053558916351}},{"sx":1,"sy":1,"depth":2,"w":{"0":-4.76468424676477,"1":2.5437809496465786}}],"biases":{"sx":1,"sy":1,"depth":13,"w":{"0":-1.941461905926189,"1":-4.081928522242093,"2":6.527220239684826,"3":4.802965265604181,"4":2.717168937596881,"5":1.744203677285233,"6":7.617717390389528,"7":2.750276869888738,"8":-2.246544622966337,"9":5.615388241713169,"10":-0.6768790246971331,"11":-2.8947636523630176,"12":-0.5664198255503275}}},{"out_depth":13,"out_sx":1,"out_sy":1,"layer_type":"sigmoid"},{"out_depth":13,"out_sx":1,"out_sy":1,"layer_type":"fc","num_inputs":13,"l1_decay_mul":0,"l2_decay_mul":1,"filters":[{"sx":1,"sy":1,"depth":13,"w":{"0":1.9807476182965997,"1":1.3120276553609627,"2":0.07265243613869704,"3":-1.9608709667258626,"4":-1.098705585032383,"5":-0.2714833533023524,"6":-1.7748090219399346,"7":0.37086695910611456,"8":-2.3739947041266065,"9":0.5167769031066,"10":-0.8462248730797767,"11":-2.116236756277586,"12":1.0457823184477117}},{"sx":1,"sy":1,"depth":13,"w":{"0":-0.8452359640452437,"1":0.3272632303586197,"2":2.748050174371251,"3":0.706710553607373,"4":-2.1418279869059167,"5":2.133684702580624,"6":-1.589706662288168,"7":-2.448432445108753,"8":1.6286106373713356,"9":7.627539592519304,"10":-1.296967701729004,"11":1.6258335868961193,"12":1.2437501099617707}},{"sx":1,"sy":1,"depth":13,"w":{"0":-0.30498806979628773,"1":1.0896662948214608,"2":3.7939948001714763,"3":0.3148990028087214,"4":-0.10410928759764251,"5":2.543840736384677,"6":-0.3059832691228441,"7":-2.424368660615212,"8":0.5074991670795844,"9":-2.2941424148676464,"10":-0.3339893111946222,"11":0.37523599753877684,"12":-0.7269270605430325}},{"sx":1,"sy":1,"depth":13,"w":{"0":3.602535928735958,"1":0.5385804706747663,"2":1.7537942457448537,"3":-3.141571694616045,"4":-1.9951993444776046,"5":-1.4502488629508463,"6":-1.3964862503201538,"7":0.8352618471852179,"8":-3.244108412404123,"9":-0.17767465364789126,"10":-1.5099850190524997,"11":-3.3242829436371193,"12":2.1357451333111146}},{"sx":1,"sy":1,"depth":13,"w":{"0":2.9551237351664392,"1":-0.10622162258846304,"2":-0.6919723034272516,"3":2.801760398795642,"4":-0.06303846392643622,"5":-1.5813410026686066,"6":-3.1636469403192935,"7":-0.7696409386549261,"8":1.7796003151181368,"9":-2.5682912926964128,"10":-0.9616418331344433,"11":2.461270271334239,"12":1.3697592061215649}},{"sx":1,"sy":1,"depth":13,"w":{"0":-2.5854038037905336,"1":-1.8075695170480877,"2":-4.322952198494651,"3":-3.5902948988438426,"4":2.743922100471806,"5":0.5891712381114268,"6":1.1233430945007028,"7":-0.20012657834789643,"8":2.0373544204483336,"9":0.625279295864039,"10":4.065845234379083,"11":1.4277024607312536,"12":-4.484878787527077}},{"sx":1,"sy":1,"depth":13,"w":{"0":-0.14879265593297433,"1":-1.5218095377059293,"2":2.3726297947981934,"3":1.0018760911307363,"4":0.9519031308621285,"5":1.8054082995441227,"6":0.24514300901385053,"7":-1.761956313157108,"8":0.8085427161634918,"9":1.4530433285451225,"10":1.3998226470030615,"11":0.6732359498390283,"12":-1.5661566473750719}},{"sx":1,"sy":1,"depth":13,"w":{"0":-3.1130544053130564,"1":0.6076653823320239,"2":-3.105654788472876,"3":0.9088260984692877,"4":4.040810214375825,"5":1.9390205822779252,"6":-2.64655208890755,"7":1.5398994036527769,"8":0.9105124332396178,"9":1.7102153053801923,"10":1.6048817061321736,"11":0.9218910099979637,"12":-1.2956713041025696}},{"sx":1,"sy":1,"depth":13,"w":{"0":-2.2032698115332106,"1":-0.31190915115493867,"2":-0.15762848796107987,"3":-1.4901199115086274,"4":2.09085472124873,"5":0.5449651117114869,"6":-3.6229501855203115,"7":-1.0999313443184002,"8":1.7533843055788807,"9":0.5324105409260339,"10":1.099321945688822,"11":1.2197173528443075,"12":-1.6892161159119399}},{"sx":1,"sy":1,"depth":13,"w":{"0":2.1856444272094206,"1":1.367840034066612,"2":-0.5898560092271093,"3":1.6743638802961183,"4":0.39743649284569343,"5":0.8055819950575999,"6":-1.136834879561384,"7":1.3323230718362953,"8":-1.4978810949658632,"9":-0.08167302457906803,"10":-1.4296241213025873,"11":-1.0262505601345076,"12":-0.03890787415321483}},{"sx":1,"sy":1,"depth":13,"w":{"0":0.7448185359080693,"1":1.405116705489901,"2":0.3337735844278347,"3":-0.17332033672987243,"4":-0.8524226045584316,"5":0.5172134837021961,"6":-0.4899126050711491,"7":0.7696367357176016,"8":-1.3263172759326487,"9":-4.31891977362982,"10":-0.9655813276978757,"11":-0.6872986262288027,"12":0.0017017977670597357}},{"sx":1,"sy":1,"depth":13,"w":{"0":1.908979365292077,"1":-2.6645561641328936,"2":0.8276244133946795,"3":2.032466231053091,"4":4.801333429205299,"5":-3.6336798178098273,"6":5.457243744525595,"7":-5.196184878902932,"8":-0.22941138111532788,"9":1.5733437638381373,"10":1.7967902482914668,"11":1.443589743449518,"12":-3.8717837545717546}},{"sx":1,"sy":1,"depth":13,"w":{"0":2.050977592766757,"1":2.48616615091872,"2":-1.212437830329617,"3":1.2354118538171266,"4":0.7259712119121039,"5":3.9207513553681936,"6":-0.954495635938454,"7":1.1134916396553105,"8":-1.6683253825736224,"9":-1.478399571702758,"10":-1.3569508418153355,"11":-1.4293160362313964,"12":-0.296219641645327}}],"biases":{"sx":1,"sy":1,"depth":13,"w":{"0":-0.09433354292410713,"1":-0.8834676574375648,"2":0.6355192920081001,"3":0.779798479722184,"4":-0.2882021425489221,"5":-0.026756425644699707,"6":0.9458597568002068,"7":1.8716843102246907,"8":-0.11690362696249378,"9":-1.5361422654288428,"10":0.2627715805164873,"11":-1.1793544476923024,"12":-1.40636333197526}}},{"out_depth":13,"out_sx":1,"out_sy":1,"layer_type":"sigmoid"},{"out_depth":14,"out_sx":1,"out_sy":1,"layer_type":"fc","num_inputs":13,"l1_decay_mul":0,"l2_decay_mul":1,"filters":[{"sx":1,"sy":1,"depth":13,"w":{"0":1.682005642956766,"1":6.177722684488522,"2":-5.1091460188513524,"3":1.653234573953221,"4":-1.1185166823723385,"5":-0.3885878231606075,"6":-2.8135804368188833,"7":-1.604469356252841,"8":-0.7515514545138002,"9":0.882568925569692,"10":-0.5612409474730118,"11":-0.13633376490074142,"12":0.42691295074850566}},{"sx":1,"sy":1,"depth":13,"w":{"0":-0.5322129313841256,"1":-0.1381098260109127,"2":-0.4781599727149629,"3":-0.3904284957921235,"4":-0.45980062698048024,"5":-0.3830698332637767,"6":-0.31373619021003224,"7":-0.3274451037339797,"8":-0.21966413788251862,"9":-0.11057397134838257,"10":-0.21162114709195942,"11":-0.4907614913503034,"12":-0.37525286334086305}},{"sx":1,"sy":1,"depth":13,"w":{"0":-0.8823935442825896,"1":3.0029652591996556,"2":0.22616003158342965,"3":-2.060369242936655,"4":1.5317800189493358,"5":-1.9849513849655944,"6":1.181043859010535,"7":2.008570893531123,"8":-4.4723442341059565,"9":-1.466739831602707,"10":-1.34868942039396,"11":0.30334824109858394,"12":-3.3697071927738653}},{"sx":1,"sy":1,"depth":13,"w":{"0":2.6070447500031917,"1":-1.935951965210511,"2":1.4550901927259186,"3":0.42084975054947227,"4":1.9097103338131334,"5":-3.2771320844990344,"6":-0.7181543164982289,"7":-2.6265392586420186,"8":3.6759246754905868,"9":0.17984636073221388,"10":1.3039936395620153,"11":4.905984965556134,"12":-0.5110961110248863}},{"sx":1,"sy":1,"depth":13,"w":{"0":-2.109715187226563,"1":-3.609753737081719,"2":1.6323982403870565,"3":1.663731734603338,"4":2.00857787340488,"5":-4.986640625417178,"6":2.4883204635903606,"7":-2.2907851401250015,"8":4.2654831674179485,"9":-0.63739153753083,"10":-0.5904391595586167,"11":4.017856980433388,"12":-1.1830816260663763}},{"sx":1,"sy":1,"depth":13,"w":{"0":-1.2307544631853646,"1":0.9074237587974107,"2":-0.5082944332620957,"3":-4.153586035561816,"4":2.332826539139816,"5":-2.1135431386135437,"6":-1.954177675951256,"7":3.4630153161228963,"8":-1.6839909431768256,"9":3.512542650980523,"10":3.766486805523869,"11":-1.0934960393018296,"12":4.013884484691671}},{"sx":1,"sy":1,"depth":13,"w":{"0":-0.513381030812979,"1":-0.392745341613485,"2":-0.13911532917141076,"3":0.0029715558043328836,"4":-0.38581943033383187,"5":-0.14385056819971734,"6":-0.4565241417008765,"7":-0.3453133073264299,"8":-0.03531283054531047,"9":-0.2655081456204113,"10":-0.29236757439224864,"11":-0.5577993530363187,"12":-0.5934917445443559}},{"sx":1,"sy":1,"depth":13,"w":{"0":1.7326962176901533,"1":-5.774833901092222,"2":3.889037805411448,"3":2.0129308972695164,"4":-3.5343277883437985,"5":2.0326323925537935,"6":1.5929376116082443,"7":-0.774142742602203,"8":-0.5196983618349906,"9":-0.036991919954012485,"10":1.6305300242728025,"11":2.014115577416657,"12":1.2101888979084119}},{"sx":1,"sy":1,"depth":13,"w":{"0":-0.36241912733869036,"1":-0.39407744734465144,"2":-0.24760377957320448,"3":-0.3549624687350282,"4":-0.22440382515215973,"5":-0.3210697927111683,"6":-0.3055705774966758,"7":-0.21476538850767082,"8":-0.5655586427113627,"9":-0.2338571828728901,"10":-0.2552604855785966,"11":-0.6005698291387914,"12":-0.48394810616218636}},{"sx":1,"sy":1,"depth":13,"w":{"0":1.4198086509957712,"1":-0.7371911304119227,"2":-2.019540024733145,"3":1.0937792140265978,"4":0.2796094182709767,"5":-0.502557274743524,"6":-1.7134143296041895,"7":-1.4409311936954499,"8":-0.5540589116075445,"9":1.2543249492832216,"10":2.1289137106003126,"11":-2.1373396373932096,"12":1.2385510445583627}},{"sx":1,"sy":1,"depth":13,"w":{"0":-1.8590321746693452,"1":0.6198971756645842,"2":0.45778460272274085,"3":-2.570225940951156,"4":3.747253106270582,"5":2.755711966243217,"6":-0.1249551235622944,"7":-1.1410838050948795,"8":1.7120833161209499,"9":-1.029189079006837,"10":-1.2883756053091855,"11":2.891502373825234,"12":-0.9761653649754879}},{"sx":1,"sy":1,"depth":13,"w":{"0":-0.3301076071100489,"1":-0.40528763279526586,"2":-0.2603780431159019,"3":-0.48129689246390217,"4":-0.41454461973824186,"5":-0.3216821355841314,"6":-0.4323681824839572,"7":-0.29756990256621624,"8":-0.2607499793425271,"9":-0.16820370944391028,"10":-0.33753215897266564,"11":-0.3529299165472053,"12":-0.5141771490909753}},{"sx":1,"sy":1,"depth":13,"w":{"0":-1.7162769403131983,"1":2.1796340768732225,"2":1.86994313717869,"3":-1.1685934334347712,"4":-2.9728616622085373,"5":-0.42077758852617053,"6":0.5649208945731203,"7":-0.3733554057824244,"8":-1.4387710127988111,"9":-0.01754979027021025,"10":-1.5182098439774527,"11":-0.5295710729837196,"12":2.0048682234703343}},{"sx":1,"sy":1,"depth":13,"w":{"0":1.9282653264222962,"1":1.551231374403692,"2":-0.6538990064713175,"3":3.831591819537778,"4":-2.1699493649533497,"5":9.678866520998383,"6":3.5389907308409545,"7":4.952291436472027,"8":0.7467246469682461,"9":-1.2780357257503427,"10":-2.410256647330751,"11":-8.092353405509474,"12":-0.6633956747604912}}],"biases":{"sx":1,"sy":1,"depth":14,"w":{"0":-0.44885948527370423,"1":-1.2097451483023003,"2":0.9402003805083542,"3":1.5488987760117652,"4":0.9087061265582784,"5":0.48530304640994115,"6":-1.0740489403814875,"7":0.47961989908186625,"8":-1.1370166109486677,"9":-0.31817880022458817,"10":-1.2845644156963207,"11":-1.0330919324339818,"12":0.10212417552190253,"13":2.0406529291691315}}},{"out_depth":14,"out_sx":1,"out_sy":1,"layer_type":"softmax","num_inputs":14}]},{"layers":[{"out_depth":2,"out_sx":1,"out_sy":1,"layer_type":"input"},{"out_depth":13,"out_sx":1,"out_sy":1,"layer_type":"fc","num_inputs":2,"l1_decay_mul":0,"l2_decay_mul":1,"filters":[{"sx":1,"sy":1,"depth":2,"w":{"0":5.861293332722897,"1":2.664375773960658}},{"sx":1,"sy":1,"depth":2,"w":{"0":-0.9004948755310728,"1":0.6497130425624991}},{"sx":1,"sy":1,"depth":2,"w":{"0":3.4576525334237402,"1":6.439987097870749}},{"sx":1,"sy":1,"depth":2,"w":{"0":2.253718572700554,"1":1.547606243279337}},{"sx":1,"sy":1,"depth":2,"w":{"0":1.542803330006396,"1":2.698147877733762}},{"sx":1,"sy":1,"depth":2,"w":{"0":-2.013927526670393,"1":-3.4250304913758467}},{"sx":1,"sy":1,"depth":2,"w":{"0":0.8894067925760697,"1":-0.8804884005212025}},{"sx":1,"sy":1,"depth":2,"w":{"0":-7.437949785168251,"1":-2.681553552596919}},{"sx":1,"sy":1,"depth":2,"w":{"0":-0.258597781063127,"1":1.220151257938545}},{"sx":1,"sy":1,"depth":2,"w":{"0":0.07038724151798313,"1":-1.444157395013529}},{"sx":1,"sy":1,"depth":2,"w":{"0":-4.285503563151585,"1":-1.6378004861558288}},{"sx":1,"sy":1,"depth":2,"w":{"0":3.344555074073293,"1":-0.7350387319119326}},{"sx":1,"sy":1,"depth":2,"w":{"0":1.622158041792431,"1":-1.1662917522571465}}],"biases":{"sx":1,"sy":1,"depth":13,"w":{"0":-3.0620685753251133,"1":-0.12463086984454297,"2":-1.2369147620678682,"3":0.35955488115496037,"4":-1.6850093296087254,"5":2.031282449584648,"6":0.27440909556660087,"7":-0.7739644664534436,"8":-0.06566346411992886,"9":-0.13450443656076705,"10":-0.6466769046356801,"11":-1.663143188716508,"12":1.0193786654020807}}},{"out_depth":13,"out_sx":1,"out_sy":1,"layer_type":"sigmoid"},{"out_depth":13,"out_sx":1,"out_sy":1,"layer_type":"fc","num_inputs":13,"l1_decay_mul":0,"l2_decay_mul":1,"filters":[{"sx":1,"sy":1,"depth":13,"w":{"0":2.1341810012556364,"1":-0.3830604004735105,"2":-1.0420618525239942,"3":0.0565639513442042,"4":-0.1406916915079366,"5":0.21948220563071105,"6":0.610619180430896,"7":1.7646674132335107,"8":-0.6602676129078855,"9":0.14068308403664156,"10":1.2734575023272487,"11":1.117384085311825,"12":0.5555774419469032}},{"sx":1,"sy":1,"depth":13,"w":{"0":-0.49145324875716045,"1":0.10367108214796436,"2":0.58668349865392,"3":0.1990956879137212,"4":-0.3339152164937891,"5":-0.09817829971754746,"6":-0.07440083193351056,"7":-0.7831389250531491,"8":0.18143777812217798,"9":0.08399676747865538,"10":-0.5025646001950845,"11":-0.09494612323177573,"12":-0.09635206318149786}},{"sx":1,"sy":1,"depth":13,"w":{"0":-2.699124199609811,"1":0.5650751355454885,"2":2.2761978771514078,"3":-0.5658416976750386,"4":-0.6064181522989911,"5":1.0651955493871876,"6":-1.1377496482188518,"7":-2.267537452660042,"8":0.6534123329011199,"9":-1.0358368495310204,"10":-0.7363717762737638,"11":-1.33107501892377,"12":-0.3898738060434513}},{"sx":1,"sy":1,"depth":13,"w":{"0":0.4343185616914418,"1":0.10738653524932329,"2":-1.2536496455209534,"3":0.7715821113686617,"4":1.3137845315041345,"5":-1.2298877499388916,"6":-0.023771454706527393,"7":0.9133585764574832,"8":-0.2531856781898611,"9":0.2704729174639336,"10":-0.014822928032957797,"11":0.4667942253429313,"12":-0.36110933511836657}},{"sx":1,"sy":1,"depth":13,"w":{"0":1.323926569797223,"1":-0.10226575706444553,"2":-0.6452508741881864,"3":-1.0806229367252493,"4":-0.009574998830641163,"5":0.03243170444025888,"6":0.32899129269844907,"7":1.9379546069775087,"8":-0.4088255088144189,"9":0.2978591136593804,"10":1.5363939466917547,"11":0.6219574357296257,"12":-0.08196621053164387}},{"sx":1,"sy":1,"depth":13,"w":{"0":0.6770238874225013,"1":0.03494939763331918,"2":-1.0527324867012853,"3":0.6762432826587487,"4":1.3817403623717845,"5":-1.507789449415306,"6":-0.21599806078657308,"7":0.8996653213105291,"8":0.034583141480823074,"9":-0.2066792137836398,"10":-0.3633545065207652,"11":0.5411414315666178,"12":-0.9165802783335413}},{"sx":1,"sy":1,"depth":13,"w":{"0":1.3779416311827124,"1":-0.40489383307487525,"2":-0.912375958714367,"3":-0.7806570698662368,"4":-0.29005593674757046,"5":0.9920948016309409,"6":0.4307867019962279,"7":1.6672409740692904,"8":-0.019309668369651804,"9":0.30297835883076146,"10":1.3883906680822027,"11":0.5623845580602451,"12":0.31689547249251127}},{"sx":1,"sy":1,"depth":13,"w":{"0":-0.43142416462679206,"1":0.4296740067838487,"2":0.43327214754075105,"3":0.23851898588697482,"4":0.25586188792432596,"5":0.3793279180497051,"6":0.06737843283630858,"7":-0.04015009358648783,"8":0.2838905404693743,"9":-0.12458120999946364,"10":0.28351131658388823,"11":0.2611011594355052,"12":0.12620547651856218}},{"sx":1,"sy":1,"depth":13,"w":{"0":-1.0775496869541592,"1":0.36343990658270026,"2":1.5370638097183058,"3":-1.0018184789192364,"4":-1.0506176190474412,"5":1.2561221442143988,"6":0.20680935076107368,"7":-1.2351863812540456,"8":0.22578679570466353,"9":-0.5180911529027568,"10":-0.2223089457883331,"11":-0.4605734581916781,"12":0.08863530222787427}},{"sx":1,"sy":1,"depth":13,"w":{"0":1.192058576022958,"1":-0.18186070686314673,"2":-1.6449953629023437,"3":0.6184937244580261,"4":0.33858379122586924,"5":-0.3311857625051854,"6":0.264140547896835,"7":0.8483466135828991,"8":-0.0640642045354359,"9":0.5064662431336225,"10":-0.21251516775520973,"11":0.6753589884145359,"12":0.9127369956128978}},{"sx":1,"sy":1,"depth":13,"w":{"0":-0.16888080021784185,"1":0.13993012684078873,"2":-0.81993646660462,"3":0.7725808777513054,"4":1.216266757870052,"5":-1.6290722434183764,"6":-0.40242145140366764,"7":0.442617260587314,"8":0.33757765017296204,"9":-0.10256540602796893,"10":-0.14086838502223298,"11":0.6144781165743312,"12":-1.5163124147490903}},{"sx":1,"sy":1,"depth":13,"w":{"0":2.007428662472802,"1":0.38152461144025673,"2":-3.4315787720795594,"3":1.7590935668977223,"4":1.6886003435937362,"5":-2.0245812158589835,"6":0.11941303699362169,"7":2.4534459591697306,"8":-0.3468506129421869,"9":0.5144399976566651,"10":0.40225570825740653,"11":0.9938978012074082,"12":-0.5794846600361356}},{"sx":1,"sy":1,"depth":13,"w":{"0":-3.1161518069365526,"1":0.5959520111458351,"2":2.767332629480872,"3":-0.7957334534141645,"4":-0.9802249845986208,"5":0.5944628942140816,"6":-0.4586939813074434,"7":-2.2783115417801003,"8":0.2912924620359051,"9":-0.5218708410952119,"10":-0.743401210192474,"11":-1.0486399095405012,"12":-0.330471248331619}}],"biases":{"sx":1,"sy":1,"depth":13,"w":{"0":0.19095651464419935,"1":0.20420739181895065,"2":-0.36270983487626646,"3":0.1348725401316875,"4":-0.06571808827335308,"5":0.11514909452901033,"6":0.017619391578324834,"7":0.2639851209363259,"8":-0.2773758204357327,"9":0.31886638841151715,"10":-0.2771882604970089,"11":0.2569031558382618,"12":-0.05379692576487989}}},{"out_depth":13,"out_sx":1,"out_sy":1,"layer_type":"sigmoid"},{"out_depth":14,"out_sx":1,"out_sy":1,"layer_type":"fc","num_inputs":13,"l1_decay_mul":0,"l2_decay_mul":1,"filters":[{"sx":1,"sy":1,"depth":13,"w":{"0":-0.38627685605376755,"1":-0.244454722757897,"2":0.1599834819114788,"3":-0.11583439965059913,"4":-0.07299070585155677,"5":-0.39553627286522125,"6":-0.13463560862225307,"7":-0.5621342053990372,"8":-0.5448331890669659,"9":-0.02771393682646647,"10":-0.058498658069483504,"11":-0.21873018830536603,"12":0.15346207538394854}},{"sx":1,"sy":1,"depth":13,"w":{"0":-0.11933617786535355,"1":-0.2741035842582732,"2":-0.3066945032268816,"3":-0.1797885111299601,"4":-0.33476665979824805,"5":0.13329399348887191,"6":-0.20292834358399495,"7":-0.5902907220831327,"8":0.28544484688220584,"9":-0.26141758481841176,"10":-0.32842052676604555,"11":-0.019541297688316608,"12":-0.1434520286246636}},{"sx":1,"sy":1,"depth":13,"w":{"0":0.07697824249310196,"1":0.9203214160896112,"2":1.2792116841914782,"3":0.05718004845256008,"4":-0.6449301239172818,"5":-0.08214785955044668,"6":0.008586112684748367,"7":0.8035524468310372,"8":0.9397271929928955,"9":1.3601130352736226,"10":-0.6803817480863766,"11":-0.8122569865168289,"12":1.739729042961275}},{"sx":1,"sy":1,"depth":13,"w":{"0":-0.3575316838945275,"1":-0.1413648767839134,"2":-0.3678465257386638,"3":-0.09643092854629601,"4":-0.596042432198114,"5":0.046844433243539825,"6":0.18765704682908682,"7":-0.1488960601595052,"8":-0.2064088765692278,"9":-0.4747606533052928,"10":0.14857946976290007,"11":-0.2552682495487987,"12":0.002499215486601998}},{"sx":1,"sy":1,"depth":13,"w":{"0":0.42872666483632377,"1":0.11051054884072524,"2":-0.6491005697474029,"3":-0.7028166182959941,"4":-0.18308565483013445,"5":0.09017336120445939,"6":-0.20785318060943878,"7":-0.5295066771166599,"8":0.3369777235660213,"9":0.09642498114108383,"10":-0.36506949375013154,"11":-0.13586934937884587,"12":-0.0541806074366409}},{"sx":1,"sy":1,"depth":13,"w":{"0":0.7072913516324866,"1":0.327424941559659,"2":2.157800640596286,"3":-1.0838100431703825,"4":1.7019243419449237,"5":-1.2675455780562823,"6":2.1764406630276527,"7":1.3372956505038,"8":2.5417344970666593,"9":-0.6418447692061857,"10":-1.1180867062472084,"11":-2.802825085690005,"12":2.0434668719774356}},{"sx":1,"sy":1,"depth":13,"w":{"0":0.02616647973315347,"1":-0.4371473722594555,"2":-0.5470160651167139,"3":-0.008458082438860526,"4":-0.2955734658476615,"5":-0.11242487818558987,"6":-0.3638062093581166,"7":-0.07489745743311205,"8":-0.4154333122185405,"9":0.2503720320705335,"10":-0.022709514868302205,"11":0.06963373929709672,"12":-0.4193202921101667}},{"sx":1,"sy":1,"depth":13,"w":{"0":-0.04484330941663359,"1":-0.08337030895573483,"2":-0.04241722739488697,"3":-0.6500254733547591,"4":-0.2042896001259642,"5":-0.012020111590870486,"6":-0.2870485822868205,"7":-0.12966454785092663,"8":-0.31303829832016916,"9":0.1360291157352052,"10":-0.4587390142689963,"11":-0.13574574030713435,"12":-0.020025437338467015}},{"sx":1,"sy":1,"depth":13,"w":{"0":-0.04872272911407631,"1":-0.31734843520266437,"2":-0.26456056300971376,"3":-0.2146598592439636,"4":0.14370092388610364,"5":-0.2551126148030903,"6":-0.431163106807788,"7":-0.17380673765625373,"8":-0.392489555101859,"9":-0.042951381525148415,"10":-0.34404901214872513,"11":-0.20248775371662298,"12":0.04471029103114094}},{"sx":1,"sy":1,"depth":13,"w":{"0":-0.07716140381412814,"1":-0.3343574481583246,"2":-0.16809839460827056,"3":0.09888536748249302,"4":-0.08370067762524895,"5":0.10344091345196622,"6":0.008851189189641865,"7":-0.36198463562576244,"8":-0.2191531690688499,"9":-0.46515886756184294,"10":-0.5831627081608431,"11":-0.017735284437775577,"12":-0.2684178619203605}},{"sx":1,"sy":1,"depth":13,"w":{"0":0.02164068200656596,"1":-0.22217904050266576,"2":-0.03614213184502482,"3":-0.21065420111249436,"4":-0.1778562069493238,"5":0.24072156121638405,"6":-0.28501434287817257,"7":-0.34406362017607234,"8":-0.1728210898130885,"9":-0.006736246422919027,"10":-0.41403264882587926,"11":-0.23593273713047402,"12":-0.4734571854722261}},{"sx":1,"sy":1,"depth":13,"w":{"0":0.16100686207719844,"1":-0.14372676004483242,"2":-0.3519253670522199,"3":-0.03706709514394314,"4":-0.5680569118145857,"5":0.2341803265216791,"6":-0.8534243549280792,"7":0.18833063334472605,"8":-0.257769369451412,"9":0.07932418087218317,"10":-0.0970906686169352,"11":-0.8154221047754024,"12":-0.2811826378767711}},{"sx":1,"sy":1,"depth":13,"w":{"0":-1.7930443373978426,"1":0.8713954812487048,"2":2.84675284575824,"3":0.9146313159620139,"4":-0.9907446023470612,"5":1.327909192808241,"6":-1.4187803288839702,"7":1.0624566402426043,"8":0.4597065863137532,"9":-0.34297058433125405,"10":1.941610150320829,"11":0.7583622998044074,"12":2.933401400156805}},{"sx":1,"sy":1,"depth":13,"w":{"0":3.0601686251805345,"1":-0.8220609429512633,"2":-3.941818970532107,"3":2.0525680479594732,"4":2.787671753747335,"5":2.007905087502123,"6":2.5845476858725185,"7":0.19493716701727218,"8":-2.004956105082885,"9":2.4459523329299104,"10":1.2596595951428962,"11":5.034526142001319,"12":-4.079809106105543}}],"biases":{"sx":1,"sy":1,"depth":14,"w":{"0":-0.44113023814137664,"1":-0.40538595724290116,"2":1.1884454167796437,"3":-0.5285443952392033,"4":-0.5945060635699743,"5":1.6573793267281667,"6":-0.3915549799500598,"7":-0.5385119320898293,"8":-0.4319491071815017,"9":-0.4353722035623724,"10":-0.4165728013328948,"11":-0.34190638974637383,"12":0.8690857872037268,"13":0.8105235373449473}}},{"out_depth":14,"out_sx":1,"out_sy":1,"layer_type":"softmax","num_inputs":14}]},{"layers":[{"out_depth":2,"out_sx":1,"out_sy":1,"layer_type":"input"},{"out_depth":13,"out_sx":1,"out_sy":1,"layer_type":"fc","num_inputs":2,"l1_decay_mul":0,"l2_decay_mul":1,"filters":[{"sx":1,"sy":1,"depth":2,"w":{"0":-1.55821907356447,"1":4.807561443698586}},{"sx":1,"sy":1,"depth":2,"w":{"0":1.2916869779548754,"1":1.4585131399522038}},{"sx":1,"sy":1,"depth":2,"w":{"0":0.04596187507153523,"1":6.373961156714427}},{"sx":1,"sy":1,"depth":2,"w":{"0":2.197947597259556,"1":-1.8037538028693412}},{"sx":1,"sy":1,"depth":2,"w":{"0":-2.031866521082513,"1":1.5177338786023222}},{"sx":1,"sy":1,"depth":2,"w":{"0":-1.2552806050604743,"1":-1.8406641780259527}},{"sx":1,"sy":1,"depth":2,"w":{"0":2.4425844493771423,"1":-2.1979191567655256}},{"sx":1,"sy":1,"depth":2,"w":{"0":-1.4011575222082562,"1":0.699337508276571}},{"sx":1,"sy":1,"depth":2,"w":{"0":-3.4455623746114648,"1":-3.150739500781747}},{"sx":1,"sy":1,"depth":2,"w":{"0":2.9588094071863367,"1":1.732218015183988}},{"sx":1,"sy":1,"depth":2,"w":{"0":2.9823402362800855,"1":1.0334020209369206}},{"sx":1,"sy":1,"depth":2,"w":{"0":-1.5541856319594185,"1":-1.7551108667745068}},{"sx":1,"sy":1,"depth":2,"w":{"0":0.3902252276277242,"1":1.0005257191356765}}],"biases":{"sx":1,"sy":1,"depth":13,"w":{"0":2.106289685402862,"1":2.1067331898172004,"2":-3.9876430727253593,"3":1.7593708601837,"4":-2.220971167988682,"5":-2.7827387543827053,"6":1.5929304633581556,"7":-0.7210903466814295,"8":-0.5758385528997788,"9":5.3935883417577415,"10":2.8830304845202686,"11":-3.2101431331144963,"12":0.47206172361600973}}},{"out_depth":13,"out_sx":1,"out_sy":1,"layer_type":"sigmoid"},{"out_depth":13,"out_sx":1,"out_sy":1,"layer_type":"fc","num_inputs":13,"l1_decay_mul":0,"l2_decay_mul":1,"filters":[{"sx":1,"sy":1,"depth":13,"w":{"0":0.31044469098952676,"1":1.050234447542071,"2":0.039090645974987334,"3":0.3590116545705893,"4":-0.2133691964739252,"5":-1.2552302849782893,"6":-0.000784817621887982,"7":-0.34122663048131113,"8":0.3219609359952078,"9":2.1623734881535173,"10":0.7650599074920897,"11":-1.4083107120118687,"12":0.8692982869712639}},{"sx":1,"sy":1,"depth":13,"w":{"0":0.08346743502660998,"1":1.277766533138922,"2":-1.1006145051019576,"3":-0.6670426854987255,"4":0.029659383161576028,"5":-1.7032809364258574,"6":-1.0033121980172077,"7":-0.39347286272302584,"8":0.3215184636978644,"9":2.1636288544325617,"10":-0.08403501256447798,"11":-1.4892561186051065,"12":0.6648224733227028}},{"sx":1,"sy":1,"depth":13,"w":{"0":0.19277526379374374,"1":1.190885401383017,"2":0.7324438620268471,"3":1.0629565302426793,"4":-1.9362785816640737,"5":-0.4640559545541358,"6":0.7850190986802337,"7":-0.9107907527395347,"8":-0.6565802385099982,"9":1.812908398220138,"10":1.2064511267432003,"11":-1.014140830988978,"12":0.6507223124824686}},{"sx":1,"sy":1,"depth":13,"w":{"0":-0.7532024792153856,"1":0.2751679341020386,"2":-0.9199272027858804,"3":-0.237308083212932,"4":0.7861866025678025,"5":-0.12703579677566476,"6":-0.7227555032251433,"7":0.17012723980700037,"8":0.48486984597535765,"9":0.10376193275356685,"10":-0.5399043819130313,"11":0.23433619317498805,"12":0.1367999175341123}},{"sx":1,"sy":1,"depth":13,"w":{"0":2.1134443594953254,"1":-0.4872102042978849,"2":3.257269664467394,"3":1.7242922279878834,"4":-0.8541942916126871,"5":0.9641268982570673,"6":2.0049696942619937,"7":-0.5105710253516993,"8":-2.4785165566068654,"9":-2.6837223349140586,"10":2.9000498669606443,"11":1.367806965410795,"12":-0.014261554632682399}},{"sx":1,"sy":1,"depth":13,"w":{"0":0.11048161304428869,"1":1.3630284173396212,"2":0.04740290514196605,"3":0.21660922736257715,"4":-0.9552718309047007,"5":-0.7417211040880943,"6":0.33347884331814776,"7":-0.4870643106375569,"8":-0.5670689626472704,"9":1.5995308618934174,"10":1.192361443785408,"11":-1.228654728168654,"12":0.36699958198077515}},{"sx":1,"sy":1,"depth":13,"w":{"0":1.6807402425167628,"1":0.3048019162593386,"2":0.38052638706650954,"3":0.06027538632058778,"4":-0.2076649902567759,"5":-0.8996208439264464,"6":0.19088864776561068,"7":-0.3303892861187552,"8":0.3872286420031622,"9":0.6262796386246617,"10":0.19966428699391425,"11":-0.615683503257844,"12":0.7832668318664026}},{"sx":1,"sy":1,"depth":13,"w":{"0":-0.12385887427795819,"1":-0.36699958410160366,"2":-0.4774526289362104,"3":-0.5835369558915624,