{"out":[{"layers":[{"out_depth":2,"out_sx":1,"out_sy":1,"layer_type":"input"},{"out_depth":13,"out_sx":1,"out_sy":1,"layer_type":"fc","num_inputs":2,"l1_decay_mul":0,"l2_decay_mul":1,"filters":[{"sx":1,"sy":1,"depth":2,"w":{"0":-9.792677328298716,"1":2.3983816087969987}},{"sx":1,"sy":1,"depth":2,"w":{"0":1.983224257253386,"1":4.926677516952596}},{"sx":1,"sy":1,"depth":2,"w":{"0":3.710112035800488,"1":1.3632086133779127}},{"sx":1,"sy":1,"depth":2,"w":{"0":-5.965178793089738,"1":-1.358214287558461}},{"sx":1,"sy":1,"depth":2,"w":{"0":-5.310193509206706,"1":-3.2000203149083544}},{"sx":1,"sy":1,"depth":2,"w":{"0":-5.541702885887241,"1":4.77381123238341}},{"sx":1,"sy":1,"depth":2,"w":{"0":0.9552733653643596,"1":-8.496898682317086}},{"sx":1,"sy":1,"depth":2,"w":{"0":-2.8160827843252028,"1":3.177132792362522}},{"sx":1,"sy":1,"depth":2,"w":{"0":3.102109010002771,"1":6.416639433091965}},{"sx":1,"sy":1,"depth":2,"w":{"0":-5.847529262564704,"1":1.7140710527635796}},{"sx":1,"sy":1,"depth":2,"w":{"0":4.8072909637510355,"1":3.5509450488289724}},{"sx":1,"sy":1,"depth":2,"w":{"0":2.1895520540406723,"1":4.086022348081948}},{"sx":1,"sy":1,"depth":2,"w":{"0":-5.136821018187839,"1":-4.210144584231901}}],"biases":{"sx":1,"sy":1,"depth":13,"w":{"0":-0.886591680116769,"1":-12.267531409319734,"2":5.238240740154347,"3":1.7224370560108027,"4":2.742539519850146,"5":2.0361657070446175,"6":7.436796632579971,"7":-0.30790574266283954,"8":1.185666025494927,"9":-7.973902714730846,"10":-5.262941498516223,"11":-4.133213433234843,"12":4.4685567750453}}},{"out_depth":13,"out_sx":1,"out_sy":1,"layer_type":"sigmoid"},{"out_depth":13,"out_sx":1,"out_sy":1,"layer_type":"fc","num_inputs":13,"l1_decay_mul":0,"l2_decay_mul":1,"filters":[{"sx":1,"sy":1,"depth":13,"w":{"0":1.831314715637592,"1":0.7920196883777014,"2":-0.32383556056620216,"3":1.4710706251210117,"4":2.190939904979824,"5":2.401555632594167,"6":-2.0651609699211075,"7":0.01064486535375374,"8":0.9544286302343188,"9":0.996222790008756,"10":-1.7786495280729033,"11":-0.9895769892121549,"12":2.1045388563943423}},{"sx":1,"sy":1,"depth":13,"w":{"0":3.021669346150088,"1":0.08825290036846771,"2":3.889049631239,"3":0.11523372294799344,"4":-2.311538876272168,"5":-4.054638338654995,"6":-4.092340602268869,"7":-3.118114477397944,"8":0.1765113814093328,"9":0.5711958406424614,"10":1.9221721363350315,"11":2.726201506701061,"12":-1.8210835672239758}},{"sx":1,"sy":1,"depth":13,"w":{"0":3.7556765238902647,"1":0.3111240766243917,"2":-0.6711285499973635,"3":0.9587664388837086,"4":-1.0932383471425435,"5":-0.3005083843413707,"6":-5.586860786397064,"7":0.30918908500006487,"8":-1.2800609106668326,"9":3.2044001228691767,"10":0.8867180245466222,"11":1.057576879430437,"12":-1.4129553849926437}},{"sx":1,"sy":1,"depth":13,"w":{"0":-3.9577105845365157,"1":1.061438912694435,"2":0.9279497094126463,"3":-3.183600361137336,"4":-0.38939529365800823,"5":-0.05164007826382441,"6":1.315339599645749,"7":0.0708969697255232,"8":-0.11448558800612658,"9":-1.3451363204397782,"10":0.5353988260624052,"11":0.8802228353584676,"12":0.08804260757304462}},{"sx":1,"sy":1,"depth":13,"w":{"0":1.043515459935207,"1":-0.2195929645848998,"2":0.648695424387058,"3":0.8285588896324039,"4":0.8587785085258249,"5":-0.6972482999718599,"6":3.646404810838864,"7":-0.4597800960453681,"8":-2.616569812140402,"9":3.418342416271661,"10":-0.11300752414414013,"11":-2.087344382128047,"12":-0.6352763140210846}},{"sx":1,"sy":1,"depth":13,"w":{"0":-1.5956306298937455,"1":-0.16187474755696132,"2":0.7967838260545781,"3":-0.7784082236856844,"4":-0.05227117337863987,"5":-2.4301107806880173,"6":3.9604086207668323,"7":-2.6366904391704216,"8":-0.07209887531665748,"9":-0.5798536706701237,"10":-0.29522464130187026,"11":-0.5836145740970244,"12":0.549090454526348}},{"sx":1,"sy":1,"depth":13,"w":{"0":-3.440597188975181,"1":-0.47348533556233724,"2":-1.4039908983486333,"3":2.0198961780172646,"4":5.018970939981948,"5":2.1307327201783117,"6":1.3691578441258574,"7":0.9579998787313074,"8":-1.6576422030612126,"9":-0.8026362122551179,"10":-3.7349733536214305,"11":-4.044884824321327,"12":5.48696853142447}},{"sx":1,"sy":1,"depth":13,"w":{"0":-4.5076180480652095,"1":1.809016135147479,"2":1.1991322766669188,"3":-3.5310802880490098,"4":-0.14843515319591322,"5":0.05715401290572548,"6":1.6295177602121833,"7":-0.14803674454150034,"8":-0.3910450115496648,"9":-1.4743943611603547,"10":0.17726842448623317,"11":1.0159467687562274,"12":0.8253483148376453}},{"sx":1,"sy":1,"depth":13,"w":{"0":-0.41410240388163616,"1":2.5858933787213476,"2":-0.8148047215319187,"3":-1.1995024757320771,"4":1.0278477018178993,"5":-2.2153385993022225,"6":0.5814239775866608,"7":1.0431973894359583,"8":-2.3297535362680497,"9":4.082051207905195,"10":-0.06568960595955571,"11":0.5322440610337573,"12":0.9135437046330552}},{"sx":1,"sy":1,"depth":13,"w":{"0":1.1511518508138598,"1":-4.785652352190801,"2":0.7968937299491314,"3":-0.61063169016972,"4":-0.6436527759529614,"5":0.27999470087943595,"6":-0.5848307547083562,"7":1.7857423851119716,"8":4.5097184523208425,"9":-3.7521086093154903,"10":-3.5733183585134256,"11":-2.1308539740430628,"12":-0.8824904194380209}},{"sx":1,"sy":1,"depth":13,"w":{"0":1.951291374284573,"1":7.023352640037053,"2":2.795702767809116,"3":-2.7035431067932096,"4":0.6861893154909374,"5":-5.74170900812252,"6":0.08489485224042592,"7":0.22270372117097206,"8":-4.283875959329882,"9":7.421579474206944,"10":1.6123838010247058,"11":-2.775914119201596,"12":1.563009248586063}},{"sx":1,"sy":1,"depth":13,"w":{"0":1.660030384725718,"1":2.513043255429285,"2":0.07989264657445132,"3":-0.352980787133263,"4":-0.8374519446208339,"5":-1.9279741008126043,"6":1.3728682179848917,"7":-1.6909517712631035,"8":5.272638674987842,"9":-4.715704546535045,"10":0.7137981943897946,"11":-0.199758282396185,"12":-0.3476257169406435}},{"sx":1,"sy":1,"depth":13,"w":{"0":2.5596685198169875,"1":2.092577883945501,"2":-3.8039188675211877,"3":-0.8397825223696976,"4":-1.3268461253166104,"5":-2.2730766350323868,"6":-0.741532712870738,"7":-1.1416168060525147,"8":-1.989784255497119,"9":6.961381622306889,"10":6.232971298655438,"11":3.5618523533595288,"12":-2.44619846418611}}],"biases":{"sx":1,"sy":1,"depth":13,"w":{"0":-0.949482831051423,"1":4.45664207573167,"2":0.6321146061182272,"3":1.3164611213045323,"4":-1.0794248181808301,"5":0.9626134603548607,"6":-1.92648183186486,"7":1.7299310899779763,"8":0.9800000793795747,"9":-1.4688921458237976,"10":1.7194718340595,"11":-1.6763379677876102,"12":3.2404534717936397}}},{"out_depth":13,"out_sx":1,"out_sy":1,"layer_type":"sigmoid"},{"out_depth":14,"out_sx":1,"out_sy":1,"layer_type":"fc","num_inputs":13,"l1_decay_mul":0,"l2_decay_mul":1,"filters":[{"sx":1,"sy":1,"depth":13,"w":{"0":-0.43442293569005247,"1":-0.4145915750342006,"2":-0.6865607020920741,"3":-1.0778777429646513,"4":-1.5695471479263705,"5":-0.4010318177129816,"6":1.8601788011857963,"7":-1.5353129698653034,"8":-2.870309585850068,"9":3.465433199820876,"10":-4.026728412255253,"11":1.7021741696876866,"12":4.912333280636198}},{"sx":1,"sy":1,"depth":13,"w":{"0":-0.5574163851092122,"1":-0.429251958620114,"2":-0.2759855483331976,"3":-0.07327423868535785,"4":-0.06776870960690759,"5":0.0013157558893649986,"6":-0.2913348501712288,"7":-0.06515700938587417,"8":0.007776031884651699,"9":-0.19471591864028392,"10":-0.13505672253857495,"11":-0.4644149550021933,"12":-0.39763947015368556}},{"sx":1,"sy":1,"depth":13,"w":{"0":1.494775389801135,"1":-6.186896458919602,"2":-3.13328328541659,"3":-1.317094494543269,"4":0.5480294578707963,"5":-0.32891783070430064,"6":-0.7576616431169223,"7":-1.4688979875335675,"8":-0.7278071698800429,"9":0.1313417309843714,"10":-2.460300187081079,"11":5.029160623837081,"12":4.810845683935914}},{"sx":1,"sy":1,"depth":13,"w":{"0":-1.9725780458191073,"1":3.6437958176741034,"2":0.7259840868755674,"3":-2.333061108510149,"4":-0.37559751019573384,"5":2.734956465845869,"6":-8.549341949958972,"7":-2.225756332536608,"8":0.01174956881055615,"9":-0.39327482703447897,"10":5.015964883783177,"11":4.425433004856386,"12":-9.580459443963402}},{"sx":1,"sy":1,"depth":13,"w":{"0":0.7266121792896623,"1":0.4432909143924583,"2":-0.3544407938179996,"3":-0.9022053794643045,"4":-1.7849919477441494,"5":-0.49974506269416064,"6":2.6064764515368166,"7":-0.9567805002176466,"8":-0.7809113669840744,"9":-0.2323235097180146,"10":-1.3893002091499158,"11":0.44883954087430583,"12":1.183958958312328}},{"sx":1,"sy":1,"depth":13,"w":{"0":-1.062958012487284,"1":6.2665776178654635,"2":3.913137962581111,"3":-1.5239045226753158,"4":-0.9354522587219402,"5":3.9471773075124905,"6":0.3138291292839505,"7":-1.6873881928460612,"8":2.601479428151981,"9":-1.0455504601818024,"10":5.874407122474542,"11":1.3632088528672897,"12":-6.63719551213389}},{"sx":1,"sy":1,"depth":13,"w":{"0":-0.5469261085028797,"1":-0.3450750308293497,"2":-0.3931054193932867,"3":-0.017906672516913098,"4":-0.17744307069281612,"5":-0.015245209693775713,"6":-0.12470229557720962,"7":-0.19069203182677294,"8":-0.14201700517950305,"9":-0.5558179540900983,"10":-0.12597273451232027,"11":-0.35377749897608396,"12":-0.32827665606993356}},{"sx":1,"sy":1,"depth":13,"w":{"0":5.258485225594077,"1":-0.6861136595885152,"2":1.762303197682156,"3":2.7672977607821116,"4":-2.3441466769533466,"5":1.1812821371082494,"6":8.174572334225836,"7":4.555775779111778,"8":-1.6768127358093161,"9":-4.596391825857993,"10":-6.183784949215028,"11":-2.9747572867510548,"12":2.5323211759036712}},{"sx":1,"sy":1,"depth":13,"w":{"0":-0.5278292447733798,"1":-0.5673635510711278,"2":-0.2759273999823679,"3":-0.20945664172508577,"4":-0.06758483772302494,"5":-0.1657136559315761,"6":-0.3190669649751739,"7":-0.09264898986236994,"8":-0.14286306513660066,"9":-0.29702059829407,"10":-0.08274377315358962,"11":-0.3640387209183815,"12":-0.3920009507692155}},{"sx":1,"sy":1,"depth":13,"w":{"0":0.9349502530168305,"1":-2.7251205333820354,"2":2.9674104167828608,"3":-0.588966065614968,"4":5.821174145074704,"5":-1.1051779962394217,"6":-5.670874500075695,"7":-0.8813170150796777,"8":1.240147229580687,"9":5.717093335274527,"10":0.3025930653245521,"11":-2.795049034196416,"12":1.106791144323449}},{"sx":1,"sy":1,"depth":13,"w":{"0":-0.5804115507140737,"1":-0.4248976024307047,"2":-0.30481794530602496,"3":-0.20693813417093296,"4":-0.09979294385269441,"5":0.09170226853016453,"6":-0.235237332216604,"7":0.009957218401416003,"8":-0.22983117666990058,"9":-0.31198173374362104,"10":-0.08394475785697643,"11":-0.44661096356489094,"12":-0.3303306004175508}},{"sx":1,"sy":1,"depth":13,"w":{"0":-0.567628347990278,"1":-0.40028424881914126,"2":-0.27436319386794494,"3":-0.06276808381474556,"4":-0.18362296912870307,"5":-0.03411295221571637,"6":-0.31789668245669794,"7":-0.17342044033023596,"8":-0.05358303404156886,"9":-0.3340646831269122,"10":-0.22852928976051912,"11":-0.4362868774683106,"12":-0.2756446696426767}},{"sx":1,"sy":1,"depth":13,"w":{"0":1.7775460221374608,"1":1.7874060495061175,"2":-3.3652775682649785,"3":2.2156805274424105,"4":-2.3129848979824237,"5":-4.421370485143888,"6":1.382087959760604,"7":1.3949513452048814,"8":-0.9551291740616933,"9":1.8532471932901857,"10":-2.148572425265822,"11":0.48346226436049633,"12":-2.315705529369079}},{"sx":1,"sy":1,"depth":13,"w":{"0":-3.957641404388138,"1":-0.1941909850935162,"2":-0.6649252520909843,"3":3.1201485870674555,"4":3.3214817825158245,"5":-0.723544834318647,"6":1.7842388232322108,"7":3.328148098688705,"8":3.966361931022869,"9":-3.1213929214244955,"10":5.963066458813061,"11":-5.923221043805724,"12":5.667216559568522}}],"biases":{"sx":1,"sy":1,"depth":14,"w":{"0":-1.2670160825197994,"1":-1.5225565826492444,"2":2.232475198258908,"3":5.337652558246712,"4":0.6604052735494087,"5":-2.1480991981081132,"6":-1.4387933343729393,"7":-0.037876283371482675,"8":-1.3503689366987341,"9":1.0752682069446766,"10":-1.423794258429624,"11":-1.5117182449422,"12":0.004307285664022757,"13":1.3901143984284352}}},{"out_depth":14,"out_sx":1,"out_sy":1,"layer_type":"softmax","num_inputs":14}]},{"layers":[{"out_depth":2,"out_sx":1,"out_sy":1,"layer_type":"input"},{"out_depth":13,"out_sx":1,"out_sy":1,"layer_type":"fc","num_inputs":2,"l1_decay_mul":0,"l2_decay_mul":1,"filters":[{"sx":1,"sy":1,"depth":2,"w":{"0":0.01138367185731688,"1":-6.109008078426142}},{"sx":1,"sy":1,"depth":2,"w":{"0":9.855543748291849,"1":-2.070403945686314}},{"sx":1,"sy":1,"depth":2,"w":{"0":5.706592032325441,"1":-3.7444310268477325}},{"sx":1,"sy":1,"depth":2,"w":{"0":0.3241882427463904,"1":-7.721058653123386}},{"sx":1,"sy":1,"depth":2,"w":{"0":3.815162489599402,"1":-4.818657529579266}},{"sx":1,"sy":1,"depth":2,"w":{"0":-3.4618217268529548,"1":-4.156447595984687}},{"sx":1,"sy":1,"depth":2,"w":{"0":-4.070638900612555,"1":2.137104048879207}},{"sx":1,"sy":1,"depth":2,"w":{"0":-0.026084773705110587,"1":-3.165298209103791}},{"sx":1,"sy":1,"depth":2,"w":{"0":-5.111121807361615,"1":-0.05207731740756098}},{"sx":1,"sy":1,"depth":2,"w":{"0":-6.6500049396586,"1":-0.2668170738546773}},{"sx":1,"sy":1,"depth":2,"w":{"0":-2.768547577564409,"1":3.1154988793943255}},{"sx":1,"sy":1,"depth":2,"w":{"0":9.720845282661296,"1":2.773186812863851}},{"sx":1,"sy":1,"depth":2,"w":{"0":-7.851012178407067,"1":0.32964807051591494}}],"biases":{"sx":1,"sy":1,"depth":13,"w":{"0":1.4923468109594478,"1":-7.026951484227469,"2":-9.882367712646897,"3":8.764134559473188,"4":-12.57851045780152,"5":-2.7224927602545548,"6":2.7465173211959586,"7":-7.438567805391596,"8":7.969317527238046,"9":7.208455763898029,"10":6.895250019849293,"11":9.630576954972545,"12":4.859646275653727}}},{"out_depth":13,"out_sx":1,"out_sy":1,"layer_type":"sigmoid"},{"out_depth":13,"out_sx":1,"out_sy":1,"layer_type":"fc","num_inputs":13,"l1_decay_mul":0,"l2_decay_mul":1,"filters":[{"sx":1,"sy":1,"depth":13,"w":{"0":-3.8981662103361416,"1":-1.9708787942699093,"2":2.991007490994502,"3":-9.251648000618436,"4":3.178354499305577,"5":0.08512504845482545,"6":2.69312904518992,"7":2.62148676061496,"8":-2.978822603978112,"9":-3.9401140856634886,"10":-1.46917063580698,"11":5.872842220004602,"12":4.653843476022218}},{"sx":1,"sy":1,"depth":13,"w":{"0":-5.632456284599874,"1":-1.8585030393111674,"2":-0.45466959014382746,"3":-0.929332153383257,"4":-0.035602391671056055,"5":-0.16597953428997003,"6":2.4641917828460924,"7":0.2145505602133302,"8":-2.4178278745254476,"9":1.5979002001197191,"10":1.125417220428784,"11":1.3103127109324455,"12":1.2489795173521072}},{"sx":1,"sy":1,"depth":13,"w":{"0":-2.834007829492343,"1":2.974152589514246,"2":-1.7855998995076536,"3":-0.1953674259676176,"4":-0.798996668879233,"5":-3.4239089614042544,"6":0.06607852898377933,"7":-0.5960945983716254,"8":0.3011710682483683,"9":-1.9400138463486019,"10":2.2536675507032022,"11":0.6931644563144175,"12":-3.7171940619333665}},{"sx":1,"sy":1,"depth":13,"w":{"0":-0.5227070993589835,"1":2.4674906189548618,"2":-1.3270723953872388,"3":-1.328538193465482,"4":0.7809593436525283,"5":-0.6494383765310324,"6":-0.5634552968940969,"7":0.392681445485524,"8":-3.6683004128817704,"9":-6.1535161834352685,"10":1.2596676996013425,"11":0.8836875951423494,"12":-1.5152037459815995}},{"sx":1,"sy":1,"depth":13,"w":{"0":-0.20439106779887006,"1":-1.699572555075239,"2":-0.6180957503779108,"3":-0.3034797276820847,"4":2.2239061042639756,"5":1.144612858430702,"6":-1.4913601538358114,"7":2.6662855097465106,"8":0.5027849713248979,"9":-1.5572695609005471,"10":-1.8312101953703392,"11":0.20693652931733422,"12":3.1408644931299725}},{"sx":1,"sy":1,"depth":13,"w":{"0":0.32562474792746776,"1":2.709451700100756,"2":3.005193248179989,"3":2.845299341319784,"4":3.3281268758031626,"5":-1.6591993280628081,"6":-3.102861425488081,"7":-0.3594673580972445,"8":0.08400661254192364,"9":-0.607950061213463,"10":-1.7788591078471574,"11":1.2866685220873786,"12":-1.9137979803030254}},{"sx":1,"sy":1,"depth":13,"w":{"0":2.538534083460918,"1":-3.6698460354265263,"2":-2.47090221057588,"3":4.638936469591222,"4":-5.063187723153094,"5":-1.2928974059343685,"6":-1.0056959636820928,"7":-3.463936472081201,"8":-2.5176910685106275,"9":-0.9005826573564626,"10":2.2041569985302174,"11":3.977793462373954,"12":0.9925142219734525}},{"sx":1,"sy":1,"depth":13,"w":{"0":-0.723834642373257,"1":4.381292273701029,"2":1.6717640237049782,"3":-0.7000491160794837,"4":3.288094899861105,"5":0.8642652848518912,"6":0.0021964267846532235,"7":3.014887605053387,"8":-0.10933866796627974,"9":0.935261493009345,"10":-2.5710381949496184,"11":-7.090564319939114,"12":0.9125212534164864}},{"sx":1,"sy":1,"depth":13,"w":{"0":0.9368243149158607,"1":-0.47159205697900425,"2":0.9469562198634385,"3":-1.0840564421219228,"4":0.09364489348255506,"5":2.1511691556477555,"6":3.638384032400992,"7":-1.0662499363465046,"8":-5.874326547005729,"9":-1.1910422025438607,"10":1.1297036732525418,"11":0.3009496465746883,"12":2.3888464518793717}},{"sx":1,"sy":1,"depth":13,"w":{"0":-2.720363445380187,"1":-0.16513745542989355,"2":4.556785923691276,"3":-2.2331993252371136,"4":1.6018009199891505,"5":5.421395005452531,"6":0.7033196606441676,"7":2.7468745117632283,"8":-1.3333242746709164,"9":0.46154343628526934,"10":-3.2656228074017193,"11":0.4188618889451449,"12":1.9240030588820871}},{"sx":1,"sy":1,"depth":13,"w":{"0":3.9018391441599416,"1":-3.1738642853088614,"2":-0.3065199705262129,"3":1.2425543036316113,"4":2.0839730942266868,"5":0.299615141712163,"6":-0.9727195480306244,"7":-1.7906103807118934,"8":-2.494539658589016,"9":0.2243398702925986,"10":-0.4667423663879005,"11":-0.10550447145654292,"12":4.657210145525426}},{"sx":1,"sy":1,"depth":13,"w":{"0":-2.3264372952267243,"1":6.6832875294777745,"2":2.7481791085962715,"3":0.6035300748106348,"4":-0.6867836507086198,"5":3.862611012148804,"6":-1.9636462288010619,"7":-1.6440853678192364,"8":-0.7766196589674402,"9":-1.5523583011680258,"10":-0.6689831725700891,"11":1.7570074979890802,"12":-2.67789636662847}},{"sx":1,"sy":1,"depth":13,"w":{"0":-0.043541941658121704,"1":1.4489955768373113,"2":3.8801578037782085,"3":-1.623393240248914,"4":1.1336649299812973,"5":-1.2735204374794382,"6":-0.0783636907144455,"7":1.5238626451422115,"8":-2.9123399637361547,"9":-3.6701344772112536,"10":-1.149200146460927,"11":0.24395962270232255,"12":-2.045129497888418}}],"biases":{"sx":1,"sy":1,"depth":13,"w":{"0":4.566827432131101,"1":2.58012971071926,"2":0.8367236382510148,"3":3.0492624764650493,"4":-1.6462117291368352,"5":-0.8678200194208143,"6":-1.1121559241785255,"7":-1.6273750215755711,"8":0.8702277673251216,"9":2.4775788945837722,"10":-0.09109188694017935,"11":-1.0370874170099977,"12":0.9534233067691722}}},{"out_depth":13,"out_sx":1,"out_sy":1,"layer_type":"sigmoid"},{"out_depth":14,"out_sx":1,"out_sy":1,"layer_type":"fc","num_inputs":13,"l1_decay_mul":0,"l2_decay_mul":1,"filters":[{"sx":1,"sy":1,"depth":13,"w":{"0":-3.0580579644352217,"1":-0.5612550160144535,"2":-0.7940643684260112,"3":7.196139337668107,"4":-0.07949961368875165,"5":1.2595696500391809,"6":1.8783579519993903,"7":1.3079535507217588,"8":-2.0772775115609887,"9":-3.845778420438692,"10":2.450112183242934,"11":-5.9565832517066415,"12":0.47699944460894766}},{"sx":1,"sy":1,"depth":13,"w":{"0":-0.10220274639946453,"1":-0.10102443089369499,"2":-0.1150644455190362,"3":-0.11046662624408643,"4":-0.22709938545963193,"5":-0.4095959676555994,"6":-0.31124564804057686,"7":-0.157471069476988,"8":-0.07226437636330404,"9":-0.3165411850842612,"10":-0.34690477776510625,"11":-0.357947890703001,"12":-0.06176778066036575}},{"sx":1,"sy":1,"depth":13,"w":{"0":3.124704153163088,"1":-1.5257392151595939,"2":-1.65108993472666,"3":-1.2852211140318366,"4":0.39317244558304526,"5":-0.4898322729073048,"6":0.5644349758949991,"7":2.4200476753734925,"8":-2.1991428030922084,"9":5.043742414216775,"10":-2.761366633302186,"11":1.1172533574515109,"12":-3.756050756361865}},{"sx":1,"sy":1,"depth":13,"w":{"0":-5.887032932802942,"1":4.7054883139741985,"2":2.9209898637478506,"3":-0.39273143702131313,"4":-0.5703805755488635,"5":-0.06531520786576837,"6":-6.8472639638043375,"7":0.15027221572350904,"8":1.3787642698883364,"9":-3.506072014217303,"10":4.236248850332062,"11":4.85549952059882,"12":0.6089625156495372}},{"sx":1,"sy":1,"depth":13,"w":{"0":-0.9413851548236575,"1":-0.5109621670173764,"2":-2.2518143560253603,"3":-1.0718517072559781,"4":-4.514150033026478,"5":1.366056114894651,"6":-1.8790503256094668,"7":-1.755906584283543,"8":-0.011050740583465637,"9":1.1680359011707078,"10":-0.18206691091047822,"11":2.4408975520871374,"12":-1.0841423180590875}},{"sx":1,"sy":1,"depth":13,"w":{"0":-5.401035286159766,"1":-4.129653254520794,"2":4.057492647746601,"3":-7.263209444766684,"4":3.5762355031910547,"5":3.243681757776726,"6":4.89920037099336,"7":0.7536563221623445,"8":1.5253765579149337,"9":3.548827909721644,"10":-2.6051814654064636,"11":-1.5423100061419392,"12":6.205249354668019}},{"sx":1,"sy":1,"depth":13,"w":{"0":-0.08145897469114546,"1":-0.08572501093726625,"2":-0.12672987201832173,"3":-0.08221175983985492,"4":-0.2256491848530092,"5":-0.4429119854531971,"6":-0.30973672141050207,"7":-0.1483567328731159,"8":-0.09875101673492448,"9":-0.31637283867485344,"10":-0.3709317918840133,"11":-0.33303536485533053,"12":-0.06755908633811267}},{"sx":1,"sy":1,"depth":13,"w":{"0":1.3056518164806397,"1":-0.4289080301298148,"2":-0.4342568048109561,"3":4.018135599642144,"4":2.5890504833131365,"5":-1.8707733316901163,"6":-1.0253596666828468,"7":4.649185660376784,"8":-1.5480895034428077,"9":-2.8007115177828164,"10":1.4516876132944718,"11":4.817782568078198,"12":-2.50042076215645}},{"sx":1,"sy":1,"depth":13,"w":{"0":-0.12477009638669082,"1":-0.1095607344861395,"2":-0.12470291061815406,"3":-0.062854038674269,"4":-0.20615667625846695,"5":-0.41490607976424265,"6":-0.26911034011976115,"7":-0.15818490322742867,"8":-0.11604024637346884,"9":-0.28579827033984534,"10":-0.36638096212092663,"11":-0.34559370563914393,"12":-0.05163882620514782}},{"sx":1,"sy":1,"depth":13,"w":{"0":6.541269748949117,"1":0.8794847058527075,"2":-0.9082317149308381,"3":-0.4162466241206018,"4":2.1824801432216026,"5":4.419789798806796,"6":1.0953613734147079,"7":-1.44723637113785,"8":-1.9526527675404832,"9":-4.136890986634304,"10":0.5429505278334111,"11":-2.079872100987772,"12":0.38820854854044273}},{"sx":1,"sy":1,"depth":13,"w":{"0":2.383427355271651,"1":0.9145149649137019,"2":-0.0694391707869091,"3":-3.172378546483994,"4":-0.9794246323796252,"5":0.23384569408780517,"6":-0.7521912054913982,"7":-4.903195137260044,"8":-0.3572349578619,"9":4.124657847282274,"10":-0.6089442991813323,"11":-0.11898789358146324,"12":-1.3996473888277083}},{"sx":1,"sy":1,"depth":13,"w":{"0":-0.11092234867963892,"1":-0.0799979478761691,"2":-0.14476780978188908,"3":-0.09488997684658657,"4":-0.2249400238678123,"5":-0.3886882350583452,"6":-0.27024378722011183,"7":-0.13093731177761211,"8":-0.11769352607442278,"9":-0.32841415058338536,"10":-0.3536420834768237,"11":-0.3612527574618419,"12":-0.03179708650380191}},{"sx":1,"sy":1,"depth":13,"w":{"0":-1.716280135442745,"1":-0.20563331724853923,"2":4.684924626470031,"3":-0.7162848783299813,"4":-0.1977305404271708,"5":-2.122146759362944,"6":1.9148236126778972,"7":-0.09839608490612098,"8":-1.4098569660869966,"9":-1.2825690811603727,"10":-3.21130947253544,"11":-0.9853741019576022,"12":-2.399115862879591}},{"sx":1,"sy":1,"depth":13,"w":{"0":4.001820094417104,"1":1.3243628517097819,"2":-5.141557104314052,"3":3.4830817008317916,"4":-1.6700663462079472,"5":-4.3579071451620015,"6":1.2860408312834462,"7":-0.403185558962789,"8":7.122811586977499,"9":2.9566530580922286,"10":1.9179650036478115,"11":-1.2845303286936993,"12":3.64949065517164}}],"biases":{"sx":1,"sy":1,"depth":14,"w":{"0":2.628279029923192,"1":-2.1370721161000743,"2":0.06969236461512246,"3":3.9679345414008256,"4":1.1526793547495404,"5":-2.109296714752743,"6":-2.0951678013460215,"7":0.7705892755189119,"8":-2.19025379918385,"9":-0.18959285501044815,"10":2.0084189688259655,"11":-2.1814863458304052,"12":1.6914131075914804,"13":-1.3861370104016766}}},{"out_depth":14,"out_sx":1,"out_sy":1,"layer_type":"softmax","num_inputs":14}]},{"layers":[{"out_depth":2,"out_sx":1,"out_sy":1,"layer_type":"input"},{"out_depth":13,"out_sx":1,"out_sy":1,"layer_type":"fc","num_inputs":2,"l1_decay_mul":0,"l2_decay_mul":1,"filters":[{"sx":1,"sy":1,"depth":2,"w":{"0":-5.644256312682622,"1":1.4353222290185368}},{"sx":1,"sy":1,"depth":2,"w":{"0":-3.0723766274676785,"1":0.14934491230052632}},{"sx":1,"sy":1,"depth":2,"w":{"0":5.129404824290846,"1":6.002459173231154}},{"sx":1,"sy":1,"depth":2,"w":{"0":-4.746987607320785,"1":2.3001372134631013}},{"sx":1,"sy":1,"depth":2,"w":{"0":-1.9121686810524303,"1":-1.6667567615809613}},{"sx":1,"sy":1,"depth":2,"w":{"0":-7.029052387020021,"1":-1.9944698468973177}},{"sx":1,"sy":1,"depth":2,"w":{"0":2.3405225099532982,"1":6.209409353955538}},{"sx":1,"sy":1,"depth":2,"w":{"0":5.313190701062073,"1":-3.2693541220826465}},{"sx":1,"sy":1,"depth":2,"w":{"0":-4.659580142249083,"1":-6.630518919926836}},{"sx":1,"sy":1,"depth":2,"w":{"0":5.3720612503766265,"1":-10.763904468212898}},{"sx":1,"sy":1,"depth":2,"w":{"0":5.805684040065874,"1":0.6371785191956482}},{"sx":1,"sy":1,"depth":2,"w":{"0":0.7258554068388758,"1":-6.798579866352782}},{"sx":1,"sy":1,"depth":2,"w":{"0":-3.670620536222876,"1":2.624827610486487}}],"biases":{"sx":1,"sy":1,"depth":13,"w":{"0":3.4069811375697436,"1":7.736713871780075,"2":-2.326088428650479,"3":-8.374572589395822,"4":-2.56017664960204,"5":-1.4756111740444526,"6":1.0128688065688212,"7":-6.287054117213588,"8":5.996945817851286,"9":5.089461776814801,"10":-2.119661546808784,"11":14.248223013832739,"12":5.633355491642308}}},{"out_depth":13,"out_sx":1,"out_sy":1,"layer_type":"sigmoid"},{"out_depth":13,"out_sx":1,"out_sy":1,"layer_type":"fc","num_inputs":13,"l1_decay_mul":0,"l2_decay_mul":1,"filters":[{"sx":1,"sy":1,"depth":13,"w":{"0":-2.498036021949289,"1":-1.9715576914606838,"2":-3.459200971314955,"3":4.364156506837178,"4":1.9632990265087715,"5":0.3671835063396914,"6":-0.8240955913266446,"7":-3.006424081963239,"8":1.2364804419347177,"9":4.8568371196608275,"10":4.167079948876088,"11":-6.851845133453823,"12":1.1700537515173253}},{"sx":1,"sy":1,"depth":13,"w":{"0":-2.133005319625038,"1":4.00088174159603,"2":-2.0705743045897145,"3":1.0925134544491908,"4":-0.005557753977095607,"5":1.0289907986454707,"6":-1.281881759607227,"7":-5.540352591945504,"8":4.281121025489345,"9":2.699681966034421,"10":1.460505439151336,"11":3.05856234855461,"12":1.672759133606447}},{"sx":1,"sy":1,"depth":13,"w":{"0":3.240829438376435,"1":-2.0545626472354113,"2":-4.982718901948177,"3":-0.17047700775366603,"4":1.9846967855232516,"5":1.9679043328811827,"6":3.293338395110565,"7":-2.266602246920176,"8":1.4030911517146585,"9":3.9312162372855455,"10":5.641550679845152,"11":-5.703802782781958,"12":-3.4133223669493034}},{"sx":1,"sy":1,"depth":13,"w":{"0":-0.018211058546001968,"1":3.037721297426066,"2":3.894662942692043,"3":-0.4799083260944433,"4":-1.6225610326408315,"5":-1.5050360108168244,"6":1.0289655100756185,"7":0.7681357040788962,"8":-1.3178523875429333,"9":-0.534570219897108,"10":-2.2987527204765703,"11":-0.16761889219687312,"12":0.11988811037445139}},{"sx":1,"sy":1,"depth":13,"w":{"0":3.5108266429771926,"1":0.28824154045381545,"2":3.8151087974647067,"3":-1.6280442639473778,"4":1.478815034168014,"5":1.4324495998323539,"6":-2.341586440507579,"7":-1.5507013749848533,"8":-1.7984442360507071,"9":4.393182901048958,"10":-3.3836187683542343,"11":-4.1911331710035515,"12":-0.27073579250603846}},{"sx":1,"sy":1,"depth":13,"w":{"0":2.6176614903383997,"1":-0.71224200163353,"2":-0.5609142646812796,"3":-0.22447901508457743,"4":1.2553946299954413,"5":1.0538875977608437,"6":-1.5329895100140831,"7":3.275227831192766,"8":0.271843009965085,"9":4.207459388293455,"10":-0.15072157737774827,"11":1.070403807032993,"12":-3.2940693296139965}},{"sx":1,"sy":1,"depth":13,"w":{"0":0.329622225711161,"1":1.7565471849145946,"2":2.205887101276131,"3":-0.8857037873851374,"4":-1.160512456433746,"5":-0.5892239174123833,"6":-0.17682450250901935,"7":-0.5483818406856743,"8":0.40067095404121456,"9":-1.3298394999317753,"10":-0.9545018277614862,"11":-0.6753709813001042,"12":0.9721955596800277}},{"sx":1,"sy":1,"depth":13,"w":{"0":-0.6093012649440995,"1":-0.1591182052167437,"2":-1.0431175951038747,"3":5.874134271154646,"4":1.2555967434774442,"5":-0.8551838601859815,"6":-0.17200518166624024,"7":1.752236714730237,"8":2.8692414282227743,"9":0.6911397054097435,"10":-1.4568131108362938,"11":-3.624467610698434,"12":-2.055661760979825}},{"sx":1,"sy":1,"depth":13,"w":{"0":2.5833356918016968,"1":-0.8976881020400647,"2":-0.215570573345136,"3":-0.8684167889467586,"4":-2.1335264289158387,"5":-3.6090700131755256,"6":0.7096751844297136,"7":2.8133573765262563,"8":0.5111590353172701,"9":-4.480020300687187,"10":1.6363567123293314,"11":-4.720052438203089,"12":1.2982301632829447}},{"sx":1,"sy":1,"depth":13,"w":{"0":4.781058857504449,"1":-1.2227548613178174,"2":-1.7633078269722469,"3":2.0145432097775693,"4":-0.415187662442623,"5":-3.638784512675419,"6":0.20299578246234437,"7":0.7750383252392131,"8":4.16007183061178,"9":6.145653341888458,"10":4.107226867417722,"11":-5.9182933662638835,"12":-0.9071667750558543}},{"sx":1,"sy":1,"depth":13,"w":{"0":0.6759080714951194,"1":0.6131379903551785,"2":1.8867408218119137,"3":-0.09405583380478945,"4":0.2583942231073615,"5":0.3456151434491802,"6":4.6518331071753645,"7":-1.3846444427786107,"8":-1.2101136501178342,"9":-1.2006774409233703,"10":-0.11692830287673386,"11":0.06236210019359611,"12":3.205264121410862}},{"sx":1,"sy":1,"depth":13,"w":{"0":6.403974972480271,"1":-1.306874786736792,"2":-2.5606703231641315,"3":0.702740343217391,"4":0.9179564466479853,"5":0.9562977260375879,"6":-3.425101702565391,"7":-0.7538665404732333,"8":1.244510289384142,"9":1.9538630729834596,"10":-1.3001983428155137,"11":-0.5153147085411978,"12":1.050374397111289}},{"sx":1,"sy":1,"depth":13,"w":{"0":1.063076429324372,"1":0.9799204092643286,"2":2.755993422018479,"3":-0.11612096416154105,"4":1.1256250180591263,"5":3.9929221001090287,"6":1.864801985159189,"7":-1.832413145231534,"8":-3.6707364556244877,"9":4.718334085431618,"10":-2.3000142807105073,"11":-7.186893235237207,"12":1.803608187544525}}],"biases":{"sx":1,"sy":1,"depth":13,"w":{"0":3.8382876445436604,"1":-4.53852135088541,"2":1.5642746792137772,"3":-0.5949004315755189,"4":0.609284224613593,"5":-0.13046128840629959,"6":-0.12383465688505928,"7":1.2738573920792184,"8":0.6384987233999603,"9":1.3367070723796743,"10":-0.09160607027863182,"11":3.1391864407519634,"12":1.6093653617183115}}},{"out_depth":13,"out_sx":1,"out_sy":1,"layer_type":"sigmoid"},{"out_depth":14,"out_sx":1,"out_sy":1,"layer_type":"fc","num_inputs":13,"l1_decay_mul":0,"l2_decay_mul":1,"filters":[{"sx":1,"sy":1,"depth":13,"w":{"0":0.015819698915299378,"1":-0.22162759138013502,"2":-0.3751664982340309,"3":-0.4846274417071295,"4":-0.03475008362713054,"5":-0.2806100265286862,"6":-0.32640514957222244,"7":-0.11068123472444279,"8":-0.12692078790043632,"9":-0.10600272342187847,"10":-0.3871041437123941,"11":-0.3166172089975696,"12":-0.26793252000578305}},{"sx":1,"sy":1,"depth":13,"w":{"0":-0.1265516904248486,"1":-0.4229471152167937,"2":-0.19245022310795115,"3":-0.35235659501751704,"4":-0.10612132020297452,"5":-0.03333435715915085,"6":-0.3681187987616638,"7":-0.14716373341985656,"8":-0.14670843858101326,"9":-0.16496729051869083,"10":-0.37107945593750863,"11":0.05978119697681033,"12":-0.23196263265320985}},{"sx":1,"sy":1,"depth":13,"w":{"0":-2.616858721018124,"1":-2.6482188763015695,"2":-0.6248827138435846,"3":0.2857979678045518,"4":4.622042602204809,"5":1.6251770587592909,"6":-0.45409499201586817,"7":-1.6638499866416385,"8":7.175385909076699,"9":1.8132433082638306,"10":0.16570433444211857,"11":1.890056321289749,"12":-3.9483327723671575}},{"sx":1,"sy":1,"depth":13,"w":{"0":-1.4096530264520886,"1":3.2387302802616897,"2":-2.0667539311658016,"3":0.46993501897269085,"4":-2.7805704177413735,"5":0.4898394467598589,"6":0.4866698578488411,"7":-2.2056253339304384,"8":2.8396690370037247,"9":-2.9422428713241953,"10":0.8429388960259063,"11":-1.8811428774885985,"12":5.363959212362093}},{"sx":1,"sy":1,"depth":13,"w":{"0":0.09044276168793486,"1":-0.20485904589216633,"2":-0.26254883033872184,"3":-0.4120266346911359,"4":-0.25145123545242287,"5":-0.3009985243816169,"6":-0.35086986770881795,"7":0.045291487494150254,"8":-0.11823187356266755,"9":-0.07227555038680661,"10":-0.29415381051152584,"11":-0.012860940384083206,"12":-0.36334892991917267}},{"sx":1,"sy":1,"depth":13,"w":{"0":6.0804687054794195,"1":1.4706327067513054,"2":-4.110288662345038,"3":3.6756694197840143,"4":-5.387851639019391,"5":-6.085019697922133,"6":1.5469164917453926,"7":6.4895106989841445,"8":2.755166492053406,"9":7.158199099910459,"10":-4.5513249890393235,"11":3.6082562686166644,"12":-1.3609624900599349}},{"sx":1,"sy":1,"depth":13,"w":{"0":-0.09842900697289299,"1":-0.2139680352578714,"2":-0.15293435704126174,"3":-0.5509164542904709,"4":-0.05021077593582533,"5":0.00942518484590024,"6":-0.5538049055590506,"7":-0.19336755873041162,"8":-0.11169498694061449,"9":-0.1638616298936319,"10":-0.11091251668722935,"11":-0.18226690444738333,"12":-0.27813760454619696}},{"sx":1,"sy":1,"depth":13,"w":{"0":-5.478509417104475,"1":-1.2201087425503194,"2":0.15671337609630437,"3":-2.5457226108184345,"4":6.530269390166951,"5":4.057889896296022,"6":0.49420445517163003,"7":-3.2336817877446613,"8":-7.243700458769743,"9":1.2971775550032196,"10":1.1620010669367868,"11":2.663383220196645,"12":3.9486001953870984}},{"sx":1,"sy":1,"depth":13,"w":{"0":-0.14249232064283995,"1":-0.3540029227478082,"2":-0.20847121829518114,"3":-0.4675835976220919,"4":-0.11019561163864514,"5":-0.06898573462724501,"6":-0.3809448166322424,"7":-0.06781277270771556,"8":-0.1955167065704068,"9":-0.14978310694317257,"10":-0.3249828520457151,"11":-0.14109275436649354,"12":-0.35591387766905}},{"sx":1,"sy":1,"depth":13,"w":{"0":-1.562160114977801,"1":4.785541905268956,"2":-0.6086809129138465,"3":2.1591573655117147,"4":-1.3201374717718282,"5":1.8443392949313857,"6":1.5398750844534237,"7":2.5448743346155993,"8":0.9759032215878337,"9":0.6140036584881737,"10":-0.2098929079885295,"11":-6.350205034805986,"12":-4.543186046348119}},{"sx":1,"sy":1,"depth":13,"w":{"0":-0.09450948610744611,"1":-0.370306847236079,"2":-0.10826124029998399,"3":-0.354103974695671,"4":-0.32320938521623555,"5":-0.17899346223899304,"6":-0.5429569872327114,"7":-0.1579885594405807,"8":-0.11822261795581591,"9":0.03947264735701252,"10":-0.12587035326942214,"11":-0.19062727487617817,"12":-0.36176261440798696}},{"sx":1,"sy":1,"depth":13,"w":{"0":-0.15384171223216703,"1":-0.40466747090944344,"2":-0.17701394785067226,"3":-0.4810560079654056,"4":0.06888810000863171,"5":-0.34096428469039625,"6":-0.30884639414832327,"7":-0.11944404997974836,"8":-0.31443775873817925,"9":0.03387645845024132,"10":-0.21412757811464353,"11":-0.13911209684280995,"12":-0.3528346666821768}},{"sx":1,"sy":1,"depth":13,"w":{"0":-2.077417281398349,"1":3.9776611045057626,"2":-2.2478772764719883,"3":0.44577076934912496,"4":-1.8947777374934132,"5":-3.3979860636254893,"6":0.8093664252757842,"7":-0.6200834279680667,"8":-2.925724307626104,"9":-2.710282448375977,"10":0.7623256493775717,"11":-4.534400558660032,"12":2.6762432219373884}},{"sx":1,"sy":1,"depth":13,"w":{"0":7.614149426300689,"1":-7.137161159453604,"2":10.730579723361311,"3":-1.915640244801811,"4":0.651886087951299,"5":2.628555099200294,"6":-1.7035764285851995,"7":-0.5200918744737123,"8":-1.7633826568895279,"9":-3.8643244916527224,"10":3.8745562439088843,"11":5.595349030032281,"12":-0.3541156922380655}}],"biases":{"sx":1,"sy":1,"depth":14,"w":{"0":-0.8621309105255737,"1":-1.0789560287643223,"2":-0.4496465609154659,"3":0.28412092687313095,"4":-1.1894736790829463,"5":-0.7094031671600527,"6":-1.0397989268989747,"7":0.032910902744892605,"8":-0.7708911522083931,"9":2.228323981850122,"10":-1.0793325812206054,"11":-0.9591116492665038,"12":1.0009227065540696,"13":4.592466138020498}}},{"out_depth":14,"out_sx":1,"out_sy":1,"layer_type":"softmax","num_inputs":14}]},{"layers":[{"out_depth":2,"out_sx":1,"out_sy":1,"layer_type":"input"},{"out_depth":13,"out_sx":1,"out_sy":1,"layer_type":"fc","num_inputs":2,"l1_decay_mul":0,"l2_decay_mul":1,"filters":[{"sx":1,"sy":1,"depth":2,"w":{"0":-2.902734187064316,"1":6.976681385384394}},{"sx":1,"sy":1,"depth":2,"w":{"0":1.600426652043358,"1":-8.006033083654648}},{"sx":1,"sy":1,"depth":2,"w":{"0":-4.988666694972623,"1":3.1520380107124444}},{"sx":1,"sy":1,"depth":2,"w":{"0":-9.266944146417222,"1":-1.7719156521315498}},{"sx":1,"sy":1,"depth":2,"w":{"0":-0.20021732428758593,"1":-8.465379274437083}},{"sx":1,"sy":1,"depth":2,"w":{"0":2.63818815335039,"1":-5.948513341439994}},{"sx":1,"sy":1,"depth":2,"w":{"0":-5.964662434238885,"1":3.154104118105556}},{"sx":1,"sy":1,"depth":2,"w":{"0":3.3366818309295354,"1":-4.173929413778199}},{"sx":1,"sy":1,"depth":2,"w":{"0":5.228786523989889,"1":1.205047051593512}},{"sx":1,"sy":1,"depth":2,"w":{"0":-1.3537275268121787,"1":4.650697342534693}},{"sx":1,"sy":1,"depth":2,"w":{"0":3.553144360431959,"1":6.008802826658055}},{"sx":1,"sy":1,"depth":2,"w":{"0":1.2433691558074065,"1":-5.4517684112297395}},{"sx":1,"sy":1,"depth":2,"w":{"0":-4.866485151094363,"1":1.661287953696586}}],"biases":{"sx":1,"sy":1,"depth":13,"w":{"0":8.290693865433516,"1":-8.075642515730038,"2":-1.4702913997088207,"3":-5.345891974554613,"4":-3.5508626389953517,"5":-1.5314679155939654,"6":6.665760623048811,"7":1.1573159167986735,"8":-4.529240544305092,"9":-2.6636228012712633,"10":-6.5228986275068115,"11":-2.9208370702772153,"12":3.2240335967231992}}},{"out_depth":13,"out_sx":1,"out_sy":1,"layer_type":"sigmoid"},{"out_depth":13,"out_sx":1,"out_sy":1,"layer_type":"fc","num_inputs":13,"l1_decay_mul":0,"l2_decay_mul":1,"filters":[{"sx":1,"sy":1,"depth":13,"w":{"0":1.9889928798025471,"1":-3.0335752054979594,"2":-0.8146069316996659,"3":-2.8996792939179126,"4":-0.5923826772837911,"5":-0.06863607760810961,"6":0.3510856638494084,"7":-0.2336859448583344,"8":6.033560629714248,"9":0.5368099070600554,"10":1.081222337231589,"11":-0.5049161348862126,"12":-0.20103831888781123}},{"sx":1,"sy":1,"depth":13,"w":{"0":-0.7349579240573488,"1":-0.25638891866569624,"2":-0.016759098096393935,"3":-0.20634712231115823,"4":-0.29170890226097573,"5":-3.4104752140014227,"6":-3.0018693491017654,"7":1.9233017727711597,"8":-0.8796635883130595,"9":4.721206809191854,"10":-0.3735390831137391,"11":-0.3085940499625529,"12":0.37259620251743597}},{"sx":1,"sy":1,"depth":13,"w":{"0":1.3485094251172873,"1":-0.41460598169024737,"2":0.11446600319538533,"3":-0.9840263085111861,"4":-0.9709023225472149,"5":-7.052163359617596,"6":-0.949869692717688,"7":-0.7727453721243737,"8":0.1147378280031037,"9":3.1987510296922173,"10":2.61420083709683,"11":-1.7842248663650004,"12":0.8837769979648279}},{"sx":1,"sy":1,"depth":13,"w":{"0":-2.253137118884325,"1":2.558580505845661,"2":4.937943443699964,"3":-6.044859721310458,"4":6.574983899554197,"5":-1.6098440388413948,"6":1.753381703462492,"7":-2.334133381973719,"8":-0.7970617007057147,"9":-0.5423122634248696,"10":-1.4592227585994069,"11":2.112999461609864,"12":0.5854181633697225}},{"sx":1,"sy":1,"depth":13,"w":{"0":0.7412421523339965,"1":1.7995533192444535,"2":1.7847057348314155,"3":0.7172885366992673,"4":-0.14833505503863637,"5":-0.7540746716444057,"6":-4.120813001943842,"7":-6.601779047539374,"8":-0.38710156482241914,"9":1.163273712540762,"10":0.6635334827443277,"11":-0.23473102547388783,"12":-0.5105346730683665}},{"sx":1,"sy":1,"depth":13,"w":{"0":-1.5102602094986222,"1":4.288602162420541,"2":0.09014982977519415,"3":0.3114558850671122,"4":5.302243974546064,"5":0.42406433288564727,"6":1.7978188164854092,"7":0.05904788349898492,"8":-2.9093020049651237,"9":-0.49274530849326653,"10":-3.8758249907259956,"11":3.348562880591023,"12":0.4061656952379757}},{"sx":1,"sy":1,"depth":13,"w":{"0":1.3899538533838867,"1":3.6517964768972098,"2":-3.9081240380648046,"3":-1.5869884869550444,"4":1.0200890173934614,"5":0.6734689714057459,"6":-0.41204979914688245,"7":-0.4596838383372792,"8":1.5438261360699388,"9":0.7068323424041768,"10":0.6129754614003968,"11":1.006228224528634,"12":-1.4241186361886855}},{"sx":1,"sy":1,"depth":13,"w":{"0":0.9511306528410218,"1":-5.470350384253256,"2":2.150544230272621,"3":0.11532554348539911,"4":1.5353164642539545,"5":-4.991320962705644,"6":3.155332252662072,"7":1.3297631044032707,"8":-0.8052283204897741,"9":0.7945564374594192,"10":0.3518072853818536,"11":0.5150991861142746,"12":0.5360182731586023}},{"sx":1,"sy":1,"depth":13,"w":{"0":4.6093178479824,"1":-5.828737306718056,"2":2.6729233854849084,"3":0.4829204610950919,"4":-1.7218143499454015,"5":-0.1807914749172852,"6":-2.5911618493387785,"7":0.19079077581249645,"8":-1.9266624695377035,"9":-0.6840644866837017,"10":0.2770737615833268,"11":-5.014806978787215,"12":2.1808823681658054}},{"sx":1,"sy":1,"depth":13,"w":{"0":-1.9633905444362614,"1":4.3300377243080765,"2":1.8622945385933025,"3":-2.166759650296424,"4":0.6992015999941567,"5":-2.490545637996912,"6":-4.766210089785997,"7":6.106811983038279,"8":1.9252404514899875,"9":-1.406344572395801,"10":2.2814726801245504,"11":0.18935359630099657,"12":0.037753337653953736}},{"sx":1,"sy":1,"depth":13,"w":{"0":4.479468371866069,"1":-2.838193590902095,"2":-1.6290717362676608,"3":1.421688154891577,"4":3.5941802524354616,"5":0.40763731828932553,"6":1.3408821558024957,"7":1.6319376268072279,"8":5.301530571229221,"9":-1.668134603109024,"10":-5.830973929188141,"11":-1.9035955280220724,"12":-2.0417932188897288}},{"sx":1,"sy":1,"depth":13,"w":{"0":-4.276276925870933,"1":-0.0118452575060683,"2":1.6400913264992678,"3":5.042020879135064,"4":2.483180853451343,"5":0.7200103888048917,"6":-4.316499267989178,"7":-0.9974156064635548,"8":-0.731967403508866,"9":-0.5826991846448728,"10":-6.042257513642126,"11":1.2972939222952573,"12":-3.1805186481631935}},{"sx":1,"sy":1,"depth":13,"w":{"0":-3.004629155664101,"1":2.280768268258494,"2":-3.5296225380317092,"3":4.695062942583763,"4":0.33554285529261285,"5":-0.07235771199761337,"6":3.1050676705556275,"7":1.5963821895049668,"8":0.8589628891610301,"9":-1.312175691287862,"10":3.301225037049144,"11":-3.759886908782629,"12":0.3232325457773877}}],"biases":{"sx":1,"sy":1,"depth":13,"w":{"0":0.06731790594704432,"1":-1.8018996019051634,"2":2.1438944084400555,"3":-1.8502705527907506,"4":2.29104652127552,"5":-0.01464329242089595,"6":0.04640135424802203,"7":-1.9605924995249793,"8":-0.6348392988290577,"9":-1.1063171597486992,"10":-2.509167112831923,"11":0.8932912874741086,"12":-1.7285469141620218}}},{"out_depth":13,"out_sx":1,"out_sy":1,"layer_type":"sigmoid"},{"out_depth":14,"out_sx":1,"out_sy":1,"layer_type":"fc","num_inputs":13,"l1_decay_mul":0,"l2_decay_mul":1,"filters":[{"sx":1,"sy":1,"depth":13,"w":{"0":0.4084421745744713,"1":-3.982597181821536,"2":3.430921888513568,"3":1.2311543389902637,"4":-0.14414979029477984,"5":3.7290098469463087,"6":-2.1250065744908486,"7":-2.901727387131577,"8":2.65963528723437,"9":3.6387429901869477,"10":-3.3737218787869914,"11":-5.52655507852562,"12":4.10041044335031}},{"sx":1,"sy":1,"depth":13,"w":{"0":-0.32561692843299117,"1":-0.1492857420568567,"2":-0.1239045655528339,"3":-0.1823905389092603,"4":-0.006259968639732487,"5":-0.20901364593369454,"6":-0.25328133851257006,"7":-0.2072893668998891,"8":-0.19522697657602214,"9":-0.2197465895880627,"10":-0.3534047912868086,"11":-0.104018012714426,"12":-0.21269889177906773}},{"sx":1,"sy":1,"depth":13,"w":{"0":-1.3715582803667339,"1":-0.16700347834269624,"2":0.4777125575836952,"3":-1.4750060224872337,"4":-0.26926678370977686,"5":1.4560661368803234,"6":-1.6940499625291345,"7":0.8132412448190818,"8":1.7168253968225653,"9":-1.207790077039748,"10":0.21099525956461151,"11":-0.2869369229409666,"12":1.181254696050807}},{"sx":1,"sy":1,"depth":13,"w":{"0":-3.8425536511384903,"1":-3.7677893226670944,"2":-1.0617221166342656,"3":-1.8392641989846679,"4":0.9850052316530732,"5":-3.427946689162722,"6":0.05384637796498888,"7":5.31291314904768,"8":-4.293939289606648,"9":4.064407960245983,"10":6.564521643228996,"11":3.5732141492595075,"12":1.680524581345595}},{"sx":1,"sy":1,"depth":13,"w":{"0":0.17132847874722906,"1":-0.6281246055924715,"2":-2.3324779762858876,"3":0.4368896278992998,"4":-0.12932467077399232,"5":0.34954684119221446,"6":0.9134159134294018,"7":-1.2740223443615188,"8":-2.6885633125384616,"9":2.681628889584552,"10":3.162508878049884,"11":-3.1797050804248728,"12":-4.0688730236759145}},{"sx":1,"sy":1,"depth":13,"w":{"0":4.48310091077188,"1":3.020773478479924,"2":-6.445228409324725,"3":8.133941740846218,"4":-4.378934111513503,"5":-4.97869238258611,"6":4.413022670453481,"7":1.2031321928356193,"8":3.28594691854506,"9":-5.958585695054664,"10":-0.5138342100510647,"11":1.335095831118569,"12":1.1186481449242198}},{"sx":1,"sy":1,"depth":13,"w":{"0":-0.26015816187065893,"1":-0.16345702097206197,"2":-0.14444664498173512,"3":-0.07191330336624026,"4":0.007689731694361149,"5":-0.29783600656807036,"6":-0.2943360516556737,"7":-0.17159484663560773,"8":-0.19093632268341806,"9":-0.26739413409338864,"10":-0.3280778767458393,"11":-0.0801516217796029,"12":-0.2254816466404367}},{"sx":1,"sy":1,"depth":13,"w":{"0":-0.7548194977768815,"1":4.931634110778947,"2":-0.11863344508243605,"3":-7.300312707317172,"4":-1.1457236818635124,"5":5.7688588366246005,"6":2.3351607060486135,"7":-1.5306343199443688,"8":-1.939844166624614,"9":-1.7732735654194265,"10":1.7844690849519627,"11":-4.007930704083107,"12":1.0791564791761123}},{"sx":1,"sy":1,"depth":13,"w":{"0":-0.2744867103120713,"1":-0.1259241553826017,"2":-0.18831774729479525,"3":-0.16616213727924983,"4":-0.041015067460407485,"5":-0.29374950688015994,"6":-0.2151853380327367,"7":-0.18659991439101972,"8":-0.2060009267248233,"9":-0.2979523721336867,"10":-0.37394186699461673,"11":-0.08001044899991577,"12":-0.1473133758702341}},{"sx":1,"sy":1,"depth":13,"w":{"0":-0.2401024844177782,"1":-0.1725232857839102,"2":-0.12756184631421696,"3":-0.07506904475326018,"4":-0.03014632217873618,"5":-0.26577915416450076,"6":-0.31555179112937676,"7":-0.27336635665675674,"8":-0.23675468633640137,"9":-0.22669491801398498,"10":-0.32797695106293495,"11":-0.05087567410767158,"12":-0.1347227735211624}},{"sx":1,"sy":1,"depth":13,"w":{"0":-0.3079660742693683,"1":-0.1514575521298967,"2":-0.13373900111854073,"3":-0.12982055624583522,"4":-0.04027658156934494,"5":-0.2871329796733599,"6":-0.31870805030866445,"7":-0.2250118145554074,"8":-0.19459804382405665,"9":-0.1604812919985322,"10":-0.24592257792462055,"11":-0.1151158420931949,"12":-0.24886172946901833}},{"sx":1,"sy":1,"depth":13,"w":{"0":-0.1444506629838966,"1":-0.1292335014179393,"2":-0.14755962176859758,"3":-0.1362845636521344,"4":-0.016508570355892423,"5":-0.27295177048260005,"6":-0.38255086582758085,"7":-0.11084835264400496,"8":-0.27628371152875064,"9":-0.25194638757043525,"10":-0.3214049747065565,"11":-0.13765201761471044,"12":-0.1789222649415695}},{"sx":1,"sy":1,"depth":13,"w":{"0":0.09648841715371258,"1":3.447874094696412,"2":1.386537601086443,"3":-0.3083240026036335,"4":-0.10397479220699607,"5":-0.9151581306984949,"6":0.22278325431211457,"7":1.871783409277588,"8":0.1855947887612293,"9":1.4264123403777735,"10":-1.641266516288645,"11":-0.20252493360811263,"12":-1.0602848157940283}},{"sx":1,"sy":1,"depth":13,"w":{"0":2.403690290384438,"1":-2.077007514101447,"2":5.406347180164378,"3":2.124681774933361,"4":5.435494161456521,"5":-0.2801955852793068,"6":-1.8738356392613118,"7":-2.6828738451297,"8":2.277672347027164,"9":-1.4917087500098822,"10":-4.17189623300774,"11":8.592714954922041,"12":-2.7760329918133855}}],"biases":{"sx":1,"sy":1,"depth":14,"w":{"0":-0.9789622155421908,"1":-1.5805586311273598,"2":0.2894643806395579,"3":2.2238124264488293,"4":1.1297584410950796,"5":2.868704061767217,"6":-1.5445853674870862,"7":1.022206095298193,"8":-1.5199189201031071,"9":-1.583445592740006,"10":-1.610549839987728,"11":-1.5798821831539516,"12":-1.3002948436435822,"13":4.164252188536387}}},{"out_depth":14,"out_sx":1,"out_sy":1,"layer_type":"softmax","num_inputs":14}]},{"layers":[{"out_depth":2,"out_sx":1,"out_sy":1,"layer_type":"input"},{"out_depth":13,"out_sx":1,"out_sy":1,"layer_type":"fc","num_inputs":2,"l1_decay_mul":0,"l2_decay_mul":1,"filters":[{"sx":1,"sy":1,"depth":2,"w":{"0":-1.5440380052236167,"1":5.953813962135263}},{"sx":1,"sy":1,"depth":2,"w":{"0":-1.4973476894636928,"1":8.048584397217551}},{"sx":1,"sy":1,"depth":2,"w":{"0":-0.8109879318440323,"1":4.678955630464808}},{"sx":1,"sy":1,"depth":2,"w":{"0":-2.442751660086203,"1":-7.707760833113819}},{"sx":1,"sy":1,"depth":2,"w":{"0":-3.4831178324763257,"1":0.04765703276500675}},{"sx":1,"sy":1,"depth":2,"w":{"0":5.634727555972356,"1":6.898580731690465}},{"sx":1,"sy":1,"depth":2,"w":{"0":4.065047888043788,"1":-0.10419100427656375}},{"sx":1,"sy":1,"depth":2,"w":{"0":-1.8325193461251312,"1":5.916242212232196}},{"sx":1,"sy":1,"depth":2,"w":{"0":0.5806910160144907,"1":6.603921951608497}},{"sx":1,"sy":1,"depth":2,"w":{"0":-4.453753288860241,"1":-3.220984905257936}},{"sx":1,"sy":1,"depth":2,"w":{"0":-3.3450986523603974,"1":-5.453686474683952}},{"sx":1,"sy":1,"depth":2,"w":{"0":-3.320947700112675,"1":6.229919721438878}},{"sx":1,"sy":1,"depth":2,"w":{"0":-4.256655500741418,"1":-2.062008258360273}}],"biases":{"sx":1,"sy":1,"depth":13,"w":{"0":0.8133942801257604,"1":-1.5627522142242285,"2":-1.0643307449458044,"3":3.6538629010462436,"4":-5.316570926154962,"5":-5.1001512134090135,"6":-8.275107832841705,"7":5.4133539295977915,"8":6.335390800916438,"9":0.43100898306195873,"10":-2.9341210529948816,"11":9.203414228879028,"12":-1.7937042647110282}}},{"out_depth":13,"out_sx":1,"out_sy":1,"layer_type":"sigmoid"},{"out_depth":13,"out_sx":1,"out_sy":1,"layer_type":"fc","num_inputs":13,"l1_decay_mul":0,"l2_decay_mul":1,"filters":[{"sx":1,"sy":1,"depth":13,"w":{"0":2.3437378622100695,"1":0.49658866298537063,"2":0.5628219893438381,"3":-0.2305881999512795,"4":-3.039556701093654,"5":5.781783322096105,"6":-1.728036254497355,"7":3.083832562443564,"8":6.6751489291762125,"9":0.22167027892695224,"10":3.916891496406615,"11":-3.210283753541933,"12":0.021945521727853513}},{"sx":1,"sy":1,"depth":13,"w":{"0":2.5773621933697046,"1":1.1805425843819024,"2":1.7113072466835233,"3":-0.7904130226686503,"4":4.056388075319912,"5":-1.2699359423589816,"6":-1.7595707409047427,"7":2.3074055224874974,"8":1.021910212495064,"9":0.5688394552311578,"10":1.5703506026053293,"11":-3.6933939152317414,"12":1.9867344415678865}},{"sx":1,"sy":1,"depth":13,"w":{"0":-0.05634427454696717,"1":0.6409019991988248,"2":0.33271277668960453,"3":-4.099585182900326,"4":-1.3531358782946785,"5":-0.15894684075551546,"6":0.02786297980549744,"7":1.891324017605118,"8":0.8502102257167338,"9":-3.3121412310566583,"10":-0.8271550415755282,"11":3.328473482606949,"12":-2.771042484165929}},{"sx":1,"sy":1,"depth":13,"w":{"0":3.7464952886636183,"1":-3.235817832806892,"2":-1.4066090886263265,"3":0.7431740409772041,"4":0.9589704208564107,"5":2.106298742704456,"6":2.1276398263707974,"7":1.2818604743580007,"8":2.894082005383662,"9":-2.732232479027264,"10":-2.3932956204289595,"11":1.5619108903328782,"12":-3.7207286755774085}},{"sx":1,"sy":1,"depth":13,"w":{"0":1.4003451730387781,"1":0.5700899483106173,"2":0.6032116678573476,"3":-2.871586293455091,"4":5.926127746681646,"5":7.855643653840808,"6":0.13759567370404574,"7":2.396761308509368,"8":2.3862191605778285,"9":1.451517121720864,"10":-0.7611063577522234,"11":3.0894140257735585,"12":0.5235673046988738}},{"sx":1,"sy":1,"depth":13,"w":{"0":-2.900222572670084,"1":5.244440960403492,"2":2.694184807118508,"3":-4.398498403652057,"4":3.263343049864713,"5":-5.001607207082743,"6":0.8302824110946858,"7":-3.32602560993597,"8":6.127140854609538,"9":-1.6211902690605258,"10":9.731958420643993,"11":-5.644414016770164,"12":-3.39075484011501}},{"sx":1,"sy":1,"depth":13,"w":{"0":-1.0158810611055682,"1":0.15436381478099376,"2":0.15451925791254434,"3":-1.121628284434902,"4":3.9511678160650505,"5":1.0986463897642336,"6":-1.284417749241214,"7":-6.044165035994488,"8":-0.4519444043975558,"9":0.9371936774536199,"10":-1.1041835835024472,"11":1.4893076571738213,"12":1.7630248707250127}},{"sx":1,"sy":1,"depth":13,"w":{"0":-0.47166530849351124,"1":-0.8190350282014006,"2":-0.5821206303502485,"3":-0.37871581340777255,"4":0.31008421668818636,"5":1.0250998459136231,"6":6.320474629025129,"7":-1.338667698858475,"8":-0.095818752274438,"9":-1.077198565289395,"10":0.6913500240984525,"11":-1.8295227015737963,"12":-1.0443367525395817}},{"sx":1,"sy":1,"depth":13,"w":{"0":1.995598057134996,"1":4.336239069483729,"2":2.528845811836531,"3":-2.7385235542013935,"4":-0.694988889943514,"5":0.03641119123277324,"6":-1.0447355981675412,"7":0.2452210283599733,"8":-0.49855738294778823,"9":-0.3507374043070787,"10":-0.47559782032890296,"11":0.13007245796891753,"12":0.03053341489062501}},{"sx":1,"sy":1,"depth":13,"w":{"0":-2.007458377479022,"1":1.5736977757707333,"2":0.18403398369982085,"3":-2.231191656453733,"4":-2.3453505255285707,"5":0.15094674687978504,"6":1.3872039405179304,"7":1.139732420370681,"8":-1.6539092457124507,"9":0.710447341357794,"10":-1.3355154748221199,"11":2.9323326026095162,"12":1.462232192761801}},{"sx":1,"sy":1,"depth":13,"w":{"0":-3.250738697644554,"1":-1.20077393936784,"2":-0.9284648820448684,"3":2.12956569152955,"4":1.4671430872912041,"5":2.260487311714485,"6":3.3867709352911173,"7":-2.9165927940488494,"8":0.5354960924016192,"9":-1.3410187215934852,"10":-0.11969830271379953,"11":-3.3074014530714493,"12":-0.6159594209566776}},{"sx":1,"sy":1,"depth":13,"w":{"0":-0.7123780179425041,"1":0.02603793784163685,"2":0.19586577210009865,"3":-0.38574600678238763,"4":0.8112044634828787,"5":0.2251857676220498,"6":-4.145177399353689,"7":-0.03082398563253741,"8":-0.9989844574148345,"9":4.897417078108236,"10":3.2137163960719604,"11":-0.6638336165877868,"12":2.797710766926969}},{"sx":1,"sy":1,"depth":13,"w":{"0":-0.1227092772000592,"1":-1.245261384444319,"2":-1.0634461309410221,"3":2.7171128579433654,"4":-1.608054893254369,"5":1.908629242040894,"6":-1.6401828274202417,"7":0.45107327403529507,"8":-7.464279182852653,"9":-0.23433617633169,"10":-4.400569919057533,"11":2.4003635989028216,"12":-0.5059985173777806}}],"biases":{"sx":1,"sy":1,"depth":13,"w":{"0":-1.0013286381218034,"1":-3.6433529031202614,"2":-0.31347458790447397,"3":0.2710772038578582,"4":-3.9379286555135398,"5":3.058411322227266,"6":-0.7666533162517838,"7":-0.20809008826190215,"8":-2.487456351327253,"9":1.7592911136882907,"10":-0.5034890039285137,"11":-2.4077050883129454,"12":2.6278617616908853}}},{"out_depth":13,"out_sx":1,"out_sy":1,"layer_type":"sigmoid"},{"out_depth":14,"out_sx":1,"out_sy":1,"layer_type":"fc","num_inputs":13,"l1_decay_mul":0,"l2_decay_mul":1,"filters":[{"sx":1,"sy":1,"depth":13,"w":{"0":0.9466155579331161,"1":-0.490112801968532,"2":0.5904431653374641,"3":2.83615347988195,"4":-4.111879021590848,"5":-5.082583732057588,"6":3.1332820339511493,"7":3.0794886969732174,"8":4.550749732837575,"9":0.32271392827014744,"10":-3.5265444875888865,"11":3.1338737914460224,"12":0.2589789845315511}},{"sx":1,"sy":1,"depth":13,"w":{"0":-0.40712305544386,"1":-0.07775216698571266,"2":-0.04986015957684626,"3":-0.5174571209251742,"4":-0.46520593444599334,"5":-0.046465719025895025,"6":-0.0430864656189097,"7":-0.4051276235180783,"8":-0.03403541918632643,"9":-0.36195921954367755,"10":-0.2882091072845491,"11":-0.40080856043484486,"12":-0.12715895488158446}},{"sx":1,"sy":1,"depth":13,"w":{"0":-5.190259313898771,"1":0.4073082212352021,"2":-3.6314429515314575,"3":3.6824685679102203,"4":6.531481304880002,"5":-7.8004821205133235,"6":-2.199131656386526,"7":0.4229044578320167,"8":-0.6880292037227643,"9":1.7271193990278364,"10":0.9778001096381947,"11":0.30346585078945004,"12":3.320064606348213}},{"sx":1,"sy":1,"depth":13,"w":{"0":5.786453508411097,"1":5.904706598188951,"2":-3.0982118899575677,"3":0.10827746987250551,"4":-4.4539842852836165,"5":-3.678446695416168,"6":1.278589950026185,"7":2.4650075553525186,"8":0.40980787781957784,"9":-1.99812997576456,"10":3.8522194015868423,"11":2.2188048958479762,"12":-5.912595483111173}},{"sx":1,"sy":1,"depth":13,"w":{"0":1.1813066305270816,"1":-1.9443539557945875,"2":3.413741190555106,"3":-0.8589293525173434,"4":-2.833922237416146,"5":-1.681308487668993,"6":3.1076463988592478,"7":0.43924833400548147,"8":-1.0966718523264507,"9":1.3041351506712866,"10":1.5073976358408872,"11":0.08910883825083532,"12":1.9535439194390871}},{"sx":1,"sy":1,"depth":13,"w":{"0":-3.7307195866453915,"1":0.6202160809437504,"2":-3.177194538414415,"3":4.489147273905746,"4":2.831496572666153,"5":8.827212521595948,"6":-1.5922183797121379,"7":-0.759945480598439,"8":-3.797373174650157,"9":-1.0481330329066072,"10":-1.7712041274429347,"11":0.6157541388625216,"12":-3.3391513865324725}},{"sx":1,"sy":1,"depth":13,"w":{"0":-0.4181817978727184,"1":-0.21553598364680104,"2":0.0029704755862664726,"3":-0.3857591039291524,"4":-0.469761457445233,"5":-0.44872807164671763,"6":-0.22229362489089274,"7":-0.2769754969889596,"8":-0.13749134390472492,"9":-0.3152530705589336,"10":-0.35175521209650773,"11":-0.34624565466085455,"12":-0.25187323383881344}},{"sx":1,"sy":1,"depth":13,"w":{"0":-3.9597537644116945,"1":-4.826922774124564,"2":3.1439295261627556,"3":-1.4260889325182666,"4":4.9926136165044515,"5":-0.7997093550316571,"6":4.341807782744486,"7":-3.55594177662161,"8":3.5896607100677658,"9":2.3846673982802824,"10":2.2691807411746057,"11":-2.826793164533976,"12":0.7187113869166872}},{"sx":1,"sy":1,"depth":13,"w":{"0":2.1529433537414846,"1":-0.6281947232533007,"2":-0.4887622706465748,"3":2.23988948951803,"4":0.33621690592396375,"5":-1.8490225070850101,"6":-0.23208199453104622,"7":0.6984904720794353,"8":-0.2053900046117521,"9":-2.598811213851779,"10":2.1211750560328153,"11":-2.1138060731147017,"12":-0.2784260205191773}},{"sx":1,"sy":1,"depth":13,"w":{"0":-0.5371798946074928,"1":-0.2707316914628077,"2":-0.05267773090039624,"3":-0.45974330559813315,"4":-0.3229213573525315,"5":-0.22462604770626873,"6":-0.1880024192381399,"7":-0.2656573300450497,"8":-0.2709909783569795,"9":-0.336428166037482,"10":-0.09636413874576576,"11":-0.35253575240012425,"12":-0.29665955886929984}},{"sx":1,"sy":1,"depth":13,"w":{"0":-0.4956486763955135,"1":-0.05956943436752699,"2":-0.10025915639304667,"3":-0.4051497155620643,"4":-0.3224502487337285,"5":-0.31769707734176417,"6":-0.0910026971335457,"7":-0.13911808144040236,"8":-0.11266237177422397,"9":-0.4782304224069184,"10":-0.3220315975891636,"11":-0.35823182866395864,"12":-0.21373988902628818}},{"sx":1,"sy":1,"depth":13,"w":{"0":-0.3702480483804176,"1":-0.14627224378042217,"2":-0.11308922405432344,"3":-0.33565250348868164,"4":-0.42437853181495655,"5":-0.1456014999567337,"6":-0.23011711023463532,"7":-0.18770815101015492,"8":-0.18790161515901396,"9":-0.43764598171706776,"10":-0.2685928413850493,"11":-0.3410092645199905,"12":-0.32901994449813793}},{"sx":1,"sy":1,"depth":13,"w":{"0":1.2947525764977168,"1":-1.0144014056319743,"2":-0.3573253115462823,"3":-3.349095784356001,"4":-2.285157003001476,"5":2.4377627238088095,"6":-1.88066751598139,"7":1.9645377686461982,"8":-0.3754384261038597,"9":-1.4654957041401797,"10":1.5048514201541192,"11":4.26160654639502,"12":-0.2937392280871715}},{"sx":1,"sy":1,"depth":13,"w":{"0":3.1750014699493527,"1":2.563402468820518,"2":4.1656573979597535,"3":-5.771668441156279,"4":0.9373839344392356,"5":10.62090611672825,"6":-5.432257650528294,"7":-3.3798687831452265,"8":-1.4428152837215094,"9":3.7038871020776085,"10":-5.104681801896834,"11":-4.670168118699756,"12":5.066982384409155}}],"biases":{"sx":1,"sy":1,"depth":14,"w":{"0":1.304356558593449,"1":-1.3984163677011938,"2":-0.005067194509489308,"3":2.4265571788413403,"4":1.0240213726340834,"5":1.482139433724014,"6":-1.3188963210945508,"7":1.3986912364150828,"8":-0.5729745515120426,"9":-1.4713970928795743,"10":-1.4276323548233012,"11":-1.5587100169465482,"12":-1.1885058035140648,"13":1.3058339227725735}}},{"out_depth":14,"out_sx":1,"out_sy":1,"layer_type":"softmax","num_inputs":14}]},{"layers":[{"out_depth":2,"out_sx":1,"out_sy":1,"layer_type":"input"},{"out_depth":13,"out_sx":1,"out_sy":1,"layer_type":"fc","num_inputs":2,"l1_decay_mul":0,"l2_decay_mul":1,"filters":[{"sx":1,"sy":1,"depth":2,"w":{"0":-5.479052343127514,"1":0.8943232037546168}},{"sx":1,"sy":1,"depth":2,"w":{"0":9.926902284830854,"1":4.2964490711837025}},{"sx":1,"sy":1,"depth":2,"w":{"0":-3.4255535692290944,"1":4.421798853238993}},{"sx":1,"sy":1,"depth":2,"w":{"0":-2.0367921666921256,"1":7.031279841806375}},{"sx":1,"sy":1,"depth":2,"w":{"0":5.302264691257015,"1":-1.493216340932035}},{"sx":1,"sy":1,"depth":2,"w":{"0":3.569789113770502,"1":6.261403685343072}},{"sx":1,"sy":1,"depth":2,"w":{"0":3.952447468762588,"1":-3.6507307690531587}},{"sx":1,"sy":1,"depth":2,"w":{"0":5.350163056463499,"1":-7.160027685687117}},{"sx":1,"sy":1,"depth":2,"w":{"0":7.651541047992507,"1":6.100390989031757}},{"sx":1,"sy":1,"depth":2,"w":{"0":-6.3907659273900554,"1":-6.328895182273753}},{"sx":1,"sy":1,"depth":2,"w":{"0":1.4373858658475298,"1":8.261828475666508}},{"sx":1,"sy":1,"depth":2,"w":{"0":5.097887480144697,"1":-2.1673372133856814}},{"sx":1,"sy":1,"depth":2,"w":{"0":-0.8254513608585013,"1":6.245345966808957}}],"biases":{"sx":1,"sy":1,"depth":13,"w":{"0":4.055431810911817,"1":1.4988616791488383,"2":-0.7452565611032976,"3":-8.743003130571847,"4":12.270034979647452,"5":-2.6196067947783446,"6":6.3334580476720905,"7":5.872598484693644,"8":-9.127231966582446,"9":3.728773842442074,"10":-0.8442023715917033,"11":10.398388305080006,"12":3.800021863144466}}},{"out_depth":13,"out_sx":1,"out_sy":1,"layer_type":"sigmoid"},{"out_depth":13,"out_sx":1,"out_sy":1,"layer_type":"fc","num_inputs":13,"l1_decay_mul":0,"l2_decay_mul":1,"filters":[{"sx":1,"sy":1,"depth":13,"w":{"0":-2.6731509576893533,"1":-0.7278432739506197,"2":-2.1769321565522866,"3":-2.1036582068612804,"4":0.5049108818603414,"5":-1.1846641503036142,"6":1.294619467229521,"7":1.5991881870151794,"8":2.3553531379446575,"9":-0.1413147553380038,"10":-1.8741178945777681,"11":0.4272940198503147,"12":-1.5414189643298382}},{"sx":1,"sy":1,"depth":13,"w":{"0":-2.8646343418174784,"1":1.1494256775868041,"2":0.21242044764921744,"3":-3.1239748922568533,"4":-1.014168553977101,"5":2.051271321403871,"6":-3.0278402446045036,"7":-6.39568764140046,"8":1.354675701568902,"9":7.8781661515798,"10":0.6949919898513962,"11":7.295719908310898,"12":-3.5696847509684386}},{"sx":1,"sy":1,"depth":13,"w":{"0":3.8628179200135246,"1":1.196130750124917,"2":-2.853844583881795,"3":-3.963172199078762,"4":-7.452774252370256,"5":-1.6993144181827082,"6":2.336783622165409,"7":3.2796235506639224,"8":0.23153145815936607,"9":0.7677629144329624,"10":3.7574057764778233,"11":-3.9723658679490135,"12":3.2269273809442907}},{"sx":1,"sy":1,"depth":13,"w":{"0":-0.9524804939925281,"1":-2.3623124239643065,"2":-2.6474247958429507,"3":-3.8420860002452284,"4":2.740638425092382,"5":-2.5495499615073096,"6":1.1511029350706896,"7":3.5775405075533784,"8":-0.10911411552030029,"9":2.276709557979334,"10":-1.7549994778846896,"11":1.4710643959590297,"12":0.17800315693152602}},{"sx":1,"sy":1,"depth":13,"w":{"0":-0.6211700407584884,"1":3.2146698942464154,"2":2.8691791478241204,"3":-4.758543502744648,"4":-2.5572226015239723,"5":4.222301544177221,"6":-1.8743705498462064,"7":-5.7005357954655365,"8":6.997071480453811,"9":3.75303946353892,"10":-4.4516944312192,"11":-3.672808889084031,"12":2.763769112557958}},{"sx":1,"sy":1,"depth":13,"w":{"0":-2.989941822474216,"1":-0.10617172040800267,"2":3.235525293084297,"3":-1.4890536409680917,"4":5.940786851369424,"5":-1.1963242863871133,"6":-1.063434849353902,"7":5.4201604512017765,"8":-6.793129693787874,"9":0.4007290803414154,"10":-1.9409165857324104,"11":-4.167324546048858,"12":2.8711922574034827}},{"sx":1,"sy":1,"depth":13,"w":{"0":-0.8671498003171653,"1":-1.7393084555828817,"2":0.9137933245566718,"3":1.755196238098629,"4":0.9651960601841607,"5":0.4195535616627297,"6":-4.69121668938543,"7":1.6933916041061394,"8":-0.7110840130330037,"9":3.2279597958584048,"10":-1.547981698320969,"11":0.29445284972689917,"12":-3.26201535138316}},{"sx":1,"sy":1,"depth":13,"w":{"0":-0.5016604067326204,"1":0.6552219788511371,"2":-0.24918181125174943,"3":1.0700349286237651,"4":0.40771026147165323,"5":1.0008994223983971,"6":-0.5822486018549661,"7":-0.8389808140967729,"8":0.2522822744987511,"9":-1.4325605228068736,"10":1.058326543655348,"11":0.430397784283561,"12":4.139628628459947}},{"sx":1,"sy":1,"depth":13,"w":{"0":-2.2321475582893147,"1":-4.993822849312269,"2":0.02779400663057974,"3":5.8104831174885465,"4":1.273706723311189,"5":1.0689170458414112,"6":-0.5549375748727051,"7":-0.16995178508805633,"8":-0.6813736072276,"9":2.888052117362046,"10":-3.7464683577111186,"11":-2.6548413146056524,"12":-4.6809930439463185}},{"sx":1,"sy":1,"depth":13,"w":{"0":0.19578090375081647,"1":-4.616161083038563,"2":-0.452255399169821,"3":4.455808360113368,"4":1.9524451619909624,"5":-2.463983546508065,"6":-2.151563820490446,"7":0.646990602031689,"8":2.493021979498586,"9":-2.3939281464201967,"10":0.6002968170549263,"11":2.286930324069549,"12":-0.7311015461361037}},{"sx":1,"sy":1,"depth":13,"w":{"0":-4.197977254793812,"1":-3.3638085894561254,"2":1.2043734872460277,"3":-0.7992454580814271,"4":0.8798572655170008,"5":0.7153419297669423,"6":3.4475953661429637,"7":-0.39837178705313536,"8":1.80368952646876,"9":-0.8887150909507693,"10":0.07875044253955392,"11":1.427772136160636,"12":-0.8095134893979992}},{"sx":1,"sy":1,"depth":13,"w":{"0":-4.6714155627608855,"1":5.336142348640533,"2":1.5086763527348233,"3":-2.226386444228922,"4":0.34192909239159974,"5":0.22750927355189912,"6":0.3526652718198223,"7":-2.020534148418591,"8":-3.411906037568296,"9":-1.8017732719055821,"10":0.9817588017969506,"11":-3.4862430432516023,"12":2.373894628385295}},{"sx":1,"sy":1,"depth":13,"w":{"0":-0.8361821270826308,"1":-3.79638825537119,"2":-0.2891611857026257,"3":3.650327426703448,"4":-3.431358292609154,"5":2.105139117796155,"6":-0.2741322555710007,"7":-0.2698779434320694,"8":-1.976851245031572,"9":-0.8551829269488572,"10":1.1118597279057252,"11":-2.4286961328877923,"12":0.056456544916764266}}],"biases":{"sx":1,"sy":1,"depth":13,"w":{"0":-0.4517530271902686,"1":-0.3311377670115168,"2":2.2928664610617844,"3":-0.9228632665421904,"4":0.9416263298837674,"5":0.41355831894485057,"6":4.659430293315405,"7":-0.8975624495846315,"8":2.090330344434918,"9":-1.7597024302026811,"10":-0.6652449521392662,"11":-0.9631479841527258,"12":-0.3462628270402929}}},{"out_depth":13,"out_sx":1,"out_sy":1,"layer_type":"sigmoid"},{"out_depth":14,"out_sx":1,"out_sy":1,"layer_type":"fc","num_inputs":13,"l1_decay_mul":0,"l2_decay_mul":1,"filters":[{"sx":1,"sy":1,"depth":13,"w":{"0":-0.2100084613170679,"1":3.0642670499315185,"2":-1.5696093338964605,"3":-0.6896224909255568,"4":1.5195527987761859,"5":-2.2665072790998595,"6":-0.5855140668917465,"7":-0.6613833307077881,"8":-0.36462447994140396,"9":0.13249750473918243,"10":2.8019818876698843,"11":2.7040949769675815,"12":-0.38493455654065134}},{"sx":1,"sy":1,"depth":13,"w":{"0":-0.02925204780046677,"1":-0.34867273501224705,"2":-0.1403519380962187,"3":-0.10385588065516851,"4":-0.3507029130904662,"5":-0.3045260134401851,"6":-0.4298658096229878,"7":-0.6245331208656615,"8":-0.023246530237630063,"9":-0.16023333041433746,"10":-0.16893063925783253,"11":-0.09428063704724264,"12":-0.16174756765251752}},{"sx":1,"sy":1,"depth":13,"w":{"0":-4.17918308476797,"1":-2.7075167042100805,"2":0.10172907085623938,"3":8.341314410117088,"4":1.9882506560949575,"5":2.270697281975133,"6":-1.579576147477113,"7":1.1724710261269273,"8":0.43862682536498815,"9":-0.6824055336986657,"10":-5.355153493264704,"11":0.8394343422023736,"12":-2.991795368172031}},{"sx":1,"sy":1,"depth":13,"w":{"0":-0.13892004770799646,"1":2.790833147247512,"2":0.10171675344710503,"3":-6.1771767056804885,"4":0.30021810715618136,"5":6.785159243882231,"6":0.44506768560774185,"7":-1.1314557106098544,"8":2.590471594999883,"9":-5.0567059958394225,"10":2.8073673595027717,"11":6.459350791069111,"12":-1.7533601014440672}},{"sx":1,"sy":1,"depth":13,"w":{"0":-1.5674634440354696,"1":5.970533437120069,"2":-0.6098358293228531,"3":-1.410291280925655,"4":3.09261343804264,"5":-1.3254856757741524,"6":-0.6584371469993031,"7":-3.0499729668045923,"8":2.899755556726039,"9":2.4682517037837104,"10":-3.720177416738161,"11":-2.841639461404459,"12":-0.5115260477006575}},{"sx":1,"sy":1,"depth":13,"w":{"0":3.1552320866164756,"1":-6.415885847076573,"2":2.9145470026727716,"3":1.211299264316952,"4":8.513871008434798,"5":-2.7983274014372173,"6":-4.592746888453414,"7":3.201547744006828,"8":4.967045523873451,"9":-1.410603069405876,"10":0.9787442993793649,"11":2.0218164078154164,"12":3.0722053431332133}},{"sx":1,"sy":1,"depth":13,"w":{"0":-0.08798158838954864,"1":-0.36568351586828773,"2":-0.34661216677903267,"3":0.02404442224856011,"4":-0.6231321732477577,"5":-0.23878778054860064,"6":-0.2534311408755126,"7":-0.3311041735205578,"8":-0.026365834265466046,"9":-0.20974535780154366,"10":-0.049710660245165184,"11":-0.1574217427232289,"12":-0.12839060312780334}},{"sx":1,"sy":1,"depth":13,"w":{"0":2.3207724422238036,"1":-6.3577450267325,"2":-9.082433884425978,"3":0.7122064267867921,"4":-3.5873911939426875,"5":4.976271595503419,"6":0.6977438442052256,"7":3.508877287784946,"8":-2.0223771561115216,"9":3.2667392275201523,"10":-0.24053733431394628,"11":-1.6341517907206624,"12":-0.28032468859521154}},{"sx":1,"sy":1,"depth":13,"w":{"0":-0.3014056817212508,"1":-0.29315459937486893,"2":-0.20546308587582665,"3":-0.18977627604661207,"4":-0.26363469751594565,"5":-0.29782598633298424,"6":-0.4451522797955581,"7":-0.5448001151583389,"8":-0.07601852822116321,"9":-0.3081799104701849,"10":-0.2313345311214306,"11":-0.2210152614612423,"12":-0.09639661116642173}},{"sx":1,"sy":1,"depth":13,"w":{"0":1.6142155938178573,"1":0.0588248626405084,"2":-0.5205561473694679,"3":-0.05860297989043713,"4":-1.3063787159701055,"5":1.9264227612024452,"6":2.012480375437587,"7":-1.4235934848035188,"8":0.06119364219784231,"9":1.9083185408555265,"10":1.294382866032284,"11":-2.9094645226135856,"12":4.068215443861222}},{"sx":1,"sy":1,"depth":13,"w":{"0":-0.047670632100578036,"1":-0.28104337875674584,"2":-0.09823759584107684,"3":-0.3039149601940618,"4":-0.2867283842044457,"5":-0.3899941793796597,"6":-0.35939873371913855,"7":-0.3873602694464335,"8":-0.16280277844875637,"9":-0.3200548594534316,"10":-0.018764939980934807,"11":-0.2922806984274676,"12":0.05297176025424571}},{"sx":1,"sy":1,"depth":13,"w":{"0":-0.19547621062645523,"1":-0.33064555730003253,"2":-0.21698217195530659,"3":-0.03167469456982724,"4":-0.3505647210167782,"5":-0.3841595947191442,"6":-0.4655434838296002,"7":-0.37876446965669247,"8":-0.10668283348048029,"9":-0.19249865132600325,"10":-0.03813540810658696,"11":-0.2523565993039107,"12":-0.10560959608957453}},{"sx":1,"sy":1,"depth":13,"w":{"0":-0.08979717332849328,"1":-0.276527279849396,"2":-0.17936467652789845,"3":-0.2526724677108695,"4":-0.2097894297669415,"5":-0.2968093515925188,"6":-0.2395152753287894,"7":-0.6159625375018334,"8":-0.04776007278484821,"9":-0.28365267161746893,"10":-0.23064804420679932,"11":-0.1636564669009827,"12":-0.16728897519837113}},{"sx":1,"sy":1,"depth":13,"w":{"0":0.32651489512137377,"1":5.277163574438386,"2":9.287061423754974,"3":-0.6799275043204842,"4":-8.046193535038624,"5":-7.696341827340698,"6":6.340309914742472,"7":0.9500994215503558,"8":-8.138979778440518,"9":1.2713789031767795,"10":1.8246584745076575,"11":-3.1706881126549473,"12":-0.6649796722299011}}],"biases":{"sx":1,"sy":1,"depth":14,"w":{"0":-1.9033223681716156,"1":-1.0537898276930506,"2":0.9579423806872184,"3":-0.8098296427754579,"4":1.3036818507175367,"5":-1.5977393297742195,"6":-1.2901764104554334,"7":2.5551383878191154,"8":-1.0082312074142674,"9":0.13248081959763555,"10":-1.3582223508182898,"11":-1.2136723525192714,"12":-1.260376983089165,"13":6.546117033889326}}},{"out_depth":14,"out_sx":1,"out_sy":1,"layer_type":"softmax","num_inputs":14}]},{"layers":[{"out_depth":2,"out_sx":1,"out_sy":1,"layer_type":"input"},{"out_depth":13,"out_sx":1,"out_sy":1,"layer_type":"fc","num_inputs":2,"l1_decay_mul":0,"l2_decay_mul":1,"filters":[{"sx":1,"sy":1,"depth":2,"w":{"0":-8.198280047017068,"1":-0.9827277878396234}},{"sx":1,"sy":1,"depth":2,"w":{"0":-6.983073331043093,"1":1.4131171868892896}},{"sx":1,"sy":1,"depth":2,"w":{"0":-3.011590117289901,"1":6.221148902295574}},{"sx":1,"sy":1,"depth":2,"w":{"0":6.77314146733055,"1":0.686478408915613}},{"sx":1,"sy":1,"depth":2,"w":{"0":5.784092846644889,"1":-3.84546376489311}},{"sx":1,"sy":1,"depth":2,"w":{"0":0.032704923194143476,"1":8.263060011616849}},{"sx":1,"sy":1,"depth":2,"w":{"0":0.6032241792632166,"1":-7.115918401303965}},{"sx":1,"sy":1,"depth":2,"w":{"0":5.10016729237889,"1":-6.687980491416954}},{"sx":1,"sy":1,"depth":2,"w":{"0":0.3013581308846629,"1":5.3539995420518744}},{"sx":1,"sy":1,"depth":2,"w":{"0":-3.553916046073296,"1":6.34903835566872}},{"sx":1,"sy":1,"depth":2,"w":{"0":3.925788182894972,"1":-1.8122279890887325}},{"sx":1,"sy":1,"depth":2,"w":{"0":2.180929589745022,"1":7.116836089653615}},{"sx":1,"sy":1,"depth":2,"w":{"0":-5.459735995398077,"1":3.079673305763305}}],"biases":{"sx":1,"sy":1,"depth":13,"w":{"0":-2.957624290130757,"1":-7.197517165425966,"2":8.437744859709587,"3":5.729253024707095,"4":3.2910043042030686,"5":2.2299842719696077,"6":11.28222336603013,"7":4.804595542584239,"8":-2.731663762648243,"9":5.747816880698244,"10":-0.8358254347354287,"11":-5.131714878132821,"12":-0.8855770088181251}}},{"out_depth":13,"out_sx":1,"out_sy":1,"layer_type":"sigmoid"},{"out_depth":13,"out_sx":1,"out_sy":1,"layer_type":"fc","num_inputs":13,"l1_decay_mul":0,"l2_decay_mul":1,"filters":[{"sx":1,"sy":1,"depth":13,"w":{"0":2.2044658035257796,"1":0.3238601637780896,"2":-0.5826510155831214,"3":-1.5347576214019174,"4":-1.7073324170115418,"5":-0.0947593604650866,"6":-3.504163783763644,"7":0.08558224464094143,"8":-4.690366520357119,"9":1.0621334845338206,"10":-0.976137057313414,"11":1.3024739599828123,"12":2.9015515697664265}},{"sx":1,"sy":1,"depth":13,"w":{"0":-0.3743131115732939,"1":0.3144213889501591,"2":4.776885339483046,"3":-0.1499452450968171,"4":-3.147803791985575,"5":3.134182390376806,"6":-1.3110069078975368,"7":-1.6295585609563787,"8":1.012279396322565,"9":6.363121887909977,"10":-1.7783188192333894,"11":1.0095890466589803,"12":0.8147889210801844}},{"sx":1,"sy":1,"depth":13,"w":{"0":-1.0546920212655244,"1":0.2782369645399165,"2":4.101139512053075,"3":0.13510228640960442,"4":-0.28949043745119435,"5":3.104630978126464,"6":0.28201237473424007,"7":-2.034816061490706,"8":-0.08149075355577585,"9":-2.922545437416202,"10":-0.21536574171207717,"11":-0.2900739671283824,"12":-1.546561233352588}},{"sx":1,"sy":1,"depth":13,"w":{"0":4.724036752223551,"1":-1.5519825224678359,"2":1.044521289647517,"3":-3.009874558984131,"4":-1.8166027493918886,"5":-1.681752720192217,"6":-2.98255626427361,"7":0.07996194810696103,"8":-2.6642579708182694,"9":0.5343470884827463,"10":-1.019562444271827,"11":-4.637479241136893,"12":2.042163967247975}},{"sx":1,"sy":1,"depth":13,"w":{"0":4.130868171326297,"1":0.3109827859743615,"2":-2.4010477131133636,"3":3.9081092071324326,"4":-0.17611355036319434,"5":0.14606994553642214,"6":-4.3237231809939,"7":-1.4976777030837167,"8":1.2096314624387219,"9":-4.570294847122715,"10":-0.8797418847412921,"11":2.2485596260119562,"12":2.706137530957304}},{"sx":1,"sy":1,"depth":13,"w":{"0":-1.8654280727555015,"1":-1.8063716999363908,"2":-4.419080900778556,"3":-3.2191378111038946,"4":2.1878733645421033,"5":2.465862988603196,"6":0.2613026085621139,"7":0.8399410147076158,"8":1.8347644598004849,"9":-0.05287669490270805,"10":4.30557135920036,"11":1.5551706658311866,"12":-5.040477032435134}},{"sx":1,"sy":1,"depth":13,"w":{"0":-0.21978061629422774,"1":-1.0439498926499995,"2":1.8746480318855165,"3":1.3118029903779602,"4":0.2291286772836433,"5":1.0580696454600662,"6":0.34016109806800665,"7":-2.6084001026398886,"8":0.48076269931145504,"9":2.3991235542313034,"10":2.1183838445807894,"11":0.11501506134657127,"12":-2.225514927732068}},{"sx":1,"sy":1,"depth":13,"w":{"0":-1.9052016932316245,"1":2.208112785926851,"2":-2.9146467810315047,"3":2.810853504995251,"4":3.938981478077875,"5":1.0890712222277155,"6":-4.393541553020668,"7":1.8645272212883715,"8":0.13726617360277363,"9":0.9309107263893622,"10":1.2915284210982345,"11":0.9709880837021172,"12":-1.2230737259871958}},{"sx":1,"sy":1,"depth":13,"w":{"0":-1.367989013791771,"1":-0.42749601595358766,"2":-0.16723431509890443,"3":-0.5056044302851506,"4":2.7063269806505024,"5":0.8351272663229615,"6":-4.102206173026481,"7":-1.1916264099103273,"8":1.5156295214361084,"9":-0.1623143695628218,"10":1.4558279364483044,"11":1.477763659567177,"12":-2.1107709358132767}},{"sx":1,"sy":1,"depth":13,"w":{"0":3.005519092361346,"1":1.2066430812848714,"2":1.0676850992924243,"3":3.1217458609457993,"4":2.000099600340188,"5":-0.2574029013098401,"6":-2.9484617796639516,"7":3.369740190647919,"8":-1.7408210508284714,"9":-1.3366874370724904,"10":-2.261083411904563,"11":0.0630544425919163,"12":0.5787887460355345}},{"sx":1,"sy":1,"depth":13,"w":{"0":2.021026398932022,"1":1.227058562513852,"2":1.3553034007264322,"3":1.7903234934845864,"4":-3.0365198866149385,"5":0.4171701215637779,"6":-0.8348714916489859,"7":1.0244155782947963,"8":-0.9930761838939368,"9":-3.7435631668332006,"10":-0.6727001627981849,"11":1.5882753357174122,"12":-1.3941084591747386}},{"sx":1,"sy":1,"depth":13,"w":{"0":5.626272918344032,"1":-4.408632479398536,"2":1.5833140071887226,"3":0.3973645068011692,"4":4.190327347086466,"5":-3.397169755741799,"6":4.063907327330165,"7":-5.632683579823134,"8":-0.9526618229333178,"9":0.76562836401165,"10":0.12457108431183123,"11":3.9490777553060252,"12":-3.169532265019947}},{"sx":1,"sy":1,"depth":13,"w":{"0":1.5506966220859206,"1":3.7992095075634253,"2":-1.9682656826890124,"3":0.5672338178273962,"4":1.071646317365287,"5":6.719230928861973,"6":0.16350345799717406,"7":1.163027263952952,"8":-2.328013710277028,"9":-1.4574983433585573,"10":-2.0660812919082416,"11":-1.7637404389897942,"12":-0.2659040202708064}}],"biases":{"sx":1,"sy":1,"depth":13,"w":{"0":0.592268603762729,"1":-2.151583134118197,"2":0.985286916641994,"3":1.9218877019643132,"4":1.239594140605902,"5":-0.7040589317173593,"6":1.467349182972392,"7":2.141422481885502,"8":-0.5272390970968873,"9":-3.8998448745910617,"10":-1.0082727873889472,"11":-2.3125968989671986,"12":-2.7758271131738628}}},{"out_depth":13,"out_sx":1,"out_sy":1,"layer_type":"sigmoid"},{"out_depth":14,"out_sx":1,"out_sy":1,"layer_type":"fc","num_inputs":13,"l1_decay_mul":0,"l2_decay_mul":1,"filters":[{"sx":1,"sy":1,"depth":13,"w":{"0":1.7087501680339294,"1":6.413138292741903,"2":-3.340433667815963,"3":1.0463728947143878,"4":-2.369174941254305,"5":-0.14731628268467845,"6":-3.261699728793134,"7":-1.4207796217627187,"8":-0.27158580109303704,"9":1.5008415621924038,"10":0.6646528446505774,"11":-0.35757076227198353,"12":-0.6174461236066306}},{"sx":1,"sy":1,"depth":13,"w":{"0":-0.29091403869248667,"1":-0.2192956737284208,"2":-0.34038885194199453,"3":-0.268179210511816,"4":-0.2703056069286504,"5":-0.14240144076048425,"6":-0.3116299972755861,"7":-0.20861542578864503,"8":-0.08339970304257513,"9":-0.17361088766388497,"10":-0.13992968091747843,"11":-0.32409578473602907,"12":-0.30912740012749484}},{"sx":1,"sy":1,"depth":13,"w":{"0":-0.5712674028920126,"1":3.808231131953421,"2":0.25683662964595383,"3":-2.819029186398702,"4":0.6649826677767701,"5":-2.04899451571327,"6":1.3401112736338825,"7":0.8711598198166064,"8":-5.08822851417164,"9":-1.70616241092823,"10":-1.9237769503471378,"11":-0.6052135460361399,"12":-3.6439188809583247}},{"sx":1,"sy":1,"depth":13,"w":{"0":3.818635915791682,"1":-2.865020081379197,"2":1.5246464491067486,"3":0.43554163030017673,"4":0.9972963245624211,"5":-4.56996144947949,"6":-1.4872874183504188,"7":-1.8361221695330707,"8":3.969331332346656,"9":-0.5654284318943533,"10":-0.08648330632294839,"11":6.431464235612505,"12":-0.01973142320747276}},{"sx":1,"sy":1,"depth":13,"w":{"0":-4.064800498159908,"1":-3.135486247719753,"2":2.9158987972219887,"3":1.8150576670812077,"4":1.0517072635797131,"5":-5.662399969836986,"6":3.0077007570329175,"7":-2.7225561345554703,"8":3.777860748765819,"9":-0.6185493292747783,"10":-0.3179037993216544,"11":2.2094142365834184,"12":-1.5207333437546586}},{"sx":1,"sy":1,"depth":13,"w":{"0":-0.6410263936284201,"1":0.7099475363122809,"2":-0.4612752864781422,"3":-6.374914794591603,"4":2.436911926975522,"5":-1.5853002848347044,"6":-1.1939507626980532,"7":1.169419785448873,"8":-1.6713777177310971,"9":5.378482022156189,"10":3.4810421020758464,"11":0.4844391409660179,"12":3.848733516356907}},{"sx":1,"sy":1,"depth":13,"w":{"0":-0.2936869817754985,"1":-0.31235113176166884,"2":-0.2265317931371896,"3":-0.14147633227115644,"4":-0.25073575261787834,"5":-0.058907677644953346,"6":-0.3668334673510038,"7":-0.2163360558585382,"8":-0.01931320731019253,"9":-0.23658538644637325,"10":-0.17441395992639364,"11":-0.35140817639806454,"12":-0.39630911583998785}},{"sx":1,"sy":1,"depth":13,"w":{"0":1.9861818225642083,"1":-6.3434839738209945,"2":3.5120891898162245,"3":3.187322866791706,"4":-4.412317781736583,"5":2.4132948659521767,"6":0.39184248770548774,"7":0.0933843993841072,"8":0.17781241131217196,"9":-0.20698659390312918,"10":1.2284487097663288,"11":2.1047289134780773,"12":1.6330862722164758}},{"sx":1,"sy":1,"depth":13,"w":{"0":-0.2361883427680537,"1":-0.31231529481412473,"2":-0.2658340635821831,"3":-0.26036489142080993,"4":-0.19483336749591143,"5":-0.1209396001127258,"6":-0.3143992820236782,"7":-0.17153527881722042,"8":-0.20504518411569797,"9":-0.22193341353845955,"10":-0.16011674822053037,"11":-0.36575953824320473,"12":-0.3554451588633055}},{"sx":1,"sy":1,"depth":13,"w":{"0":0.5656026014527981,"1":-1.100902115733617,"2":-1.877210808946006,"3":0.47732143024506174,"4":2.572591423531281,"5":-0.25242590613204,"6":-1.2369912945711974,"7":-0.9713207767088006,"8":-0.20370607235157426,"9":1.2067412221366012,"10":2.4076346348727666,"11":-1.591415277733266,"12":0.804693851225524}},{"sx":1,"sy":1,"depth":13,"w":{"0":-1.432513341781304,"1":0.6499212623755591,"2":0.19975496431379908,"3":-2.0517015738116893,"4":5.217733783778813,"5":3.06051304508425,"6":-0.6564588570262432,"7":-0.9671238394962887,"8":1.2692806866978505,"9":-0.7078300249481978,"10":-0.24373462903259435,"11":3.4866041574340008,"12":-1.3387895599507385}},{"sx":1,"sy":1,"depth":13,"w":{"0":-0.2246810033724552,"1":-0.31858277749739056,"2":-0.27325058630907983,"3":-0.3059240289819487,"4":-0.26035705152932515,"5":-0.12201935163933524,"6":-0.36534422586267995,"7":-0.2077101189994966,"8":-0.0984812494156625,"9":-0.2037618013630105,"10":-0.18899680956102288,"11":-0.28697239337497576,"12":-0.3658975071153891}},{"sx":1,"sy":1,"depth":13,"w":{"0":-2.9057823202752484,"1":1.698446309329803,"2":1.7776226503220318,"3":-0.9686621256752258,"4":-3.851417868156833,"5":-0.27313669014952685,"6":0.3222133605230109,"7":-0.4911851498735571,"8":-0.5533716329910613,"9":0.6195532833552867,"10":-1.239462491613372,"11":-1.12282014084586,"12":5.0861268936665045}},{"sx":1,"sy":1,"depth":13,"w":{"0":2.5231509931278158,"1":1.6973023614206073,"2":-3.361738799925009,"3":6.052683119115309,"4":-1.1458744673739196,"5":9.377548526713115,"6":4.320410360082799,"7":6.723274188477512,"8":-1.0354624588628782,"9":-3.85897369396192,"10":-3.3013578283545133,"11":-9.66158359016727,"12":-2.726442472945956}}],"biases":{"sx":1,"sy":1,"depth":14,"w":{"0":-0.7292365221947273,"1":-1.6370767280617464,"2":2.3344933509712567,"3":1.6924792562585462,"4":2.0410531119060917,"5":-0.00968359417447431,"6":-1.5209834150517256,"7":1.5141852789748078,"8":-1.5816171707302649,"9":-0.4009823540177218,"10":-2.4639501791869076,"11":-1.4855700369058655,"12":-0.6199695918440314,"13":2.866858594056923}}},{"out_depth":14,"out_sx":1,"out_sy":1,"layer_type":"softmax","num_inputs":14}]},{"layers":[{"out_depth":2,"out_sx":1,"out_sy":1,"layer_type":"input"},{"out_depth":13,"out_sx":1,"out_sy":1,"layer_type":"fc","num_inputs":2,"l1_decay_mul":0,"l2_decay_mul":1,"filters":[{"sx":1,"sy":1,"depth":2,"w":{"0":6.100439076233576,"1":3.067744267093881}},{"sx":1,"sy":1,"depth":2,"w":{"0":-1.0237021349769557,"1":0.8472025013066142}},{"sx":1,"sy":1,"depth":2,"w":{"0":3.9254722374850535,"1":7.3225504509580945}},{"sx":1,"sy":1,"depth":2,"w":{"0":2.591384262293103,"1":1.1838432110671642}},{"sx":1,"sy":1,"depth":2,"w":{"0":1.8510965548580682,"1":3.544695264984043}},{"sx":1,"sy":1,"depth":2,"w":{"0":-2.729937709615508,"1":-4.952314403456476}},{"sx":1,"sy":1,"depth":2,"w":{"0":0.9827864749478878,"1":-1.0757678418748189}},{"sx":1,"sy":1,"depth":2,"w":{"0":-8.410010352152886,"1":-2.9073465796777387}},{"sx":1,"sy":1,"depth":2,"w":{"0":-0.5804300501583569,"1":1.1772335731912384}},{"sx":1,"sy":1,"depth":2,"w":{"0":0.37631720447999195,"1":-1.3148360994686135}},{"sx":1,"sy":1,"depth":2,"w":{"0":-4.337803265178032,"1":-1.3967829995760357}},{"sx":1,"sy":1,"depth":2,"w":{"0":2.5902893470638855,"1":-0.21593858113756845}},{"sx":1,"sy":1,"depth":2,"w":{"0":1.5584136674451636,"1":-1.2507656467205748}}],"biases":{"sx":1,"sy":1,"depth":13,"w":{"0":-3.718568167733586,"1":-0.5689306849311144,"2":-1.7909850821804347,"3":1.4578977479420239,"4":-2.619821557382102,"5":3.3012251341297967,"6":0.8173849529200903,"7":-1.2175753976260197,"8":-0.6448910487416234,"9":0.3258347199823244,"10":-1.1270686894253585,"11":-1.4534553165080022,"12":1.7722698722315382}}},{"out_depth":13,"out_sx":1,"out_sy":1,"layer_type":"sigmoid"},{"out_depth":13,"out_sx":1,"out_sy":1,"layer_type":"fc","num_inputs":13,"l1_decay_mul":0,"l2_decay_mul":1,"filters":[{"sx":1,"sy":1,"depth":13,"w":{"0":2.3833873520152893,"1":-0.4341343044297502,"2":-0.9579270555164828,"3":-0.0981130800174937,"4":-0.21244980607960734,"5":0.04733836262203356,"6":0.5907423068242099,"7":2.1682636891392204,"8":-0.6538607887638862,"9":0.1994775167537916,"10":1.2391015969776202,"11":0.9195275156821799,"12":0.6929171229525829}},{"sx":1,"sy":1,"depth":13,"w":{"0":-0.6331142974302875,"1":0.09404728775190822,"2":0.603494738204446,"3":0.18552596197951637,"4":-0.25797635999222945,"5":0.0009852843734348968,"6":-0.09533076306765668,"7":-1.0122960974639206,"8":0.15965895314833434,"9":0.03362285987367967,"10":-0.5546350907681499,"11":-0.09088972703056393,"12":-0.1511793033691925}},{"sx":1,"sy":1,"depth":13,"w":{"0":-3.041940936583833,"1":0.7104498466922955,"2":2.635982221584033,"3":-0.7004169108147066,"4":-0.7027632019620811,"5":1.5503422337232227,"6":-1.18292575390127,"7":-2.975585775090205,"8":0.7578327731843262,"9":-0.984068842275809,"10":-0.8286662132999144,"11":-1.0945940484489445,"12":-0.8467667243734562}},{"sx":1,"sy":1,"depth":13,"w":{"0":0.4814698679396719,"1":0.06545232967188185,"2":-1.3230334678002833,"3":0.9084151121232146,"4":1.3741504993205935,"5":-1.4255278023776699,"6":0.07960695458543668,"7":0.9626853580791433,"8":-0.18309144112434697,"9":0.24849877165798087,"10":0.0018653139830664728,"11":0.3640093299198432,"12":-0.14861231930483285}},{"sx":1,"sy":1,"depth":13,"w":{"0":1.3753279966777787,"1":-0.08498804756481315,"2":-0.6293882787414541,"3":-1.0798072036178388,"4":-0.20638472916398568,"5":0.08591526047905518,"6":0.19814943059758625,"7":2.3499760165495784,"8":-0.3629695036938129,"9":0.2211170950395811,"10":1.5892432739405131,"11":0.47676927004557684,"12":-0.0928973085134542}},{"sx":1,"sy":1,"depth":13,"w":{"0":0.564006327417462,"1":0.04290795546979341,"2":-1.1663451373333178,"3":0.6928584772602603,"4":1.5188800112710956,"5":-1.8367773398580507,"6":-0.22972481034548048,"7":0.9918932623540136,"8":0.06042681892314443,"9":-0.23383895630677365,"10":-0.21349247977285807,"11":0.3646436560022963,"12":-0.8020190866517799}},{"sx":1,"sy":1,"depth":13,"w":{"0":1.463626294900602,"1":-0.3202474262135089,"2":-0.8312542227734495,"3":-0.9050879261819322,"4":-0.37304724300610537,"5":0.7314762404935864,"6":0.2400061922877903,"7":2.097384723699901,"8":-0.06879748765460361,"9":0.20080421068860876,"10":1.4505762120789731,"11":0.42697092392024966,"12":0.16940462245849452}},{"sx":1,"sy":1,"depth":13,"w":{"0":-0.43438028660728517,"1":0.3367395193219691,"2":0.4026625215329713,"3":0.1120914055547922,"4":0.15888762386312325,"5":0.32837710307641305,"6":-0.0015085450779781014,"7":-0.11346348756926018,"8":0.21966341663775785,"9":-0.12886680783345808,"10":0.20659769953145837,"11":0.18225172109072812,"12":0.017020225868533988}},{"sx":1,"sy":1,"depth":13,"w":{"0":-1.1483770630517163,"1":0.37291308408043694,"2":1.8208112074584073,"3":-1.004349337923903,"4":-1.078059562006362,"5":1.4534178499040127,"6":-0.02458537930051997,"7":-1.566450863330897,"8":0.24764360830442653,"9":-0.5021525481215573,"10":-0.33497413699368755,"11":-0.3858034141951957,"12":-0.1960562081908371}},{"sx":1,"sy":1,"depth":13,"w":{"0":1.3278425077312124,"1":-0.3225971287572051,"2":-1.6883783186998733,"3":0.7040657582818022,"4":0.21022568521451182,"5":-0.33843325356801135,"6":0.5016634233172939,"7":1.100056172597121,"8":-0.21829425615885448,"9":0.5903926750883328,"10":-0.10505328539500687,"11":0.591853157854042,"12":1.1568264946527629}},{"sx":1,"sy":1,"depth":13,"w":{"0":-0.2796953850095651,"1":0.22831768498860375,"2":-0.8647900871072338,"3":0.6904525618838606,"4":1.4905849894177674,"5":-2.00943039199682,"6":-0.5609762246384316,"7":0.47970650668861714,"8":0.3817478429112587,"9":-0.2795537578795111,"10":-0.06462503794871445,"11":0.36489413284102123,"12":-1.5406911374814733}},{"sx":1,"sy":1,"depth":13,"w":{"0":1.9915691213479723,"1":0.12052668426722066,"2":-3.7820338633123867,"3":1.564058431580857,"4":1.7039744637941396,"5":-2.368619162390649,"6":0.3712999033160724,"7":2.9803326421266223,"8":-0.40082595964661866,"9":0.5541661381081948,"10":0.6724800128984025,"11":0.8034480015508063,"12":-0.04670410347758424}},{"sx":1,"sy":1,"depth":13,"w":{"0":-3.35417962730366,"1":0.7674515017936663,"2":2.9601844969186257,"3":-0.9173066249788293,"4":-0.9879069892321877,"5":1.18380246176688,"6":-0.7256239763021621,"7":-3.009428272159535,"8":0.5074986394441484,"9":-0.6297617851002906,"10":-0.8369623588133464,"11":-0.8996844715889634,"12":-0.8876191118052368}}],"biases":{"sx":1,"sy":1,"depth":13,"w":{"0":0.13136158597762154,"1":0.19293262038100067,"2":-0.3349258911341467,"3":0.21938956795898076,"4":-0.1578872778073614,"5":0.06475083850199774,"6":-0.11240399597401014,"7":0.2190802707466303,"8":-0.34914364834969414,"9":0.41240903380092925,"10":-0.40566176664649095,"11":0.3414508875065854,"12":-0.05156689773062988}}},{"out_depth":13,"out_sx":1,"out_sy":1,"layer_type":"sigmoid"},{"out_depth":14,"out_sx":1,"out_sy":1,"layer_type":"fc","num_inputs":13,"l1_decay_mul":0,"l2_decay_mul":1,"filters":[{"sx":1,"sy":1,"depth":13,"w":{"0":-0.33047377891578583,"1":-0.23073763847112824,"2":0.08057788353900065,"3":-0.12019563412117072,"4":-0.07347367424887287,"5":-0.32355441775726684,"6":-0.12783112454392143,"7":-0.4848702492887354,"8":-0.45568567993838055,"9":-0.06275774407518951,"10":-0.05838757866358306,"11":-0.18426936402865984,"12":0.07080787208070487}},{"sx":1,"sy":1,"depth":13,"w":{"0":-0.12808784001266793,"1":-0.25474285317764617,"2":-0.27662665211873616,"3":-0.16999778996836848,"4":-0.27377983050879373,"5":0.07903660826552655,"6":-0.18081219739168908,"7":-0.5081630052979649,"8":0.17629594130931434,"9":-0.242323909770477,"10":-0.2647317610591459,"11":-0.032982571276957584,"12":-0.15706416041310597}},{"sx":1,"sy":1,"depth":13,"w":{"0":-0.10833045232236949,"1":1.0567127910354612,"2":1.2278116580400795,"3":0.0839156251518742,"4":-0.9332746435980595,"5":-0.2188041717386982,"6":-0.3442951510695209,"7":0.7620378635268655,"8":0.9183803360995022,"9":1.3502625147801284,"10":-0.8460481290885166,"11":-0.9094800462581486,"12":1.6738423399087083}},{"sx":1,"sy":1,"depth":13,"w":{"0":-0.30822394472924597,"1":-0.15170849832049746,"2":-0.32162397966324907,"3":-0.1053296023459088,"4":-0.47240498867817077,"5":0.013599498605018686,"6":0.11808327633530435,"7":-0.1693351969853829,"8":-0.19706721623347978,"9":-0.40320798134915464,"10":0.09918341719359487,"11":-0.21242442431593125,"12":-0.04387175024636509}},{"sx":1,"sy":1,"depth":13,"w":{"0":0.2837808068961541,"1":0.031280171961487344,"2":-0.5446069999916844,"3":-0.5738490231415152,"4":-0.1611852603558935,"5":0.04286651236392799,"6":-0.18904924636678822,"7":-0.4711575888456343,"8":0.20872065957730554,"9":0.02369819923353063,"10":-0.29457078238569817,"11":-0.12427705594495811,"12":-0.0966602369895403}},{"sx":1,"sy":1,"depth":13,"w":{"0":0.7411221249250922,"1":0.32138030038000104,"2":2.3940137811877964,"3":-1.2394883085351558,"4":1.7315635558034237,"5":-1.4228375439374572,"6":2.0095093199243133,"7":1.2643542513343375,"8":2.594407605727552,"9":-0.7867308312166844,"10":-1.3432793574351392,"11":-3.07712977148343,"12":2.355351033049806}},{"sx":1,"sy":1,"depth":13,"w":{"0":-0.017619645914209288,"1":-0.3796318914638843,"2":-0.46030479849748973,"3":-0.04012078880344482,"4":-0.2442630383746072,"5":-0.1091568539950693,"6":-0.3038530853305498,"7":-0.1158576088651627,"8":-0.3584898644811179,"9":0.1474595426427099,"10":-0.032272025195209865,"11":0.03418870310831346,"12":-0.36783304800142946}},{"sx":1,"sy":1,"depth":13,"w":{"0":-0.07687563861809399,"1":-0.11635901435624121,"2":-0.0816411822602011,"3":-0.5334167057358278,"4":-0.17685696080637106,"5":-0.03497766422171898,"6":-0.24889061959034955,"7":-0.16571259658876172,"8":-0.28665851429459627,"9":0.05419172074145663,"10":-0.3659774555422246,"11":-0.12401394594379131,"12":-0.07033392298719557}},{"sx":1,"sy":1,"depth":13,"w":{"0":-0.07591009352579782,"1":-0.28960914101505864,"2":-0.24629491078192559,"3":-0.19789504375035488,"4":0.09021382461761802,"5":-0.2180364390931667,"6":-0.3561469190197403,"7":-0.19297605821882113,"8":-0.34258849628268945,"9":-0.07750332605241395,"10":-0.27713289239563343,"11":-0.17319587706175982,"12":-0.015572982233209593}},{"sx":1,"sy":1,"depth":13,"w":{"0":-0.09433297139491814,"1":-0.29820580007667896,"2":-0.16871852487295835,"3":0.04409208061530472,"4":-0.08195275016587397,"5":0.05719606571975032,"6":-0.01844924979571626,"7":-0.33121782981971576,"8":-0.2064262730385067,"9":-0.39538921486532436,"10":-0.45857484329474674,"11":-0.03104329438299151,"12":-0.249856801520447}},{"sx":1,"sy":1,"depth":13,"w":{"0":-0.022822373985463225,"1":-0.2178689524419785,"2":-0.07280239457660963,"3":-0.19552825677117186,"4":-0.15525481382014145,"5":0.15957523604935492,"6":-0.2450247671090901,"7":-0.3238563306466463,"8":-0.17568124691123807,"9":-0.05065888240517846,"10":-0.33091512742459395,"11":-0.19916882133418276,"12":-0.4115710560279974}},{"sx":1,"sy":1,"depth":13,"w":{"0":0.07551209805228383,"1":-0.16880158075576518,"2":-0.32348508471047577,"3":-0.07054383408999827,"4":-0.4560961229985102,"5":0.1495792383941045,"6":-0.6837109778133466,"7":0.06907621911517586,"8":-0.24993275102323226,"9":0.004958014155262706,"10":-0.09219122176667978,"11":-0.6448571461808589,"12":-0.2759903632419271}},{"sx":1,"sy":1,"depth":13,"w":{"0":-1.9593874775595106,"1":1.041179806586964,"2":3.239745337194819,"3":0.73809880470296,"4":-1.2916966697268135,"5":1.2728630455256522,"6":-1.4965827689272015,"7":1.071790532125256,"8":0.8004010257468568,"9":-0.6526537849328261,"10":2.1963563239337036,"11":0.39474541469564756,"12":3.2543121309385494}},{"sx":1,"sy":1,"depth":13,"w":{"0":3.2839532316049596,"1":-0.9457666260812526,"2":-4.622890962990158,"3":2.2458106752039124,"4":2.86551485266458,"5":2.1235550040827667,"6":2.663043442022034,"7":0.10790447815937183,"8":-2.3976939458021698,"9":2.695865795724923,"10":1.2140270090620955,"11":5.444613202290406,"12":-4.767546544400135}}],"biases":{"sx":1,"sy":1,"depth":14,"w":{"0":-0.5208479825252952,"1":-0.48773712631562893,"2":1.4518383901797556,"3":-0.6079090165851758,"4":-0.6903523637225606,"5":1.9230908106338447,"6":-0.4749964910978347,"7":-0.6336430081339974,"8":-0.5177906396402588,"9":-0.5136857704392174,"10":-0.5039104023122453,"11":-0.448046541062774,"12":1.129493248504985,"13":0.8944968925164567}}},{"out_depth":14,"out_sx":1,"out_sy":1,"layer_type":"softmax","num_inputs":14}]},{"layers":[{"out_depth":2,"out_sx":1,"out_sy":1,"layer_type":"input"},{"out_depth":13,"out_sx":1,"out_sy":1,"layer_type":"fc","num_inputs":2,"l1_decay_mul":0,"l2_decay_mul":1,"filters":[{"sx":1,"sy":1,"depth":2,"w":{"0":-1.8029745146189344,"1":6.4533492304828926}},{"sx":1,"sy":1,"depth":2,"w":{"0":2.0800412436606766,"1":2.359205132541307}},{"sx":1,"sy":1,"depth":2,"w":{"0":-1.1101852940659034,"1":6.759741946756066}},{"sx":1,"sy":1,"depth":2,"w":{"0":3.0816402241821717,"1":-2.1517344478883325}},{"sx":1,"sy":1,"depth":2,"w":{"0":-3.921333920663261,"1":2.453853676752998}},{"sx":1,"sy":1,"depth":2,"w":{"0":-1.5893763101110017,"1":-4.614547803313731}},{"sx":1,"sy":1,"depth":2,"w":{"0":2.9691927994856555,"1":-2.384646510636309}},{"sx":1,"sy":1,"depth":2,"w":{"0":-2.13348091600259,"1":-0.06562949734917385}},{"sx":1,"sy":1,"depth":2,"w":{"0":-3.4279909181738253,"1":-2.7206335036918583}},{"sx":1,"sy":1,"depth":2,"w":{"0":5.219824134188257,"1":2.398529738321406}},{"sx":1,"sy":1,"depth":2,"w":{"0":5.206795419121562,"1":1.611974250172178}},{"sx":1,"sy":1,"depth":2,"w":{"0":-1.8380238604542125,"1":-4.128904826360858}},{"sx":1,"sy":1,"depth":2,"w":{"0":1.07810721529333,"1":3.7115869037488114}}],"biases":{"sx":1,"sy":1,"depth":13,"w":{"0":3.443784238521605,"1":3.4530637696734754,"2":-4.062638041797578,"3":3.627311580556339,"4":-5.4423357391185405,"5":-4.620468423044679,"6":3.0166589966748973,"7":-1.371963243728399,"8":-2.2244507547939563,"9":9.311927389451158,"10":6.9509117967140615,"11":-4.931776281957661,"12":-0.6956297669636845}}},{"out_depth":13,"out_sx":1,"out_sy":1,"layer_type":"sigmoid"},{"out_depth":13,"out_sx":1,"out_sy":1,"layer_type":"fc","num_inputs":13,"l1_decay_mul":0,"l2_decay_mul":1,"filters":[{"sx":1,"sy":1,"depth":13,"w":{"0":0.2631224834005145,"1":2.2850947413766556,"2":0.6300952957469906,"3":0.36591568222068616,"4":-0.3352915211271097,"5":-2.6553784942758774,"6":0.04168099205124493,"7":-0.4978196557774216,"8":0.11178415372287547,"9":3.328169260676923,"10":0.8068846473472205,"11":-2.9184540394106175,"12":1.2053912513374905}},{"sx":1,"sy":1,"depth":13,"w":{"0":0.2656503814491373,"1":1.1927688705036632,"2":-2.9467646014591695,"3":-1.1878676272557378,"4":0.5091124653079161,"5":-2.082835986098268,"6":-1.624759913931307,"7":-0.21646019016792656,"8":0.023275374253111582,"9":2.1352344881531202,"10":-0.12618569466175908,"11":-1.823214040480132,"12":0.3486860932297691}},{"sx":1,"sy":1,"depth":13,"w":{"0":-0.20921154857022534,"1":2.2110556770602616,"2":1.5851115084571656,"3":1.5046630673328054,"4":-3.2019535834819006,"5":-0.9275533064191821,"6":0.9506624391294752,"7":-1.3887822536121106,"8":-1.3569586829190163,"9":4.079202906553164,"10":1.41375337156061,"11":-1.5496184503042405,"12":2.240071248150133}},{"sx":1,"sy":1,"depth":13,"w":{"0":-2.082666194465093,"1":0.27553949967747754,"2":-1.8888472207442386,"3":-1.2848922775445304,"4":2.08746544003437,"5":-0.5642511087550606,"6":-1.428511845357183,"7":0.4757925628985545,"8":0.7668674851475212,"9":1.214106410011336,"10":-1.3680288323058403,"11":-0.2402008371385769,"12":-0.30696022882494944}},{"sx":1,"sy":1,"depth":13,"w":{"0":2.789528391489654,"1":-0.9722853802955626,"2":5.07009842763497,"3":1.310313314266283,"4":-1.0195568486034876,"5":2.5913915444940834,"6":1.5998515164089242,"7":-1.5946703040366823,"8":-3.863955132701348,"9":-3.385707629419818,"10":6.131436597040026,"11":2.7345940294609874,"12":0.30238465260173214}},{"sx":1,"sy":1,"depth":13,"w":{"0":-0.3524729662822913,"1":3.0411254212523136,"2":-0.38788408179228806,"3":-0.7819298550453867,"4":-0.9698592381034289,"5":-2.5357719160548173,"6":-1.1400606055892462,"7":-1.1282403498219802,"8":-1.914841343419041,"9":4.281840670543895,"10":1.9382838997646592,"11":-2.8973726535331115,"12":2.2257227935871247}},{"sx":1,"sy":1,"depth":13,"w":{"0":2.711601287439221,"1":0.5141002389364118,"2":0.3291760880623442,"3":-0.28231581015284996,"4":0.3566954671317231,"5":-1.2981769317452707,"6":-0.20637933140187553,"7":-0.12735946679017565,"8":0.38065668865427016,"9":0.6272254319210365,"10":0.1521900680419999,"11":-0.9966006825669912,"12":0.6921120398739794}},{"sx":1,"sy":1,"depth":13,"w":{"0":-1.1727866458919132,"1":0.069504450975742,"2":0.9431346141551972,"3":-2.7447854487294143,"4":3.6288737075946305,"5":0.0008099924705581371,"6":-2.0469336330496226,"7":0.511249057882522,"8":-0.6294438076416491,"9":-0.07124353875293592,