{"out":[{"layers":[{"out_depth":2,"out_sx":1,"out_sy":1,"layer_type":"input"},{"out_depth":13,"out_sx":1,"out_sy":1,"layer_type":"fc","num_inputs":2,"l1_decay_mul":0,"l2_decay_mul":1,"filters":[{"sx":1,"sy":1,"depth":2,"w":{"0":-8.850315074917559,"1":2.067723623717076}},{"sx":1,"sy":1,"depth":2,"w":{"0":2.3486343996401358,"1":6.174690939355136}},{"sx":1,"sy":1,"depth":2,"w":{"0":4.600998893401192,"1":1.9416772422351773}},{"sx":1,"sy":1,"depth":2,"w":{"0":-7.190721448395412,"1":-1.108271518534996}},{"sx":1,"sy":1,"depth":2,"w":{"0":-5.247975565291762,"1":-3.4094887060000065}},{"sx":1,"sy":1,"depth":2,"w":{"0":-5.214808321188627,"1":4.351870753564018}},{"sx":1,"sy":1,"depth":2,"w":{"0":0.9301206994908889,"1":-9.16268235144785}},{"sx":1,"sy":1,"depth":2,"w":{"0":-3.7265301477236012,"1":3.14074803263601}},{"sx":1,"sy":1,"depth":2,"w":{"0":2.921407527974866,"1":5.699289926016614}},{"sx":1,"sy":1,"depth":2,"w":{"0":-6.019237322299333,"1":1.4322576860501168}},{"sx":1,"sy":1,"depth":2,"w":{"0":4.810252749028379,"1":3.4383014234418745}},{"sx":1,"sy":1,"depth":2,"w":{"0":2.4042170942206993,"1":4.658245560220316}},{"sx":1,"sy":1,"depth":2,"w":{"0":-5.234318490717676,"1":-4.294147189185678}}],"biases":{"sx":1,"sy":1,"depth":13,"w":{"0":-0.6290772656322479,"1":-15.360971779333543,"2":6.067554130504724,"3":1.07233977074221,"4":2.619504566680907,"5":2.062192611517331,"6":8.227155559795433,"7":-1.3192155157890615,"8":1.0049708106045292,"9":-7.493349431202121,"10":-5.412609818709886,"11":-5.169318562434468,"12":4.826096913867181}}},{"out_depth":13,"out_sx":1,"out_sy":1,"layer_type":"sigmoid"},{"out_depth":13,"out_sx":1,"out_sy":1,"layer_type":"fc","num_inputs":13,"l1_decay_mul":0,"l2_decay_mul":1,"filters":[{"sx":1,"sy":1,"depth":13,"w":{"0":2.2392630421178943,"1":1.368831894027214,"2":-0.05450580243792235,"3":0.809848293556472,"4":1.303706710269785,"5":2.4963835643636356,"6":-1.7396795900753435,"7":-0.9397288645093619,"8":0.8976004899354288,"9":0.8421385881416293,"10":-1.3371137332256182,"11":-0.4253773915204792,"12":1.7239757451029598}},{"sx":1,"sy":1,"depth":13,"w":{"0":2.927450158942724,"1":0.027396138641593296,"2":2.5031199040344654,"3":-0.24727434096517178,"4":-3.0324294190814656,"5":-3.6076281183995524,"6":-3.863134260684497,"7":-2.5151142749902258,"8":-0.9155679761488114,"9":0.20650237096741883,"10":1.726791264135429,"11":1.2952746532676598,"12":-1.6571806387819377}},{"sx":1,"sy":1,"depth":13,"w":{"0":3.157495960520913,"1":-0.45623300814660184,"2":-0.6779692311419195,"3":1.1871147224654957,"4":-0.9254054982287035,"5":-0.04894254441650634,"6":-6.495697359532468,"7":0.33816347385395207,"8":-0.7213497867573746,"9":3.988748040571251,"10":0.02071351449211285,"11":1.330403199322998,"12":-1.171377623711794}},{"sx":1,"sy":1,"depth":13,"w":{"0":-3.0667902290402442,"1":1.2123454899313195,"2":0.5537237318954252,"3":-3.438123074642411,"4":-0.09574965819969823,"5":0.15897010152433008,"6":1.4017303929080067,"7":-0.5070069408137703,"8":-0.519061993759849,"9":-0.9781392281324083,"10":0.8001633849680262,"11":0.5492058850046458,"12":-0.2500205518193235}},{"sx":1,"sy":1,"depth":13,"w":{"0":0.5914574460221508,"1":-0.1778785527570625,"2":-0.39614905201656575,"3":1.001686597095991,"4":1.6613622699365085,"5":-0.5646843724956154,"6":5.972849955515996,"7":-0.6014486377437587,"8":-1.8799127061216532,"9":2.3660102892442048,"10":0.2811294543240783,"11":-1.9011137686061916,"12":-0.9756381654256467}},{"sx":1,"sy":1,"depth":13,"w":{"0":-1.453891953823672,"1":-0.14574740995169835,"2":0.108070494681354,"3":-0.8379776921407023,"4":-0.22225331274835816,"5":-1.162387866390429,"6":3.988339512274354,"7":-2.518260203166557,"8":-0.9218626661018062,"9":-0.4673502939446188,"10":-0.9505553226550043,"11":-1.41134445307274,"12":0.9814450714594346}},{"sx":1,"sy":1,"depth":13,"w":{"0":-3.0137861047619476,"1":-0.19306183332710655,"2":-1.1504812804652715,"3":2.898799869158405,"4":5.165729808686319,"5":1.7445307755830346,"6":1.3847692317628595,"7":-0.11414136460042179,"8":-0.9935713301178642,"9":-0.1163174565206832,"10":-3.2404097673523107,"11":-4.0775164748779575,"12":5.321221678104867}},{"sx":1,"sy":1,"depth":13,"w":{"0":-3.28513644391241,"1":1.7450233980386207,"2":0.43073671618069315,"3":-3.4896186284149344,"4":0.08003589563362981,"5":0.8738690716081776,"6":2.032482748464433,"7":-0.651299148120005,"8":-1.466157795034536,"9":-0.9329270481426876,"10":0.7015938897934622,"11":0.40123592318449,"12":0.16316633380721432}},{"sx":1,"sy":1,"depth":13,"w":{"0":0.1686550045918878,"1":3.19729782366258,"2":-0.2053056337410608,"3":-1.2973104538319054,"4":1.0724966012502726,"5":-2.0932074767519073,"6":0.3926093653491546,"7":-0.29858317740084267,"8":-2.7989532139074917,"9":3.510695392173093,"10":-0.2838475890220034,"11":0.6933437111922877,"12":0.8366898304786305}},{"sx":1,"sy":1,"depth":13,"w":{"0":0.4799047117768017,"1":-5.915220598625221,"2":2.0595779920138253,"3":-1.547102754476432,"4":-0.10146590494812034,"5":0.18307252333946755,"6":-0.05703851374430881,"7":3.5922234168280456,"8":2.7943093924323925,"9":-3.229463299766624,"10":-3.2727316601957,"11":-2.3101422143622967,"12":0.09313615561311242}},{"sx":1,"sy":1,"depth":13,"w":{"0":2.248029116017503,"1":8.114924317202835,"2":2.072405223632465,"3":-1.4557680103791355,"4":0.6122318114446439,"5":-6.108867458944105,"6":-0.559895575587175,"7":-1.4068024583640835,"8":-4.401846428574174,"9":7.527173838300543,"10":2.350134014994761,"11":-2.5354878848284077,"12":1.1916696786311332}},{"sx":1,"sy":1,"depth":13,"w":{"0":2.323062773322269,"1":2.706983878304568,"2":-0.11620789303896253,"3":2.0058716083167623,"4":-0.860006264120281,"5":-2.3476550840728474,"6":1.3837225734480896,"7":-3.211156040679056,"8":5.741132663386736,"9":-4.521599662716175,"10":2.1610071669763045,"11":-0.5226591579218062,"12":-0.06693350012471717}},{"sx":1,"sy":1,"depth":13,"w":{"0":1.8980653954004079,"1":0.9069015479134659,"2":-4.556403100273821,"3":-1.614054437872568,"4":0.0923654126663072,"5":-2.7885093185792567,"6":-0.4964306519758629,"7":0.01763828086754588,"8":-1.9804225153827235,"9":6.01904796213445,"10":5.730927153192036,"11":4.173444884174442,"12":-3.0116096305666518}}],"biases":{"sx":1,"sy":1,"depth":13,"w":{"0":-1.2947971700428456,"1":6.475609200155183,"2":0.2946344954925393,"3":1.9431359216014292,"4":-2.295491494436148,"5":0.7413590442060634,"6":-2.7506189315137184,"7":2.400787094337629,"8":1.7383334186821087,"9":-1.6491277990350903,"10":2.7397305817272835,"11":-3.413304437034933,"12":4.563499832813387}}},{"out_depth":13,"out_sx":1,"out_sy":1,"layer_type":"sigmoid"},{"out_depth":14,"out_sx":1,"out_sy":1,"layer_type":"fc","num_inputs":13,"l1_decay_mul":0,"l2_decay_mul":1,"filters":[{"sx":1,"sy":1,"depth":13,"w":{"0":-0.7673211570086655,"1":-0.44253009874284294,"2":-0.847373062654827,"3":-0.9391253654582625,"4":-1.5862041307382737,"5":-0.6320027452630086,"6":1.7403956072372653,"7":-1.2579867031204333,"8":-2.481262543888673,"9":4.103649234179892,"10":-3.3787735659593716,"11":2.284479589190781,"12":5.555449982829288}},{"sx":1,"sy":1,"depth":13,"w":{"0":-0.4422024322148366,"1":-0.35286277434101665,"2":-0.26596172819409325,"3":-0.05003347977877961,"4":-0.06138880487806102,"5":-0.01818476506387705,"6":-0.19812649434773114,"7":-0.04784794390121922,"8":-0.030300067721466078,"9":-0.20101920553209573,"10":-0.07714937887900328,"11":-0.3463096518717771,"12":-0.28804896785548784}},{"sx":1,"sy":1,"depth":13,"w":{"0":0.784746461504787,"1":-5.3900883230201675,"2":-1.7214565671646982,"3":-1.100227759608372,"4":3.426297889271434,"5":-0.5463187543324031,"6":-1.426413046943474,"7":-1.2209648131046869,"8":-1.6685353718852212,"9":-1.3811905506791244,"10":-3.2290022183372367,"11":5.541021030453124,"12":3.326018538001787}},{"sx":1,"sy":1,"depth":13,"w":{"0":-0.9153426027957873,"1":2.888220429350632,"2":0.009920721418998565,"3":-2.122437108984412,"4":-0.059923683295893544,"5":2.1596117287877443,"6":-9.243723003639861,"7":-2.1414577114770617,"8":-1.5431617567472056,"9":0.09018821060004399,"10":5.891716973954596,"11":4.476364908081062,"12":-10.245570667752393}},{"sx":1,"sy":1,"depth":13,"w":{"0":0.8371404897378888,"1":0.25018744317328423,"2":-0.6103768712369801,"3":-0.7398158051627022,"4":-1.5561060712736936,"5":-0.8000889993367765,"6":2.3870103417488804,"7":-0.8114309242888358,"8":-0.6803837861145321,"9":-0.8901885535995481,"10":-1.8182266984596624,"11":0.4070272742294464,"12":1.066224135064792}},{"sx":1,"sy":1,"depth":13,"w":{"0":-1.4442006151399938,"1":6.64432628996495,"2":4.714378890598446,"3":-1.2559849410156048,"4":-0.866795998012567,"5":3.3193515149713853,"6":1.869265722744438,"7":-1.4056149575852674,"8":3.2152348048775257,"9":-0.4355680854635543,"10":4.668463051648828,"11":2.2807989695751645,"12":-6.132903679153249}},{"sx":1,"sy":1,"depth":13,"w":{"0":-0.44544817704226464,"1":-0.3311940831024221,"2":-0.31746116496750615,"3":-0.02985781809091857,"4":-0.09946629174398644,"5":-0.023150986871476174,"6":-0.13608501810868176,"7":-0.09250499005414557,"8":-0.08531074900469851,"9":-0.32927281149692755,"10":-0.0754606506168459,"11":-0.3130006528433944,"12":-0.2731898404906007}},{"sx":1,"sy":1,"depth":13,"w":{"0":4.997028511783025,"1":-1.2734908876524407,"2":2.209240495282065,"3":2.6809216865685284,"4":-2.6176379025111514,"5":2.058206928697386,"6":7.618956441880394,"7":4.165262724854187,"8":-0.40493774333497784,"9":-6.280536483514579,"10":-6.971239437057904,"11":-2.1279908169469373,"12":0.9748281684201431}},{"sx":1,"sy":1,"depth":13,"w":{"0":-0.4467704243820302,"1":-0.4152840916366226,"2":-0.27815209803952246,"3":-0.09872913133759029,"4":-0.06246038222165623,"5":-0.07781515345023705,"6":-0.21250302847933844,"7":-0.057357145756059,"8":-0.08640313561514251,"9":-0.2437787661255782,"10":-0.06015576021778152,"11":-0.32127534748720854,"12":-0.2969958551355323}},{"sx":1,"sy":1,"depth":13,"w":{"0":1.0653152907595087,"1":-2.352652966665839,"2":3.295157748896414,"3":-0.593333764858051,"4":5.192478934011483,"5":-0.854183729450904,"6":-4.673375162189106,"7":-0.835910872436877,"8":0.6699236778533295,"9":4.086123557099424,"10":0.28182471253569613,"11":-3.745780769615842,"12":1.4716654983767565}},{"sx":1,"sy":1,"depth":13,"w":{"0":-0.45917420513591145,"1":-0.35941748790348216,"2":-0.28386889631923345,"3":-0.09879092802735728,"4":-0.07360986364353043,"5":0.013947745018002758,"6":-0.17955765201335958,"7":-0.021431117781447365,"8":-0.11708688891552928,"9":-0.24599735612823603,"10":-0.06007031824468687,"11":-0.3468324844051654,"12":-0.2712161267049753}},{"sx":1,"sy":1,"depth":13,"w":{"0":-0.4452503619758374,"1":-0.34666075045341666,"2":-0.27219678391156255,"3":-0.04503784605457265,"4":-0.09922106778710627,"5":-0.02859549902026879,"6":-0.1993490843373217,"7":-0.08516605339957359,"8":-0.05231644590924182,"9":-0.24369658448677192,"10":-0.11135387248806505,"11":-0.3372023476721128,"12":-0.2525222587087234}},{"sx":1,"sy":1,"depth":13,"w":{"0":0.8058325119481118,"1":1.1572457060777872,"2":-3.774203441065277,"3":2.0498332952071756,"4":-2.6608025423178376,"5":-4.435472490867773,"6":1.410100805545271,"7":1.3370409257561966,"8":-0.8054590102132133,"9":2.295013295678481,"10":-1.2253761929096687,"11":-0.29561010790819753,"12":-1.367449996352493}},{"sx":1,"sy":1,"depth":13,"w":{"0":-3.129909580401054,"1":0.24047200066616664,"2":-1.9871197261756037,"3":2.2669448041439946,"4":1.0427177446202582,"5":-0.041191938098224454,"6":1.191329569538456,"7":2.4794931741845967,"8":4.159317896506765,"9":-0.29329413258385856,"10":6.269538769004095,"11":-7.265742713569823,"12":6.717957107341473}}],"biases":{"sx":1,"sy":1,"depth":14,"w":{"0":-2.0309813237892484,"1":-1.928545974999753,"2":2.328295305689886,"3":6.134138686347793,"4":1.4544460673357764,"5":-4.098060962308813,"6":-1.856753865846766,"7":1.6509644316427974,"8":-1.7809449127207688,"9":1.4697722920288994,"10":-1.844850886259596,"11":-1.9163818658692087,"12":1.286622684478833,"13":1.1322803242693518}}},{"out_depth":14,"out_sx":1,"out_sy":1,"layer_type":"softmax","num_inputs":14}]},{"layers":[{"out_depth":2,"out_sx":1,"out_sy":1,"layer_type":"input"},{"out_depth":13,"out_sx":1,"out_sy":1,"layer_type":"fc","num_inputs":2,"l1_decay_mul":0,"l2_decay_mul":1,"filters":[{"sx":1,"sy":1,"depth":2,"w":{"0":0.6366602587323849,"1":-7.102096591473136}},{"sx":1,"sy":1,"depth":2,"w":{"0":11.774363774323316,"1":-2.6420458342656192}},{"sx":1,"sy":1,"depth":2,"w":{"0":6.046665929037037,"1":-4.135410138835626}},{"sx":1,"sy":1,"depth":2,"w":{"0":-0.4381824774355034,"1":-9.15222247025612}},{"sx":1,"sy":1,"depth":2,"w":{"0":3.9993112703648173,"1":-6.158440543309207}},{"sx":1,"sy":1,"depth":2,"w":{"0":-4.661860354408673,"1":-5.945439961458567}},{"sx":1,"sy":1,"depth":2,"w":{"0":-5.146652917063127,"1":2.9904241486035152}},{"sx":1,"sy":1,"depth":2,"w":{"0":-0.2309934911968115,"1":-5.338495684513982}},{"sx":1,"sy":1,"depth":2,"w":{"0":-5.463905165631202,"1":0.34405957407407156}},{"sx":1,"sy":1,"depth":2,"w":{"0":-7.45775093035241,"1":-0.0441895678786158}},{"sx":1,"sy":1,"depth":2,"w":{"0":-3.1663801772631732,"1":3.310819961644822}},{"sx":1,"sy":1,"depth":2,"w":{"0":8.208875105658212,"1":3.724430219315883}},{"sx":1,"sy":1,"depth":2,"w":{"0":-9.45900048928934,"1":0.5435959694539596}}],"biases":{"sx":1,"sy":1,"depth":13,"w":{"0":0.023047022053107036,"1":-8.752203398930892,"2":-10.868734237481677,"3":11.858056551453023,"4":-15.769175806558048,"5":-4.819595928163247,"6":4.336686866189888,"7":-14.640594953606902,"8":8.53981866951643,"9":8.733664357714247,"10":7.17786335830793,"11":11.799140929251767,"12":6.265786151044465}}},{"out_depth":13,"out_sx":1,"out_sy":1,"layer_type":"sigmoid"},{"out_depth":13,"out_sx":1,"out_sy":1,"layer_type":"fc","num_inputs":13,"l1_decay_mul":0,"l2_decay_mul":1,"filters":[{"sx":1,"sy":1,"depth":13,"w":{"0":-2.7447255184687913,"1":-1.5242879401844025,"2":3.2149156155809053,"3":-10.137804004758161,"4":2.4524426307450886,"5":0.09223371234668915,"6":3.646732554677325,"7":1.6662254173103663,"8":-2.996732540215608,"9":-2.4794583330549815,"10":-1.3992483550276218,"11":4.917190964367137,"12":4.311312630134322}},{"sx":1,"sy":1,"depth":13,"w":{"0":-6.349451181893934,"1":-2.060704090974884,"2":-0.26087275485607914,"3":-0.3235375023556727,"4":0.11674311002615279,"5":0.6662316409506949,"6":4.04470555980999,"7":0.979794132566093,"8":-2.4238666819292147,"9":0.15994078545730753,"10":0.5028220000141985,"11":-0.07542810881374898,"12":1.144697515416847}},{"sx":1,"sy":1,"depth":13,"w":{"0":-3.3334297583742942,"1":3.1132385344781763,"2":-1.3443146048357753,"3":-0.30498948700890477,"4":-0.5261560622182455,"5":-2.945986324363286,"6":1.0611772399869654,"7":0.04742230362840336,"8":1.6252095759308915,"9":-0.9445286407522462,"10":2.046276496831981,"11":0.09169462040832069,"12":-5.782093232436738}},{"sx":1,"sy":1,"depth":13,"w":{"0":0.39913818923034855,"1":1.078870813648261,"2":-1.976045769531534,"3":-2.3114766721451865,"4":0.3656642668412609,"5":0.7755403527241225,"6":-0.8052498636317248,"7":-0.6904123968821949,"8":-2.6953482118341996,"9":-6.659270513436887,"10":2.1241821015209372,"11":0.6818280520887527,"12":-0.9161068489060568}},{"sx":1,"sy":1,"depth":13,"w":{"0":0.19422500427330533,"1":-2.6337873544354684,"2":-0.4294390862505434,"3":0.19820334159146272,"4":2.5832148800630095,"5":1.7375436072069077,"6":-0.8413366263170753,"7":2.5531611564590735,"8":-0.19882607731332214,"9":-2.554190352316693,"10":-1.334546573318441,"11":-0.19283244384116235,"12":3.4400813827745162}},{"sx":1,"sy":1,"depth":13,"w":{"0":-0.10394031980959044,"1":4.076931919074413,"2":3.163077668194553,"3":3.014926060271624,"4":2.988947240641274,"5":0.0015543866012173097,"6":-3.104381154511728,"7":-1.755393994002913,"8":-0.12519638011535905,"9":-1.2770024791957433,"10":-1.8926468167605393,"11":1.0675829983723255,"12":-2.097790880186339}},{"sx":1,"sy":1,"depth":13,"w":{"0":1.8419340148880121,"1":-4.637686152189952,"2":-3.198388744144077,"3":5.539024586974896,"4":-4.507818882383039,"5":-2.4407834913720543,"6":-0.620382991689978,"7":-4.0023652720164495,"8":-1.784528801786652,"9":-1.0106782571094413,"10":2.637961190056598,"11":3.510427789896808,"12":1.0290309232158676}},{"sx":1,"sy":1,"depth":13,"w":{"0":-0.968194437124488,"1":6.142374103816836,"2":1.3071891415720576,"3":-0.9333075183692584,"4":3.3651829830603486,"5":1.599787520739134,"6":0.04769046759192785,"7":2.688768803704648,"8":0.3402719540987653,"9":0.19345073167944976,"10":-1.5920115504034285,"11":-7.284278831063364,"12":2.4012443961114056}},{"sx":1,"sy":1,"depth":13,"w":{"0":0.9443084780518132,"1":-1.9016104517808055,"2":0.8173655511814611,"3":-1.185433204069804,"4":-0.40723764129407564,"5":1.6046330211361497,"6":2.9500390271853054,"7":-1.0248687333769755,"8":-6.224423463497249,"9":-2.724245084174388,"10":1.0878186202708662,"11":1.0239403744864832,"12":3.4825771458865336}},{"sx":1,"sy":1,"depth":13,"w":{"0":-3.664540573796631,"1":-1.4287720469027438,"2":3.7211611920640495,"3":-2.0747256747823286,"4":0.9669184578363869,"5":7.146406506930307,"6":0.42600095570037966,"7":0.6114798205247113,"8":-1.296590069248159,"9":-0.5377175174476225,"10":-3.215071641171984,"11":0.6512070478761658,"12":3.109838320449726}},{"sx":1,"sy":1,"depth":13,"w":{"0":5.585613978135086,"1":-1.2753658516497868,"2":-1.4073871571525463,"3":0.4272480890654445,"4":4.506035978717837,"5":-2.167848958318343,"6":-1.778431221321455,"7":-0.8261939809161803,"8":-2.2228996248111534,"9":-2.808719621084569,"10":0.5329611180477186,"11":0.11476553741297127,"12":4.996164874205066}},{"sx":1,"sy":1,"depth":13,"w":{"0":-2.435008569024519,"1":7.261426037912672,"2":1.795348097035982,"3":0.34155123720541386,"4":-1.6047851040006837,"5":4.756227692064368,"6":-0.3135876125278095,"7":-3.004101169486492,"8":-0.4596558991138954,"9":-1.4234461016674451,"10":-0.7964344487735868,"11":1.7175158338230456,"12":-2.017936960090076}},{"sx":1,"sy":1,"depth":13,"w":{"0":1.58550396707128,"1":0.7435276602050954,"2":3.3192655892609286,"3":-2.386556844056244,"4":-0.5531656080886801,"5":-1.9966198501877348,"6":0.3085016864283432,"7":5.497167424157518,"8":-2.8528962085760314,"9":-4.292748725114078,"10":-1.232696396013081,"11":0.43415652844468505,"12":-2.136159452759847}}],"biases":{"sx":1,"sy":1,"depth":13,"w":{"0":5.188041422752509,"1":3.073891311827932,"2":0.3333565537603504,"3":4.328424179077525,"4":-1.2060107233805437,"5":-1.003520869348761,"6":-0.3028219446038681,"7":-3.0572006326886463,"8":2.205317012834602,"9":3.968961939315983,"10":0.31022193349934296,"11":-1.486991746083353,"12":1.5163301267427294}}},{"out_depth":13,"out_sx":1,"out_sy":1,"layer_type":"sigmoid"},{"out_depth":14,"out_sx":1,"out_sy":1,"layer_type":"fc","num_inputs":13,"l1_decay_mul":0,"l2_decay_mul":1,"filters":[{"sx":1,"sy":1,"depth":13,"w":{"0":-3.1273485694460934,"1":-1.4199225188750022,"2":-1.4921924436054481,"3":6.500493080639405,"4":-0.26299057097228307,"5":-0.45766323984685986,"6":1.8508147431723094,"7":0.8788058797005934,"8":-2.2471078307318892,"9":-3.479206516770366,"10":0.26482826350218724,"11":-6.005641681457952,"12":1.293023055205682}},{"sx":1,"sy":1,"depth":13,"w":{"0":-0.05169984699736171,"1":-0.05248592321003566,"2":-0.08281087536345835,"3":-0.04361886161017227,"4":-0.14521332719218902,"5":-0.2711091129756047,"6":-0.19859109383765627,"7":-0.11097971120597529,"8":-0.03924138012236964,"9":-0.2295315907838023,"10":-0.25796911178299553,"11":-0.2111589089826217,"12":-0.017513975933112776}},{"sx":1,"sy":1,"depth":13,"w":{"0":2.8955514814180576,"1":-2.0345092191810528,"2":-1.9620958466490974,"3":-1.097775060292947,"4":3.979059713662061,"5":-0.26495578165797795,"6":2.630917126147416,"7":3.5820474919516663,"8":-1.6693963737656488,"9":3.604938442840065,"10":-4.582999635909108,"11":2.390040349513826,"12":-2.3803801385823413}},{"sx":1,"sy":1,"depth":13,"w":{"0":-6.306926872953085,"1":5.3956326224697735,"2":1.4485650578172469,"3":0.6184253661661376,"4":-1.6295874114448643,"5":-1.7313810087008807,"6":-8.000480835007384,"7":-1.447220277123484,"8":2.8000482606419825,"9":-3.2577544704614474,"10":4.888932078754425,"11":4.700301699766868,"12":-1.9797631959807023}},{"sx":1,"sy":1,"depth":13,"w":{"0":-0.7439240407919628,"1":-0.5173080751419004,"2":-3.0399803569343558,"3":-1.1287542841955645,"4":-3.318289583629732,"5":1.4507079501603888,"6":-0.7624704273720561,"7":-1.7390556313491274,"8":-0.5968774830185978,"9":-0.5577299324485194,"10":-1.4732049098332312,"11":2.265217886348164,"12":-0.7784727131594272}},{"sx":1,"sy":1,"depth":13,"w":{"0":-5.634705199198707,"1":-3.553682191668388,"2":6.844252588285012,"3":-6.97632243364363,"4":1.9229892032420877,"5":2.527154789235968,"6":4.5276411980294125,"7":2.0065002249925903,"8":0.3171047407069524,"9":4.4895286055030805,"10":1.216119526286607,"11":-1.0283110283137407,"12":7.091474118752918}},{"sx":1,"sy":1,"depth":13,"w":{"0":-0.049596090827641166,"1":-0.05137747790347196,"2":-0.08626368204702375,"3":-0.04011861593138512,"4":-0.14646553909976365,"5":-0.27943752330487137,"6":-0.20120232579598218,"7":-0.11084207376540799,"8":-0.043780535878695834,"9":-0.23228319324741187,"10":-0.26445453650863415,"11":-0.2101852165394717,"12":-0.018555929021851648}},{"sx":1,"sy":1,"depth":13,"w":{"0":1.945956510274705,"1":0.22992736383209098,"2":-0.5579377176618233,"3":5.028233879168996,"4":1.228462589311302,"5":-1.4709422010858486,"6":-1.9852026022691505,"7":4.262994368480458,"8":-3.4585990090512695,"9":-2.568863658319483,"10":3.655964779565595,"11":4.536319798356554,"12":-3.343825423902793}},{"sx":1,"sy":1,"depth":13,"w":{"0":-0.05414163946667065,"1":-0.052790556430819424,"2":-0.08282028007794993,"3":-0.03606403686921257,"4":-0.13962355613325603,"5":-0.26792028123014083,"6":-0.18924070048796002,"7":-0.1091084342960403,"8":-0.045223143499010465,"9":-0.22111488237047464,"10":-0.2567177876452593,"11":-0.206521663918835,"12":-0.0158646457540868}},{"sx":1,"sy":1,"depth":13,"w":{"0":6.686443467680296,"1":1.1164061098802072,"2":0.2926986738744326,"3":-1.1552121952350622,"4":1.1450071759445777,"5":4.943615603826101,"6":0.27212228431234964,"7":-1.812581858550905,"8":-1.313830637358934,"9":-4.010199518718219,"10":1.410610559640701,"11":-2.8701959398995793,"12":-0.6725343267854589}},{"sx":1,"sy":1,"depth":13,"w":{"0":3.0760073469145914,"1":0.7175926924365075,"2":-0.23937446145628816,"3":-2.818364989701262,"4":-1.5776345957762066,"5":0.6768199223204829,"6":-0.6145125930675689,"7":-4.625233268182552,"8":-0.7647080442905054,"9":3.7101838186377005,"10":0.5163392203220917,"11":-0.8835152660489032,"12":-0.99251222250834}},{"sx":1,"sy":1,"depth":13,"w":{"0":-0.052193129065713106,"1":-0.048503725607604235,"2":-0.08611203834341105,"3":-0.0408749577992038,"4":-0.14273221780757453,"5":-0.26448450328690626,"6":-0.1900061789109875,"7":-0.10531076020515591,"8":-0.045546064133934375,"9":-0.22793421729166638,"10":-0.25547718449489987,"11":-0.20921626659503995,"12":-0.01289028345532417}},{"sx":1,"sy":1,"depth":13,"w":{"0":-1.1942794927531262,"1":-2.569104955780876,"2":3.660297045332071,"3":-1.6286422856644909,"4":-0.17229463410264556,"5":-1.059794284518959,"6":1.9432493622531855,"7":-0.11620833454640116,"8":-0.8833215079575877,"9":-0.74757098958017,"10":-5.762172880873325,"11":-1.7799376749135845,"12":-1.0762112127970842}},{"sx":1,"sy":1,"depth":13,"w":{"0":2.6008553040607896,"1":2.853011793366331,"2":-4.6310612250570085,"3":2.8229731887948226,"4":-0.763950347676262,"5":-3.536515795598383,"6":0.913041177177414,"7":-0.5420000429269974,"8":8.000574174124043,"9":3.730973982320548,"10":0.8688491984033379,"11":-0.5074254130115267,"12":2.9005214956543086}}],"biases":{"sx":1,"sy":1,"depth":14,"w":{"0":6.125166019595436,"1":-2.7866648777943173,"2":-1.6365179942123793,"3":6.645107528021034,"4":2.231377895767193,"5":-5.489278030073409,"6":-2.756168468623775,"7":-0.12018964361329354,"8":-2.826226311007862,"9":0.015218055619924589,"10":1.5499670764871476,"11":-2.819432636264924,"12":4.340355993838304,"13":-2.4727146077389257}}},{"out_depth":14,"out_sx":1,"out_sy":1,"layer_type":"softmax","num_inputs":14}]},{"layers":[{"out_depth":2,"out_sx":1,"out_sy":1,"layer_type":"input"},{"out_depth":13,"out_sx":1,"out_sy":1,"layer_type":"fc","num_inputs":2,"l1_decay_mul":0,"l2_decay_mul":1,"filters":[{"sx":1,"sy":1,"depth":2,"w":{"0":-5.216849165833571,"1":1.150801101365723}},{"sx":1,"sy":1,"depth":2,"w":{"0":-3.99670204841446,"1":-0.09054922001776276}},{"sx":1,"sy":1,"depth":2,"w":{"0":5.192580601118592,"1":5.8728584125496885}},{"sx":1,"sy":1,"depth":2,"w":{"0":-5.36486345103091,"1":2.8613953645812016}},{"sx":1,"sy":1,"depth":2,"w":{"0":-2.832146398055589,"1":-2.1191948862022087}},{"sx":1,"sy":1,"depth":2,"w":{"0":-5.983125972050983,"1":-1.627635713831568}},{"sx":1,"sy":1,"depth":2,"w":{"0":2.413111315563391,"1":6.1661305959105865}},{"sx":1,"sy":1,"depth":2,"w":{"0":4.8965653041759545,"1":-3.0917478674127508}},{"sx":1,"sy":1,"depth":2,"w":{"0":-5.859150718274529,"1":-7.5385881033874735}},{"sx":1,"sy":1,"depth":2,"w":{"0":5.196984911855533,"1":-10.586325137002353}},{"sx":1,"sy":1,"depth":2,"w":{"0":7.018590907556408,"1":0.8315549367269134}},{"sx":1,"sy":1,"depth":2,"w":{"0":0.8910499725933371,"1":-7.302066458802244}},{"sx":1,"sy":1,"depth":2,"w":{"0":-4.671497836019256,"1":3.11378995515977}}],"biases":{"sx":1,"sy":1,"depth":13,"w":{"0":3.268960733876713,"1":9.696353631512185,"2":-2.5162503477023908,"3":-10.118037150212968,"4":-3.369738502268866,"5":-1.2804870493010572,"6":0.9234112254524082,"7":-5.4941917584022875,"8":7.635827995679254,"9":4.93745959492431,"10":-2.8083388795560755,"11":15.069467939385609,"12":6.721416049182864}}},{"out_depth":13,"out_sx":1,"out_sy":1,"layer_type":"sigmoid"},{"out_depth":13,"out_sx":1,"out_sy":1,"layer_type":"fc","num_inputs":13,"l1_decay_mul":0,"l2_decay_mul":1,"filters":[{"sx":1,"sy":1,"depth":13,"w":{"0":-3.453685814318487,"1":-2.0390613965582487,"2":-2.8740991328632033,"3":4.479551810013657,"4":2.12433828521239,"5":-0.501009333173229,"6":-1.199521443838025,"7":-2.4330008500271925,"8":0.5795457096421369,"9":5.77848307511248,"10":2.1827517370876266,"11":-6.545885756887634,"12":1.4553097644442166}},{"sx":1,"sy":1,"depth":13,"w":{"0":-2.7837388467878603,"1":4.889817423439183,"2":-2.5705637569982374,"3":0.14006094956683515,"4":-0.10913521557347394,"5":1.3991113619035873,"6":-0.024339441776514422,"7":-5.15535699058051,"8":4.438711830761436,"9":2.5792862014679665,"10":1.9660388171221528,"11":4.277585734323452,"12":1.6430544909905196}},{"sx":1,"sy":1,"depth":13,"w":{"0":3.3840067513318637,"1":-1.3997107496360242,"2":-5.3392371536741425,"3":-0.8940763033379064,"4":2.9229501901628803,"5":1.0373999672561713,"6":3.501189056189726,"7":-2.2152950424792435,"8":1.309374546284365,"9":4.059798063242805,"10":5.60741113990898,"11":-5.8114588624610635,"12":-2.969229515232505}},{"sx":1,"sy":1,"depth":13,"w":{"0":0.15829911983594716,"1":2.0801356164651232,"2":2.994358005513754,"3":-0.37993989575028936,"4":-1.5412696603874547,"5":-1.2374943641050298,"6":0.9363647549770595,"7":0.6123190824241851,"8":-1.1344923746914704,"9":-0.45131776085787484,"10":-1.708245657271386,"11":0.18020273541945497,"12":-0.06580279952221751}},{"sx":1,"sy":1,"depth":13,"w":{"0":3.7883022331784253,"1":0.11455483790960741,"2":4.545821260383515,"3":-1.3930607752861528,"4":1.7672186425200567,"5":1.6993621384775162,"6":-0.7429588578659635,"7":-0.0532536324000848,"8":-1.7485146355633454,"9":4.243146993305717,"10":-3.247790463795961,"11":-4.405620928178995,"12":-2.2228633167135365}},{"sx":1,"sy":1,"depth":13,"w":{"0":3.2934906352628297,"1":-0.40462894574694624,"2":1.6863059955804534,"3":-1.4291090912842155,"4":1.2824521482070232,"5":2.2880513323725946,"6":-1.3023880412122995,"7":3.40023001589944,"8":0.10374820097647919,"9":4.63539389040967,"10":-1.4115163963658144,"11":-0.5023087912688744,"12":-3.0295146348629367}},{"sx":1,"sy":1,"depth":13,"w":{"0":0.37888371905757245,"1":0.8849949288059513,"2":1.7605816648981352,"3":-0.6451626846940435,"4":-0.9325285080253064,"5":-0.4308237571669099,"6":-0.32108449266936717,"7":-0.5410626589770879,"8":0.3157399539088446,"9":-0.6611962790405466,"10":-0.566064044016749,"11":-0.9434426449597667,"12":0.431985000743222}},{"sx":1,"sy":1,"depth":13,"w":{"0":-0.5792407915862681,"1":-1.0664651127248823,"2":-0.2596278590837473,"3":5.154782616400941,"4":0.8453404887868886,"5":-0.29316615246533456,"6":-0.2725236642917466,"7":2.4075216160286055,"8":1.7585440147518863,"9":-0.6065564855003378,"10":-1.429506118477201,"11":-1.8287393689484037,"12":-1.8744418226415396}},{"sx":1,"sy":1,"depth":13,"w":{"0":3.2717122154799605,"1":-1.4673959775382222,"2":-1.1944345548285005,"3":-0.8022045172581224,"4":-1.2790434427916164,"5":-3.4077021180116223,"6":1.2880676259882595,"7":1.6538459754265693,"8":1.238657139238257,"9":-4.292481828040949,"10":2.422794901014919,"11":-4.554498619378923,"12":0.035116777515382495}},{"sx":1,"sy":1,"depth":13,"w":{"0":5.217305144827898,"1":-0.15898726448248726,"2":-0.6554346630544848,"3":1.5994223366331746,"4":-1.1749514855910075,"5":-3.156898784418152,"6":-0.12198110448594819,"7":0.43998373681607456,"8":4.9906928499717385,"9":7.374328607753686,"10":4.937866282897086,"11":-7.1409419800772325,"12":-3.1397292938391357}},{"sx":1,"sy":1,"depth":13,"w":{"0":0.2846820844579711,"1":-0.17792558330920555,"2":0.49369914339680354,"3":0.04035042029182689,"4":0.29822527978928265,"5":-0.0013086210054008614,"6":3.0375814365133627,"7":-1.1716872018997764,"8":-0.5898613241862263,"9":-0.3709863341333427,"10":0.8560982028782959,"11":0.12319877420460604,"12":2.423010986132556}},{"sx":1,"sy":1,"depth":13,"w":{"0":6.237013646871113,"1":-1.2408243508995087,"2":-2.9955497150954535,"3":0.3198602565350939,"4":0.46334966386556947,"5":0.5756169113769666,"6":-3.646213437805686,"7":-0.6137844362116748,"8":1.0199584126328047,"9":1.6197867315514438,"10":-0.5791624375258128,"11":-0.1919898512660055,"12":0.9254028325319817}},{"sx":1,"sy":1,"depth":13,"w":{"0":0.8771517196782341,"1":-0.4966131249324643,"2":3.8535901271930304,"3":-1.7679532210282198,"4":0.3832597199481995,"5":3.8644641024876982,"6":1.7324480618732057,"7":-1.9559252761708095,"8":-3.735071318444046,"9":5.427317185110068,"10":-3.5247670519511822,"11":-8.227354615839046,"12":2.7156769374909957}}],"biases":{"sx":1,"sy":1,"depth":13,"w":{"0":5.056058703878107,"1":-6.942305167195935,"2":0.9586367952955257,"3":-0.5797953371924061,"4":0.6301280946422458,"5":-0.6780481695236341,"6":-0.014155175755430571,"7":1.7205591199819021,"8":1.6714353440090193,"9":1.8067380958166794,"10":-0.011992413667027899,"11":3.2522443788420294,"12":3.147062150381864}}},{"out_depth":13,"out_sx":1,"out_sy":1,"layer_type":"sigmoid"},{"out_depth":14,"out_sx":1,"out_sy":1,"layer_type":"fc","num_inputs":13,"l1_decay_mul":0,"l2_decay_mul":1,"filters":[{"sx":1,"sy":1,"depth":13,"w":{"0":-0.026134401561707016,"1":-0.20099429397955995,"2":-0.18470161628028162,"3":-0.3557023153460131,"4":-0.04352758943132575,"5":-0.1810245494324255,"6":-0.24862760225219485,"7":-0.058264450636590116,"8":-0.09389253014464044,"9":-0.12772630667021667,"10":-0.3147175012593329,"11":-0.18389040979011892,"12":-0.21807181082659557}},{"sx":1,"sy":1,"depth":13,"w":{"0":-0.08670122588452116,"1":-0.2835579972483513,"2":-0.09967632012074235,"3":-0.28308049254433226,"4":-0.07457847175731365,"5":-0.06340330647627518,"6":-0.2593378286215385,"7":-0.07473821580770357,"8":-0.100850301283134,"9":-0.14727131238240485,"10":-0.29519012058009364,"11":-0.011828082722431412,"12":-0.19265935163139306}},{"sx":1,"sy":1,"depth":13,"w":{"0":-2.7228438641893202,"1":-4.047254546199148,"2":-0.8375413045961739,"3":0.5387199779366426,"4":4.21137169461667,"5":2.3780884220512006,"6":-0.4340660814655336,"7":-0.8645964948347494,"8":5.423745398915029,"9":1.7823089178140354,"10":0.5287749859646587,"11":0.8968171568848462,"12":-3.26694100952694}},{"sx":1,"sy":1,"depth":13,"w":{"0":-0.20254745793259046,"1":3.281259287245155,"2":-2.9725687321314105,"3":0.32560380292036883,"4":-3.119357836512599,"5":2.209659608656693,"6":0.47078407240130615,"7":-1.7794653217904486,"8":3.547401362288607,"9":-3.678576605090239,"10":0.44928373841084596,"11":-1.897090285156639,"12":5.646482714055801}},{"sx":1,"sy":1,"depth":13,"w":{"0":0.013474283439502154,"1":-0.18061496568303215,"2":-0.13134739005632715,"3":-0.30438114722700343,"4":-0.13951019337724627,"5":-0.18279393554489398,"6":-0.24712704824979365,"7":0.013890993829829727,"8":-0.08555531100255591,"9":-0.10112137009157267,"10":-0.2537195506945508,"11":-0.04239441893725277,"12":-0.24870297558739415}},{"sx":1,"sy":1,"depth":13,"w":{"0":5.749469714913377,"1":1.9991847871484247,"2":-5.543330920088214,"3":2.7447824440566446,"4":-5.131174912907968,"5":-6.631146046604435,"6":1.475983460982907,"7":5.377622088020847,"8":3.5041250742493366,"9":8.986704775295403,"10":-3.2110530883832387,"11":4.06339196279575,"12":-1.9506636946952465}},{"sx":1,"sy":1,"depth":13,"w":{"0":-0.07671362172871438,"1":-0.19200150394539647,"2":-0.08236763315951211,"3":-0.37864920954801806,"4":-0.04958025441825779,"5":-0.047156631617551265,"6":-0.34691232008894346,"7":-0.09602212325017496,"8":-0.08428246678506288,"9":-0.15116831119221236,"10":-0.18056547150835814,"11":-0.12101366615882854,"12":-0.21768504207709136}},{"sx":1,"sy":1,"depth":13,"w":{"0":-6.937223149637717,"1":1.087710888711812,"2":0.07198399233446666,"3":-1.6552519903199283,"4":5.581598546286644,"5":4.594372514537505,"6":0.28268894495907493,"7":-2.0214719473783695,"8":-6.14127975945835,"9":0.8356500871688285,"10":0.1733253148747437,"11":2.2868663966526444,"12":3.864289747901107}},{"sx":1,"sy":1,"depth":13,"w":{"0":-0.09834093817817152,"1":-0.26391882597781224,"2":-0.10863105883033677,"3":-0.3525396099859091,"4":-0.07913453660444462,"5":-0.08659565348624064,"6":-0.2770133748913311,"7":-0.0394535966134174,"8":-0.12745005259884923,"9":-0.14989408531832638,"10":-0.2911773102368706,"11":-0.10658073136475703,"12":-0.2603913958238443}},{"sx":1,"sy":1,"depth":13,"w":{"0":0.13693756666899157,"1":4.221852437907934,"2":-0.1701778520763312,"3":1.6260928433840276,"4":-0.6803475858496447,"5":1.5408509529546601,"6":0.45221067290922845,"7":1.3211803169723673,"8":1.4314579499868738,"9":0.8377510829215229,"10":0.6473500005441488,"11":-6.287706729160076,"12":-4.699968259300317}},{"sx":1,"sy":1,"depth":13,"w":{"0":-0.07394320625706645,"1":-0.259675316753084,"2":-0.06154798060291655,"3":-0.2856210680481873,"4":-0.17336632485997788,"5":-0.13178685747119992,"6":-0.33968683825149243,"7":-0.07971807487279625,"8":-0.0880716176013029,"9":-0.055884338918334796,"10":-0.18450435824415604,"11":-0.12271612160080438,"12":-0.2530854891101727}},{"sx":1,"sy":1,"depth":13,"w":{"0":-0.10167326173210109,"1":-0.28062248711240356,"2":-0.0933657178116535,"3":-0.34848569721431377,"4":0.00446910159477403,"5":-0.20674938362205122,"6":-0.23674395068414472,"7":-0.06219559847844393,"8":-0.17857471194905739,"9":-0.060417676595636634,"10":-0.2297665304263103,"11":-0.10325747372594486,"12":-0.25293033939352916}},{"sx":1,"sy":1,"depth":13,"w":{"0":-2.055809879896533,"1":3.493578482099391,"2":-1.7610855339482994,"3":0.30330648282379,"4":-2.3403768424399276,"5":-3.9936407772384666,"6":0.5957350839324665,"7":-0.39127643864378964,"8":-3.046397245310454,"9":-1.9627046136908457,"10":0.4180739661097296,"11":-3.402935247383075,"12":3.5424541557290765}},{"sx":1,"sy":1,"depth":13,"w":{"0":6.500595537778511,"1":-8.249022711388937,"2":11.860656607576196,"3":-1.8166961294068096,"4":1.8564837121424909,"5":0.786809688123976,"6":-0.9394972743251893,"7":-1.2272070717413626,"8":-3.6479337216355088,"9":-5.649070300229994,"10":2.8438539476372786,"11":5.0637386218665545,"12":-1.6890983487411915}}],"biases":{"sx":1,"sy":1,"depth":14,"w":{"0":-1.057497709545533,"1":-1.2572542781975102,"2":0.26068405692808744,"3":0.28446618789548916,"4":-1.3586783375532034,"5":-2.4032561161057315,"6":-1.224582611500304,"7":-0.9247186080181757,"8":-0.9733620806051422,"9":2.2283204614655023,"10":-1.2602155077758563,"11":-1.1466505779128997,"12":1.0620325071293544,"13":7.770712613795684}}},{"out_depth":14,"out_sx":1,"out_sy":1,"layer_type":"softmax","num_inputs":14}]},{"layers":[{"out_depth":2,"out_sx":1,"out_sy":1,"layer_type":"input"},{"out_depth":13,"out_sx":1,"out_sy":1,"layer_type":"fc","num_inputs":2,"l1_decay_mul":0,"l2_decay_mul":1,"filters":[{"sx":1,"sy":1,"depth":2,"w":{"0":-4.189715223315303,"1":9.714457762336844}},{"sx":1,"sy":1,"depth":2,"w":{"0":1.692685246497465,"1":-8.879561623131275}},{"sx":1,"sy":1,"depth":2,"w":{"0":-6.296969140304303,"1":2.4599173854196903}},{"sx":1,"sy":1,"depth":2,"w":{"0":-8.589124931186252,"1":-1.5781136348142641}},{"sx":1,"sy":1,"depth":2,"w":{"0":0.09737726842046854,"1":-8.649244321948888}},{"sx":1,"sy":1,"depth":2,"w":{"0":2.780954650438829,"1":-6.399696292475229}},{"sx":1,"sy":1,"depth":2,"w":{"0":-6.382109094329691,"1":3.2979977624955743}},{"sx":1,"sy":1,"depth":2,"w":{"0":4.300403720253533,"1":-4.920457538935631}},{"sx":1,"sy":1,"depth":2,"w":{"0":4.701983173398107,"1":1.1650791488131103}},{"sx":1,"sy":1,"depth":2,"w":{"0":-1.3776720979381325,"1":7.6729593873807636}},{"sx":1,"sy":1,"depth":2,"w":{"0":4.509959803436966,"1":5.894997045580443}},{"sx":1,"sy":1,"depth":2,"w":{"0":2.114436068305798,"1":-6.036590705764536}},{"sx":1,"sy":1,"depth":2,"w":{"0":-6.552946306063803,"1":2.494897988628864}}],"biases":{"sx":1,"sy":1,"depth":13,"w":{"0":12.296973952125883,"1":-9.224991359150138,"2":-4.02995692975179,"3":-5.085694613404078,"4":-4.126600726921331,"5":-1.445632666177004,"6":7.32206488799345,"7":1.849579177047678,"8":-4.216663167685253,"9":-8.681248609854576,"10":-9.229478507721572,"11":-4.481198999376161,"12":5.4958920482683045}}},{"out_depth":13,"out_sx":1,"out_sy":1,"layer_type":"sigmoid"},{"out_depth":13,"out_sx":1,"out_sy":1,"layer_type":"fc","num_inputs":13,"l1_decay_mul":0,"l2_decay_mul":1,"filters":[{"sx":1,"sy":1,"depth":13,"w":{"0":1.4149391778134242,"1":-3.718644522623356,"2":0.4570615597029792,"3":-4.002882300227117,"4":0.9612242818737842,"5":-0.46908323602098945,"6":0.27737619127752233,"7":-0.9354974676554549,"8":5.797791462840296,"9":0.5269011009912661,"10":0.6556545406496588,"11":-0.4352030856022967,"12":-0.0568085125870681}},{"sx":1,"sy":1,"depth":13,"w":{"0":-3.733212279666889,"1":-2.7463444430848205,"2":-0.0991621252341645,"3":-0.06252018113737348,"4":-2.2180307919402202,"5":-2.8617381523787957,"6":-3.8027522472736854,"7":4.2962914037709945,"8":0.05173807883746428,"9":6.927854563749945,"10":0.9876995001284284,"11":1.7068977999426889,"12":0.6853736434469131}},{"sx":1,"sy":1,"depth":13,"w":{"0":0.6882566610920464,"1":-0.07490393776448105,"2":-0.1250414136065435,"3":-0.6817448366924657,"4":-1.195385717145625,"5":-7.476657459283358,"6":-0.6932322337348673,"7":-0.5302902577572666,"8":0.06411021621296047,"9":0.9430837433990643,"10":2.568638860284197,"11":-2.4530447915592144,"12":0.7790646955230714}},{"sx":1,"sy":1,"depth":13,"w":{"0":0.07451328994395692,"1":3.7584181167821407,"2":5.6147668960168104,"3":-6.942283425941246,"4":6.339434379402879,"5":-1.3386481761785478,"6":0.8851435781024815,"7":-1.2943650134419051,"8":0.7071061700950072,"9":-0.08878681212402817,"10":-2.5146127224317336,"11":-1.1230768027806333,"12":1.271717850871298}},{"sx":1,"sy":1,"depth":13,"w":{"0":-0.06670103434249001,"1":1.2720126217091778,"2":1.790604598590064,"3":1.0099211765501095,"4":0.2918555043301206,"5":-0.9878171518243547,"6":-4.840879866269177,"7":-5.243668346682618,"8":-2.4932957765652075,"9":6.165332721074927,"10":-0.9866983852791605,"11":0.10699380839233137,"12":-1.8839860402968442}},{"sx":1,"sy":1,"depth":13,"w":{"0":-2.3828367424232897,"1":3.89810039508925,"2":0.6885295593869599,"3":1.0374510802001913,"4":5.998963523766064,"5":1.1477950939138908,"6":1.6002388027923404,"7":0.20899953894680282,"8":-3.20559780860582,"9":-0.13551358672805167,"10":-3.1982164591382567,"11":1.6892617637383498,"12":0.43858866781523}},{"sx":1,"sy":1,"depth":13,"w":{"0":-0.4745120802706478,"1":1.1786348448139154,"2":-5.061263083154875,"3":-0.7834172137983126,"4":0.8327983784736016,"5":0.5676313750227653,"6":-1.1838489824851044,"7":0.6615878922625977,"8":0.3128763719044526,"9":4.112884123992267,"10":-1.467354760005182,"11":2.817846750184233,"12":-0.7772535784822724}},{"sx":1,"sy":1,"depth":13,"w":{"0":0.564059778856126,"1":-5.245538556140061,"2":1.833470103011256,"3":0.8551550583420173,"4":1.6334907377032284,"5":-4.6929067754020615,"6":3.6569072785584655,"7":0.6825582386591966,"8":-0.3360035787659176,"9":-1.0821620138108352,"10":0.8120326039421775,"11":-2.683754116324562,"12":1.610553427791996}},{"sx":1,"sy":1,"depth":13,"w":{"0":3.7697294227594673,"1":-4.277300178752145,"2":1.4530309604685974,"3":-1.3253369149716723,"4":-2.0448052284185274,"5":-0.9178128525742664,"6":-1.9824574881973356,"7":0.543533241422057,"8":-0.3414816619162262,"9":-3.4970025718423847,"10":-0.1019179614152001,"11":-3.6201165569769667,"12":1.881325877113773}},{"sx":1,"sy":1,"depth":13,"w":{"0":-4.677512052108947,"1":2.5264822789503127,"2":3.2748435372380684,"3":-1.2678597868392714,"4":0.6438375816557742,"5":-2.935588721399506,"6":-3.364447171200243,"7":7.190749002189981,"8":2.6193087624695295,"9":-1.888926235005884,"10":0.7985713727723801,"11":0.6178567114190898,"12":0.32888915472537467}},{"sx":1,"sy":1,"depth":13,"w":{"0":6.184567291613072,"1":-2.402154262071927,"2":-1.7199966553487993,"3":3.2896872839681977,"4":1.8599134761831009,"5":1.76109959816507,"6":-0.8579348368668851,"7":2.3537332763044003,"8":3.854308325667208,"9":2.3150655817553707,"10":-6.332637327883954,"11":-1.427684023971697,"12":-4.027539431944567}},{"sx":1,"sy":1,"depth":13,"w":{"0":-2.731316135194158,"1":0.896047766945801,"2":0.3989018321319106,"3":5.135601056186367,"4":1.4830403261804144,"5":0.6758625774617046,"6":-3.9321636950238537,"7":-0.702457649640007,"8":-1.4924451483504608,"9":-0.06919392994829116,"10":-6.066664792391357,"11":1.59081146263015,"12":-3.4015162667163703}},{"sx":1,"sy":1,"depth":13,"w":{"0":-4.196321191523774,"1":3.336757777113151,"2":-0.8247797559762367,"3":2.9363270977547917,"4":-0.49220004136622686,"5":-1.14520387374225,"6":4.100933391108255,"7":2.9592655605544516,"8":3.9879272566439776,"9":-5.832940407837433,"10":4.020330689315588,"11":-5.278660025894771,"12":0.9018040746151963}}],"biases":{"sx":1,"sy":1,"depth":13,"w":{"0":0.836233390810184,"1":-2.46077640171993,"2":2.932040197132112,"3":-1.9194536752113822,"4":3.8897416120297574,"5":0.4941410040830734,"6":0.3667393872768985,"7":-1.8316968105079146,"8":0.018254303855421542,"9":-0.6065840634852684,"10":-2.904361471056698,"11":1.0122890565713842,"12":-2.631305120040557}}},{"out_depth":13,"out_sx":1,"out_sy":1,"layer_type":"sigmoid"},{"out_depth":14,"out_sx":1,"out_sy":1,"layer_type":"fc","num_inputs":13,"l1_decay_mul":0,"l2_decay_mul":1,"filters":[{"sx":1,"sy":1,"depth":13,"w":{"0":0.27256477054786005,"1":-3.4863099202018017,"2":2.7612655611641896,"3":1.043297149526839,"4":-0.5025987576117669,"5":3.9939245803275574,"6":-1.2636094857702758,"7":-2.696933161326345,"8":1.8751006185905876,"9":1.9422305442435335,"10":-3.9455778587674755,"11":-7.321617088514762,"12":5.09909251058358}},{"sx":1,"sy":1,"depth":13,"w":{"0":-0.19862478635290032,"1":-0.06787718149677774,"2":-0.10342077973338211,"3":-0.10714485263750505,"4":-0.01277730928795611,"5":-0.1694886947128399,"6":-0.19822666035812775,"7":-0.1093749431569764,"8":-0.13962104752892524,"9":-0.1839692339877835,"10":-0.24481138796357033,"11":-0.04708853337878883,"12":-0.17924409051759815}},{"sx":1,"sy":1,"depth":13,"w":{"0":-1.4234361554586192,"1":-0.38093894185066113,"2":0.6793123663778265,"3":-1.442282038412095,"4":-0.46047717109343617,"5":1.7040879501730883,"6":-1.7152416266897703,"7":1.378625646383624,"8":1.4720087738541054,"9":-1.389757843545579,"10":0.335259411521655,"11":-0.3022922349886918,"12":1.0648089646668923}},{"sx":1,"sy":1,"depth":13,"w":{"0":-4.292614596387685,"1":-4.1620000042840655,"2":-0.4849999586413452,"3":-0.7575590545452919,"4":0.2510639485521237,"5":-3.5299058956552236,"6":0.477137747084095,"7":7.20851780258719,"8":-4.963786161180053,"9":5.59426082433944,"10":6.3523955255951705,"11":1.1165850631848537,"12":0.36969802075998787}},{"sx":1,"sy":1,"depth":13,"w":{"0":1.192411009140652,"1":-1.523064503400184,"2":-2.2036512336834893,"3":-0.8200546658596046,"4":-0.3722655750897062,"5":0.8016310301277281,"6":1.682116658395086,"7":-1.9821157966966725,"8":-1.6961169377863023,"9":3.0563826783429193,"10":2.1519596226015363,"11":-2.2512232131713237,"12":-3.700438694012029}},{"sx":1,"sy":1,"depth":13,"w":{"0":2.4047125243320537,"1":6.968528298589366,"2":-6.215925771155073,"3":8.994175848820909,"4":-6.472344507784288,"5":-6.33598377750432,"6":2.845876202725914,"7":0.8485727457818736,"8":2.319006670698233,"9":-7.371592546788995,"10":-0.036313147751400966,"11":2.056742819375892,"12":6.096792856472316}},{"sx":1,"sy":1,"depth":13,"w":{"0":-0.18568089551077704,"1":-0.07170604577556494,"2":-0.10966839947028363,"3":-0.08292615537873207,"4":-0.00988401067190346,"5":-0.19125137447391966,"6":-0.2095458724004146,"7":-0.10259441208730015,"8":-0.14050901279105932,"9":-0.19648257955043238,"10":-0.24204246922130274,"11":-0.041831000584114215,"12":-0.18403312522784412}},{"sx":1,"sy":1,"depth":13,"w":{"0":-1.320448936780002,"1":4.3537450515008524,"2":-0.37795199189302003,"3":-6.517670074243665,"4":-2.070920828049546,"5":4.795463244708933,"6":2.163574127768536,"7":-2.471313853417228,"8":0.9589640617817883,"9":-2.6388084309904554,"10":1.1301859587920509,"11":-1.9771975244547202,"12":-0.4263458915290636}},{"sx":1,"sy":1,"depth":13,"w":{"0":-0.1908519677622607,"1":-0.06349006330436675,"2":-0.12008016986714251,"3":-0.10482884209793919,"4":-0.02106334996370058,"5":-0.19134509204950306,"6":-0.19359426956724687,"7":-0.1060043087541715,"8":-0.14438436419747905,"9":-0.2056965177959299,"10":-0.2537496413419074,"11":-0.04215410598218868,"12":-0.16780265390301152}},{"sx":1,"sy":1,"depth":13,"w":{"0":-0.18024159449723173,"1":-0.07301536089077447,"2":-0.10389138433559984,"3":-0.0834554005529252,"4":-0.01814676863207302,"5":-0.18273102608656777,"6":-0.21407545066514833,"7":-0.12346131393486806,"8":-0.14880135585278317,"9":-0.18745277260749074,"10":-0.2394703472147484,"11":-0.035509982806945395,"12":-0.1622723961744524}},{"sx":1,"sy":1,"depth":13,"w":{"0":-0.19436539105772851,"1":-0.06847477705431851,"2":-0.10547843593486719,"3":-0.09363172828683985,"4":-0.020508413820310965,"5":-0.184274579742029,"6":-0.2118238728533552,"7":-0.11229822555860242,"8":-0.13923242225497587,"9":-0.16970631144002746,"10":-0.219071219377697,"11":-0.048961044355733986,"12":-0.18591988089325182}},{"sx":1,"sy":1,"depth":13,"w":{"0":-0.15902976301094232,"1":-0.06401425926877219,"2":-0.11046395909795295,"3":-0.09466687707895934,"4":-0.015441354668744002,"5":-0.18256211559662375,"6":-0.22706930830195907,"7":-0.08874125310128292,"8":-0.15978667285670964,"9":-0.19098630727196053,"10":-0.23864687370211396,"11":-0.05401510543496405,"12":-0.17196262453968347}},{"sx":1,"sy":1,"depth":13,"w":{"0":0.10162562698804223,"1":2.7457529026616396,"2":0.9110686251845742,"3":-0.2962857145022542,"4":3.435760032849322,"5":-0.6105713936384578,"6":0.9185137278887461,"7":-0.3984302919015591,"8":-0.0657512339146643,"9":2.345742480506476,"10":-0.2706180676505243,"11":-0.13340892794622486,"12":-3.8090439930586113}},{"sx":1,"sy":1,"depth":13,"w":{"0":4.183432107643609,"1":-4.133229280159524,"2":5.555973559625128,"3":0.4183935835161385,"4":6.317638739604305,"5":0.300161903211725,"6":-3.747543614490561,"7":-1.3274259091992489,"8":0.9508504626907128,"9":-0.41431190005581126,"10":-4.26325450961995,"11":9.0201317782672,"12":-3.618908382089789}}],"biases":{"sx":1,"sy":1,"depth":14,"w":{"0":-0.5652870159249559,"1":-1.982517878019734,"2":0.3228338761184986,"3":2.6781953175575506,"4":0.3417519386866823,"5":2.980679567606173,"6":-1.9529565765452386,"7":2.784199346873187,"8":-1.9326365428253107,"9":-1.9883317939074148,"10":-2.0080266850879838,"11":-1.9828756158760983,"12":-1.4033971057769654,"13":4.708369167122294}}},{"out_depth":14,"out_sx":1,"out_sy":1,"layer_type":"softmax","num_inputs":14}]},{"layers":[{"out_depth":2,"out_sx":1,"out_sy":1,"layer_type":"input"},{"out_depth":13,"out_sx":1,"out_sy":1,"layer_type":"fc","num_inputs":2,"l1_decay_mul":0,"l2_decay_mul":1,"filters":[{"sx":1,"sy":1,"depth":2,"w":{"0":-1.6861470741177513,"1":5.330088270027718}},{"sx":1,"sy":1,"depth":2,"w":{"0":-1.4615086224395255,"1":6.91092204807042}},{"sx":1,"sy":1,"depth":2,"w":{"0":-0.24874167357132074,"1":4.636569539380931}},{"sx":1,"sy":1,"depth":2,"w":{"0":-2.093654597653468,"1":-6.651953484089134}},{"sx":1,"sy":1,"depth":2,"w":{"0":-4.103759770021141,"1":-0.31924850746966205}},{"sx":1,"sy":1,"depth":2,"w":{"0":4.637580801846778,"1":5.589280907861629}},{"sx":1,"sy":1,"depth":2,"w":{"0":6.030852685074177,"1":-0.5387568287317446}},{"sx":1,"sy":1,"depth":2,"w":{"0":-1.9476304712459025,"1":7.6261696654431095}},{"sx":1,"sy":1,"depth":2,"w":{"0":0.663209688522698,"1":6.988980754435517}},{"sx":1,"sy":1,"depth":2,"w":{"0":-4.71275773238885,"1":-3.634261395568899}},{"sx":1,"sy":1,"depth":2,"w":{"0":-3.016273008482527,"1":-4.929719956117734}},{"sx":1,"sy":1,"depth":2,"w":{"0":-3.3535470636039197,"1":6.019442132178658}},{"sx":1,"sy":1,"depth":2,"w":{"0":-3.4806809117023234,"1":-1.140749694595272}}],"biases":{"sx":1,"sy":1,"depth":13,"w":{"0":1.0032970034302446,"1":-1.796275304841811,"2":-0.3679932984408035,"3":3.1575444571484095,"4":-7.45908943848665,"5":-4.538972458088941,"6":-12.934096470532396,"7":7.033901792351629,"8":6.950297124225443,"9":0.36105804549162135,"10":-2.8123549356118627,"11":8.432170099947845,"12":-2.440770514052001}}},{"out_depth":13,"out_sx":1,"out_sy":1,"layer_type":"sigmoid"},{"out_depth":13,"out_sx":1,"out_sy":1,"layer_type":"fc","num_inputs":13,"l1_decay_mul":0,"l2_decay_mul":1,"filters":[{"sx":1,"sy":1,"depth":13,"w":{"0":2.953745736269391,"1":0.22061656346423603,"2":0.29136176531479785,"3":-0.10227381598555886,"4":-4.109964282611453,"5":4.996638449964602,"6":-1.5055799463264234,"7":3.1377126621170026,"8":7.531769167492776,"9":0.12814307301028502,"10":3.9992778885093787,"11":-2.8636472858880913,"12":0.39287114347963853}},{"sx":1,"sy":1,"depth":13,"w":{"0":3.1808457678676763,"1":2.9148225508898244,"2":0.6534794654970715,"3":0.22629737439348824,"4":4.818641131144809,"5":-1.431517821573268,"6":-2.931905441109423,"7":2.9282396138197915,"8":1.1095247013881784,"9":0.4371095452898081,"10":1.5181974997775358,"11":-3.498515233600621,"12":1.509535315923182}},{"sx":1,"sy":1,"depth":13,"w":{"0":-1.7064888989328169,"1":0.07568405565490224,"2":0.1957131258947904,"3":-4.933294017350661,"4":-0.2682543380170861,"5":-0.7229373561771282,"6":0.0048310452375271064,"7":3.1585866038005936,"8":0.8095147788258941,"9":-3.5688126793615473,"10":-1.3097976620390228,"11":3.1469424604710503,"12":-2.290943931850557}},{"sx":1,"sy":1,"depth":13,"w":{"0":3.2549300524896183,"1":-2.2850113382507513,"2":-1.5596265549214596,"3":1.100365755069557,"4":2.052128267740434,"5":1.6003231134062594,"6":2.2133510079231136,"7":1.4363014734404211,"8":3.917463729128098,"9":-4.70283867582138,"10":-2.046186103651606,"11":1.4368898663683372,"12":-4.1873655601156505}},{"sx":1,"sy":1,"depth":13,"w":{"0":0.7835157534041931,"1":0.3195160889800712,"2":0.4278437295297439,"3":-1.8321880905180883,"4":5.261052888884258,"5":7.552262643899541,"6":0.6848482796075076,"7":2.36046932119096,"8":3.1155105697080856,"9":1.4772792693974128,"10":0.16187783889367238,"11":3.369739887743692,"12":0.32655957400358887}},{"sx":1,"sy":1,"depth":13,"w":{"0":-2.322064036071945,"1":4.106007369034506,"2":3.1254988514270514,"3":-4.096076861173145,"4":3.0850399784741662,"5":-5.548409556518152,"6":2.5842870555859134,"7":-3.425044954756964,"8":6.189693390347359,"9":-2.275686447182546,"10":9.343964327978032,"11":-4.395118222750123,"12":-1.8897897657440688}},{"sx":1,"sy":1,"depth":13,"w":{"0":0.349999877955699,"1":-0.7052427598821163,"2":-0.5141044582823153,"3":-0.6504312895115385,"4":4.36786861920815,"5":0.6650895970043086,"6":-1.0102301764371777,"7":-6.187930567224957,"8":0.5444686038024374,"9":-0.5498099755683371,"10":-1.68740190233816,"11":1.8008988109064057,"12":2.140273583962637}},{"sx":1,"sy":1,"depth":13,"w":{"0":-0.9374604118314604,"1":-1.1987897249846964,"2":-0.2790344129683419,"3":-0.25890089959938756,"4":0.40542848277937116,"5":0.9128118315253209,"6":6.981316193372768,"7":-0.8841704012991273,"8":-0.024590370163619542,"9":-0.8140194552568372,"10":0.19388864047459903,"11":-1.63923761497246,"12":-0.7309355853559611}},{"sx":1,"sy":1,"depth":13,"w":{"0":2.831552733012909,"1":3.1822688601311913,"2":2.1302406342178832,"3":-2.4389727251800295,"4":-0.7394290843544353,"5":0.9751254454813334,"6":-1.3474130201941044,"7":-0.012451316348151215,"8":-0.3966206557611379,"9":-1.0636312414252471,"10":-0.9060956289624091,"11":0.5116257021332523,"12":-0.7546333545689577}},{"sx":1,"sy":1,"depth":13,"w":{"0":-2.051757623132622,"1":1.4262148472375196,"2":0.9137042399710196,"3":-2.1648725260260275,"4":-2.445700154310964,"5":0.35179862852791016,"6":4.471438036546093,"7":1.995510511146978,"8":-2.618814435974494,"9":1.1816454639611087,"10":-2.8786971872156495,"11":4.019208524202478,"12":2.3051483461657596}},{"sx":1,"sy":1,"depth":13,"w":{"0":-2.5676483152088383,"1":-1.059276468492099,"2":-2.2932456684285905,"3":1.4069555772803692,"4":1.9686504188040421,"5":2.441432417365266,"6":3.9610109121393346,"7":-2.1065014641007367,"8":0.4974935059681058,"9":-1.1069259093772872,"10":-0.049967964492770654,"11":-3.654467710509861,"12":-0.12441769308614481}},{"sx":1,"sy":1,"depth":13,"w":{"0":-0.09041333770963675,"1":-0.20045559393471563,"2":-0.035387720543141835,"3":-0.058706042629507085,"4":1.287166771966075,"5":0.20234218268529422,"6":-3.9922844354115736,"7":0.14179023831038579,"8":-0.9968359801261292,"9":5.811192413843155,"10":2.558422497547242,"11":-0.4806418681102768,"12":2.34880156255242}},{"sx":1,"sy":1,"depth":13,"w":{"0":0.16964043772295348,"1":-1.3579378386387548,"2":-1.205818139593144,"3":3.585687359778728,"4":-1.6976775651131368,"5":1.7110028535595059,"6":-1.9264927434531864,"7":-0.5206649249619282,"8":-7.939610862759555,"9":-0.40345810325329823,"10":-5.870869707530491,"11":3.19363825052374,"12":-0.39005027546516996}}],"biases":{"sx":1,"sy":1,"depth":13,"w":{"0":-1.0165659424094027,"1":-4.504582935624011,"2":0.5719300303842949,"3":0.016757733757180166,"4":-5.215364517638054,"5":1.3007196096430946,"6":0.16841158702181802,"7":-0.5149291374524885,"8":-2.826374300846538,"9":0.9439105823482362,"10":-0.5639525293559424,"11":-3.1094357955138685,"12":3.218880593111351}}},{"out_depth":13,"out_sx":1,"out_sy":1,"layer_type":"sigmoid"},{"out_depth":14,"out_sx":1,"out_sy":1,"layer_type":"fc","num_inputs":13,"l1_decay_mul":0,"l2_decay_mul":1,"filters":[{"sx":1,"sy":1,"depth":13,"w":{"0":1.9145456780999672,"1":-1.0102810156797353,"2":-0.5462143224406965,"3":2.3299520535433125,"4":-3.6200028930425434,"5":-4.037117416411362,"6":2.848365696491719,"7":3.772137013473597,"8":4.240565395188041,"9":0.5750149910347497,"10":-4.586385112920248,"11":2.977729489140704,"12":0.12598560685077098}},{"sx":1,"sy":1,"depth":13,"w":{"0":-0.3425388629474297,"1":-0.0469332690720592,"2":-0.08026634596989549,"3":-0.3909278726615178,"4":-0.31590383808089917,"5":-0.07774078158348147,"6":-0.049246587463535475,"7":-0.30742478608905066,"8":-0.01936919944041559,"9":-0.3302853850183362,"10":-0.2555745996238109,"11":-0.22442710602459107,"12":-0.15628799347857666}},{"sx":1,"sy":1,"depth":13,"w":{"0":-5.398002216382139,"1":1.5578071829551903,"2":-4.068943148411685,"3":3.9467776246365545,"4":6.388660555703647,"5":-6.951546688101743,"6":-1.5078164224684227,"7":0.5143598339263501,"8":-0.896520780203964,"9":3.09526786487783,"10":1.0748959715572954,"11":-0.3858430889316978,"12":2.7076637685372194}},{"sx":1,"sy":1,"depth":13,"w":{"0":5.630451709379169,"1":4.756036662576401,"2":-4.552780250531182,"3":0.7770210844095549,"4":-4.722433490103389,"5":-4.419260558409453,"6":1.4124857636301633,"7":2.175213253516047,"8":1.5354689009914828,"9":-1.9993656145207335,"10":3.628949835299428,"11":1.9250443917014919,"12":-6.373942747895473}},{"sx":1,"sy":1,"depth":13,"w":{"0":2.619314666604824,"1":-1.9514645262148373,"2":4.273579901565205,"3":-1.3241297839376374,"4":-3.199139210127956,"5":-0.748199277489199,"6":2.686032058767642,"7":0.018742088671975944,"8":-1.4669760889995043,"9":1.7313520860775933,"10":0.9021851124142738,"11":0.0002501102519356183,"12":2.068360990474419}},{"sx":1,"sy":1,"depth":13,"w":{"0":-4.78295295437538,"1":0.5915708903892427,"2":-3.4019423326175855,"3":5.621225870397689,"4":2.556191729885685,"5":7.788398863765526,"6":-1.4827057300654445,"7":-0.6737381900645087,"8":-2.7228442129328454,"9":-1.1787138803109336,"10":-1.0045947858958206,"11":1.1219359178294293,"12":-3.8366334712203503}},{"sx":1,"sy":1,"depth":13,"w":{"0":-0.35874068892256694,"1":-0.10070228563515315,"2":-0.06694232469887826,"3":-0.35060124697426326,"4":-0.32882646100110385,"5":-0.23522007646607465,"6":-0.1176996430006957,"7":-0.2634176431408093,"8":-0.06038834858999192,"9":-0.3214499476604248,"10":-0.28637433370174226,"11":-0.20443289832287523,"12":-0.20463905301173121}},{"sx":1,"sy":1,"depth":13,"w":{"0":-4.1515836042597325,"1":-6.495325229667136,"2":3.885932897681795,"3":-1.8598874334176174,"4":4.2775561326712035,"5":-0.8752048967412802,"6":3.750046599810597,"7":-4.524618271903407,"8":2.9564843681729407,"9":2.4734216605912134,"10":2.7148291961890196,"11":-1.8094720274798468,"12":0.5210081918533475}},{"sx":1,"sy":1,"depth":13,"w":{"0":1.650024841733,"1":-0.31284689988425607,"2":0.8342974482474036,"3":2.094390720361138,"4":0.15264774229833414,"5":-3.4398659351620253,"6":1.1263769591562538,"7":1.331654397294958,"8":-0.19871265867903096,"9":-5.308183054404672,"10":2.4266718825398472,"11":-1.2590867865109658,"12":1.3848037099819042}},{"sx":1,"sy":1,"depth":13,"w":{"0":-0.39488112012106324,"1":-0.12086472417386325,"2":-0.08643766787146187,"3":-0.3704302491250316,"4":-0.26188644716352977,"5":-0.14616619886501772,"6":-0.10262108465192443,"7":-0.25661088161569945,"8":-0.11232681379365671,"9":-0.31862010444993977,"10":-0.1835068193706377,"11":-0.1985243619808887,"12":-0.2178997131906382}},{"sx":1,"sy":1,"depth":13,"w":{"0":-0.37878325420090136,"1":-0.03868762482125678,"2":-0.10348261759512609,"3":-0.34838716267871805,"4":-0.2621749974701738,"5":-0.18290663256349102,"6":-0.0656310397352922,"7":-0.2040214592282866,"8":-0.05027025363213818,"9":-0.3755447310369429,"10":-0.2703860097496021,"11":-0.2040338719385059,"12":-0.1865118302292756}},{"sx":1,"sy":1,"depth":13,"w":{"0":-0.3230982032397609,"1":-0.07138472192593362,"2":-0.10670864510562773,"3":-0.31543143287047454,"4":-0.2969153622093902,"5":-0.11309775147658202,"6":-0.11756422092038607,"7":-0.2195070111064074,"8":-0.07960002038054718,"9":-0.35171963734449335,"10":-0.24565505475973054,"11":-0.1926141972127712,"12":-0.22687765009515068}},{"sx":1,"sy":1,"depth":13,"w":{"0":1.0551316449219799,"1":-0.8433066988978128,"2":-0.3464857915371818,"3":-3.5256992473035913,"4":-1.5307373927110437,"5":2.0384474365571967,"6":-1.4833580747658826,"7":2.731171059360316,"8":-0.15832577408758852,"9":-1.162781883748219,"10":1.6804851476295746,"11":3.7009459026640124,"12":-0.7906475799283644}},{"sx":1,"sy":1,"depth":13,"w":{"0":3.0346579994754803,"1":4.0158326096045975,"2":4.464536911761104,"3":-6.344681843230745,"4":1.1390265155863486,"5":11.324743477332628,"6":-6.995447249814917,"7":-4.054615747309648,"8":-2.8874487456151776,"9":3.6309203869243434,"10":-5.396321974921983,"11":-5.55901562688303,"12":5.294845494963069}}],"biases":{"sx":1,"sy":1,"depth":14,"w":{"0":0.8027027540671896,"1":-1.7338772874905866,"2":-0.7584136991968936,"3":3.543753804167447,"4":-0.21766025178344545,"5":2.0203701260153752,"6":-1.6702592777231366,"7":2.112816110789932,"8":0.7984591645797445,"9":-1.804511855004609,"10":-1.7615478522341952,"11":-1.8797682519131929,"12":-1.2580302348155925,"13":1.8059667505416381}}},{"out_depth":14,"out_sx":1,"out_sy":1,"layer_type":"softmax","num_inputs":14}]},{"layers":[{"out_depth":2,"out_sx":1,"out_sy":1,"layer_type":"input"},{"out_depth":13,"out_sx":1,"out_sy":1,"layer_type":"fc","num_inputs":2,"l1_decay_mul":0,"l2_decay_mul":1,"filters":[{"sx":1,"sy":1,"depth":2,"w":{"0":-6.2127845908068515,"1":1.1324559275883086}},{"sx":1,"sy":1,"depth":2,"w":{"0":8.950056408397213,"1":3.9298694085188406}},{"sx":1,"sy":1,"depth":2,"w":{"0":-3.874410414784726,"1":5.7606080195573774}},{"sx":1,"sy":1,"depth":2,"w":{"0":-2.095586532328232,"1":7.272788807792938}},{"sx":1,"sy":1,"depth":2,"w":{"0":6.642995489861625,"1":-1.860770787178866}},{"sx":1,"sy":1,"depth":2,"w":{"0":5.044189797555217,"1":8.818068553930066}},{"sx":1,"sy":1,"depth":2,"w":{"0":4.317356599648956,"1":-3.879261368854741}},{"sx":1,"sy":1,"depth":2,"w":{"0":5.575219495304374,"1":-7.4702429550367295}},{"sx":1,"sy":1,"depth":2,"w":{"0":7.615871788114908,"1":6.042565795125577}},{"sx":1,"sy":1,"depth":2,"w":{"0":-6.394296414147204,"1":-6.612331527420236}},{"sx":1,"sy":1,"depth":2,"w":{"0":1.2700276180279944,"1":8.675713085750372}},{"sx":1,"sy":1,"depth":2,"w":{"0":5.744874770891011,"1":-2.444061514169948}},{"sx":1,"sy":1,"depth":2,"w":{"0":-0.9106962842338856,"1":6.3509995704181135}}],"biases":{"sx":1,"sy":1,"depth":13,"w":{"0":4.263735371933137,"1":0.9580070812692667,"2":-1.7930071311704276,"3":-9.110684930388942,"4":14.85121991883801,"5":-4.702756489574946,"6":6.989682473090241,"7":6.153396512052796,"8":-9.451419064872393,"9":3.8933144787575937,"10":-0.9471370992352633,"11":11.797433438990991,"12":3.541834965917171}}},{"out_depth":13,"out_sx":1,"out_sy":1,"layer_type":"sigmoid"},{"out_depth":13,"out_sx":1,"out_sy":1,"layer_type":"fc","num_inputs":13,"l1_decay_mul":0,"l2_decay_mul":1,"filters":[{"sx":1,"sy":1,"depth":13,"w":{"0":-2.4916485116134677,"1":-0.4681065773208327,"2":-0.9535910940358673,"3":-1.427923503811813,"4":0.4215080584986291,"5":-0.2017832410957194,"6":0.7655462956703787,"7":0.5923959289975362,"8":2.07658430463211,"9":-0.4396794310417753,"10":-1.8096697177174477,"11":0.42105017507880027,"12":-1.0002732827426422}},{"sx":1,"sy":1,"depth":13,"w":{"0":-3.0953744862957846,"1":0.46722414129218415,"2":0.6145517750846162,"3":-4.564600394531087,"4":-1.5117710312706152,"5":5.050262208899771,"6":-2.8349375181611047,"7":-7.991469300984135,"8":1.304800801779346,"9":8.208200291555686,"10":-0.6263285619687954,"11":7.814547420231305,"12":-2.843593482339958}},{"sx":1,"sy":1,"depth":13,"w":{"0":2.804233136999612,"1":1.858209198683389,"2":-3.1435802181385872,"3":-2.3165224273374907,"4":-7.259627942511668,"5":-2.5017598788216504,"6":2.603044746519955,"7":3.2598578453638574,"8":-1.0862564800480865,"9":0.9076371210677732,"10":3.6344382048358868,"11":-3.224918880826118,"12":3.7547514224356835}},{"sx":1,"sy":1,"depth":13,"w":{"0":-0.6467235274347383,"1":-1.691899007078123,"2":-1.7256943905861115,"3":-4.871456600204988,"4":2.1155724662342625,"5":-2.067570412999776,"6":0.37524942011326057,"7":2.564671755817087,"8":0.45674691251773075,"9":1.8855011209242991,"10":-2.3322552238723335,"11":1.1548239109121161,"12":1.201614261306915}},{"sx":1,"sy":1,"depth":13,"w":{"0":-0.8136819551015165,"1":5.1158458988888995,"2":2.1311231009392353,"3":-5.074701962803144,"4":-2.3666694150006116,"5":7.057321920381288,"6":-2.271680176207016,"7":-6.27711557029618,"8":5.854403584742065,"9":6.7876554101533815,"10":-6.469133591012323,"11":-3.363080194633344,"12":3.0620006965617295}},{"sx":1,"sy":1,"depth":13,"w":{"0":-2.8665615063105405,"1":-1.626711591192567,"2":4.628638290273174,"3":-2.0251265096753537,"4":5.364533482690469,"5":0.9025277694850065,"6":-0.8197881926169477,"7":6.879934976337915,"8":-6.477368001992873,"9":-0.18033465839935844,"10":-2.4175282225267027,"11":-5.050789499417782,"12":1.99084708318461}},{"sx":1,"sy":1,"depth":13,"w":{"0":-0.9785069021313655,"1":-1.6212180986718239,"2":1.8120156429290317,"3":0.8364726595923262,"4":0.7143973993077604,"5":0.8031757308643854,"6":-5.076021287540057,"7":2.0209252966402995,"8":-1.7795907694222042,"9":2.384434807924139,"10":-0.20554208921804534,"11":-0.061812292730676635,"12":-3.9826226857660267}},{"sx":1,"sy":1,"depth":13,"w":{"0":-0.292759798877421,"1":0.9655245187789792,"2":-0.11308365096340958,"3":0.8990586283700618,"4":0.6772671249422139,"5":0.826079062601317,"6":-0.4734354936755554,"7":-0.5713082707886616,"8":0.2633828161777189,"9":-1.176648447563653,"10":0.7044909513091622,"11":0.5383203694036613,"12":3.7908366662582127}},{"sx":1,"sy":1,"depth":13,"w":{"0":-2.8031244612388013,"1":-4.6614220073754336,"2":0.9903727851617337,"3":5.83101091786912,"4":1.219722102731365,"5":-0.5368399164292222,"6":-0.13479307836119164,"7":-0.346449582744838,"8":-0.47364467329744464,"9":0.6757767342143304,"10":-3.371855361878508,"11":-2.7502524086502325,"12":-4.417195019519803}},{"sx":1,"sy":1,"depth":13,"w":{"0":0.5462685221211449,"1":-3.9775952905152194,"2":0.38837676150791617,"3":4.10208833918697,"4":3.3626232413396933,"5":-3.4980704224120034,"6":-3.402516727614338,"7":1.284940733699288,"8":2.7556546063204213,"9":-2.055787567242096,"10":1.0215764412167425,"11":2.088809018781517,"12":-0.25841853794671993}},{"sx":1,"sy":1,"depth":13,"w":{"0":-4.533485064816211,"1":-2.9219390062230173,"2":1.41163175203804,"3":-0.6804284063822442,"4":0.7182595032415185,"5":1.7744919478426149,"6":3.785829677524661,"7":-0.12726595027395576,"8":1.2357286596742438,"9":-0.38099624772936547,"10":0.12095760701428322,"11":1.1427453455243337,"12":-1.3756805797685314}},{"sx":1,"sy":1,"depth":13,"w":{"0":-4.7731788991613735,"1":5.276078123076175,"2":0.7710326683556001,"3":-1.5931523138057504,"4":1.6812674561629688,"5":-0.45255210706488136,"6":-0.9177618827146635,"7":-1.3296982798746173,"8":-3.800350586605866,"9":-1.7286477895548784,"10":-0.2036640883343044,"11":-3.1861131880960896,"12":3.701336390014964}},{"sx":1,"sy":1,"depth":13,"w":{"0":-0.7905621599745974,"1":-5.015104392248579,"2":-0.5163800465131699,"3":4.731645043239759,"4":-4.098820617596034,"5":2.711018628130082,"6":-0.17206399735792854,"7":-0.19394621960118366,"8":-2.2293914426602117,"9":-0.45940753055467015,"10":1.2273408462472142,"11":-2.5516137562926104,"12":-0.332349654197978}}],"biases":{"sx":1,"sy":1,"depth":13,"w":{"0":-0.4279921401046169,"1":-0.8425311976528578,"2":1.9647411693714432,"3":-0.3376284786730421,"4":-0.22296416653921425,"5":0.02454872779601897,"6":5.990455322082308,"7":-1.0464814032624608,"8":3.7148862513968854,"9":-3.34623366643525,"10":-0.9741654293723377,"11":-0.44600214920161,"12":-0.9688494126893307}}},{"out_depth":13,"out_sx":1,"out_sy":1,"layer_type":"sigmoid"},{"out_depth":14,"out_sx":1,"out_sy":1,"layer_type":"fc","num_inputs":13,"l1_decay_mul":0,"l2_decay_mul":1,"filters":[{"sx":1,"sy":1,"depth":13,"w":{"0":-0.2823045933453741,"1":3.0965676750827402,"2":-0.8388000429075784,"3":-0.5409672994386205,"4":1.4330380601058192,"5":-1.6413234263331893,"6":-1.0411945938601852,"7":-0.191846544272866,"8":-0.19181865582089477,"9":-0.6674327332400242,"10":2.5043488156880893,"11":2.8462815651144306,"12":-0.1934398424975365}},{"sx":1,"sy":1,"depth":13,"w":{"0":-0.027871235700830485,"1":-0.1999077850872133,"2":-0.09983188606311938,"3":-0.06488869636493375,"4":-0.3027139542039635,"5":-0.22187983720597118,"6":-0.30382434076669274,"7":-0.4480331497602124,"8":-0.03547443926026608,"9":-0.1442770767958395,"10":-0.13055062852417498,"11":-0.11536210187669683,"12":-0.09925963851054109}},{"sx":1,"sy":1,"depth":13,"w":{"0":-3.5947592866512905,"1":-2.6700146805473106,"2":-1.1987859007722341,"3":7.137355541988733,"4":1.3703912002782992,"5":2.150973210072668,"6":-0.8794262272699279,"7":0.3293847665174859,"8":0.43963506321760815,"9":-0.05961024030210984,"10":-5.154363100949628,"11":1.8745706760180116,"12":-2.8402111777296897}},{"sx":1,"sy":1,"depth":13,"w":{"0":0.057049897301307315,"1":4.332586223556652,"2":-0.5381159110870118,"3":-7.318862150445114,"4":0.5846196899681007,"5":7.734311387856973,"6":1.3305709195482822,"7":-0.5123825326401948,"8":1.8251543998691384,"9":-4.409254103911765,"10":2.029071656651168,"11":4.093559775983838,"12":-2.8856887360310584}},{"sx":1,"sy":1,"depth":13,"w":{"0":-0.8594047372909742,"1":4.987295453522117,"2":0.625710562764432,"3":-1.0313940922513387,"4":2.450520508920263,"5":0.05305375617262366,"6":-2.7241660098088567,"7":-2.951674099937452,"8":2.901094878606459,"9":3.8301979373193045,"10":-3.8537593545897346,"11":-2.849103923254291,"12":-0.7386386463910984}},{"sx":1,"sy":1,"depth":13,"w":{"0":2.229643452427721,"1":-9.510347858591796,"2":1.8034849550337197,"3":1.1352836327217295,"4":11.518905298947006,"5":-4.081000888158496,"6":-5.089684760950872,"7":2.280363079309541,"8":4.765498863515515,"9":-1.9173923305178509,"10":1.4196639352677487,"11":2.6009505118138656,"12":4.943952253732709}},{"sx":1,"sy":1,"depth":13,"w":{"0":-0.05330318274144934,"1":-0.20184281681547797,"2":-0.18502051419768478,"3":-0.009474179187930745,"4":-0.40493723048109026,"5":-0.18710185271269095,"6":-0.21774064322474762,"7":-0.305996681536505,"8":-0.034624433276474915,"9":-0.15865784976240302,"10":-0.07585287615698429,"11":-0.13630654214286525,"12":-0.08231298732147896}},{"sx":1,"sy":1,"depth":13,"w":{"0":1.9445075790083854,"1":-5.172356223341967,"2":-9.030584237292304,"3":1.0649771662779304,"4":-4.832284066005723,"5":3.7561555661810786,"6":1.776869234856179,"7":3.130389070129216,"8":-1.4623634439451594,"9":2.779666205340285,"10":-0.7957876312186047,"11":-0.811204934394128,"12":-0.27431704150099445}},{"sx":1,"sy":1,"depth":13,"w":{"0":-0.1429833334594762,"1":-0.1774623713014268,"2":-0.12892901318762134,"3":-0.09946279727672629,"4":-0.2708995630616789,"5":-0.22012215375322183,"6":-0.31377090610209657,"7":-0.41877289206577645,"8":-0.058911178686095564,"9":-0.21082434368133826,"10":-0.15576187312324236,"11":-0.17126012731312826,"12":-0.0730184052351411}},{"sx":1,"sy":1,"depth":13,"w":{"0":1.3626210861149772,"1":0.9670978534581126,"2":0.34974803156608797,"3":-0.2248517576462534,"4":-2.880298904496856,"5":2.0065318218347254,"6":1.6001920420488913,"7":-1.0830725005198754,"8":0.9993836798094655,"9":1.2759677161905607,"10":1.3591815328787469,"11":-1.5768428759451791,"12":3.896273579187364}},{"sx":1,"sy":1,"depth":13,"w":{"0":-0.032995913206148586,"1":-0.16637827384337747,"2":-0.07824967702260051,"3":-0.14695757356539133,"4":-0.2591688706866051,"5":-0.2477818976322624,"6":-0.25914066168958094,"7":-0.32687493581305055,"8":-0.09350977996445207,"9":-0.2053121875740278,"10":-0.05948207433014954,"11":-0.1908997478623194,"12":-0.005832473068837633}},{"sx":1,"sy":1,"depth":13,"w":{"0":-0.09839073720966668,"1":-0.1902645380151866,"2":-0.12921177972086018,"3":-0.03191602645124998,"4":-0.2945633243706391,"5":-0.24833493387940994,"6":-0.3090103484128552,"7":-0.33340229065724314,"8":-0.06860721124515204,"9":-0.15465313795500674,"10":-0.07387867830622029,"11":-0.1790859215153309,"12":-0.07255160420577038}},{"sx":1,"sy":1,"depth":13,"w":{"0":-0.05089001085033132,"1":-0.16472987681617932,"2":-0.1142694232766266,"3":-0.12533065893464848,"4":-0.2325020252214872,"5":-0.21238424338511053,"6":-0.21618723295302814,"7":-0.4306181019835121,"8":-0.04497672127338912,"9":-0.19218494657361546,"10":-0.14766227005364904,"11":-0.13937238482426287,"12":-0.10095463304906241}},{"sx":1,"sy":1,"depth":13,"w":{"0":-0.20557271322520715,"1":4.977036745614953,"2":9.319741611983805,"3":0.42506337107010744,"4":-7.712117747442266,"5":-8.658418858614022,"6":6.59758908291544,"7":1.1264473140759819,"8":-8.945548753512895,"9":0.4160210564523886,"10":2.9856814066132054,"11":-5.121978865900678,"12":-1.4968138069532582}}],"biases":{"sx":1,"sy":1,"depth":14,"w":{"0":-1.873024207933454,"1":-1.3338860889140145,"2":1.415793399755147,"3":-1.2568045657221647,"4":2.1995179325811316,"5":-1.427970663554919,"6":-1.546520024845687,"7":3.3957073177914507,"8":-1.2956717873054548,"9":0.009586495031601132,"10":-1.6077032228220418,"11":-1.4794475029031664,"12":-1.5190223688342315,"13":6.319445287675667}}},{"out_depth":14,"out_sx":1,"out_sy":1,"layer_type":"softmax","num_inputs":14}]},{"layers":[{"out_depth":2,"out_sx":1,"out_sy":1,"layer_type":"input"},{"out_depth":13,"out_sx":1,"out_sy":1,"layer_type":"fc","num_inputs":2,"l1_decay_mul":0,"l2_decay_mul":1,"filters":[{"sx":1,"sy":1,"depth":2,"w":{"0":-8.22548384310578,"1":-0.8496286531198226}},{"sx":1,"sy":1,"depth":2,"w":{"0":-7.794617255128668,"1":1.1171299295007602}},{"sx":1,"sy":1,"depth":2,"w":{"0":-3.737638967382594,"1":7.72641468118962}},{"sx":1,"sy":1,"depth":2,"w":{"0":7.926889044830004,"1":0.7787179842886732}},{"sx":1,"sy":1,"depth":2,"w":{"0":5.456543269787847,"1":-3.406337001223868}},{"sx":1,"sy":1,"depth":2,"w":{"0":-0.03980352194285607,"1":8.81935797023253}},{"sx":1,"sy":1,"depth":2,"w":{"0":1.3266752730829792,"1":-8.04805825574125}},{"sx":1,"sy":1,"depth":2,"w":{"0":6.739939146651289,"1":-8.635126848680386}},{"sx":1,"sy":1,"depth":2,"w":{"0":0.7530332576189327,"1":6.228615539197595}},{"sx":1,"sy":1,"depth":2,"w":{"0":-2.788089888211344,"1":5.250447367755184}},{"sx":1,"sy":1,"depth":2,"w":{"0":4.28714263142488,"1":-1.933583232747102}},{"sx":1,"sy":1,"depth":2,"w":{"0":2.938296541867493,"1":8.949932310547167}},{"sx":1,"sy":1,"depth":2,"w":{"0":-5.494566121220479,"1":3.1055461712093257}}],"biases":{"sx":1,"sy":1,"depth":13,"w":{"0":-3.2724683672141404,"1":-7.992473499842185,"2":10.504851150949827,"3":6.771636311993994,"4":3.202654207970586,"5":2.415608800348822,"6":13.361893920545686,"7":6.545682785151641,"8":-2.885337191174792,"9":3.873578477764087,"10":-1.3999721887737835,"11":-6.660817369024439,"12":-1.5486388299284237}}},{"out_depth":13,"out_sx":1,"out_sy":1,"layer_type":"sigmoid"},{"out_depth":13,"out_sx":1,"out_sy":1,"layer_type":"fc","num_inputs":13,"l1_decay_mul":0,"l2_decay_mul":1,"filters":[{"sx":1,"sy":1,"depth":13,"w":{"0":3.108838417748497,"1":0.75567946603637,"2":-0.7707968775153456,"3":-1.4308094633097015,"4":-2.194684235246194,"5":-0.1112293669087318,"6":-5.220543423599035,"7":-0.5956324156971483,"8":-7.362398675809382,"9":1.208522589588342,"10":-0.7385595368230145,"11":2.4466650161235006,"12":3.0031667345059225}},{"sx":1,"sy":1,"depth":13,"w":{"0":-0.7564276082109765,"1":0.5740883522750977,"2":6.009842146375667,"3":0.12524912674943817,"4":-3.191718782419427,"5":2.7780982144763917,"6":-0.9427724221954592,"7":-1.018914004154872,"8":0.7752160938981497,"9":5.050277867375647,"10":-1.5061588090291074,"11":0.5243043278225095,"12":1.2352005730354763}},{"sx":1,"sy":1,"depth":13,"w":{"0":-1.4390570369212459,"1":0.7680520287889372,"2":2.907684374659216,"3":0.07617666399068218,"4":-0.3965463230096466,"5":2.7480551071790686,"6":1.6147130754941637,"7":-1.8841795692113343,"8":-0.9521321377133538,"9":-2.8892635965457436,"10":-1.7271424865175187,"11":-1.8899409131606633,"12":-1.2230396026910553}},{"sx":1,"sy":1,"depth":13,"w":{"0":4.5982875099597305,"1":-1.872718248251185,"2":0.5110016827838851,"3":-2.2998930586316604,"4":-1.867619511062911,"5":-2.0593613696176103,"6":-2.1260046495746354,"7":-0.5288502818796172,"8":-2.570109989557025,"9":0.5336194203760302,"10":-0.8239398918479259,"11":-5.112516901092409,"12":2.275649270812256}},{"sx":1,"sy":1,"depth":13,"w":{"0":3.7693939061318704,"1":0.09394707829120506,"2":-5.299142458375313,"3":4.38692092092574,"4":0.0008945012533655077,"5":0.3865165890897938,"6":-4.531207123939784,"7":-2.97922391249951,"8":1.3461183609629865,"9":-4.16237388625009,"10":-0.9399381634226168,"11":2.0485910081682426,"12":3.164466449659777}},{"sx":1,"sy":1,"depth":13,"w":{"0":-0.6535646583528881,"1":-2.4820863324653915,"2":-3.4874806492359456,"3":-3.4423654623326874,"4":2.433456687915491,"5":2.340209247396307,"6":-1.6005408194476005,"7":3.078149375444968,"8":1.6814813167280964,"9":0.05487025184545823,"10":4.141378496704442,"11":1.5022740978621787,"12":-4.711699071913799}},{"sx":1,"sy":1,"depth":13,"w":{"0":0.34551940584861246,"1":-0.689609336258558,"2":0.44077320590448815,"3":1.8116516829068032,"4":-1.0413448729983523,"5":0.9587608445817597,"6":0.2881955604345585,"7":-2.7910765957820876,"8":0.42421904333756544,"9":1.796752717610499,"10":2.0263774957503387,"11":-0.16858495264770662,"12":-1.9801058546585435}},{"sx":1,"sy":1,"depth":13,"w":{"0":-2.2527077520351644,"1":1.8107893756454045,"2":-3.621526704572309,"3":2.439516911408866,"4":3.8045203074993132,"5":0.18970652299202254,"6":-3.691477432165266,"7":1.778666599403117,"8":0.6854764757075197,"9":0.6420028797993168,"10":0.8023382950918583,"11":1.839228419095478,"12":-1.349181372350095}},{"sx":1,"sy":1,"depth":13,"w":{"0":-0.513081072891497,"1":-0.3788589017038561,"2":1.3586867920116996,"3":0.5160158631330408,"4":2.8672531875756255,"5":0.32653644822141914,"6":-3.286432642580351,"7":-1.488682238020193,"8":0.9140164011337524,"9":-1.6381439926849068,"10":1.2627940713867984,"11":1.1111560534781908,"12":-2.225933199512275}},{"sx":1,"sy":1,"depth":13,"w":{"0":3.2372641810156657,"1":1.7358497838109734,"2":3.075071685173606,"3":4.311888019457472,"4":2.2065751298224985,"5":-1.0243738346087463,"6":-3.247538481217016,"7":3.9888930833011047,"8":-2.1953846919193785,"9":-1.8122908191537268,"10":-3.192732807090029,"11":0.801085165041701,"12":0.26063355935705185}},{"sx":1,"sy":1,"depth":13,"w":{"0":2.7016403990708704,"1":0.8453721430917703,"2":0.2976128835329739,"3":3.3137350843111726,"4":-3.6238060901298708,"5":-0.5538597408080541,"6":0.1521185582388083,"7":0.43243721500892957,"8":-0.16365587074247345,"9":-3.298753804023931,"10":-0.24431113621504147,"11":1.818948397032642,"12":-0.7159872528865001}},{"sx":1,"sy":1,"depth":13,"w":{"0":6.142737667019681,"1":-3.728070998421185,"2":2.4305036736902466,"3":1.1670955940871584,"4":3.308516080478633,"5":-4.060681215443152,"6":3.8170744766210265,"7":-5.434534940392523,"8":-0.9456130512987811,"9":-0.4740845604750196,"10":-1.0659993930254017,"11":3.737898361343399,"12":-3.010591093366837}},{"sx":1,"sy":1,"depth":13,"w":{"0":0.9431695011429004,"1":4.779718988153581,"2":-2.715093519790433,"3":0.26983307637185255,"4":1.5919166158839,"5":7.462657446360121,"6":0.11115961056299738,"7":0.5641306684811078,"8":-2.773005195844208,"9":-0.4505206811770078,"10":-2.343789623160626,"11":-0.4275662798820877,"12":-0.6729595054942304}}],"biases":{"sx":1,"sy":1,"depth":13,"w":{"0":2.5832524603732505,"1":-3.2860662510464675,"2":1.3384202645489514,"3":2.0879879104373473,"4":4.474553781934987,"5":-0.9604009261274435,"6":2.0753158975870827,"7":3.334644095241366,"8":-0.6413342072942457,"9":-5.9311747143863816,"10":-2.3778471424162646,"11":-2.3480408535234845,"12":-3.3509907005445423}}},{"out_depth":13,"out_sx":1,"out_sy":1,"layer_type":"sigmoid"},{"out_depth":14,"out_sx":1,"out_sy":1,"layer_type":"fc","num_inputs":13,"l1_decay_mul":0,"l2_decay_mul":1,"filters":[{"sx":1,"sy":1,"depth":13,"w":{"0":1.8071522636082837,"1":4.7657658322690795,"2":-0.6939950733963194,"3":1.000821554833281,"4":-3.1252154157725753,"5":-0.06347749974229132,"6":-3.286578826083083,"7":-1.5012688770856273,"8":-0.10804833814595592,"9":1.837220316389241,"10":1.8852534062092696,"11":-0.15401543299016243,"12":-1.5980400940648958}},{"sx":1,"sy":1,"depth":13,"w":{"0":-0.1968225545250674,"1":-0.2147170742611044,"2":-0.2571696930573969,"3":-0.21078448893647345,"4":-0.20584553553202198,"5":-0.04853859349053417,"6":-0.25751390322744233,"7":-0.15117799373682297,"8":-0.03675250458542772,"9":-0.18751331618024028,"10":-0.11145012865649903,"11":-0.21695766505684358,"12":-0.2470559168396075}},{"sx":1,"sy":1,"depth":13,"w":{"0":-0.7389730581988888,"1":3.338065251413353,"2":1.4698437649051574,"3":-3.8557169284554154,"4":1.2351657551731876,"5":-1.886270102404279,"6":0.8412311161968542,"7":0.4073901110727494,"8":-5.0877942642631515,"9":-0.8298623089975171,"10":-2.341407945333984,"11":-0.5869495859939621,"12":-3.882401388034157}},{"sx":1,"sy":1,"depth":13,"w":{"0":4.280012704323052,"1":-2.5880579361168965,"2":0.8146119067481058,"3":0.018751046912669326,"4":1.5424951844100143,"5":-5.503838953782243,"6":-1.948255925510443,"7":-0.3578235676551495,"8":2.7207127336710935,"9":-1.9518731342436004,"10":-1.4611721143050354,"11":7.431674696898533,"12":0.8364905807406398}},{"sx":1,"sy":1,"depth":13,"w":{"0":-6.0934432262513,"1":-2.2557973643387097,"2":1.9025933483235489,"3":1.8218426452998093,"4":1.2941916163596534,"5":-5.209275689652283,"6":1.8862214821810306,"7":-2.772843784782653,"8":4.252577170952306,"9":-1.1150330002860303,"10":0.3014124870528944,"11":1.1976587680908821,"12":-1.256087259838636}},{"sx":1,"sy":1,"depth":13,"w":{"0":-0.5755913643585588,"1":-0.4465699092836271,"2":0.7721207158234782,"3":-6.265788711553028,"4":3.450884969720213,"5":-0.4050646931853148,"6":-0.5121541924491603,"7":1.0337112950281317,"8":-2.1258154069197537,"9":6.215048518646252,"10":2.544130382312534,"11":-0.35445319857874463,"12":3.4843132400378445}},{"sx":1,"sy":1,"depth":13,"w":{"0":-0.20417139576084953,"1":-0.24322609795802463,"2":-0.23590726198655604,"3":-0.18755253978914352,"4":-0.2075545567058174,"5":-0.028572103060599457,"6":-0.27794759632499166,"7":-0.15792413416034612,"8":-0.021739865435817123,"9":-0.21144923807840094,"10":-0.12448132448063985,"11":-0.22978385851769562,"12":-0.27656021354418536}},{"sx":1,"sy":1,"depth":13,"w":{"0":2.3542509213695255,"1":-5.960304393522693,"2":1.6172614359909294,"3":1.9824823629930775,"4":-4.769616691902965,"5":3.196458914426816,"6":1.1996999322016495,"7":-0.0696511125427005,"8":0.7492881953881959,"9":-0.3977062996637978,"10":0.42482238390711125,"11":2.3800380677001205,"12":3.5212488805665143}},{"sx":1,"sy":1,"depth":13,"w":{"0":-0.18709050688358883,"1":-0.24016199268668056,"2":-0.24205669720617132,"3":-0.2127315802809008,"4":-0.19142107519532592,"5":-0.04346226848569359,"6":-0.2612513053213501,"7":-0.14395574643256745,"8":-0.06721678648823462,"9":-0.2033959385494375,"10":-0.11936228743145468,"11":-0.229515266066553,"12":-0.26324148882724796}},{"sx":1,"sy":1,"depth":13,"w":{"0":0.5740692347190464,"1":-1.1096611781246506,"2":-1.4102027738634664,"3":0.5327897579682156,"4":2.475189617751609,"5":-0.22727128525593676,"6":-1.1274140230436818,"7":-0.7588749673275292,"8":-0.10687852880457625,"9":2.250676358295707,"10":2.2748381110698515,"11":-1.4568460130913212,"12":0.5973769930691117}},{"sx":1,"sy":1,"depth":13,"w":{"0":-1.2832284808255534,"1":1.3904226301682896,"2":0.03494578203465249,"3":-1.4817351434273427,"4":4.482765726963174,"5":2.6270338448945805,"6":-0.4214829885532881,"7":-0.6816816745871193,"8":1.703816788574381,"9":-1.2382254246754645,"10":0.8937816986047534,"11":3.6301376886608465,"12":-1.1906839670445277}},{"sx":1,"sy":1,"depth":13,"w":{"0":-0.18721557344479287,"1":-0.2466506605539126,"2":-0.24997497597639085,"3":-0.22828643232260792,"4":-0.21111401301905192,"5":-0.04455975339496858,"6":-0.2806874749340127,"7":-0.15801201587185712,"8":-0.04165217894841576,"9":-0.20473249423443327,"10":-0.1285551772895055,"11":-0.21621342476740185,"12":-0.269891072152818}},{"sx":1,"sy":1,"depth":13,"w":{"0":-3.8897067829932412,"1":1.631051278969186,"2":1.7737639414151758,"3":0.40593753785625253,"4":-3.590930535204613,"5":0.7867140920892023,"6":1.25859015391935,"7":-1.6556437516738445,"8":0.20151582075740393,"9":1.3265164713975963,"10":-0.7920629774265309,"11":-2.6801817669785217,"12":4.472582557053591}},{"sx":1,"sy":1,"depth":13,"w":{"0":4.32616104832976,"1":2.271989535557977,"2":-5.285814255006861,"3":6.63609680693252,"4":-2.132564075526876,"5":6.817098237209954,"6":3.2343427285369466,"7":6.8789753526340895,"8":-2.0409113005391997,"9":-5.238354842152254,"10":-3.244349622596512,"11":-8.502172419891957,"12":-3.9084020285330263}}],"biases":{"sx":1,"sy":1,"depth":14,"w":{"0":-0.7157618301336099,"1":-2.14083845027072,"2":2.8325478482341233,"3":1.3300895800458081,"4":4.197392722377426,"5":-0.7424020303546639,"6":-2.049136149611918,"7":1.754491785335254,"8":-2.098150457566717,"9":-0.7769887291605042,"10":-3.6814109285563097,"11":-2.0193574365921663,"12":-0.3024892644972903,"13":4.412013340751918}}},{"out_depth":14,"out_sx":1,"out_sy":1,"layer_type":"softmax","num_inputs":14}]},{"layers":[{"out_depth":2,"out_sx":1,"out_sy":1,"layer_type":"input"},{"out_depth":13,"out_sx":1,"out_sy":1,"layer_type":"fc","num_inputs":2,"l1_decay_mul":0,"l2_decay_mul":1,"filters":[{"sx":1,"sy":1,"depth":2,"w":{"0":5.478664979978138,"1":3.2954911912062346}},{"sx":1,"sy":1,"depth":2,"w":{"0":-1.015111998975909,"1":0.9806830484750981}},{"sx":1,"sy":1,"depth":2,"w":{"0":3.759824056647705,"1":7.168448508998192}},{"sx":1,"sy":1,"depth":2,"w":{"0":2.568082447801475,"1":0.7510690283537865}},{"sx":1,"sy":1,"depth":2,"w":{"0":1.7059691171542308,"1":3.590318547399758}},{"sx":1,"sy":1,"depth":2,"w":{"0":-2.979679895438313,"1":-5.731387419551948}},{"sx":1,"sy":1,"depth":2,"w":{"0":0.9704303863976717,"1":-1.2321291755573813}},{"sx":1,"sy":1,"depth":2,"w":{"0":-8.202882178158386,"1":-2.9109559849272277}},{"sx":1,"sy":1,"depth":2,"w":{"0":-0.7695354776647179,"1":1.2174451392302916}},{"sx":1,"sy":1,"depth":2,"w":{"0":0.5722071941697411,"1":-1.2558576464797537}},{"sx":1,"sy":1,"depth":2,"w":{"0":-3.854021600551442,"1":-1.147045765843957}},{"sx":1,"sy":1,"depth":2,"w":{"0":1.9709332207334656,"1":0.013350563142105039}},{"sx":1,"sy":1,"depth":2,"w":{"0":1.3166026540775473,"1":-1.660789548436308}}],"biases":{"sx":1,"sy":1,"depth":13,"w":{"0":-4.312411411370297,"1":-0.9177703893913358,"2":-2.0998970121631353,"3":2.1182101649815754,"4":-3.181776885269339,"5":4.323324830228666,"6":1.2621213593639946,"7":-1.15425458339951,"8":-1.10295667299072,"9":0.6405449941820573,"10":-1.3940182765301643,"11":-1.273882170022295,"12":2.6220897278587616}}},{"out_depth":13,"out_sx":1,"out_sy":1,"layer_type":"sigmoid"},{"out_depth":13,"out_sx":1,"out_sy":1,"layer_type":"fc","num_inputs":13,"l1_decay_mul":0,"l2_decay_mul":1,"filters":[{"sx":1,"sy":1,"depth":13,"w":{"0":2.3784760497597683,"1":-0.39985268103945926,"2":-0.8463566573751716,"3":-0.24435166255394597,"4":-0.30394742796501995,"5":-0.12175647714708543,"6":0.5003919997817291,"7":2.1783310703978946,"8":-0.568112374707787,"9":0.2047830325969641,"10":1.0755905867714555,"11":0.7057835070566726,"12":0.7033881323690614}},{"sx":1,"sy":1,"depth":13,"w":{"0":-0.7197922947162542,"1":0.07088022076638716,"2":0.5514037587567784,"3":0.1725581943839062,"4":-0.14510050629629542,"5":0.06611043584483375,"6":-0.10656017828228975,"7":-1.0466153004688064,"8":0.12304362570952536,"9":-0.007541175838000378,"10":-0.5201472695944406,"11":-0.09273100177892955,"12":-0.19222495905251993}},{"sx":1,"sy":1,"depth":13,"w":{"0":-3.1099432899587476,"1":0.6701125176100006,"2":2.688501162466215,"3":-0.6138466637016654,"4":-0.5319848106299452,"5":1.782933608311406,"6":-1.0727841410934429,"7":-3.188683329571656,"8":0.7217452443792228,"9":-0.8439105189984792,"10":-0.82082060310028,"11":-0.8592077159980445,"12":-1.1185585934892346}},{"sx":1,"sy":1,"depth":13,"w":{"0":0.5104200350487325,"1":0.03785512330627213,"2":-1.2413978672006412,"3":0.9544600790325714,"4":1.2431108522569547,"5":-1.428891666446638,"6":0.16395007599521472,"7":0.8832796758962013,"8":-0.128625176888362,"9":0.23653000163586205,"10":-0.0284258364767557,"11":0.2965780683322099,"12":0.07677629052660681}},{"sx":1,"sy":1,"depth":13,"w":{"0":1.3534529343457602,"1":-0.05540101117471175,"2":-0.5697782415346938,"3":-1.0080110144130745,"4":-0.34910706289039845,"5":0.08320299655086127,"6":0.08208525281112548,"7":2.320077705517428,"8":-0.2727428241025593,"9":0.13108598994388027,"10":1.4211266647400924,"11":0.32989987466207155,"12":-0.09958618814795744}},{"sx":1,"sy":1,"depth":13,"w":{"0":0.4881508842105245,"1":0.09414199467599282,"2":-1.079153539024982,"3":0.6846390631041003,"4":1.529630582484186,"5":-1.9913505666633025,"6":-0.24209910305272123,"7":0.9135887948145377,"8":0.1184041376285019,"9":-0.24902897662205098,"10":-0.1494618258977651,"11":0.21906368133058557,"12":-0.6346329931095412}},{"sx":1,"sy":1,"depth":13,"w":{"0":1.4006425459911782,"1":-0.1965915529076337,"2":-0.7234185466649922,"3":-0.9440540801978391,"4":-0.41035608567964055,"5":0.45542220203940087,"6":0.05323080565550518,"7":2.1395401885142715,"8":-0.04421785432123159,"9":0.07674389946719805,"10":1.3383109851292545,"11":0.2777784984453167,"12":0.001983624108446622}},{"sx":1,"sy":1,"depth":13,"w":{"0":-0.421711137118799,"1":0.25248584806812063,"2":0.3698273745901261,"3":0.016570336122384417,"4":0.09590617340947731,"5":0.28588443167779426,"6":-0.050431634230198884,"7":-0.16233135357529538,"8":0.17097209490973334,"9":-0.12366353783356687,"10":0.14370333035339733,"11":0.1037071769798476,"12":-0.07141653322958948}},{"sx":1,"sy":1,"depth":13,"w":{"0":-1.1968637794714128,"1":0.3424533827769566,"2":1.8709104209133005,"3":-0.9060502389643605,"4":-0.8735375647169294,"5":1.4432841478476548,"6":-0.19035608595810363,"7":-1.63504676047543,"8":0.25842931450266377,"9":-0.46257179984555064,"10":-0.33605608790890223,"11":-0.34134805913262006,"12":-0.44563560316540235}},{"sx":1,"sy":1,"depth":13,"w":{"0":1.3546042417156743,"1":-0.3951967895846468,"2":-1.6164851552192034,"3":0.6665747678042292,"4":-0.023468110582208022,"5":-0.32167591629284703,"6":0.6074340956686276,"7":1.1583270234687175,"8":-0.33643243193661365,"9":0.5916475314455466,"10":-0.052728728765023006,"11":0.49181940809507174,"12":1.25364988971262}},{"sx":1,"sy":1,"depth":13,"w":{"0":-0.27492669088790644,"1":0.31080706668654995,"2":-0.7042931695932476,"3":0.6785705968935286,"4":1.680914927450434,"5":-2.1983770337154622,"6":-0.6063082553886013,"7":0.32898151659688213,"8":0.4357263006971943,"9":-0.374384209272904,"10":-0.11134309088058501,"11":0.17143218527804394,"12":-1.3693325664153677}},{"sx":1,"sy":1,"depth":13,"w":{"0":1.956890766184043,"1":-0.038028007854320346,"2":-3.618973882715158,"3":1.4250123847329887,"4":1.441199995038147,"5":-2.406859545610961,"6":0.5598656039257368,"7":2.995883548224224,"8":-0.4034432221121097,"9":0.5819732741184234,"10":0.6676645984520937,"11":0.6846441609275752,"12":0.48984921865878156}},{"sx":1,"sy":1,"depth":13,"w":{"0":-3.3094953315717524,"1":0.7346175816542266,"2":2.8750528426315056,"3":-0.8120115983998001,"4":-0.7312345582360487,"5":1.5211115199566192,"6":-0.8138209516566722,"7":-3.240135625378384,"8":0.5704658044647732,"9":-0.6394925607871567,"10":-0.8308668774435659,"11":-0.7465211816830375,"12":-1.2290735127681145}}],"biases":{"sx":1,"sy":1,"depth":13,"w":{"0":0.07662315548301019,"1":0.16827850149809237,"2":-0.3437932132999529,"3":0.3318555020508732,"4":-0.24348196086018334,"5":0.05586977215180565,"6":-0.2345977980881361,"7":0.1879769751312908,"8":-0.4267169892868285,"9":0.4660572921682744,"10":-0.44688314644164767,"11":0.5070246138328514,"12":-0.09765496262042091}}},{"out_depth":13,"out_sx":1,"out_sy":1,"layer_type":"sigmoid"},{"out_depth":14,"out_sx":1,"out_sy":1,"layer_type":"fc","num_inputs":13,"l1_decay_mul":0,"l2_decay_mul":1,"filters":[{"sx":1,"sy":1,"depth":13,"w":{"0":-0.27905346981779633,"1":-0.2192011104227492,"2":-0.0003326903760183563,"3":-0.13049543753804402,"4":-0.07266978755002394,"5":-0.24753905260540587,"6":-0.11487099962783326,"7":-0.4062661190988467,"8":-0.3719296704162788,"9":-0.1068998335031416,"10":-0.052809061644719386,"11":-0.15125194390702001,"12":-0.011319946954524464}},{"sx":1,"sy":1,"depth":13,"w":{"0":-0.13830948901215234,"1":-0.23636853652054957,"2":-0.24991475765190194,"3":-0.16565256121424904,"4":-0.21269375928152667,"5":0.03307668722800505,"6":-0.15213928962032416,"7":-0.42306916673730277,"8":0.06861299804738409,"9":-0.2326570339982154,"10":-0.19695199267851068,"11":-0.046002877074013834,"12":-0.17069436173513416}},{"sx":1,"sy":1,"depth":13,"w":{"0":-0.25085654033887317,"1":1.0632225440883307,"2":1.1899082034689488,"3":0.1493661836723602,"4":-1.0069105169107406,"5":-0.39073158638667904,"6":-0.5765938656050078,"7":0.6724048900739562,"8":0.8481286104398812,"9":1.27045258957296,"10":-0.981318302902962,"11":-0.8580252397373823,"12":1.5337654556683316}},{"sx":1,"sy":1,"depth":13,"w":{"0":-0.25928657715872633,"1":-0.15887780599463824,"2":-0.27592099211141285,"3":-0.11630594263964222,"4":-0.3493465712120949,"5":-0.010935262221938013,"6":0.05878483779189043,"7":-0.18023596575412737,"8":-0.18656291728696114,"9":-0.338664267251511,"10":0.05759040883520628,"11":-0.16936261064927083,"12":-0.08590331656917506}},{"sx":1,"sy":1,"depth":13,"w":{"0":0.14774239773114173,"1":-0.03818124257995784,"2":-0.4381326594380657,"3":-0.44818572050726246,"4":-0.13467546010351647,"5":0.007753191086453032,"6":-0.15863418204202476,"7":-0.3988673398827005,"8":0.08980317188778657,"9":-0.04864944363108167,"10":-0.21755727572886838,"11":-0.10985961164596561,"12":-0.12996936056240843}},{"sx":1,"sy":1,"depth":13,"w":{"0":0.6884673314406803,"1":0.3457490015512228,"2":2.4309825343758087,"3":-1.179169123329671,"4":1.637818976281148,"5":-1.447975836601436,"6":1.79681184836106,"7":1.1522382880404067,"8":2.422253023994526,"9":-0.759865589272257,"10":-1.4701638349895223,"11":-2.9565529171007308,"12":2.4571926146694008}},{"sx":1,"sy":1,"depth":13,"w":{"0":-0.06220230252844292,"1":-0.32458416833403897,"2":-0.3789394980200061,"3":-0.0762083465854884,"4":-0.19256622800475828,"5":-0.0990318360676699,"6":-0.2384957848372337,"7":-0.15067870949247664,"8":-0.305283282742019,"9":0.03808186373843786,"10":-0.03540358483739087,"11":-0.000024480152927207928,"12":-0.31866424233433743}},{"sx":1,"sy":1,"depth":13,"w":{"0":-0.10420168034578756,"1":-0.14193761098085145,"2":-0.11585004307692252,"3":-0.42054726201136605,"4":-0.1455354832502511,"5":-0.046810198992965006,"6":-0.2003522545418843,"7":-0.1864780123054553,"8":-0.2563935358537277,"9":-0.02811949949943762,"10":-0.2675281242784537,"11":-0.10984985328203459,"12":-0.11237301458131636}},{"sx":1,"sy":1,"depth":13,"w":{"0":-0.10315768627974307,"1":-0.2620720992715321,"2":-0.23010322206989747,"3":-0.18608931160800182,"4":0.04067347612119106,"5":-0.17451035807255807,"6":-0.275186326569214,"7":-0.20481301449939138,"8":-0.2947859874620731,"9":-0.1192114525992363,"10":-0.20567082952018542,"11":-0.14421070075947973,"12":-0.07345162625044963}},{"sx":1,"sy":1,"depth":13,"w":{"0":-0.11294508330550172,"1":-0.2640145142609479,"2":-0.17215733742825898,"3":-0.014371814265500712,"4":-0.0785034474729526,"5":0.018526417249515252,"6":-0.038261096342957594,"7":-0.2967994148847215,"8":-0.19605246526214629,"9":-0.33654750460346766,"10":-0.3319579408022478,"11":-0.04400157113537272,"12":-0.23273826477870693}},{"sx":1,"sy":1,"depth":13,"w":{"0":-0.06627625674307902,"1":-0.21229729767933708,"2":-0.10926419745116793,"3":-0.1847722473314479,"4":-0.1306096796010729,"5":0.08866207714453946,"6":-0.19768886397872498,"7":-0.2964222624145469,"8":-0.17847483671930434,"9":-0.10075333265555333,"10":-0.24343701988295394,"11":-0.16258823568923675,"12":-0.349939806702946}},{"sx":1,"sy":1,"depth":13,"w":{"0":-0.0028030183923202713,"1":-0.18508982370996802,"2":-0.2907225886237204,"3":-0.10287460465576714,"4":-0.3420457295998015,"5":0.07940395818904075,"6":-0.5059069538984758,"7":-0.03002268861672884,"8":-0.23649901365246456,"9":-0.06947761387153137,"10":-0.07798328663254904,"11":-0.4757042749987747,"12":-0.26248130475481746}},{"sx":1,"sy":1,"depth":13,"w":{"0":-1.8190364445314267,"1":1.0748772436411107,"2":3.2243015009638376,"3":0.5155847445947285,"4":-1.402084155055612,"5":1.2443700066063046,"6":-1.4617043740201197,"7":0.9924799116786487,"8":1.0367448705614097,"9":-0.8214856766096204,"10":2.3579710244359524,"11":-0.02680507155743327,"12":3.216423096638289}},{"sx":1,"sy":1,"depth":13,"w":{"0":3.242598252156052,"1":-0.861838831003375,"2":-4.707236069382764,"3":2.265920418087637,"4":2.645232826302434,"5":2.0417241393769983,"6":2.4800452689500374,"7":0.11375157209050772,"8":-2.4200388840583575,"9":2.7737136143641847,"10":1.069045482404681,"11":5.3663594355774,"12":-4.833324006217928}}],"biases":{"sx":1,"sy":1,"depth":14,"w":{"0":-0.6324704008892649,"1":-0.6002930453675162,"2":1.7281062022363305,"3":-0.7098810318009093,"4":-0.805865697521057,"5":2.261761761323959,"6":-0.5897440943707085,"7":-0.7502994968143352,"8":-0.6331188890285374,"9":-0.6215074885123413,"10":-0.6197449011496161,"11":-0.5769786264566524,"12":1.374019496721213,"13":1.1760162116295643}}},{"out_depth":14,"out_sx":1,"out_sy":1,"layer_type":"softmax","num_inputs":14}]},{"layers":[{"out_depth":2,"out_sx":1,"out_sy":1,"layer_type":"input"},{"out_depth":13,"out_sx":1,"out_sy":1,"layer_type":"fc","num_inputs":2,"l1_decay_mul":0,"l2_decay_mul":1,"filters":[{"sx":1,"sy":1,"depth":2,"w":{"0":-1.1189045837829388,"1":5.847362786821988}},{"sx":1,"sy":1,"depth":2,"w":{"0":2.676956646936454,"1":2.460514346187835}},{"sx":1,"sy":1,"depth":2,"w":{"0":-2.3497754561475643,"1":10.397404034203925}},{"sx":1,"sy":1,"depth":2,"w":{"0":3.473884378250683,"1":-2.3626770487604314}},{"sx":1,"sy":1,"depth":2,"w":{"0":-4.364445069024669,"1":2.5307151120685276}},{"sx":1,"sy":1,"depth":2,"w":{"0":-1.5881196724560696,"1":-6.938579254384285}},{"sx":1,"sy":1,"depth":2,"w":{"0":3.3275600643701764,"1":-2.4556437497896146}},{"sx":1,"sy":1,"depth":2,"w":{"0":-2.1102741226557464,"1":-0.2687860138317127}},{"sx":1,"sy":1,"depth":2,"w":{"0":-3.4064133249770667,"1":-2.5057018752816314}},{"sx":1,"sy":1,"depth":2,"w":{"0":5.3589711298263225,"1":2.086204462149258}},{"sx":1,"sy":1,"depth":2,"w":{"0":5.1633832099705925,"1":1.1992866707142962}},{"sx":1,"sy":1,"depth":2,"w":{"0":-2.1311716078875915,"1":-5.197706316558606}},{"sx":1,"sy":1,"depth":2,"w":{"0":1.26048897631102,"1":5.246470628564238}}],"biases":{"sx":1,"sy":1,"depth":13,"w":{"0":4.02302903745466,"1":4.314867662503962,"2":-6.68250946519211,"3":4.064561503706019,"4":-6.22255288692006,"5":-5.2886538857166245,"6":3.4866842679496277,"7":-1.5637587669908568,"8":-2.3540539312198314,"9":10.269597718871525,"10":7.567284210896056,"11":-5.99342965276047,"12":-1.2905831665048528}}},{"out_depth":13,"out_sx":1,"out_sy":1,"layer_type":"sigmoid"},{"out_depth":13,"out_sx":1,"out_sy":1,"layer_type":"fc","num_inputs":13,"l1_decay_mul":0,"l2_decay_mul":1,"filters":[{"sx":1,"sy":1,"depth":13,"w":{"0":0.04105859996257056,"1":2.3454261716946485,"2":1.2703084561519138,"3":0.3549171581980228,"4":-0.5367220189902965,"5":-2.478335049130301,"6":0.11289602263237217,"7":-0.6133439265142359,"8":-0.12579579331997373,"9":3.5161260937350494,"10":0.7690588039993185,"11":-2.852616731680171,"12":0.8232339621093115}},{"sx":1,"sy":1,"depth":13,"w":{"0":0.455362968801513,"1":1.1150190768440726,"2":-2.986286129668824,"3":-1.5292616847632525,"4":1.0098647384758612,"5":-2.4132527577981135,"6":-1.8450538423342628,"7":0.10649804206736287,"8":-0.02153797365512495,"9":1.7355602239826031,"10":-0.3961374124826329,"11":-1.9504189733060524,"12":-0.12328101014319723}},{"sx":1,"sy":1,"depth":13,"w":{"0":-0.5333398823746706,"1":2.751022711388955,"2":1.2760412571623463,"3":1.0460972094119725,"4":-2.7330070226142165,"5":-0.867837818497491,"6":0.6303322406059393,"7":-1.423512054643756,"8":-1.5301940036502506,"9":3.9394208839607945,"10":1.6670273582490398,"11":-1.338240293529888,"12":3.1782910599087093}},{"sx":1,"sy":1,"depth":13,"w":{"0":-2.3723310371763295,"1":0.38294736385359635,"2":-2.2351927283865907,"3":-1.2862593627755048,"4":2.3018362057425144,"5":-1.1610934943326146,"6":-1.2786903062801933,"7":0.5446688331469179,"8":0.9170231955647565,"9":1.3595344948934809,"10":-1.2740538800378218,"11":-0.6504899616123873,"12":-0.4841013871723112}},{"sx":1,"sy":1,"depth":13,"w":{"0":3.416469334816283,"1":-1.3237430901401128,"2":5.563871693561583,"3":1.0344455798973287,"4":-1.4674229344667677,"5":3.2476596417423593,"6":1.1746989291621173,"7":-1.7228096850674552,"8":-3.6709658966760887,"9":-3.626614730473694,"10":5.7826049329822435,"11":2.9872180352584667,"12":0.48889955856982037}},{"sx":1,"sy":1,"depth":13,"w":{"0":-0.5434605777531584,"1":3.437655990023949,"2":-0.6998645492555501,"3":-1.0402729532189277,"4":-0.6350883600158763,"5":-2.466095725670727,"6":-1.315207638937334,"7":-1.2355404072101444,"8":-1.9956035880801752,"9":4.007078650602248,"10":2.0120275318152046,"11":-2.547864787943679,"12":2.835454403878567}},{"sx":1,"sy":1,"depth":13,"w":{"0":3.025840192066216,"1":0.3413766865362609,"2":0.2429280045408556,"3":-0.5146516853970409,"4":0.5170194436747997,"5":-1.6414246202798095,"6":-0.46692734246306916,"7":-0.030730036866834405,"8":0.3407809185295377,"9":0.4104380801854847,"10":0.13004969985016743,"11":-1.2415686322550756,"12":0.4235204643480901}},{"sx":1,"sy":1,"depth":13,"w":{"0":-1.281799049356738,"1":0.33913890815611036,"2":2.6108604616058435,"3":-2.7384734678558202,"4":3.752476096136212,"5":-0.351258426525218,"6":-2.109473745289095,