{"out":[{"layers":[{"out_depth":2,"out_sx":1,"out_sy":1,"layer_type":"input"},{"out_depth":13,"out_sx":1,"out_sy":1,"layer_type":"fc","num_inputs":2,"l1_decay_mul":0,"l2_decay_mul":1,"filters":[{"sx":1,"sy":1,"depth":2,"w":{"0":-8.577485151084447,"1":1.9192575345509668}},{"sx":1,"sy":1,"depth":2,"w":{"0":2.4214001272073853,"1":6.419578999135583}},{"sx":1,"sy":1,"depth":2,"w":{"0":4.764613378211787,"1":2.0160356435919966}},{"sx":1,"sy":1,"depth":2,"w":{"0":-7.543091823515041,"1":-1.087161750391763}},{"sx":1,"sy":1,"depth":2,"w":{"0":-5.364673076774467,"1":-3.4920039114558303}},{"sx":1,"sy":1,"depth":2,"w":{"0":-5.191363490375957,"1":4.354763003674493}},{"sx":1,"sy":1,"depth":2,"w":{"0":0.8462620683611297,"1":-9.200658052157529}},{"sx":1,"sy":1,"depth":2,"w":{"0":-3.6874714252118066,"1":3.137218445303923}},{"sx":1,"sy":1,"depth":2,"w":{"0":2.8797092122163317,"1":5.552850873827181}},{"sx":1,"sy":1,"depth":2,"w":{"0":-6.040260685277753,"1":1.3892447601582627}},{"sx":1,"sy":1,"depth":2,"w":{"0":4.844887484866544,"1":3.4549721424123048}},{"sx":1,"sy":1,"depth":2,"w":{"0":2.438254972276788,"1":4.773861519033206}},{"sx":1,"sy":1,"depth":2,"w":{"0":-5.268513048433012,"1":-4.348831347137515}}],"biases":{"sx":1,"sy":1,"depth":13,"w":{"0":-0.6022996416117911,"1":-16.023843871069,"2":6.261169014078211,"3":0.9403887224214345,"4":2.6314190100691257,"5":2.120071501056926,"6":8.266854880487124,"7":-1.3868756049744326,"8":0.9416623010706143,"9":-7.407360953414829,"10":-5.51626398935005,"11":-5.330657846023338,"12":4.911608828528594}}},{"out_depth":13,"out_sx":1,"out_sy":1,"layer_type":"sigmoid"},{"out_depth":13,"out_sx":1,"out_sy":1,"layer_type":"fc","num_inputs":13,"l1_decay_mul":0,"l2_decay_mul":1,"filters":[{"sx":1,"sy":1,"depth":13,"w":{"0":2.153491736956913,"1":1.4305575134145587,"2":-0.007422453784420898,"3":0.5837705624728512,"4":1.1777225683330164,"5":2.5344937536656804,"6":-1.6286005164350799,"7":-0.689377839649794,"8":0.8895674228504421,"9":0.8297750296239245,"10":-1.3472836267005037,"11":-0.4607893421995137,"12":1.740428660910907}},{"sx":1,"sy":1,"depth":13,"w":{"0":2.9579696457861813,"1":0.023262857676949557,"2":2.146190709157552,"3":-0.3250752010358816,"4":-3.299831306197626,"5":-3.557625940108918,"6":-3.6884459101933005,"7":-2.4192374280192595,"8":-1.0708832076662782,"9":0.33802758474082445,"10":1.7233004494459867,"11":1.0446201079414448,"12":-1.76370403841098}},{"sx":1,"sy":1,"depth":13,"w":{"0":2.941794451327089,"1":-0.5538117254452729,"2":-0.6434399836689306,"3":1.2137497823324532,"4":-0.9243508149389551,"5":-0.027881095930149744,"6":-6.5506524531628765,"7":0.5050963713582397,"8":-0.6359484857102987,"9":4.063366084653221,"10":-0.0811722307915654,"11":1.3891696661676152,"12":-1.1210476292258673}},{"sx":1,"sy":1,"depth":13,"w":{"0":-2.981888857448794,"1":1.2075180762328586,"2":0.5045745101977892,"3":-3.33889036067495,"4":-0.027364398995902872,"5":0.17812293477983226,"6":1.4527278888868398,"7":-0.671941667584223,"8":-0.6285593482183505,"9":-0.8328098434938753,"10":0.8774362689662012,"11":0.5169593146074846,"12":-0.3344419449484425}},{"sx":1,"sy":1,"depth":13,"w":{"0":0.4083967471720243,"1":-0.14023682387207045,"2":-0.5863752158882093,"3":1.0365854741411311,"4":1.878959920250807,"5":-0.5539216492986354,"6":6.384640001220043,"7":-0.7361513717917603,"8":-1.7746278240931395,"9":2.1669770933981574,"10":0.3398288805245338,"11":-1.9908934399130422,"12":-0.8748139751147973}},{"sx":1,"sy":1,"depth":13,"w":{"0":-1.4530964807882862,"1":-0.12175396892732544,"2":0.013720492879113868,"3":-0.9997301444576521,"4":-0.30321046584713396,"5":-0.9735702888416639,"6":3.995080989417511,"7":-2.4683738051172317,"8":-1.058585296214679,"9":-0.4287318896232122,"10":-1.0155041590724687,"11":-1.4957000750634495,"12":1.1044987811008646}},{"sx":1,"sy":1,"depth":13,"w":{"0":-2.851102934310366,"1":-0.15150504534591666,"2":-1.1150533488721226,"3":3.0967789463609083,"4":5.145332844311859,"5":1.7713977537419012,"6":1.43088829856955,"7":-0.2933759952387516,"8":-0.8871591341938008,"9":0.05493350979170138,"10":-3.1425686018755594,"11":-4.1020804097936345,"12":5.268057315523258}},{"sx":1,"sy":1,"depth":13,"w":{"0":-3.104138160966337,"1":1.6951212775797828,"2":0.2504544479902095,"3":-3.3618693192868156,"4":0.15146936022461602,"5":1.0634093503204507,"6":2.091209124101674,"7":-0.7760444334828787,"8":-1.7137195234181035,"9":-0.7497219706451447,"10":0.8251050514761563,"11":0.3429443302250352,"12":0.013801317008458653}},{"sx":1,"sy":1,"depth":13,"w":{"0":0.3022951614904314,"1":3.7175262056646114,"2":-0.12457417995335454,"3":-1.3859129774798333,"4":1.1702097098992466,"5":-2.1204679220487423,"6":0.2902382895262316,"7":-0.7094419145719361,"8":-2.777678343795925,"9":3.5377497911161764,"10":-0.2278176047789867,"11":0.45432175009158304,"12":0.9089794671935382}},{"sx":1,"sy":1,"depth":13,"w":{"0":0.4354073683692929,"1":-6.171513216335885,"2":2.330700781695731,"3":-1.7398176910592014,"4":0.026810937055728363,"5":0.0953452128968775,"6":-0.05295403388021184,"7":3.7274500342965524,"8":2.600925710417486,"9":-3.0513912573161033,"10":-3.271055237244169,"11":-2.360202800608753,"12":0.3370251926721105}},{"sx":1,"sy":1,"depth":13,"w":{"0":2.4585873281667725,"1":8.348162580117743,"2":1.937428383824539,"3":-1.276413766589197,"4":0.5608777300778579,"5":-6.038584260028934,"6":-0.683205783948293,"7":-1.8173545247405747,"8":-4.1910120409001825,"9":7.408516898883241,"10":2.4853138778844337,"11":-2.4545158724625797,"12":1.144702977043634}},{"sx":1,"sy":1,"depth":13,"w":{"0":2.109118732139081,"1":2.4328860291701067,"2":-0.14279423412320583,"3":2.3735638863413695,"4":-0.9412208175580732,"5":-2.200685663788906,"6":1.3409295486849908,"7":-3.214246379689864,"8":5.759598091318972,"9":-4.488200639584862,"10":2.5194793703374074,"11":-0.7191059451358173,"12":-0.01790174111228896}},{"sx":1,"sy":1,"depth":13,"w":{"0":1.5762853847258678,"1":0.7529666968185642,"2":-4.714175172839031,"3":-1.7506970385269143,"4":0.3603932596697418,"5":-2.8214316718407937,"6":-0.4008716129729904,"7":0.35209613084677327,"8":-2.0275772686648543,"9":5.796642648347847,"10":5.578907891429565,"11":4.288881276355834,"12":-3.182585008087531}}],"biases":{"sx":1,"sy":1,"depth":13,"w":{"0":-1.496710009185969,"1":6.939965938570032,"2":0.18609684322606374,"3":2.064910356666341,"4":-2.4626882807756862,"5":0.7629576205227474,"6":-2.9777186310557564,"7":2.4985820295608243,"8":1.8609414476612205,"9":-1.6321352515800338,"10":2.7241870381673374,"11":-3.5903432188381785,"12":4.930108247857948}}},{"out_depth":13,"out_sx":1,"out_sy":1,"layer_type":"sigmoid"},{"out_depth":14,"out_sx":1,"out_sy":1,"layer_type":"fc","num_inputs":13,"l1_decay_mul":0,"l2_decay_mul":1,"filters":[{"sx":1,"sy":1,"depth":13,"w":{"0":-0.7761995775818439,"1":-0.4985195029877291,"2":-0.8158515833042878,"3":-0.9641262250889232,"4":-1.5905264720037302,"5":-0.6532755395158857,"6":1.6398582680685077,"7":-1.2426737502329959,"8":-2.3042556289846243,"9":4.146848647152691,"10":-3.2195506523514847,"11":2.5432711279939664,"12":5.48289285955389}},{"sx":1,"sy":1,"depth":13,"w":{"0":-0.42155974541435587,"1":-0.33575137975281727,"2":-0.2589763640964259,"3":-0.04665243108494778,"4":-0.05884536843146644,"5":-0.02054934954299355,"6":-0.18553592928990803,"7":-0.04558098342146462,"8":-0.033365647031906524,"9":-0.20063566695014065,"10":-0.06931459610855457,"11":-0.32708164253446936,"12":-0.2690448179826895}},{"sx":1,"sy":1,"depth":13,"w":{"0":0.6379595739970041,"1":-4.963631874019313,"2":-1.426657810192521,"3":-1.091297655560116,"4":3.996109186507865,"5":-0.597482639070375,"6":-1.4830266446068225,"7":-1.2517848401695633,"8":-1.8040409075340063,"9":-1.6100482555837623,"10":-3.219299962412403,"11":5.420593572630817,"12":3.014535335384509}},{"sx":1,"sy":1,"depth":13,"w":{"0":-0.7720104813491968,"1":2.8502361615281315,"2":-0.106982693093844,"3":-2.0601760205487043,"4":0.020274230223830795,"5":2.0923153426766894,"6":-9.200611233223182,"7":-2.0943612913504,"8":-1.9943639371399793,"9":0.31085065687809543,"10":6.301864126495251,"11":4.137073797504785,"12":-10.30876912253954}},{"sx":1,"sy":1,"depth":13,"w":{"0":0.8410810978747638,"1":0.12445110849844082,"2":-0.6457028452477142,"3":-0.71799411848941,"4":-1.5565452468302043,"5":-0.8282334171231617,"6":2.307635590880918,"7":-0.801778728183812,"8":-0.6847248123039177,"9":-1.0042327809057985,"10":-1.8385495888943955,"11":0.504288820964897,"12":1.026466488055205}},{"sx":1,"sy":1,"depth":13,"w":{"0":-1.4463100376466835,"1":6.77660531212682,"2":4.783624804531242,"3":-1.226329931104597,"4":-0.7959139561943258,"5":3.073703734585956,"6":2.2315407829455,"7":-1.3457089533394073,"8":3.6822772688729972,"9":-0.35558419671997865,"10":4.104914488608604,"11":2.389756307813452,"12":-6.025589382257004}},{"sx":1,"sy":1,"depth":13,"w":{"0":-0.4261525655051419,"1":-0.32110840373228516,"2":-0.30084724909383137,"3":-0.031073009392394296,"4":-0.0881325261339348,"5":-0.024256251175360736,"6":-0.1377500903366086,"7":-0.08004881816977687,"8":-0.07608006373715197,"9":-0.29997666996580297,"10":-0.06839777520157185,"11":-0.3031916631645028,"12":-0.259680632408799}},{"sx":1,"sy":1,"depth":13,"w":{"0":4.8797439318978455,"1":-1.5805121964158757,"2":2.2671963012683496,"3":2.725553043760125,"4":-2.760429691649986,"5":2.1752117881763833,"6":7.382330881191101,"7":4.121374410720715,"8":-0.2970868935167121,"9":-6.477032663732354,"10":-6.775712650698209,"11":-1.903537719687034,"12":0.8247693740447378}},{"sx":1,"sy":1,"depth":13,"w":{"0":-0.42992149299115673,"1":-0.38770996960221443,"2":-0.27176683819352626,"3":-0.08440817712297756,"4":-0.06015384160739652,"5":-0.06670472976803891,"6":-0.19853674223978257,"7":-0.053084725242006435,"8":-0.07722879503394285,"9":-0.23612046342607657,"10":-0.05675417037017916,"11":-0.31131358226061334,"12":-0.27889568953173405}},{"sx":1,"sy":1,"depth":13,"w":{"0":1.1539685564501054,"1":-2.084306902364898,"2":3.227000995801314,"3":-0.6302084700453808,"4":5.331371686492309,"5":-0.8302392670628208,"6":-4.5082232475267885,"7":-0.9035066299893786,"8":0.4821944684875305,"9":3.614962853798583,"10":0.03677469631897957,"11":-4.015792732111023,"12":1.4472571293436594}},{"sx":1,"sy":1,"depth":13,"w":{"0":-0.437358347144626,"1":-0.3430715294047119,"2":-0.27480852839277853,"3":-0.08454184135128884,"4":-0.06858013821152635,"5":0.004110448196245618,"6":-0.17205835581197554,"7":-0.02540629929517311,"8":-0.10073860268755805,"9":-0.2366161353577996,"10":-0.0564871267012525,"11":-0.32958398381938375,"12":-0.25789944618221944}},{"sx":1,"sy":1,"depth":13,"w":{"0":-0.42388721337336693,"1":-0.3317218931546454,"2":-0.2649172661369248,"3":-0.04255368496729972,"4":-0.08744796447939172,"5":-0.028176365240222323,"6":-0.1852268042490856,"7":-0.07409153422571987,"8":-0.05028789657144782,"9":-0.23242926961666827,"10":-0.09585723347005906,"11":-0.3203050951568893,"12":-0.24291775109579908}},{"sx":1,"sy":1,"depth":13,"w":{"0":0.6866051702799146,"1":0.8393406262847091,"2":-3.8526636671088554,"3":2.056224276211345,"4":-2.8331148788760756,"5":-4.424519718652167,"6":1.3484023218734609,"7":1.3834041178910315,"8":-0.8173691506812908,"9":2.339262177192533,"10":-1.0908532073838848,"11":-0.30417470129411733,"12":-1.1402480625665106}},{"sx":1,"sy":1,"depth":13,"w":{"0":-3.0702511557665164,"1":0.19101854829272646,"2":-2.1586659612188757,"3":2.139125246510558,"4":0.48849483638274943,"5":0.20079902479130832,"6":1.1209735492257458,"7":2.416433538310433,"8":4.144070267969746,"9":0.26426059260270707,"10":6.1281327390474205,"11":-7.265019572011184,"12":6.97495363509944}}],"biases":{"sx":1,"sy":1,"depth":14,"w":{"0":-2.181381432018347,"1":-2.02365623087546,"2":2.2438865383004667,"3":6.227594509213517,"4":1.634276810908283,"5":-4.413183349967707,"6":-1.954273166200666,"7":2.1012726382517273,"8":-1.8816339902476718,"9":1.6483263711806029,"10":-1.9431500861492652,"11":-2.011379802760231,"12":1.5931662372692943,"13":0.9601349530947593}}},{"out_depth":14,"out_sx":1,"out_sy":1,"layer_type":"softmax","num_inputs":14}]},{"layers":[{"out_depth":2,"out_sx":1,"out_sy":1,"layer_type":"input"},{"out_depth":13,"out_sx":1,"out_sy":1,"layer_type":"fc","num_inputs":2,"l1_decay_mul":0,"l2_decay_mul":1,"filters":[{"sx":1,"sy":1,"depth":2,"w":{"0":0.6620448620655814,"1":-7.150120871803253}},{"sx":1,"sy":1,"depth":2,"w":{"0":11.985063679214655,"1":-2.706822437619221}},{"sx":1,"sy":1,"depth":2,"w":{"0":6.078240332552326,"1":-4.178151869382357}},{"sx":1,"sy":1,"depth":2,"w":{"0":-0.5902152721457784,"1":-9.189165395697547}},{"sx":1,"sy":1,"depth":2,"w":{"0":3.853125825353935,"1":-6.339981939846771}},{"sx":1,"sy":1,"depth":2,"w":{"0":-4.667875233150945,"1":-6.161392534973148}},{"sx":1,"sy":1,"depth":2,"w":{"0":-5.4293441794725945,"1":3.1519247627252356}},{"sx":1,"sy":1,"depth":2,"w":{"0":-0.38791670518444016,"1":-6.162556163248141}},{"sx":1,"sy":1,"depth":2,"w":{"0":-5.476558287212414,"1":0.3807581852790698}},{"sx":1,"sy":1,"depth":2,"w":{"0":-7.522882230268461,"1":0.012491532145064922}},{"sx":1,"sy":1,"depth":2,"w":{"0":-3.186126489552289,"1":3.351478557712102}},{"sx":1,"sy":1,"depth":2,"w":{"0":7.740156110931304,"1":3.901742728305954}},{"sx":1,"sy":1,"depth":2,"w":{"0":-9.534693075209207,"1":0.5632719680049151}}],"biases":{"sx":1,"sy":1,"depth":13,"w":{"0":-0.04418448889350497,"1":-8.97243936281242,"2":-10.962199789994749,"3":12.130325212455485,"4":-16.155471639869234,"5":-5.114425859717536,"6":4.654754256061871,"7":-16.935970658254476,"8":8.579068684807545,"9":8.889741713618823,"10":7.235712166717267,"11":12.191957010855637,"12":6.352266158089059}}},{"out_depth":13,"out_sx":1,"out_sy":1,"layer_type":"sigmoid"},{"out_depth":13,"out_sx":1,"out_sy":1,"layer_type":"fc","num_inputs":13,"l1_decay_mul":0,"l2_decay_mul":1,"filters":[{"sx":1,"sy":1,"depth":13,"w":{"0":-2.668858694571241,"1":-1.3152317955246748,"2":3.2778164074092904,"3":-10.134544813898975,"4":2.188343759477253,"5":0.16372396812511053,"6":3.675812003850326,"7":1.5323881951975955,"8":-3.086237299925757,"9":-2.19625363354992,"10":-1.4368328579235545,"11":4.908953966056442,"12":4.307414743510047}},{"sx":1,"sy":1,"depth":13,"w":{"0":-6.0385941197724895,"1":-2.047610286385911,"2":-0.006139602545408526,"3":-0.42287523854665166,"4":0.09574916857961369,"5":0.6798595667010984,"6":4.503151964597981,"7":1.0408339926005443,"8":-2.396540668438636,"9":-0.05350762993298808,"10":0.3654931665955181,"11":-0.189478198302355,"12":1.0408449749488753}},{"sx":1,"sy":1,"depth":13,"w":{"0":-3.4970201537821533,"1":3.2234025463053726,"2":-1.2146045694752274,"3":-0.34469034434438245,"4":-0.24804004467537588,"5":-2.980931799127433,"6":1.0546000781270919,"7":0.4121544057359645,"8":1.9034511760850037,"9":-0.7064173716244619,"10":1.914501850216095,"11":0.04699608678252426,"12":-5.883017041693936}},{"sx":1,"sy":1,"depth":13,"w":{"0":0.38062734654474994,"1":0.9845540397366616,"2":-2.081004186077801,"3":-2.444800333222533,"4":0.41186181466621197,"5":0.8335598159623988,"6":-0.8433741526930957,"7":-1.1229664571941231,"8":-2.6729479447180036,"9":-6.659962811215396,"10":2.2321494423272044,"11":0.6404191303427974,"12":-0.9696863484061461}},{"sx":1,"sy":1,"depth":13,"w":{"0":0.19271326851085793,"1":-3.123271546975046,"2":-0.23589615629842595,"3":0.21874020962747892,"4":2.937373604961719,"5":1.5533561187567075,"6":-0.5900108979543769,"7":2.5975081070417496,"8":-0.4730294073521726,"9":-2.472297159734536,"10":-1.3199448950179047,"11":-0.05922977921076002,"12":3.5096609299962376}},{"sx":1,"sy":1,"depth":13,"w":{"0":-0.17297598971474146,"1":4.53266968973806,"2":3.124353542024957,"3":2.8625542721680235,"4":2.7568744801550484,"5":0.5763601052057695,"6":-3.259443745323436,"7":-2.3776347423024875,"8":-0.021506748540928725,"9":-1.4665235115791206,"10":-2.0459029426361677,"11":0.8078279937136025,"12":-2.1590376808747433}},{"sx":1,"sy":1,"depth":13,"w":{"0":1.8267440860810271,"1":-4.709711077562684,"2":-3.4082187431375432,"3":5.583057542175733,"4":-4.6201271257284775,"5":-2.318001465104884,"6":-0.5293670203154085,"7":-3.9977103992589216,"8":-1.6953568222294193,"9":-0.9685269946007593,"10":2.567963016338914,"11":3.23040744328552,"12":0.7762189881942846}},{"sx":1,"sy":1,"depth":13,"w":{"0":-0.9143739434731175,"1":6.303308556291432,"2":1.1563707487555797,"3":-0.8861204813475487,"4":3.3421770437452842,"5":1.6228688232180772,"6":0.02615906560850206,"7":2.760347958428199,"8":0.2787637664641815,"9":0.07097276160765005,"10":-1.4426009032473035,"11":-6.928439862453046,"12":2.4639305572142387}},{"sx":1,"sy":1,"depth":13,"w":{"0":1.1318440825707787,"1":-2.1945320055559767,"2":0.9293270460910135,"3":-1.3525170382345626,"4":-0.551698321940198,"5":1.5869587733436912,"6":2.888508264268594,"7":-1.3923974554156573,"8":-6.194340887179665,"9":-2.990335977221069,"10":0.9515551663257439,"11":1.1261993808676733,"12":3.6215031702015463}},{"sx":1,"sy":1,"depth":13,"w":{"0":-3.734428970251838,"1":-1.5842127691543602,"2":3.5725925761858375,"3":-2.1152889955936067,"4":0.9279612008807718,"5":7.373308847080658,"6":0.5362578695157457,"7":0.4123629622212074,"8":-1.4991542180680366,"9":-0.6532828367517541,"10":-3.173830452976332,"11":0.6195853122634836,"12":3.3429459095852043}},{"sx":1,"sy":1,"depth":13,"w":{"0":5.793866419331721,"1":-1.0159116164062962,"2":-1.4371320861952326,"3":0.5151756628668979,"4":4.5195189449477295,"5":-2.3318259986688723,"6":-1.8059711634697997,"7":-0.9552240011348998,"8":-2.3189587296521923,"9":-3.141947028523701,"10":0.5505713650755735,"11":0.20439794826901975,"12":4.991742199969523}},{"sx":1,"sy":1,"depth":13,"w":{"0":-2.34907276716551,"1":7.273248987443877,"2":1.7160052467618847,"3":0.21265783544410882,"4":-1.9356369480360227,"5":4.987417755898805,"6":-0.03953244135691978,"7":-3.515376000986028,"8":-0.4278647787337215,"9":-1.4239092728916503,"10":-0.9475887231932129,"11":1.942278249785814,"12":-1.8835421142886886}},{"sx":1,"sy":1,"depth":13,"w":{"0":1.6882749211226857,"1":0.7639167884437947,"2":3.1558185928363733,"3":-2.4340549515328984,"4":-0.7311895920929942,"5":-1.9042269828629024,"6":0.41668167710433207,"7":6.23035051780807,"8":-2.891309765499676,"9":-4.616826069745409,"10":-1.3247576314465657,"11":0.48509346620521815,"12":-2.3122941804926}}],"biases":{"sx":1,"sy":1,"depth":13,"w":{"0":5.02933048723589,"1":3.0679317221839266,"2":0.2106446572462653,"3":4.624190890276611,"4":-1.0824636477949963,"5":-0.751757555924291,"6":0.08248812875772328,"7":-3.388100829078195,"8":2.601162430060688,"9":4.294922590318569,"10":0.2425026367575975,"11":-1.5804124939824722,"12":1.5549506080582423}}},{"out_depth":13,"out_sx":1,"out_sy":1,"layer_type":"sigmoid"},{"out_depth":14,"out_sx":1,"out_sy":1,"layer_type":"fc","num_inputs":13,"l1_decay_mul":0,"l2_decay_mul":1,"filters":[{"sx":1,"sy":1,"depth":13,"w":{"0":-3.0417495778381975,"1":-1.8547077091973438,"2":-1.553658882105125,"3":6.348408652293576,"4":-0.2565060020228373,"5":-1.161193236171414,"6":1.7654612045415703,"7":0.7637843687647607,"8":-2.068239469048344,"9":-3.5294429847267152,"10":-0.05900496233431312,"11":-5.650498882518193,"12":1.2613349991306262}},{"sx":1,"sy":1,"depth":13,"w":{"0":-0.0453079243381835,"1":-0.04567844701472431,"2":-0.07433677811474775,"3":-0.03715467407448342,"4":-0.13266850291548477,"5":-0.24641201631158474,"6":-0.1775782224719471,"7":-0.10374675856531464,"8":-0.03401837986044728,"9":-0.21554791589803787,"10":-0.23807827267224868,"11":-0.19150365165217687,"12":-0.013933611367017588}},{"sx":1,"sy":1,"depth":13,"w":{"0":2.683075456470542,"1":-2.026467239244283,"2":-1.9009202330951869,"3":-1.1544066418929169,"4":4.558472128974796,"5":-0.36577135391176574,"6":2.9396994469275617,"7":3.767918595613724,"8":-1.6246356524214136,"9":3.348345103876304,"10":-4.7174773690390035,"11":2.8202361929159485,"12":-2.1526918439722147}},{"sx":1,"sy":1,"depth":13,"w":{"0":-6.1480973460489965,"1":5.163370396496124,"2":1.2038309725733438,"3":0.728931744729674,"4":-1.7480394133749368,"5":-2.0194018224330206,"6":-8.103037283257772,"7":-1.309813352313525,"8":2.9914806043280535,"9":-3.3376799103746295,"10":4.671626555733934,"11":5.031059440631041,"12":-2.4478114072701906}},{"sx":1,"sy":1,"depth":13,"w":{"0":-0.7584206718856946,"1":-0.5413579682599329,"2":-3.168194595582562,"3":-1.1686234331685441,"4":-3.004121250545832,"5":1.474975943168906,"6":-0.6057566924046764,"7":-1.7098680590458195,"8":-0.6817729372622856,"9":-0.8130639654751042,"10":-1.6691978525672184,"11":2.1913133465163233,"12":-0.6984655040214213}},{"sx":1,"sy":1,"depth":13,"w":{"0":-5.803340912292293,"1":-3.347444851024045,"2":7.173289386789497,"3":-7.1868466763944925,"4":2.0219577769440056,"5":2.3570924323948153,"6":4.517754181379552,"7":1.9433616056926175,"8":0.344134463389117,"9":4.640669287134142,"10":1.6627271696545698,"11":-0.8871173513590093,"12":7.31881234112853}},{"sx":1,"sy":1,"depth":13,"w":{"0":-0.044263178235539866,"1":-0.04527976839585892,"2":-0.07691959278449809,"3":-0.035172406607851266,"4":-0.13406208245290066,"5":-0.2527462155101349,"6":-0.18007094970095266,"7":-0.10419089342844595,"8":-0.03698805907946986,"9":-0.21836505325047556,"10":-0.24322480373269462,"11":-0.19183208153741196,"12":-0.014624389121803073}},{"sx":1,"sy":1,"depth":13,"w":{"0":2.236421005616925,"1":0.4180345796761433,"2":-0.6433674181530461,"3":5.215037664644267,"4":0.7443227876854264,"5":-1.2311140985157294,"6":-2.153548975272103,"7":4.216412547371313,"8":-3.977633699039905,"9":-2.322728547934188,"10":4.070834983568258,"11":4.367196833588797,"12":-3.523588988321756}},{"sx":1,"sy":1,"depth":13,"w":{"0":-0.04652695355773275,"1":-0.04555692180585795,"2":-0.07384262603124599,"3":-0.032284041958181166,"4":-0.1283661046550712,"5":-0.2429578397426387,"6":-0.1707046398474798,"7":-0.10188558680718904,"8":-0.03753661955662271,"9":-0.2089052000390334,"10":-0.23580403528286362,"11":-0.18750101238120995,"12":-0.012858118289825386}},{"sx":1,"sy":1,"depth":13,"w":{"0":6.655187503218116,"1":1.2363662187952202,"2":0.38917586150052713,"3":-1.1955569186946338,"4":0.9762869306755844,"5":5.011230985237495,"6":0.2675194190605589,"7":-1.9018636386395527,"8":-1.3838853788652599,"9":-4.062032128501793,"10":1.5700459229140502,"11":-3.229125737244976,"12":-0.7004273987975815}},{"sx":1,"sy":1,"depth":13,"w":{"0":3.042700949809575,"1":0.7267385179292499,"2":-0.1891589077727748,"3":-2.6358891777148554,"4":-1.974256013493784,"5":1.0455103208670904,"6":-0.6560166155113387,"7":-4.70160966330086,"8":-0.7918990889106384,"9":3.8432347047713993,"10":0.7653699872165383,"11":-1.4182013154430488,"12":-0.9487197207060822}},{"sx":1,"sy":1,"depth":13,"w":{"0":-0.045363066262078804,"1":-0.04294780584931565,"2":-0.07596871493900914,"3":-0.03529113508654667,"4":-0.13042610375362318,"5":-0.24106097179658925,"6":-0.17136987393076117,"7":-0.09965152070723166,"8":-0.03776580330089941,"9":-0.21334910299698923,"10":-0.23529549139156405,"11":-0.18934864893775452,"12":-0.011023720470056397}},{"sx":1,"sy":1,"depth":13,"w":{"0":-1.1423111536182387,"1":-2.5916292979766657,"2":3.5055177923767236,"3":-1.5727813635017478,"4":-0.17847157572891179,"5":-0.7366009553591245,"6":1.9152083079647593,"7":-0.15493426071692895,"8":-0.7327614946705381,"9":-0.8855143221649193,"10":-5.9165074051467155,"11":-2.11147471850776,"12":-0.8511913818025044}},{"sx":1,"sy":1,"depth":13,"w":{"0":2.4517921034464245,"1":3.0045538133444856,"2":-4.5246491897005345,"3":2.7643440786442595,"4":-0.628553345300004,"5":-3.3952145024618354,"6":0.8100084669692332,"7":-0.49658880735089894,"8":8.077783835440439,"9":3.976511410176037,"10":0.5545367663207593,"11":-0.3657512456799222,"12":2.793014244679434}}],"biases":{"sx":1,"sy":1,"depth":14,"w":{"0":6.910379883860014,"1":-2.91974869587754,"2":-1.9809262132287315,"3":7.012846622836135,"4":2.48227620123933,"5":-5.931393727954802,"6":-2.891341646331192,"7":-0.4001951517295943,"8":-2.9566792400840924,"9":0.22665241223969448,"10":1.511515211802205,"11":-2.9503164711466563,"12":4.614307954751627,"13":-2.7273771403759435}}},{"out_depth":14,"out_sx":1,"out_sy":1,"layer_type":"softmax","num_inputs":14}]},{"layers":[{"out_depth":2,"out_sx":1,"out_sy":1,"layer_type":"input"},{"out_depth":13,"out_sx":1,"out_sy":1,"layer_type":"fc","num_inputs":2,"l1_decay_mul":0,"l2_decay_mul":1,"filters":[{"sx":1,"sy":1,"depth":2,"w":{"0":-5.289194717761019,"1":1.1311043829181227}},{"sx":1,"sy":1,"depth":2,"w":{"0":-4.172107886764209,"1":-0.0802592003601986}},{"sx":1,"sy":1,"depth":2,"w":{"0":5.215917549986148,"1":5.877972541557988}},{"sx":1,"sy":1,"depth":2,"w":{"0":-5.472503537603393,"1":2.9212616786477237}},{"sx":1,"sy":1,"depth":2,"w":{"0":-2.9620308093118375,"1":-2.1949722534610525}},{"sx":1,"sy":1,"depth":2,"w":{"0":-5.783598636001294,"1":-1.5527336789250792}},{"sx":1,"sy":1,"depth":2,"w":{"0":2.4134437701193265,"1":6.160271121136992}},{"sx":1,"sy":1,"depth":2,"w":{"0":4.885211149868572,"1":-3.1079008133540267}},{"sx":1,"sy":1,"depth":2,"w":{"0":-5.962312281089642,"1":-7.679742975911845}},{"sx":1,"sy":1,"depth":2,"w":{"0":5.091433993762595,"1":-10.39432048012815}},{"sx":1,"sy":1,"depth":2,"w":{"0":7.1350575496911075,"1":0.8396298221221349}},{"sx":1,"sy":1,"depth":2,"w":{"0":0.8968259770047808,"1":-7.334863798982159}},{"sx":1,"sy":1,"depth":2,"w":{"0":-4.870757608995548,"1":3.246558354613364}}],"biases":{"sx":1,"sy":1,"depth":13,"w":{"0":3.3566592261159713,"1":10.130009360669888,"2":-2.537747079520701,"3":-10.31141524375318,"4":-3.5048921780004596,"5":-1.2677884595797881,"6":0.9222651696661388,"7":-5.3058810459529715,"8":7.822033756830304,"9":4.832462577197786,"10":-2.8607806896170014,"11":15.141168954753502,"12":6.938523387470434}}},{"out_depth":13,"out_sx":1,"out_sy":1,"layer_type":"sigmoid"},{"out_depth":13,"out_sx":1,"out_sy":1,"layer_type":"fc","num_inputs":13,"l1_decay_mul":0,"l2_decay_mul":1,"filters":[{"sx":1,"sy":1,"depth":13,"w":{"0":-3.673585834101091,"1":-2.0943890735733923,"2":-2.8031385478998216,"3":4.495127687551422,"4":2.0428452490653424,"5":-0.5318531442578646,"6":-1.2624194115293832,"7":-2.248242309985964,"8":0.5304627080266319,"9":5.785611545480681,"10":1.861130253048741,"11":-6.447569381872087,"12":1.5686832554569599}},{"sx":1,"sy":1,"depth":13,"w":{"0":-2.750223637273878,"1":4.949750101674729,"2":-2.490000919673282,"3":-0.008307679095676741,"4":-0.14373403746152502,"5":1.508640731190903,"6":0.1764427986548,"7":-4.80229490187325,"8":4.445197736130257,"9":2.452693031896719,"10":1.9965290051788804,"11":4.363478424704861,"12":1.6086446928353253}},{"sx":1,"sy":1,"depth":13,"w":{"0":3.314347484834214,"1":-1.3778846698899507,"2":-5.335581230119966,"3":-0.836494786774562,"4":3.031611405608345,"5":0.8731452770565608,"6":3.5017548964211076,"7":-2.186476440637993,"8":1.3272987922026138,"9":4.068447392449501,"10":5.598307494799966,"11":-5.820882381606707,"12":-2.7915678872780627}},{"sx":1,"sy":1,"depth":13,"w":{"0":0.17125633199676438,"1":1.9358211451928877,"2":2.833005947011926,"3":-0.4081515592869727,"4":-1.5059728307569138,"5":-1.1831461257451175,"6":0.8884897586765999,"7":0.5829816078936629,"8":-1.0767870848570085,"9":-0.44353553271332724,"10":-1.6050801798699121,"11":0.25205500433184813,"12":-0.1295375196673786}},{"sx":1,"sy":1,"depth":13,"w":{"0":3.7623079594964146,"1":0.05974252211307699,"2":4.472919706450599,"3":-1.139286092184746,"4":1.9781751741889717,"5":1.7296213195015049,"6":-0.33006681139722943,"7":-0.08111825702941024,"8":-1.7438714659095689,"9":4.123218066880985,"10":-3.180914007033908,"11":-4.42490040909604,"12":-2.5273565130433484}},{"sx":1,"sy":1,"depth":13,"w":{"0":3.404714544211195,"1":-0.2820114494836139,"2":1.9759254303323561,"3":-1.9324766649158025,"4":1.3441227532479252,"5":2.5361819623984645,"6":-1.2653969397826625,"7":3.505585172961786,"8":0.06638234503578144,"9":4.65853750794774,"10":-1.5912884718354579,"11":-0.8603348599544922,"12":-2.9879464146659434}},{"sx":1,"sy":1,"depth":13,"w":{"0":0.365287432985544,"1":0.8237409577348004,"2":1.6123404347545085,"3":-0.5850748467687336,"4":-0.9060115721646818,"5":-0.4429519449692168,"6":-0.3369800064392093,"7":-0.5902952437287649,"8":0.3163902429877732,"9":-0.5589891121027518,"10":-0.4998747615308069,"11":-0.8946854166099133,"12":0.3876617150992196}},{"sx":1,"sy":1,"depth":13,"w":{"0":-0.4199714324024209,"1":-1.155755995352974,"2":-0.014637965779565568,"3":4.904218827073735,"4":0.7185480832148177,"5":-0.22913080830458285,"6":-0.4371030833318233,"7":2.4794641003093245,"8":1.5908341880322836,"9":-0.7197404512884688,"10":-1.514802742346935,"11":-1.7304443844364503,"12":-1.990148358739485}},{"sx":1,"sy":1,"depth":13,"w":{"0":3.3769910249722717,"1":-1.5528212255958707,"2":-1.327630099997963,"3":-0.8224941117090652,"4":-1.2276279986443632,"5":-3.437663478362734,"6":1.3593205170316862,"7":1.3915654501210764,"8":1.386094179106869,"9":-4.316572815970435,"10":2.5964835181658072,"11":-4.575603749453655,"12":-0.11396644342760377}},{"sx":1,"sy":1,"depth":13,"w":{"0":5.17290161117068,"1":0.00034648994265916444,"2":-0.563828537557792,"3":1.498836503004869,"4":-1.251644898958797,"5":-3.0857813148842133,"6":-0.15144466928350706,"7":0.3988489573169573,"8":4.995772507433763,"9":7.474282268485051,"10":4.883751220560741,"11":-7.2557113114442044,"12":-3.3659141219285678}},{"sx":1,"sy":1,"depth":13,"w":{"0":0.19532011561124696,"1":-0.43986982909842615,"2":0.26574622711378865,"3":0.07947302728834757,"4":0.39363849400821554,"5":-0.01825582675083884,"6":2.684597445626345,"7":-1.0133733499579716,"8":-0.4616173938091557,"9":-0.1938904920347352,"10":0.9804874620171578,"11":0.1729791258878079,"12":2.199097370063051}},{"sx":1,"sy":1,"depth":13,"w":{"0":6.1257405768315865,"1":-1.2451397037018483,"2":-3.0820294645539814,"3":0.2610228173804922,"4":0.38663844441743433,"5":0.5389967239240395,"6":-3.709314577968365,"7":-0.6291626928663925,"8":0.9874022640099158,"9":1.5289233669816864,"10":-0.4611896583707845,"11":-0.02143344137435054,"12":0.8710780322459157}},{"sx":1,"sy":1,"depth":13,"w":{"0":0.8434257920471971,"1":-0.7548328090628142,"2":3.871845731712134,"3":-1.91384065698206,"4":0.28380313364641135,"5":3.8351780995275293,"6":1.6659071017034701,"7":-2.179518804687074,"8":-3.7454684232706636,"9":5.619646323518683,"10":-3.5374134507858748,"11":-8.101303494818707,"12":2.5963612166376717}}],"biases":{"sx":1,"sy":1,"depth":13,"w":{"0":5.281327856104485,"1":-7.37888408194682,"2":0.8491794771541139,"3":-0.5729924088537545,"4":0.7001410865668626,"5":-0.7352009661676971,"6":0.0031934725492996892,"7":1.8455689860512692,"8":1.8175760492578856,"9":1.9683235110047148,"10":0.050443185802213075,"11":3.244360672896849,"12":3.484689819701715}}},{"out_depth":13,"out_sx":1,"out_sy":1,"layer_type":"sigmoid"},{"out_depth":14,"out_sx":1,"out_sy":1,"layer_type":"fc","num_inputs":13,"l1_decay_mul":0,"l2_decay_mul":1,"filters":[{"sx":1,"sy":1,"depth":13,"w":{"0":-0.03385922391769437,"1":-0.2024407193447684,"2":-0.1563105184990173,"3":-0.33909411090538943,"4":-0.046606327575888014,"5":-0.1679494319996213,"6":-0.23660334907124536,"7":-0.05185628850031891,"8":-0.09004115841794853,"9":-0.13219887488625798,"10":-0.3073809245492577,"11":-0.16473395843996183,"12":-0.2123206252023097}},{"sx":1,"sy":1,"depth":13,"w":{"0":-0.08216707352881447,"1":-0.2667589273786828,"2":-0.08606538456251162,"3":-0.2751956216216823,"4":-0.07137856465140982,"5":-0.06987064071969365,"6":-0.24258618644008434,"7":-0.0651571261443114,"8":-0.09486972376123441,"9":-0.14583774183538512,"10":-0.28695819380460025,"11":-0.023194193781438863,"12":-0.18843999874188344}},{"sx":1,"sy":1,"depth":13,"w":{"0":-2.7649921745046266,"1":-4.1505115545639795,"2":-0.9145769192681082,"3":0.5372783456827902,"4":3.96309758704876,"5":2.5209715230038467,"6":-0.37514777665119686,"7":-0.535309756307014,"8":5.088414287458179,"9":1.6617956048533051,"10":0.5284441754109651,"11":0.7995093733124504,"12":-3.1124244959205836}},{"sx":1,"sy":1,"depth":13,"w":{"0":0.054503604900287946,"1":3.1988738785649455,"2":-3.0639747061315328,"3":0.30699252816742323,"4":-3.1568987961334556,"5":2.44682350337732,"6":0.37481252738513166,"7":-1.7252394841278855,"8":3.6499613456187383,"9":-3.8617387698036705,"10":0.4431579704220021,"11":-1.8566067255035834,"12":5.6373649401479415}},{"sx":1,"sy":1,"depth":13,"w":{"0":0.0004419693199244579,"1":-0.18102354889003966,"2":-0.11191320300649503,"3":-0.29082906998341257,"4":-0.12409631828613667,"5":-0.16690269696514767,"6":-0.23130410926036388,"7":0.007830163082047698,"8":-0.0816383159502464,"9":-0.10679058420176014,"10":-0.25096981325597095,"11":-0.04745340045585772,"12":-0.23312865021762974}},{"sx":1,"sy":1,"depth":13,"w":{"0":5.754909833660811,"1":2.003304385885026,"2":-5.579939306299111,"3":2.591895382381277,"4":-4.991066878791749,"5":-6.731955637370466,"6":1.4846490731869255,"7":5.134130503238261,"8":3.6886164940245774,"9":9.16050543785461,"10":-2.977832694068906,"11":4.16041471540043,"12":-1.9644375490827604}},{"sx":1,"sy":1,"depth":13,"w":{"0":-0.07468861366779198,"1":-0.19281210894161513,"2":-0.07204856743104628,"3":-0.35502463924133165,"4":-0.05111357970312021,"5":-0.057315224791342274,"6":-0.3152421364918436,"7":-0.08270197002538832,"8":-0.08123088793635795,"9":-0.1501119829546642,"10":-0.19421064758977527,"11":-0.11258657437413801,"12":-0.21004041633926776}},{"sx":1,"sy":1,"depth":13,"w":{"0":-7.0321167739608015,"1":1.4392156355885581,"2":0.07752405837995595,"3":-1.4555865524770595,"4":5.407390784945924,"5":4.65216405905697,"6":0.24233039000017478,"7":-1.8732510360895558,"8":-5.86357453860852,"9":0.821899291475796,"10":-0.000004535010139753176,"11":2.170590017463457,"12":3.891006879445447}},{"sx":1,"sy":1,"depth":13,"w":{"0":-0.09323817633253627,"1":-0.25522322416173715,"2":-0.0939819438001222,"3":-0.33816910694502617,"4":-0.07627446159972798,"5":-0.09127800707050301,"6":-0.2610816890994095,"7":-0.03677800203604511,"8":-0.11832456197048019,"9":-0.15121208499205957,"10":-0.2898482533887443,"11":-0.10224871576068006,"12":-0.24793031964504758}},{"sx":1,"sy":1,"depth":13,"w":{"0":0.23850889858681876,"1":4.054605089582005,"2":-0.1811666500827438,"3":1.6207600656336112,"4":-0.6214656790054316,"5":1.4135131854362184,"6":0.3367756042730596,"7":1.1913420297894066,"8":1.3171511887455747,"9":0.9222871189282927,"10":0.776014432726441,"11":-6.286971698390982,"12":-4.735599611316859}},{"sx":1,"sy":1,"depth":13,"w":{"0":-0.07209058253861982,"1":-0.24721959089791415,"2":-0.054833845486781316,"3":-0.2775870502981682,"4":-0.15236467177509794,"5":-0.12616672856954472,"6":-0.30854903334729616,"7":-0.06928037726051571,"8":-0.08434845333688917,"9":-0.07114364078196359,"10":-0.19635297605574054,"11":-0.11340451813675183,"12":-0.23820692106470553}},{"sx":1,"sy":1,"depth":13,"w":{"0":-0.09522233719857956,"1":-0.26617907413472286,"2":-0.08113247561604237,"3":-0.33109268137585485,"4":-0.006883964070692958,"5":-0.1883810673999044,"6":-0.2254700157418705,"7":-0.05497402236925729,"8":-0.15908122417301535,"9":-0.07584088813165546,"10":-0.23548180638123695,"11":-0.09841717376689023,"12":-0.23950600054430696}},{"sx":1,"sy":1,"depth":13,"w":{"0":-1.992231918553217,"1":3.359111974288096,"2":-1.6724397308867311,"3":0.3123327678819507,"4":-2.370302087768908,"5":-3.9701815956686204,"6":0.5792822340591045,"7":-0.3610273657166015,"8":-3.0280464071257285,"9":-1.8918478913728474,"10":0.4000608000311796,"11":-3.132353265262982,"12":3.4750381732233393}},{"sx":1,"sy":1,"depth":13,"w":{"0":6.207473209248552,"1":-8.189530065224755,"2":11.897483951229335,"3":-1.9053379331880367,"4":2.152579085570208,"5":0.5246077973508951,"6":-0.8642493687783779,"7":-1.4627118142007582,"8":-3.886400718733207,"9":-5.685287783182618,"10":2.6734593728814007,"11":4.833243591020859,"12":-1.7831343123778265}}],"biases":{"sx":1,"sy":1,"depth":14,"w":{"0":-1.1119162823865427,"1":-1.306806074120337,"2":0.3702811649927026,"3":0.34693767729303504,"4":-1.4060833640625467,"5":-2.6357607704118755,"6":-1.2756811561692782,"7":-1.1601681971872615,"8":-1.0298092667485155,"9":2.304569636249024,"10":-1.3100945146868794,"11":-1.1987002078866318,"12":1.1202216501869888,"13":8.293009704937777}}},{"out_depth":14,"out_sx":1,"out_sy":1,"layer_type":"softmax","num_inputs":14}]},{"layers":[{"out_depth":2,"out_sx":1,"out_sy":1,"layer_type":"input"},{"out_depth":13,"out_sx":1,"out_sy":1,"layer_type":"fc","num_inputs":2,"l1_decay_mul":0,"l2_decay_mul":1,"filters":[{"sx":1,"sy":1,"depth":2,"w":{"0":-4.304996357671481,"1":10.009297422227858}},{"sx":1,"sy":1,"depth":2,"w":{"0":1.7619161916671469,"1":-9.226190826078621}},{"sx":1,"sy":1,"depth":2,"w":{"0":-7.037316579004215,"1":2.515938789130633}},{"sx":1,"sy":1,"depth":2,"w":{"0":-8.373713965980492,"1":-1.5272420681899292}},{"sx":1,"sy":1,"depth":2,"w":{"0":0.13001336494577906,"1":-8.716038200730413}},{"sx":1,"sy":1,"depth":2,"w":{"0":2.813687638630172,"1":-6.607859616489513}},{"sx":1,"sy":1,"depth":2,"w":{"0":-6.426365609199765,"1":3.3579460537921717}},{"sx":1,"sy":1,"depth":2,"w":{"0":4.580041195711865,"1":-5.191774443914001}},{"sx":1,"sy":1,"depth":2,"w":{"0":4.702337457686821,"1":1.1738502560203803}},{"sx":1,"sy":1,"depth":2,"w":{"0":-1.0441417434889095,"1":7.76226196946252}},{"sx":1,"sy":1,"depth":2,"w":{"0":4.659602098324758,"1":5.884407364908395}},{"sx":1,"sy":1,"depth":2,"w":{"0":2.173426492115355,"1":-6.085044477698802}},{"sx":1,"sy":1,"depth":2,"w":{"0":-6.818129734829781,"1":2.621258344686548}}],"biases":{"sx":1,"sy":1,"depth":13,"w":{"0":12.6100551890874,"1":-9.583289302235576,"2":-4.81456231772657,"3":-5.0031594950647476,"4":-4.201254027898458,"5":-1.373810164872617,"6":7.417204382384392,"7":1.9726456905268452,"8":-4.194060872811708,"9":-9.710773104232683,"10":-9.681630926881413,"11":-4.553839826543679,"12":5.677423879701623}}},{"out_depth":13,"out_sx":1,"out_sy":1,"layer_type":"sigmoid"},{"out_depth":13,"out_sx":1,"out_sy":1,"layer_type":"fc","num_inputs":13,"l1_decay_mul":0,"l2_decay_mul":1,"filters":[{"sx":1,"sy":1,"depth":13,"w":{"0":1.2670374577249583,"1":-3.7096761506385354,"2":0.7918559420485559,"3":-4.098804858791904,"4":1.1020506539825068,"5":-0.6377978399005174,"6":0.41155124689218475,"7":-1.0851815790965016,"8":5.8805076205569815,"9":0.5769075195032377,"10":0.6327953436552833,"11":-0.3059557393502805,"12":0.03300098922659984}},{"sx":1,"sy":1,"depth":13,"w":{"0":-4.2741803089967085,"1":-2.9586913795051455,"2":-0.06789821923811787,"3":-0.04459289364539465,"4":-2.447524633440351,"5":-3.083178191166526,"6":-3.3162965434494955,"7":4.795794939308462,"8":0.0930432243280112,"9":6.624501216234409,"10":1.1195078811269497,"11":1.5957160037857636,"12":1.494249654086046}},{"sx":1,"sy":1,"depth":13,"w":{"0":0.5620230517810676,"1":-0.02895440761910589,"2":-0.1654251997300338,"3":-0.5490213139509189,"4":-1.0766677322710816,"5":-7.441679800708429,"6":-0.6273868939872658,"7":-0.4116641507779497,"8":0.052136773499854,"9":0.6772217906466529,"10":2.3675008863904563,"11":-2.3198541747948043,"12":0.6111661274088062}},{"sx":1,"sy":1,"depth":13,"w":{"0":0.4027659229252807,"1":3.7804465110661103,"2":6.011150587343358,"3":-7.1404317164791875,"4":6.3029964938335326,"5":-1.2929761796212909,"6":0.5088273230922655,"7":-1.0185908961547558,"8":0.7913151410708292,"9":0.027353395184728003,"10":-2.5973531419055504,"11":-1.4059574218142372,"12":1.441107221834338}},{"sx":1,"sy":1,"depth":13,"w":{"0":-0.28270146036163224,"1":1.2312951017409897,"2":1.604962506642704,"3":0.7807116951274461,"4":0.19766941531119858,"5":-0.890581186626805,"6":-4.562946950650344,"7":-5.036851883495029,"8":-2.9110518983783216,"9":6.685075339310612,"10":-1.2204269290639598,"11":0.2655679415489633,"12":-2.0968712364847146}},{"sx":1,"sy":1,"depth":13,"w":{"0":-2.467328190526393,"1":3.6528565923297713,"2":0.6544960942742141,"3":1.1049478046324912,"4":5.923213006968536,"5":1.3325615525009344,"6":1.6819960597696981,"7":0.20852497194168806,"8":-3.424615950562947,"9":-0.026902296413335858,"10":-2.733049388176516,"11":1.3551732738102071,"12":0.36998034252592554}},{"sx":1,"sy":1,"depth":13,"w":{"0":-1.1517202724846047,"1":0.9953985470498219,"2":-5.5710843715295,"3":-0.7060720380747929,"4":0.6707322323065763,"5":0.8782414182532635,"6":-0.972093408864486,"7":0.8936633309050085,"8":0.4403873329871005,"9":4.902870438328375,"10":-1.3532840446225862,"11":3.0164165408477053,"12":-0.7906088381339375}},{"sx":1,"sy":1,"depth":13,"w":{"0":0.418407356388531,"1":-5.099913633444066,"2":1.7031268009298968,"3":1.1053952064976573,"4":1.7353788151560088,"5":-4.761347317641411,"6":3.525201768505305,"7":0.6496125440186211,"8":-0.3018992338550169,"9":-1.2916040483210258,"10":0.9570418827480512,"11":-3.0493613054867934,"12":2.0010222625457024}},{"sx":1,"sy":1,"depth":13,"w":{"0":3.7824837451840145,"1":-4.2988768098441925,"2":1.5179337564268056,"3":-1.2710442554899648,"4":-2.0524209326909673,"5":-1.1587095961080387,"6":-1.869931723998302,"7":0.5530348161618635,"8":-0.25832871246143546,"9":-3.372323080033082,"10":-0.47986899857992865,"11":-2.933355125282723,"12":1.5200942207883568}},{"sx":1,"sy":1,"depth":13,"w":{"0":-4.358315718007014,"1":2.7084581831598884,"2":3.367936684885587,"3":-1.436080285803468,"4":0.8581780074006212,"5":-3.051200985328489,"6":-3.451821591099015,"7":7.295986655420717,"8":2.575738554579668,"9":-1.6643251706962077,"10":0.3144137983741902,"11":0.5208876424662452,"12":0.2598280999945584}},{"sx":1,"sy":1,"depth":13,"w":{"0":6.404274776380525,"1":-2.321737943016355,"2":-1.7239858942009028,"3":3.786986160504939,"4":1.7349790618335263,"5":1.5772254433888762,"6":-1.420642188358409,"7":2.68226516591003,"8":3.588192174706608,"9":2.813996775981312,"10":-5.9170830204506855,"11":-1.176355631643899,"12":-3.8736124515835924}},{"sx":1,"sy":1,"depth":13,"w":{"0":-2.19475611957306,"1":1.1363543757540635,"2":0.12710330314452048,"3":5.214219543058459,"4":1.4480554788226752,"5":0.4705476226392298,"6":-3.8920432390455315,"7":-0.7651284321956805,"8":-1.485566790097386,"9":-0.02430582717934955,"10":-6.1150157078157195,"11":1.7453996935213973,"12":-3.5317682011356375}},{"sx":1,"sy":1,"depth":13,"w":{"0":-4.141873287812632,"1":3.665624213831775,"2":-0.7301763948530618,"3":2.9010378756800774,"4":-0.8134256274944646,"5":-0.8894322161905404,"6":4.21971309512839,"7":3.164573544295896,"8":4.02786307330171,"9":-6.159150462319698,"10":4.183855059080843,"11":-5.609588303664622,"12":0.870828987868896}}],"biases":{"sx":1,"sy":1,"depth":13,"w":{"0":0.8624410697157814,"1":-2.4746359304312073,"2":3.070873051971488,"3":-2.103997661649499,"4":4.296629247367234,"5":0.5840288980214415,"6":0.2661024424084419,"7":-1.8811330790079424,"8":0.23377101494007066,"9":-0.7896314286594878,"10":-3.23244076434878,"11":0.9020980278974096,"12":-2.983910584869765}}},{"out_depth":13,"out_sx":1,"out_sy":1,"layer_type":"sigmoid"},{"out_depth":14,"out_sx":1,"out_sy":1,"layer_type":"fc","num_inputs":13,"l1_decay_mul":0,"l2_decay_mul":1,"filters":[{"sx":1,"sy":1,"depth":13,"w":{"0":-0.10784115465614477,"1":-3.482236809784922,"2":2.682840868932637,"3":0.7986112707623535,"4":-0.5086991276758184,"5":3.854660675633155,"6":-1.189181105843235,"7":-2.6124990473900205,"8":1.6363114343347112,"9":1.9707918255551906,"10":-3.8532215250833626,"11":-7.357179307839385,"12":5.264248625398672}},{"sx":1,"sy":1,"depth":13,"w":{"0":-0.1819976997145601,"1":-0.05969392370709621,"2":-0.09537549937338942,"3":-0.0988837884622556,"4":-0.013046961330879944,"5":-0.1616280507009278,"6":-0.18851372366881072,"7":-0.09230052505076479,"8":-0.1281686651892219,"9":-0.17712677306878266,"10":-0.22485901520458793,"11":-0.04258837712812009,"12":-0.16791350333526664}},{"sx":1,"sy":1,"depth":13,"w":{"0":-1.390627968659643,"1":-0.37214206443518205,"2":0.7233213636024094,"3":-1.406504123168489,"4":-0.44811600649962197,"5":1.6782400802538866,"6":-1.643762765722511,"7":1.4789656161071338,"8":1.3823702574995862,"9":-1.42128502014477,"10":0.3724139021766621,"11":-0.28921765246018005,"12":1.0114806310414686}},{"sx":1,"sy":1,"depth":13,"w":{"0":-4.201663625463466,"1":-3.9805630122899185,"2":-0.6779546557367178,"3":-0.4216991623106678,"4":0.4549115376662896,"5":-3.774342853124876,"6":0.400090331807353,"7":7.426472516215967,"8":-4.765249523805986,"9":5.621185238780279,"10":6.310705942844703,"11":1.063632698287041,"12":0.08467551059638985}},{"sx":1,"sy":1,"depth":13,"w":{"0":1.2650650252355817,"1":-1.9237151072098198,"2":-2.191184010999615,"3":-0.7628220076425919,"4":-0.47495944773998827,"5":0.717929096893192,"6":2.014024999142147,"7":-1.8522371095336878,"8":-1.1038425644358778,"9":2.8809293484386753,"10":1.6447726752097958,"11":-2.304421410322661,"12":-3.844974568543252}},{"sx":1,"sy":1,"depth":13,"w":{"0":2.0337651202571188,"1":7.291050421258541,"2":-6.026985480176609,"3":9.286300076634772,"4":-6.94403708470341,"5":-6.107519434641507,"6":3.0471719053279918,"7":0.8446694012808653,"8":2.08062611115907,"9":-7.326919537669558,"10":0.43660361739592785,"11":1.9608075929940476,"12":6.359747690799616}},{"sx":1,"sy":1,"depth":13,"w":{"0":-0.1737449883388595,"1":-0.062494606800763235,"2":-0.1000683072296457,"3":-0.08259165726878563,"4":-0.011125117059944858,"5":-0.17720435670869847,"6":-0.19701799900900946,"7":-0.08791570204560917,"8":-0.12931066659513932,"9":-0.18640182325692106,"10":-0.22384817942078294,"11":-0.03906838810736517,"12":-0.17181289122522422}},{"sx":1,"sy":1,"depth":13,"w":{"0":-1.2307053145235654,"1":4.3643457866374,"2":-0.39364085680193356,"3":-6.146960985488459,"4":-2.181552409405714,"5":4.755275474812419,"6":2.1213544215529376,"7":-2.611256210844755,"8":1.307897723686164,"9":-2.7154068154747297,"10":1.191829964636506,"11":-1.7419423444976645,"12":-0.6070235643959372}},{"sx":1,"sy":1,"depth":13,"w":{"0":-0.17781295322940835,"1":-0.05697869696342651,"2":-0.10741928044007047,"3":-0.09788635852191495,"4":-0.01885511682111214,"5":-0.17775104145898388,"6":-0.18663133703942517,"7":-0.09037781636339166,"8":-0.13223510739682337,"9":-0.19335871636977947,"10":-0.23241722516571076,"11":-0.039437737116117214,"12":-0.1611523541129455}},{"sx":1,"sy":1,"depth":13,"w":{"0":-0.16936244211037713,"1":-0.06316914170515706,"2":-0.09559815704915521,"3":-0.0825554366398212,"4":-0.01671377334827929,"5":-0.17059981985689715,"6":-0.19939966488178767,"7":-0.10183128628428981,"8":-0.1344242018805284,"9":-0.17960538305370682,"10":-0.2210793257717161,"11":-0.034647368668540415,"12":-0.1562214493882575}},{"sx":1,"sy":1,"depth":13,"w":{"0":-0.17867874379177343,"1":-0.05999229992026834,"2":-0.0965808683438823,"3":-0.08911515995383437,"4":-0.01833363619211035,"5":-0.17094889061678356,"6":-0.19717443393449596,"7":-0.09403056311102977,"8":-0.1276533160476033,"9":-0.16673432345921363,"10":-0.20654481329782678,"11":-0.043660654541630324,"12":-0.1719442030633396}},{"sx":1,"sy":1,"depth":13,"w":{"0":-0.15492038950828416,"1":-0.057093085487191324,"2":-0.10039200921794035,"3":-0.08994899157791833,"4":-0.01490577438301933,"5":-0.1702958456211434,"6":-0.20812775608670495,"7":-0.07819753803250372,"8":-0.14225582495108904,"9":-0.18181348296936872,"10":-0.22072318844069475,"11":-0.04720374701029917,"12":-0.16291690306709591}},{"sx":1,"sy":1,"depth":13,"w":{"0":0.07654302915863283,"1":2.4008159752433365,"2":0.9656956592428237,"3":-0.35117974060405,"4":3.801852644288635,"5":-0.6553004855428554,"6":0.8711914664535021,"7":-0.6474288905344563,"8":-0.06006604225897334,"9":2.4965911178417155,"10":-0.14885623932605366,"11":-0.15714292606772717,"12":-3.9199408905127697}},{"sx":1,"sy":1,"depth":13,"w":{"0":4.5984940840341935,"1":-3.9561111105574995,"2":5.4941111140860635,"3":-0.4166225212205636,"4":6.4128949295866144,"5":0.5713043244503354,"6":-4.370658585665119,"7":-1.5392005333683905,"8":0.30080296732284817,"9":-0.42783712292329135,"10":-4.613584503567661,"11":9.029465204515263,"12":-3.3394273977654323}}],"biases":{"sx":1,"sy":1,"depth":14,"w":{"0":-0.1962030402951612,"1":-2.0703650413121095,"2":0.33248365307289285,"3":2.9031508332759257,"4":0.47551004964988297,"5":2.403962499095974,"6":-2.0420869852436656,"7":2.6311252712645694,"8":-2.022672960036232,"9":-2.076056214797324,"10":-2.0947186657235264,"11":-2.070555393447467,"12":-1.511510098087405,"13":5.3379360925846004}}},{"out_depth":14,"out_sx":1,"out_sy":1,"layer_type":"softmax","num_inputs":14}]},{"layers":[{"out_depth":2,"out_sx":1,"out_sy":1,"layer_type":"input"},{"out_depth":13,"out_sx":1,"out_sy":1,"layer_type":"fc","num_inputs":2,"l1_decay_mul":0,"l2_decay_mul":1,"filters":[{"sx":1,"sy":1,"depth":2,"w":{"0":-1.693957811332804,"1":5.1689042850220215}},{"sx":1,"sy":1,"depth":2,"w":{"0":-1.4588425098696514,"1":6.802521692652738}},{"sx":1,"sy":1,"depth":2,"w":{"0":-0.24868784380152387,"1":4.72523622932867}},{"sx":1,"sy":1,"depth":2,"w":{"0":-2.032635352887543,"1":-6.43665746217351}},{"sx":1,"sy":1,"depth":2,"w":{"0":-4.2051858408337806,"1":-0.3482695463378424}},{"sx":1,"sy":1,"depth":2,"w":{"0":4.48162525673381,"1":5.394973899210097}},{"sx":1,"sy":1,"depth":2,"w":{"0":6.467448447593192,"1":-0.6423042063864381}},{"sx":1,"sy":1,"depth":2,"w":{"0":-2.001505976346336,"1":7.920471303375954}},{"sx":1,"sy":1,"depth":2,"w":{"0":0.6725077633226043,"1":7.076592033390246}},{"sx":1,"sy":1,"depth":2,"w":{"0":-4.733027420632165,"1":-3.6773064733257326}},{"sx":1,"sy":1,"depth":2,"w":{"0":-2.9989256779063327,"1":-4.8982894368093275}},{"sx":1,"sy":1,"depth":2,"w":{"0":-3.3291243441040885,"1":5.921482401090613}},{"sx":1,"sy":1,"depth":2,"w":{"0":-3.521816076861598,"1":-1.1423484437211764}}],"biases":{"sx":1,"sy":1,"depth":13,"w":{"0":1.0325424936386984,"1":-1.8455889313919414,"2":-0.39641721366462157,"3":3.063884789000933,"4":-7.7125485704394725,"5":-4.447764555192469,"6":-13.946256029856553,"7":7.335415871521066,"8":7.071683168091995,"9":0.30275875196675905,"10":-2.788156604890515,"11":8.214593285913338,"12":-2.60181249784443}}},{"out_depth":13,"out_sx":1,"out_sy":1,"layer_type":"sigmoid"},{"out_depth":13,"out_sx":1,"out_sy":1,"layer_type":"fc","num_inputs":13,"l1_decay_mul":0,"l2_decay_mul":1,"filters":[{"sx":1,"sy":1,"depth":13,"w":{"0":3.067240129427829,"1":0.18240603704219402,"2":0.243683426922869,"3":-0.08555494368479716,"4":-4.223915754239333,"5":4.733997099437808,"6":-1.3910363294077763,"7":2.984527718454903,"8":7.5730895458178695,"9":0.1396508964023673,"10":4.04914262843241,"11":-2.8589637165357606,"12":0.4000089931906612}},{"sx":1,"sy":1,"depth":13,"w":{"0":3.3165160948035632,"1":3.243894537518248,"2":0.41857594221489836,"3":0.3905723912946475,"4":4.78157137635878,"5":-1.3724277572175247,"6":-2.7936298156686465,"7":2.9092633140446726,"8":1.0823207351725077,"9":0.3916084623011368,"10":1.5385166794042247,"11":-3.4598862551593053,"12":1.4396777536552954}},{"sx":1,"sy":1,"depth":13,"w":{"0":-1.8947523143769691,"1":0.07641674651605256,"2":0.26036787183510424,"3":-4.962974174251429,"4":-0.06369787780185694,"5":-0.7461094798629686,"6":-0.04507441649280006,"7":3.426987341526516,"8":0.7225462334445616,"9":-3.644803847186757,"10":-1.380005010669538,"11":2.923495031303542,"12":-2.112859399054308}},{"sx":1,"sy":1,"depth":13,"w":{"0":3.2290212472130726,"1":-2.0769908108124673,"2":-1.5464067354628503,"3":1.1255746591957547,"4":2.1799684204053857,"5":1.4979773651177557,"6":2.1810820235694135,"7":1.4376798961897423,"8":3.9378713682115425,"9":-4.942369259416519,"10":-1.9828409459522724,"11":1.3846589675507401,"12":-4.223458332108765}},{"sx":1,"sy":1,"depth":13,"w":{"0":0.6903220355154619,"1":0.2692311369084685,"2":0.39543415065425175,"3":-1.6559973411987166,"4":5.144543691547405,"5":7.594478908682149,"6":0.7107378943595796,"7":2.308997877602313,"8":3.2820027556011664,"9":1.4886372064662305,"10":0.2910304190168019,"11":3.4092902674039136,"12":0.3151005781920687}},{"sx":1,"sy":1,"depth":13,"w":{"0":-2.3529668479643084,"1":3.9202382651046808,"2":3.1815000271020346,"3":-3.994739592900266,"4":3.09048482608252,"5":-5.692826149444206,"6":2.8106666262004185,"7":-3.457863206530976,"8":6.300895150650677,"9":-2.3487799250853167,"10":9.282520901161082,"11":-4.229756217545774,"12":-1.7239792599984602}},{"sx":1,"sy":1,"depth":13,"w":{"0":0.33807562678488756,"1":-0.8532729136740447,"2":-0.5558268538036173,"3":-0.6612962439874364,"4":4.377878602140242,"5":0.5444618904388826,"6":-0.8925992812590011,"7":-6.28522626892117,"8":0.6573992392259421,"9":-0.7865575728510122,"10":-2.0072888441021184,"11":1.816224191923556,"12":2.3211962750406516}},{"sx":1,"sy":1,"depth":13,"w":{"0":-0.9404087890366436,"1":-1.1734952047288223,"2":-0.17873559290779753,"3":-0.25076546248487896,"4":0.3804514655018759,"5":0.9024063892490655,"6":6.836769646297843,"7":-0.8286059381449159,"8":-0.009658919441845137,"9":-0.7215638035431821,"10":0.13878803469433196,"11":-1.6155708719605024,"12":-0.7217456137199049}},{"sx":1,"sy":1,"depth":13,"w":{"0":2.8013419255056395,"1":2.9011936354775654,"2":2.1271256546446295,"3":-2.332769728414158,"4":-0.7734715283133647,"5":1.0124805956419065,"6":-1.1355926074298017,"7":-0.03405433216983638,"8":-0.3637527547170642,"9":-1.0226722576782725,"10":-0.9348174989464615,"11":0.612761507980325,"12":-0.7347638918469926}},{"sx":1,"sy":1,"depth":13,"w":{"0":-2.0911264814777946,"1":1.4113428017635603,"2":1.0022315903523031,"3":-1.9503524927096965,"4":-2.3160495783800266,"5":0.342723865979978,"6":4.613653333169119,"7":2.1624031814582825,"8":-2.8149814860654607,"9":1.2131216409122991,"10":-3.2822995404245523,"11":4.054919534563138,"12":2.3977717996926726}},{"sx":1,"sy":1,"depth":13,"w":{"0":-2.385999199153897,"1":-0.9700904302026084,"2":-2.4418264292987617,"3":1.2875498688377534,"4":2.0285195935130256,"5":2.36255052710163,"6":3.974176469194787,"7":-1.8863158963218398,"8":0.4477419163487925,"9":-1.009086460521752,"10":-0.017675794442626177,"11":-3.6986198084116024,"12":-0.11168350328368568}},{"sx":1,"sy":1,"depth":13,"w":{"0":0.034494997564870365,"1":-0.21943947929897473,"2":-0.053703482522271,"3":-0.02658196452684905,"4":1.4613121574031398,"5":0.24884872196881028,"6":-3.813686912262635,"7":0.16172062719902353,"8":-0.9838759384372704,"9":5.8765043480929915,"10":2.4706212238471643,"11":-0.41831843355925524,"12":2.331681082173728}},{"sx":1,"sy":1,"depth":13,"w":{"0":0.1994418430014808,"1":-1.378756484008768,"2":-1.3241259436027826,"3":3.704017715248825,"4":-1.795448309140971,"5":1.766925081691406,"6":-1.9725820348743197,"7":-0.6492094953292943,"8":-7.952639054925307,"9":-0.5073483780986144,"10":-5.952718111049029,"11":3.333939806217367,"12":-0.29192207806707393}}],"biases":{"sx":1,"sy":1,"depth":13,"w":{"0":-1.0129592115942732,"1":-4.588317132718447,"2":0.6825410951198586,"3":0.049534469882415944,"4":-5.466284904102184,"5":1.024669685178205,"6":0.5676113118840592,"7":-0.5816773261895476,"8":-2.877583079782094,"9":0.8509461655616588,"10":-0.5919141398602755,"11":-3.194595234613237,"12":3.233455014317447}}},{"out_depth":13,"out_sx":1,"out_sy":1,"layer_type":"sigmoid"},{"out_depth":14,"out_sx":1,"out_sy":1,"layer_type":"fc","num_inputs":13,"l1_decay_mul":0,"l2_decay_mul":1,"filters":[{"sx":1,"sy":1,"depth":13,"w":{"0":2.051609104111411,"1":-1.0339066147110716,"2":-0.49560947227321983,"3":2.226095633928899,"4":-3.5903010640753896,"5":-3.793916072802846,"6":2.7558698187146953,"7":3.7806714092734004,"8":4.066629153385335,"9":0.6611836651899363,"10":-4.712919889427438,"11":3.01608045539301,"12":0.08789614852228336}},{"sx":1,"sy":1,"depth":13,"w":{"0":-0.3320449343737654,"1":-0.043276922597839614,"2":-0.08607086191189112,"3":-0.3706364648369478,"4":-0.29515397969151613,"5":-0.0815512407228193,"6":-0.05353696722741333,"7":-0.2915637203018771,"8":-0.017873563512652655,"9":-0.3245677780348025,"10":-0.2488416451143639,"11":-0.19869788171723102,"12":-0.1563285312609901}},{"sx":1,"sy":1,"depth":13,"w":{"0":-5.122971441171506,"1":1.5400624553820097,"2":-4.23078338249859,"3":4.051363762211119,"4":6.287725670043825,"5":-6.74202638696343,"6":-1.30484726881473,"7":0.5787768553442718,"8":-0.9497252440264667,"9":3.0724875286269464,"10":1.079107822952075,"11":-0.46120760317460674,"12":2.756815286908394}},{"sx":1,"sy":1,"depth":13,"w":{"0":5.507601978795024,"1":4.707319607078777,"2":-4.671588205670256,"3":0.8590330314592955,"4":-4.71585323632001,"5":-4.726023236942905,"6":1.7486208671534238,"7":2.180930302583364,"8":1.690280669015524,"9":-2.1731863208360886,"10":3.6207913428469274,"11":1.8312545201903803,"12":-6.489891748878921}},{"sx":1,"sy":1,"depth":13,"w":{"0":2.8195662761608697,"1":-1.9611538542114118,"2":4.333670675669491,"3":-1.4880636486136019,"4":-3.181714345495766,"5":-0.6199370683561155,"6":2.444773132979155,"7":-0.05000513559798268,"8":-1.5900220280893984,"9":2.127872397535431,"10":0.7763128181390314,"11":0.01207320781678172,"12":2.0113575804339194}},{"sx":1,"sy":1,"depth":13,"w":{"0":-4.983467594960231,"1":0.5808826067768752,"2":-3.5110966132237196,"3":5.7588136057772,"4":2.5703898256888342,"5":7.749150801820769,"6":-1.532709612611781,"7":-0.6715003723167892,"8":-2.56901534789712,"9":-1.1925296522858948,"10":-0.856538338624379,"11":1.1342499352548796,"12":-3.8936155224386377}},{"sx":1,"sy":1,"depth":13,"w":{"0":-0.3467317180646381,"1":-0.08568973383339647,"2":-0.07694722225948368,"3":-0.34059427467144826,"4":-0.3073163625895306,"5":-0.2057797960722273,"6":-0.10716566073627928,"7":-0.25773068613889777,"8":-0.050348787618511734,"9":-0.319113014479633,"10":-0.27403029077231644,"11":-0.1831399312684411,"12":-0.19416807772149317}},{"sx":1,"sy":1,"depth":13,"w":{"0":-4.190502008339571,"1":-6.587632554019961,"2":4.050923649017041,"3":-1.967290114656311,"4":4.187887746772404,"5":-0.995111620643726,"6":3.4876522635796348,"7":-4.531083114327726,"8":2.7713115410764417,"9":2.4229547452865736,"10":2.5756049659236027,"11":-1.5985039810765715,"12":0.5067582545102871}},{"sx":1,"sy":1,"depth":13,"w":{"0":1.442204126049106,"1":-0.27472387015242106,"2":1.0370432941863719,"3":2.001019333640287,"4":0.07289475798836796,"5":-3.569203658084561,"6":1.3921332707992513,"7":1.4107993370380576,"8":-0.18934762128369778,"9":-5.4747220563301715,"10":2.426422036340744,"11":-1.132930460108706,"12":1.4787152618042765}},{"sx":1,"sy":1,"depth":13,"w":{"0":-0.37211148820387624,"1":-0.10111271186693833,"2":-0.091437326593745,"3":-0.3533314128502852,"4":-0.2518162992325232,"5":-0.13476498170934853,"6":-0.09459846630205289,"7":-0.2509722635654955,"8":-0.0911762230759902,"9":-0.31360145987848564,"10":-0.19138038672223312,"11":-0.17648162053359875,"12":-0.20315392709990088}},{"sx":1,"sy":1,"depth":13,"w":{"0":-0.36026223281688285,"1":-0.03648937377683155,"2":-0.10487058486367826,"3":-0.3366373980514033,"4":-0.25275489708460314,"5":-0.16411482158659338,"6":-0.06581166087452735,"7":-0.2094808808346428,"8":-0.042250751806672836,"9":-0.35960810412351035,"10":-0.26024623340909087,"11":-0.18178032085657972,"12":-0.1790373443911312}},{"sx":1,"sy":1,"depth":13,"w":{"0":-0.31371799037403447,"1":-0.06186232138555899,"2":-0.10662377917302439,"3":-0.3082257070654368,"4":-0.27817764099704456,"5":-0.10806286110991468,"6":-0.10589096540040044,"7":-0.22007034766601555,"8":-0.06529626627801188,"9":-0.3379249440296612,"10":-0.23905989714683915,"11":-0.17132981422651986,"12":-0.20927290095471413}},{"sx":1,"sy":1,"depth":13,"w":{"0":1.0242064195790792,"1":-0.8213205919097561,"2":-0.3765626220899506,"3":-3.5033001540833597,"4":-1.4501283432686018,"5":2.009713522773319,"6":-1.4679273325460114,"7":2.7493370240014845,"8":-0.13043861425609052,"9":-1.183640014628695,"10":1.6919785014647224,"11":3.583460151173802,"12":-0.8134654785019977}},{"sx":1,"sy":1,"depth":13,"w":{"0":2.9974111862445048,"1":4.123072651204196,"2":4.407620929921649,"3":-6.2763688489661345,"4":1.1853746964028968,"5":11.322482875359865,"6":-7.174735793338832,"7":-4.186988650285156,"8":-2.769626024040994,"9":3.520471132709054,"10":-5.229544306387908,"11":-5.719594904438955,"12":5.383831086366241}}],"biases":{"sx":1,"sy":1,"depth":14,"w":{"0":0.6532761955977964,"1":-1.813440891359664,"2":-0.9395167941766813,"3":3.8206703700764333,"4":-0.5543861906728937,"5":2.084524174635026,"6":-1.751373590249545,"7":2.355300865664846,"8":1.0705138392500746,"9":-1.8816213445283552,"10":-1.839953290575761,"11":-1.9546187058961397,"12":-1.2035920712089268,"13":1.954217433443408}}},{"out_depth":14,"out_sx":1,"out_sy":1,"layer_type":"softmax","num_inputs":14}]},{"layers":[{"out_depth":2,"out_sx":1,"out_sy":1,"layer_type":"input"},{"out_depth":13,"out_sx":1,"out_sy":1,"layer_type":"fc","num_inputs":2,"l1_decay_mul":0,"l2_decay_mul":1,"filters":[{"sx":1,"sy":1,"depth":2,"w":{"0":-6.301123806538532,"1":1.166206640825551}},{"sx":1,"sy":1,"depth":2,"w":{"0":8.710418372301644,"1":3.823809388492744}},{"sx":1,"sy":1,"depth":2,"w":{"0":-3.8723408469791702,"1":5.819543846479763}},{"sx":1,"sy":1,"depth":2,"w":{"0":-2.085856423940102,"1":7.265760116797248}},{"sx":1,"sy":1,"depth":2,"w":{"0":6.936381826195797,"1":-1.9632630369076447}},{"sx":1,"sy":1,"depth":2,"w":{"0":5.200155290284183,"1":9.10353873269553}},{"sx":1,"sy":1,"depth":2,"w":{"0":4.381581797321144,"1":-3.9015395043258563}},{"sx":1,"sy":1,"depth":2,"w":{"0":5.516095421099538,"1":-7.380650792189509}},{"sx":1,"sy":1,"depth":2,"w":{"0":7.505502982601973,"1":5.946954869650382}},{"sx":1,"sy":1,"depth":2,"w":{"0":-6.346499814836993,"1":-6.5437501651188805}},{"sx":1,"sy":1,"depth":2,"w":{"0":1.2246623850729006,"1":8.585580450892472}},{"sx":1,"sy":1,"depth":2,"w":{"0":5.805462250892856,"1":-2.4922798506886883}},{"sx":1,"sy":1,"depth":2,"w":{"0":-0.9310360080843685,"1":6.3291116091363095}}],"biases":{"sx":1,"sy":1,"depth":13,"w":{"0":4.335633352905374,"1":0.8415333308574462,"2":-1.8861019228956843,"3":-9.101063472298069,"4":15.489678611944932,"5":-4.887833211472822,"6":7.073002002913353,"7":6.118441624308502,"8":-9.452622107759531,"9":3.8081084632183586,"10":-1.0429017604972166,"11":11.9564722014335,"12":3.477852509832962}}},{"out_depth":13,"out_sx":1,"out_sy":1,"layer_type":"sigmoid"},{"out_depth":13,"out_sx":1,"out_sy":1,"layer_type":"fc","num_inputs":13,"l1_decay_mul":0,"l2_decay_mul":1,"filters":[{"sx":1,"sy":1,"depth":13,"w":{"0":-2.493647554526302,"1":-0.40105689960504215,"2":-0.6064191001088823,"3":-1.0972616993574806,"4":0.4840867273021978,"5":0.027005181900501746,"6":0.7374004745170349,"7":0.35710937062406384,"8":2.047339980000402,"9":-0.4998338402994213,"10":-1.7344206361162728,"11":0.48419190974848814,"12":-0.9399665816992302}},{"sx":1,"sy":1,"depth":13,"w":{"0":-3.3757120072088393,"1":0.3505634072693239,"2":0.7876531475995742,"3":-4.512459588139426,"4":-1.5324727564982625,"5":5.078391416732368,"6":-2.8621585609745264,"7":-8.09321723118686,"8":1.4100859251363067,"9":8.139792111577586,"10":-0.6917583175048616,"11":7.794829959856452,"12":-2.7787627705898346}},{"sx":1,"sy":1,"depth":13,"w":{"0":2.652870620498024,"1":2.0607124994291097,"2":-3.1362794126504205,"3":-2.1307409404888373,"4":-7.156200402390984,"5":-2.5959097266783173,"6":2.5772789283565087,"7":3.128353958726991,"8":-1.3311325210857556,"9":0.8979019262878553,"10":3.552991603062171,"11":-2.9885841676338463,"12":3.7699088445862095}},{"sx":1,"sy":1,"depth":13,"w":{"0":-0.5192786281030504,"1":-1.4991180882892554,"2":-1.7752307917549848,"3":-5.166207594616025,"4":2.072766228662085,"5":-1.9219468272075024,"6":0.3513768677370619,"7":2.424705119445121,"8":0.44381140750739206,"9":1.757096132847281,"10":-2.4692376237365807,"11":1.1640866396372342,"12":1.3247280764728686}},{"sx":1,"sy":1,"depth":13,"w":{"0":-0.8474657000853145,"1":5.3771576792017495,"2":2.23066764096099,"3":-4.933839002874961,"4":-2.4800017156600123,"5":7.214383121475824,"6":-2.240126912019277,"7":-6.152516494565229,"8":5.688120370208194,"9":6.973433322442001,"10":-6.738299844225345,"11":-3.214049742888509,"12":3.081948870850572}},{"sx":1,"sy":1,"depth":13,"w":{"0":-2.7651325201719446,"1":-1.9367124841959473,"2":4.7009674798656995,"3":-2.22242749627087,"4":5.2694853620378765,"5":1.2306039875084955,"6":-0.6071988236909726,"7":7.020249302770887,"8":-6.494560305651284,"9":-0.171167302320443,"10":-2.361096249918887,"11":-5.042298258056442,"12":1.857979930974551}},{"sx":1,"sy":1,"depth":13,"w":{"0":-1.2075925098696967,"1":-1.7756755186217896,"2":1.5859837956050218,"3":0.7047822943150305,"4":0.5652352879191177,"5":1.272840922470068,"6":-5.049373719411102,"7":2.2128447407416565,"8":-2.1310825186449582,"9":2.1702565261732953,"10":0.4591957522306684,"11":-0.036886206566318046,"12":-3.937852926993665}},{"sx":1,"sy":1,"depth":13,"w":{"0":-0.24252211743237478,"1":1.0639762276399587,"2":-0.08967391907033145,"3":0.8693674007350646,"4":0.7299753814784143,"5":0.7866055939599741,"6":-0.446870185813445,"7":-0.5272325088575908,"8":0.2964102996798295,"9":-1.1789616630861461,"10":0.6344212730890808,"11":0.5525495385466024,"12":3.7426344838461154}},{"sx":1,"sy":1,"depth":13,"w":{"0":-3.0267363322183836,"1":-4.630599227890702,"2":1.152014872322002,"3":5.731998977623573,"4":1.2215228116869565,"5":-0.7645718825382293,"6":-0.0696457435955479,"7":-0.4849141026454003,"8":-0.4312535675298387,"9":0.4458944131296382,"10":-3.2494448412537515,"11":-2.7244886415533096,"12":-4.386903538200699}},{"sx":1,"sy":1,"depth":13,"w":{"0":0.6181359060695399,"1":-3.6932242202124237,"2":0.46477870833666524,"3":3.9889890288658676,"4":3.6440520152971425,"5":-3.4815532007943215,"6":-3.67415829915444,"7":1.3729372948929368,"8":2.79783002684352,"9":-1.8678552783560705,"10":1.1042756508866722,"11":1.99260434720247,"12":-0.2270377669882184}},{"sx":1,"sy":1,"depth":13,"w":{"0":-4.512371444534108,"1":-2.91289735636553,"2":1.412857137820791,"3":-0.619255975229334,"4":0.7661275883402089,"5":1.996985768491402,"6":3.7917210254383,"7":-0.09539541237028311,"8":1.054386439748998,"9":-0.23289439409614587,"10":0.10089624889006922,"11":1.1527923980697388,"12":-1.5139813191309446}},{"sx":1,"sy":1,"depth":13,"w":{"0":-4.950147660107925,"1":5.18643314656569,"2":0.8002784666299887,"3":-1.5741800845195892,"4":2.0142626468238984,"5":-0.503341882878883,"6":-1.0975556645595077,"7":-1.1753510502247622,"8":-3.955480089110368,"9":-1.970315928494504,"10":-0.5313475354724085,"11":-3.1667482286343445,"12":3.983262807151523}},{"sx":1,"sy":1,"depth":13,"w":{"0":-0.7725560301150082,"1":-5.173298654776393,"2":-0.5359172995165326,"3":4.877972417543263,"4":-4.279722005347206,"5":2.894957938439116,"6":-0.16052273058568414,"7":-0.1851438555204849,"8":-2.151442170465109,"9":-0.3049931059437402,"10":1.0813205469703906,"11":-2.5024681222333856,"12":-0.38356764077999694}}],"biases":{"sx":1,"sy":1,"depth":13,"w":{"0":-0.3945148341079731,"1":-0.7446938343317648,"2":1.9242641426186888,"3":-0.23995346953596192,"4":-0.44140489099486935,"5":-0.10298214881800152,"6":6.116403193944144,"7":-1.0811640436854573,"8":3.998431694167479,"9":-3.7426153954876042,"10":-1.0241022546945482,"11":-0.3253016070407176,"12":-1.1141151123555915}}},{"out_depth":13,"out_sx":1,"out_sy":1,"layer_type":"sigmoid"},{"out_depth":14,"out_sx":1,"out_sy":1,"layer_type":"fc","num_inputs":13,"l1_decay_mul":0,"l2_decay_mul":1,"filters":[{"sx":1,"sy":1,"depth":13,"w":{"0":-0.24969470843661096,"1":3.123402344115426,"2":-0.7563595347851105,"3":-0.5426105121073288,"4":1.4393452674991036,"5":-1.566046966429182,"6":-1.125122111034285,"7":-0.07852010934400709,"8":-0.16504865300545604,"9":-0.7763420190185479,"10":2.458269974821184,"11":2.7749267216168785,"12":-0.17018581834785376}},{"sx":1,"sy":1,"depth":13,"w":{"0":-0.02885787067349056,"1":-0.17773204325900863,"2":-0.09658163970301885,"3":-0.06024730953531037,"4":-0.2912661682268791,"5":-0.210008268472705,"6":-0.2872967127317375,"7":-0.41771748488450317,"8":-0.038079274953358354,"9":-0.142775750002787,"10":-0.12290294273651758,"11":-0.11917182410742257,"12":-0.09146376750559827}},{"sx":1,"sy":1,"depth":13,"w":{"0":-3.5049667214010083,"1":-2.4983112413438273,"2":-1.3087647655493508,"3":7.035903296775648,"4":1.235536322154275,"5":2.1477800160432112,"6":-0.8425530598571315,"7":0.15828051839916266,"8":0.4567187672991761,"9":0.11808006273457325,"10":-5.130257078206478,"11":2.0379241043031167,"12":-2.697093888003099}},{"sx":1,"sy":1,"depth":13,"w":{"0":0.13504969625272195,"1":4.459253433713891,"2":-0.4866426599300163,"3":-7.651081723384902,"4":0.4877199378390635,"5":7.872291856454081,"6":1.512516634019963,"7":-0.4726485379355435,"8":1.6297491301248803,"9":-4.160590786427631,"10":1.8667375444264074,"11":3.8883981513439845,"12":-3.182441297818119}},{"sx":1,"sy":1,"depth":13,"w":{"0":-0.7608978026957274,"1":4.822372840670906,"2":0.8581712810022147,"3":-0.9650526996636207,"4":2.430621205131534,"5":0.1537938473793055,"6":-3.0621516837141325,"7":-2.9911277058040526,"8":2.877042572176856,"9":4.059327114846568,"10":-3.840631273343148,"11":-2.842223996825169,"12":-0.8046381156356712}},{"sx":1,"sy":1,"depth":13,"w":{"0":2.18872598793796,"1":-9.696087391352282,"2":1.5438918752070088,"3":1.2118424344026966,"4":11.790947474221637,"5":-4.082030161044982,"6":-5.085213993930279,"7":2.1554138599079034,"8":4.715803863543427,"9":-2.0691634874124794,"10":1.477041336484889,"11":2.6798984277447304,"12":5.176796611349795}},{"sx":1,"sy":1,"depth":13,"w":{"0":-0.049128236795077836,"1":-0.17757329357010262,"2":-0.16394979166181048,"3":-0.015007127690307369,"4":-0.36929510555159767,"5":-0.1793907775978331,"6":-0.21400187139832424,"7":-0.29786201844955096,"8":-0.036517261023195906,"9":-0.15194234822538807,"10":-0.07737705907547142,"11":-0.13386159866772515,"12":-0.07676303356121321}},{"sx":1,"sy":1,"depth":13,"w":{"0":1.8102674396456135,"1":-5.061356882294439,"2":-8.864417506542392,"3":1.030526179844065,"4":-5.059255505541063,"5":3.4702241691669093,"6":1.8914281140354776,"7":2.972950020146899,"8":-1.372627509291986,"9":2.7309594049909247,"10":-0.6786808058795981,"11":-0.5850394096617649,"12":-0.16222014570119148}},{"sx":1,"sy":1,"depth":13,"w":{"0":-0.12149003392143906,"1":-0.1599340635254476,"2":-0.12037628886295487,"3":-0.08768742834558414,"4":-0.26638678338106897,"5":-0.20869460261214035,"6":-0.2958309323910393,"7":-0.3947123209185556,"8":-0.05722716725594766,"9":-0.19707915362860784,"10":-0.14288031759320025,"11":-0.16435208844802718,"12":-0.07073463887838276}},{"sx":1,"sy":1,"depth":13,"w":{"0":1.2596655781994541,"1":1.0391887636731338,"2":0.4312652703949605,"3":-0.28388670592477305,"4":-3.074628097334732,"5":2.0093721451109507,"6":1.5080500680147912,"7":-0.9428894257409033,"8":1.2248780002820214,"9":1.046154384687105,"10":1.307758575442393,"11":-1.447573213798709,"12":3.874144818509627}},{"sx":1,"sy":1,"depth":13,"w":{"0":-0.032005557143902505,"1":-0.14898478262656242,"2":-0.07749897158548848,"3":-0.12515808263358905,"4":-0.25060308120820435,"5":-0.22712554183866032,"6":-0.2459246507738295,"7":-0.3131995884730941,"8":-0.08407756022941491,"9":-0.18901053305836596,"10":-0.06326044283082626,"11":-0.17661950556792105,"12":-0.015284114244309525}},{"sx":1,"sy":1,"depth":13,"w":{"0":-0.08543502409454715,"1":-0.16905025358479506,"2":-0.1190250288498888,"3":-0.03287982530778497,"4":-0.2815703316062483,"5":-0.22886146582154052,"6":-0.28809394692977264,"7":-0.32144305196214906,"8":-0.0640337314493168,"9":-0.14945408277859057,"10":-0.07629298844409389,"11":-0.1687983598206774,"12":-0.06906646135651628}},{"sx":1,"sy":1,"depth":13,"w":{"0":-0.046498175868732235,"1":-0.14798401748864823,"2":-0.10710565376553269,"3":-0.10798181049692,"4":-0.2310745985228326,"5":-0.19989463517823383,"6":-0.21360108607163297,"7":-0.3990455787403151,"8":-0.04518255781064601,"9":-0.1795628140675785,"10":-0.13439127365501297,"11":-0.13634954560715773,"12":-0.09230177313434701}},{"sx":1,"sy":1,"depth":13,"w":{"0":-0.31638927473831413,"1":4.71783857090427,"2":9.070853380637319,"3":0.729601988387154,"4":-7.42428312276738,"5":-8.765413522935404,"6":6.708243241102469,"7":1.2325025843041302,"8":-9.04549552517284,"9":0.20873958790082356,"10":3.0362884881156593,"11":-5.506956916972313,"12":-1.6371912192222133}}],"biases":{"sx":1,"sy":1,"depth":14,"w":{"0":-1.811702455456138,"1":-1.3992814254134731,"2":1.445880668842798,"3":-1.2304368422466863,"4":2.381652924238148,"5":-1.3228372722200674,"6":-1.6059872387410086,"7":3.501257147377706,"8":-1.3616389533643134,"9":-0.01675393958169365,"10":-1.6650511068213236,"11":-1.5403735654651873,"12":-1.57891003464909,"13":6.204182093500254}}},{"out_depth":14,"out_sx":1,"out_sy":1,"layer_type":"softmax","num_inputs":14}]},{"layers":[{"out_depth":2,"out_sx":1,"out_sy":1,"layer_type":"input"},{"out_depth":13,"out_sx":1,"out_sy":1,"layer_type":"fc","num_inputs":2,"l1_decay_mul":0,"l2_decay_mul":1,"filters":[{"sx":1,"sy":1,"depth":2,"w":{"0":-8.116666510273811,"1":-0.795739634294838}},{"sx":1,"sy":1,"depth":2,"w":{"0":-8.027189954436487,"1":1.078767459441389}},{"sx":1,"sy":1,"depth":2,"w":{"0":-3.957580263677197,"1":8.166523378706886}},{"sx":1,"sy":1,"depth":2,"w":{"0":8.009432601637833,"1":0.7923117289818001}},{"sx":1,"sy":1,"depth":2,"w":{"0":5.4716736541868265,"1":-3.3096878132943575}},{"sx":1,"sy":1,"depth":2,"w":{"0":-0.025296777852229783,"1":8.839550313598949}},{"sx":1,"sy":1,"depth":2,"w":{"0":1.41385675730633,"1":-8.134615183507355}},{"sx":1,"sy":1,"depth":2,"w":{"0":6.912985133222139,"1":-8.882426683757627}},{"sx":1,"sy":1,"depth":2,"w":{"0":0.7835052333005712,"1":6.190027889888943}},{"sx":1,"sy":1,"depth":2,"w":{"0":-2.649307410434857,"1":5.0912012105282285}},{"sx":1,"sy":1,"depth":2,"w":{"0":4.348067724982766,"1":-1.899198420604342}},{"sx":1,"sy":1,"depth":2,"w":{"0":2.963974470293165,"1":9.009034014085554}},{"sx":1,"sy":1,"depth":2,"w":{"0":-5.556869246282449,"1":3.1874224632977795}}],"biases":{"sx":1,"sy":1,"depth":13,"w":{"0":-3.245401529154207,"1":-8.213289553650649,"2":11.144697529662661,"3":6.876843271111658,"4":3.144970452917262,"5":2.3979285466796108,"6":13.527282158978206,"7":6.732288490062245,"8":-2.809717432176741,"9":3.5650749924746834,"10":-1.5362784505303697,"11":-6.748921948335101,"12":-1.5578544005772288}}},{"out_depth":13,"out_sx":1,"out_sy":1,"layer_type":"sigmoid"},{"out_depth":13,"out_sx":1,"out_sy":1,"layer_type":"fc","num_inputs":13,"l1_decay_mul":0,"l2_decay_mul":1,"filters":[{"sx":1,"sy":1,"depth":13,"w":{"0":3.2300118008671275,"1":0.733211269498575,"2":-0.7345436252206085,"3":-1.3814712037763477,"4":-2.270409266342793,"5":-0.2763330657137441,"6":-5.305035553554464,"7":-0.8023325542579028,"8":-7.5180680887143625,"9":1.1767237841201543,"10":-0.6141729624360326,"11":2.3843042720202465,"12":2.8405275090607467}},{"sx":1,"sy":1,"depth":13,"w":{"0":-0.832890174369085,"1":0.5358216065249071,"2":6.221180250283741,"3":0.19268184401316177,"4":-3.174295856690634,"5":2.7077964632169764,"6":-0.9049439334904484,"7":-0.9549725999200348,"8":0.6862304292381189,"9":4.85866170039965,"10":-1.3720644679854304,"11":0.3464349153676994,"12":1.351196843592747}},{"sx":1,"sy":1,"depth":13,"w":{"0":-1.6450929830425363,"1":1.0317517589869958,"2":3.1723823624444574,"3":-0.22472887541734268,"4":-0.20830812044315786,"5":2.7816153857219796,"6":1.8008146176131428,"7":-1.8974006605247935,"8":-1.1233498627117016,"9":-2.9409596747162983,"10":-1.8991799651124304,"11":-2.0340076111787164,"12":-1.247293324848901}},{"sx":1,"sy":1,"depth":13,"w":{"0":4.572810366873646,"1":-1.9756654798033397,"2":0.37571447733763214,"3":-2.1997368294335904,"4":-1.963908883785971,"5":-2.0410755817596815,"6":-1.66153934762678,"7":-0.6758674496799616,"8":-2.4905244870041807,"9":0.4465882819843171,"10":-0.8565644472530597,"11":-5.214281226875892,"12":2.216823502777102}},{"sx":1,"sy":1,"depth":13,"w":{"0":3.784672997144224,"1":-0.20569312584227398,"2":-5.833413288298774,"3":4.163005742964883,"4":-0.05654400703197897,"5":0.35718765692448645,"6":-4.454442285366486,"7":-3.136525732432114,"8":1.3808229795063702,"9":-4.065001492358889,"10":-1.0243559869461258,"11":2.1259730666486614,"12":3.1116847982800353}},{"sx":1,"sy":1,"depth":13,"w":{"0":-0.4891812180509236,"1":-2.8215301582485854,"2":-3.4783346719596073,"3":-3.4462076742456986,"4":2.6688341496551304,"5":2.499279025849838,"6":-1.719033093122696,"7":3.155237866423818,"8":1.4802741653234928,"9":0.30487267616332037,"10":4.025656879543503,"11":1.2530799467390337,"12":-4.960066120377547}},{"sx":1,"sy":1,"depth":13,"w":{"0":0.41622662838715324,"1":-0.7039658115014189,"2":0.17622712217107958,"3":1.7676665100643443,"4":-1.0940602014531586,"5":0.8214040661955809,"6":0.28753663472808516,"7":-2.7516106302260277,"8":0.3890573245713639,"9":1.7856508741688886,"10":1.7911368623073969,"11":-0.20539266421291388,"12":-1.8650066069530022}},{"sx":1,"sy":1,"depth":13,"w":{"0":-2.2281612809266598,"1":1.7465659860241918,"2":-4.01298516845437,"3":2.259594098637317,"4":3.7193303767803942,"5":0.06521273749582092,"6":-3.559172010023144,"7":1.7685513135373347,"8":0.7944237600971594,"9":0.8701817079249023,"10":0.6534253133618615,"11":1.9449595145104077,"12":-1.4468368993093539}},{"sx":1,"sy":1,"depth":13,"w":{"0":-0.6226694924748785,"1":-0.33004111593426905,"2":1.9284439930305426,"3":0.5513943638319295,"4":2.8530187131987574,"5":0.27085622154541616,"6":-3.0184299037348903,"7":-1.5675506620485968,"8":0.7764251347029633,"9":-2.077506117369719,"10":1.22685712719206,"11":0.974149649299645,"12":-2.2897685572470006}},{"sx":1,"sy":1,"depth":13,"w":{"0":3.224549163792516,"1":1.886710157266541,"2":3.212277967591685,"3":4.57641723583357,"4":1.9431774786600842,"5":-1.0160184625012365,"6":-3.243526057468037,"7":4.2379225236916716,"8":-2.3507172109411876,"9":-1.721491349708565,"10":-3.17706045092991,"11":0.9325005737837542,"12":0.1877610039927969}},{"sx":1,"sy":1,"depth":13,"w":{"0":2.6599818267312796,"1":0.7846430424811107,"2":0.20135297801711985,"3":3.423281386913054,"4":-3.3275922062778087,"5":-0.645744035294429,"6":0.1404981262601668,"7":0.377619603074723,"8":-0.028965127282096832,"9":-3.2110368502771123,"10":-0.1665623101612098,"11":1.8420890015992601,"12":-0.5030191226566996}},{"sx":1,"sy":1,"depth":13,"w":{"0":6.114971445190714,"1":-3.513122783744779,"2":2.408879290123388,"3":1.3951493676242706,"4":3.272814297027106,"5":-4.0056491869608895,"6":3.6248344872781244,"7":-5.246093012417702,"8":-0.9993548763590707,"9":-0.7605937744346506,"10":-1.4754438154419454,"11":3.6853241749209973,"12":-2.806211654953742}},{"sx":1,"sy":1,"depth":13,"w":{"0":0.7162479395198715,"1":5.150252018264698,"2":-3.3040328918842623,"3":0.2940552407287464,"4":1.7818064194796916,"5":7.586728676155017,"6":0.13153307012891505,"7":0.4394479939294564,"8":-2.8868622339789556,"9":-0.0447995270894233,"10":-2.3804042067507116,"11":-0.19721992548192452,"12":-0.41423960468001847}}],"biases":{"sx":1,"sy":1,"depth":13,"w":{"0":3.0158408340739373,"1":-3.5719138641209893,"2":1.2654140186061171,"3":1.9781838310586772,"4":5.197303517054942,"5":-0.8353798303274025,"6":2.2423797515351924,"7":3.6681643867316196,"8":-0.6884207303141824,"9":-6.358888221005582,"10":-2.6288423649273227,"11":-2.2831477906373805,"12":-3.4166759407655745}}},{"out_depth":13,"out_sx":1,"out_sy":1,"layer_type":"sigmoid"},{"out_depth":14,"out_sx":1,"out_sy":1,"layer_type":"fc","num_inputs":13,"l1_decay_mul":0,"l2_decay_mul":1,"filters":[{"sx":1,"sy":1,"depth":13,"w":{"0":1.8922685703621906,"1":4.37174408864326,"2":-0.22035343194900545,"3":0.9769111325529242,"4":-3.073412267238791,"5":-0.07411477736773464,"6":-3.2286645927237356,"7":-1.5243436482948098,"8":-0.11859776047148589,"9":1.8026941965507624,"10":1.8900724426671063,"11":0.03247098824988689,"12":-1.9693012656611104}},{"sx":1,"sy":1,"depth":13,"w":{"0":-0.18180098146162438,"1":-0.20546857168456062,"2":-0.24925157533290832,"3":-0.19927172726003026,"4":-0.19448295421022202,"5":-0.039983240390089644,"6":-0.24257929393167793,"7":-0.14172007672000356,"8":-0.035390370220226335,"9":-0.18334872337541352,"10":-0.10466198596392542,"11":-0.2003933387752161,"12":-0.2293448001407517}},{"sx":1,"sy":1,"depth":13,"w":{"0":-0.9003100703630125,"1":3.1164449464195,"2":1.8915542872133333,"3":-4.017051434392925,"4":1.4447206782197808,"5":-1.7841525486292615,"6":0.7984277335532018,"7":0.3719219018569469,"8":-4.894349361569925,"9":-0.6201416621756305,"10":-2.2199991715520495,"11":-0.6486099091691916,"12":-4.068052345732026}},{"sx":1,"sy":1,"depth":13,"w":{"0":4.309351257395771,"1":-2.422257041738326,"2":0.9791481008787225,"3":-0.0050292904245745305,"4":1.805078569141066,"5":-5.536526497540748,"6":-1.9411648632914198,"7":-0.2404827152292151,"8":2.6138078884981115,"9":-2.138279386170502,"10":-1.7635145675294066,"11":7.28359359519704,"12":0.747742041987475}},{"sx":1,"sy":1,"depth":13,"w":{"0":-6.206546007440827,"1":-1.8355215011394737,"2":1.234134648861497,"3":1.889796097261255,"4":1.287708805191703,"5":-5.138384858919603,"6":1.6944407065910707,"7":-2.656607243681258,"8":4.263799910968624,"9":-1.3712409906866612,"10":0.21046533301988685,"11":1.178468588434124,"12":-1.1375718403918533}},{"sx":1,"sy":1,"depth":13,"w":{"0":-0.5144115634560551,"1":-0.6979873446311999,"2":1.1008857386748085,"3":-6.149124986345818,"4":3.5523604094522936,"5":-0.5926281123122978,"6":-0.4280099734089247,"7":1.135152436060944,"8":-2.3265894472237183,"9":6.266525934127738,"10":2.328854292138285,"11":-0.31893915046101495,"12":3.323871297827894}},{"sx":1,"sy":1,"depth":13,"w":{"0":-0.18896806752258516,"1":-0.2273446249221566,"2":-0.23716764594579398,"3":-0.18539889615279306,"4":-0.197738577065965,"5":-0.026237525163848148,"6":-0.2592179337782702,"7":-0.1481102285380136,"8":-0.025301005537672876,"9":-0.20280909009194967,"10":-0.11510558023458028,"11":-0.21146414178304812,"12":-0.25233822526662836}},{"sx":1,"sy":1,"depth":13,"w":{"0":2.2527787076830013,"1":-5.965753237076237,"2":1.2968715858397435,"3":1.7807048924507836,"4":-4.813808070745082,"5":3.3359370198081764,"6":1.3297780444452652,"7":-0.3805275399744047,"8":0.9924612022909332,"9":-0.2859667752326029,"10":0.38997360939458126,"11":2.4162599689385953,"12":4.059886744102714}},{"sx":1,"sy":1,"depth":13,"w":{"0":-0.17602188807396998,"1":-0.22417156457485118,"2":-0.23988320527702003,"3":-0.20180187854856846,"4":-0.18548950057912295,"5":-0.036507338043387225,"6":-0.24613991350507866,"7":-0.13725257334268987,"8":-0.056974197342026696,"9":-0.19563450208152747,"10":-0.11092973123084776,"11":-0.20996049825241256,"12":-0.24192866012569267}},{"sx":1,"sy":1,"depth":13,"w":{"0":0.6123885322745399,"1":-1.2330613391364846,"2":-1.1220936065545892,"3":0.551738151554007,"4":2.4805251866467137,"5":-0.23888462579364758,"6":-1.1685658657228157,"7":-0.6861197394947498,"8":-0.11381273117322116,"9":2.4411283101223593,"10":2.2034033298661595,"11":-1.5312810903090994,"12":0.6148926427883443}},{"sx":1,"sy":1,"depth":13,"w":{"0":-1.204564054767153,"1":1.6221431769278722,"2":-0.2596499486484447,"3":-1.4168672896588923,"4":4.30860847832158,"5":2.8121571327479833,"6":-0.2786429788697664,"7":-0.601777466628207,"8":1.7579617394509308,"9":-1.4463926286498878,"10":1.0533440174996445,"11":3.5730250755453214,"12":-1.0347851660133405}},{"sx":1,"sy":1,"depth":13,"w":{"0":-0.17736615022831637,"1":-0.23040545364064055,"2":-0.24783446437048598,"3":-0.21436278708030007,"4":-0.2007818518609015,"5":-0.03757707700256587,"6":-0.26197718790914953,"7":-0.14870382754098332,"8":-0.03946697494113001,"9":-0.19859538690903378,"10":-0.1182281533538422,"11":-0.20254484272051823,"12":-0.2481566760200432}},{"sx":1,"sy":1,"depth":13,"w":{"0":-4.0270193572562905,"1":1.6496019622975007,"2":1.7137121479178379,"3":0.594068438599734,"4":-3.604128476270446,"5":1.2307924749734254,"6":1.4245243272090296,"7":-1.917135946536396,"8":0.32619324944138955,"9":1.5091146441813315,"10":-0.7538882127503505,"11":-2.883856271231527,"12":4.354133874895168}},{"sx":1,"sy":1,"depth":13,"w":{"0":4.499942044130932,"1":2.3469269611377297,"2":-5.633016443194844,"3":6.564793479913737,"4":-2.576463794013928,"5":6.102853206594569,"6":2.840747716607888,"7":7.013187286897209,"8":-2.3500084305034017,"9":-5.340917507394349,"10":-2.8888019325398195,"11":-8.268022409349662,"12":-3.9052109447232444}}],"biases":{"sx":1,"sy":1,"depth":14,"w":{"0":-0.7279641611281753,"1":-2.2512616626600135,"2":2.9169413339213794,"3":1.1641282067640786,"4":4.549987370966804,"5":-0.8771090629880786,"6":-2.164380367367106,"7":1.7426721291008673,"8":-2.2107684500541374,"9":-0.8920140731032231,"10":-3.883409895851248,"11":-2.1358262205003222,"12":-0.2769959562359075,"13":5.046000809135946}}},{"out_depth":14,"out_sx":1,"out_sy":1,"layer_type":"softmax","num_inputs":14}]},{"layers":[{"out_depth":2,"out_sx":1,"out_sy":1,"layer_type":"input"},{"out_depth":13,"out_sx":1,"out_sy":1,"layer_type":"fc","num_inputs":2,"l1_decay_mul":0,"l2_decay_mul":1,"filters":[{"sx":1,"sy":1,"depth":2,"w":{"0":5.342053069914926,"1":3.3333158930877205}},{"sx":1,"sy":1,"depth":2,"w":{"0":-1.0118449634578401,"1":1.000470250036264}},{"sx":1,"sy":1,"depth":2,"w":{"0":3.7161455393295615,"1":7.116544161395649}},{"sx":1,"sy":1,"depth":2,"w":{"0":2.5513166571067063,"1":0.6729780810172387}},{"sx":1,"sy":1,"depth":2,"w":{"0":1.6322764701814165,"1":3.534301850041654}},{"sx":1,"sy":1,"depth":2,"w":{"0":-3.0133464137244,"1":-5.882603052183646}},{"sx":1,"sy":1,"depth":2,"w":{"0":0.9730481238085532,"1":-1.2583335698989226}},{"sx":1,"sy":1,"depth":2,"w":{"0":-8.119223589441063,"1":-2.9096051967676044}},{"sx":1,"sy":1,"depth":2,"w":{"0":-0.8004190499895453,"1":1.2256697833380688}},{"sx":1,"sy":1,"depth":2,"w":{"0":0.6075623423462856,"1":-1.2448839068234454}},{"sx":1,"sy":1,"depth":2,"w":{"0":-3.7200958169800615,"1":-1.0836884754344351}},{"sx":1,"sy":1,"depth":2,"w":{"0":1.866331606774168,"1":0.04929940684280713}},{"sx":1,"sy":1,"depth":2,"w":{"0":1.2836630864146694,"1":-1.7779356546193086}}],"biases":{"sx":1,"sy":1,"depth":13,"w":{"0":-4.437470649490398,"1":-0.9777764313956515,"2":-2.1490457097052498,"3":2.2287859289215537,"4":-3.2787441926904757,"5":4.558754405084586,"6":1.3478432588805576,"7":-1.1124354852980618,"8":-1.1832932156301983,"9":0.685494915664886,"10":-1.4456957620502326,"11":-1.2401906950769608,"12":2.8616719209836625}}},{"out_depth":13,"out_sx":1,"out_sy":1,"layer_type":"sigmoid"},{"out_depth":13,"out_sx":1,"out_sy":1,"layer_type":"fc","num_inputs":13,"l1_decay_mul":0,"l2_decay_mul":1,"filters":[{"sx":1,"sy":1,"depth":13,"w":{"0":2.3743351924924108,"1":-0.38353767707920233,"2":-0.831273894252917,"3":-0.27933401219740156,"4":-0.32275272929154475,"5":-0.1657742210243553,"6":0.47489669861329115,"7":2.1651604202032457,"8":-0.5408393990441991,"9":0.19891668256099626,"10":1.0388257555440399,"11":0.6620116102030777,"12":0.700933525100709}},{"sx":1,"sy":1,"depth":13,"w":{"0":-0.7358437795234397,"1":0.06418560631522836,"2":0.5405148246955438,"3":0.17344587006222362,"4":-0.11829135031559525,"5":0.07919465351703626,"6":-0.10763216232553914,"7":-1.0443257889466577,"8":0.11339508208049794,"9":-0.014733133258759584,"10":-0.5089837759252686,"11":-0.09363893370988849,"12":-0.20180932668129484}},{"sx":1,"sy":1,"depth":13,"w":{"0":-3.127784561572842,"1":0.645936660180107,"2":2.69146725306346,"3":-0.583092468594709,"4":-0.47973431625148966,"5":1.8319196503427526,"6":-1.0432262094336155,"7":-3.207374214693527,"8":0.6995141404644967,"9":-0.8089439768073013,"10":-0.8052993280817711,"11":-0.8152516054980351,"12":-1.1821070115112162}},{"sx":1,"sy":1,"depth":13,"w":{"0":0.5154028014297164,"1":0.034486435564087335,"2":-1.22648166303494,"3":0.9520920301291995,"4":1.2027943817905982,"5":-1.4288382036014162,"6":0.17612639328235233,"7":0.8684716697332676,"8":-0.11727251394461687,"9":0.23262896818224957,"10":-0.03839085540380698,"11":0.2848363681540301,"12":0.12281891971292484}},{"sx":1,"sy":1,"depth":13,"w":{"0":1.3530144167436025,"1":-0.045628305102051084,"2":-0.558995247999153,"3":-0.9971019814879502,"4":-0.3767312526615642,"5":0.07934321778720585,"6":0.05729675544803811,"7":2.2913227465709736,"8":-0.24825611614562473,"9":0.10990030312635865,"10":1.3771841044026516,"11":0.29926147812736803,"12":-0.09862347293526968}},{"sx":1,"sy":1,"depth":13,"w":{"0":0.47537669166910257,"1":0.10889602921603049,"2":-1.0448354174034142,"3":0.6967577703249759,"4":1.5317469601577245,"5":-2.0292874175208113,"6":-0.24007734116840657,"7":0.8820120274581579,"8":0.13422695388062436,"9":-0.24801289332808868,"10":-0.15437945255197072,"11":0.19484261510762094,"12":-0.5870160187449052}},{"sx":1,"sy":1,"depth":13,"w":{"0":1.390447957476238,"1":-0.16889264613460353,"2":-0.7006094864246291,"3":-0.9501439263744254,"4":-0.42171826577823424,"5":0.40676346191016505,"6":0.01920767257993681,"7":2.123737288061706,"8":-0.03346442828133687,"9":0.05201643317922554,"10":1.305204585075308,"11":0.24783856159565334,"12":-0.023776508147583756}},{"sx":1,"sy":1,"depth":13,"w":{"0":-0.41843915781786745,"1":0.23563141714283248,"2":0.3648551483037183,"3":0.00009798514532246719,"4":0.08578759942108616,"5":0.2802817786862766,"6":-0.058626964260026004,"7":-0.1708764457648017,"8":0.16168223493228945,"9":-0.12148563167138061,"10":0.1328511619532177,"11":0.0879213486126091,"12":-0.08927251505841373}},{"sx":1,"sy":1,"depth":13,"w":{"0":-1.2118700346945697,"1":0.3300880422721965,"2":1.876049340353854,"3":-0.8757245389191631,"4":-0.8158562288328302,"5":1.4402997363318988,"6":-0.21786165949238578,"7":-1.6426077960316907,"8":0.2558513656306159,"9":-0.4513582003893426,"10":-0.3274589518550745,"11":-0.3339759838851513,"12":-0.5003095324840042}},{"sx":1,"sy":1,"depth":13,"w":{"0":1.364478817718015,"1":-0.39992956031455784,"2":-1.5999194388968805,"3":0.647006587635183,"4":-0.0773381769560508,"5":-0.3231458466100735,"6":0.6169466617008528,"7":1.1637408130958982,"8":-0.3516855016320841,"9":0.5814650501219601,"10":-0.04624701370169781,"11":0.4693784142544459,"12":1.2690014624148072}},{"sx":1,"sy":1,"depth":13,"w":{"0":-0.2682058125207493,"1":0.3253224198719613,"2":-0.6554312929837619,"3":0.6862720432703664,"4":1.7138771393138819,"5":-2.232950509269772,"6":-0.6051472400982432,"7":0.28450010443290624,"8":0.4447572343111474,"9":-0.3843933975309976,"10":-0.13542210312046912,"11":0.1391228166531047,"12":-1.3187358579904107}},{"sx":1,"sy":1,"depth":13,"w":{"0":1.9516098520890466,"1":-0.061560521777636094,"2":-3.5761020752066437,"3":1.3910883476453801,"4":1.3590468755938654,"5":-2.409587240129083,"6":0.5924418142537936,"7":2.985002547787911,"8":-0.3985675357033159,"9":0.5860118124572199,"10":0.6466846740939917,"11":0.665352077600621,"12":0.6095885443475485}},{"sx":1,"sy":1,"depth":13,"w":{"0":-3.3054963611118944,"1":0.708804032720985,"2":2.8553846668967235,"3":-0.7736593386315046,"4":-0.6620448029171824,"5":1.5932927185462362,"6":-0.8193360404176908,"7":-3.2624578793991814,"8":0.5654899525195414,"9":-0.6316197864421235,"10":-0.8162401841332229,"11":-0.7172952640233579,"12":-1.3006248752322123}}],"biases":{"sx":1,"sy":1,"depth":13,"w":{"0":0.06542209212271166,"1":0.16092782198606137,"2":-0.3555826021421761,"3":0.3581036444480889,"4":-0.2620573495700421,"5":0.06426171399639247,"6":-0.2583933962820671,"7":0.18202482016757263,"8":-0.44721171938808296,"9":0.4770987479045384,"10":-0.4480093973903514,"11":0.5527342070591799,"12":-0.11752967141785527}}},{"out_depth":13,"out_sx":1,"out_sy":1,"layer_type":"sigmoid"},{"out_depth":14,"out_sx":1,"out_sy":1,"layer_type":"fc","num_inputs":13,"l1_decay_mul":0,"l2_decay_mul":1,"filters":[{"sx":1,"sy":1,"depth":13,"w":{"0":-0.26859489678679305,"1":-0.21671244892791736,"2":-0.01706469529706332,"3":-0.1330719117653809,"4":-0.07243704489787277,"5":-0.23167614397857428,"6":-0.11156634114343536,"7":-0.38959875257047166,"8":-0.35528323426796077,"9":-0.11668286658928002,"10":-0.05120104819530727,"11":-0.14541605002516153,"12":-0.027760867675396195}},{"sx":1,"sy":1,"depth":13,"w":{"0":-0.14016434880811635,"1":-0.23245245042386958,"2":-0.24501614311414432,"3":-0.16525702499457134,"4":-0.20035600236694404,"5":0.024494091519416526,"6":-0.14565833534524525,"7":-0.4050325474409776,"8":0.04692463866113851,"9":-0.2315896115969312,"10":-0.1828698476373855,"11":-0.049388444234086705,"12":-0.17334378187411065}},{"sx":1,"sy":1,"depth":13,"w":{"0":-0.2828006949146419,"1":1.0557127328648805,"2":1.1903029670970426,"3":0.16055362393009268,"4":-1.0122959560871903,"5":-0.4303543036291428,"6":-0.6173423638677106,"7":0.6496815399743814,"8":0.8335933470771217,"9":1.2509767643733716,"10":-1.0058001113603272,"11":-0.8333701714894337,"12":1.5057513474403488}},{"sx":1,"sy":1,"depth":13,"w":{"0":-0.2492770325939334,"1":-0.1600707884033764,"2":-0.2671340583030535,"3":-0.11889968700354211,"4":-0.32458205611174357,"5":-0.015263825413014959,"6":0.04755957943262162,"7":-0.18149943757129455,"8":-0.18452192656854502,"9":-0.326466730888763,"10":0.04970902631527558,"11":-0.16139742105123028,"12":-0.09422166117565414}},{"sx":1,"sy":1,"depth":13,"w":{"0":0.1214229244047713,"1":-0.05097120382488697,"2":-0.4163551022663061,"3":-0.42274915058850093,"4":-0.12893704567359113,"5":0.0016581645911640617,"6":-0.15140031095492046,"7":-0.3823517492853943,"8":0.06672290696254274,"9":-0.06302637564667364,"10":-0.20146612746558457,"11":-0.10740293401301568,"12":-0.13561683877887445}},{"sx":1,"sy":1,"depth":13,"w":{"0":0.6729638003061155,"1":0.35249205522717114,"2":2.4329027230865488,"3":-1.164475627721423,"4":1.6156355155496875,"5":-1.463422725613551,"6":1.760573116750907,"7":1.1266713286231897,"8":2.3822100279680236,"9":-0.7472371688568753,"10":-1.50695261441043,"11":-2.9145472451686927,"12":2.4689279236543555}},{"sx":1,"sy":1,"depth":13,"w":{"0":-0.07087673582802168,"1":-0.3132334517586817,"2":-0.3630122939259711,"3":-0.08383905843846305,"4":-0.18206533910670192,"5":-0.09629282705844257,"6":-0.2246043580680043,"7":-0.15657219131384773,"8":-0.2946530190136504,"9":0.015348758105023516,"10":-0.03547831932332044,"11":-0.007602190867515781,"12":-0.3086446416747688}},{"sx":1,"sy":1,"depth":13,"w":{"0":-0.10885165654362537,"1":-0.14606640817626748,"2":-0.12243012831860671,"3":-0.39779199256453607,"4":-0.13889486528261402,"5":-0.04826528830048242,"6":-0.18954788165748993,"7":-0.18877551148570001,"8":-0.24970429208477424,"9":-0.04467378982337828,"10":-0.24714467641212168,"11":-0.10750749262880614,"12":-0.11991868531737351}},{"sx":1,"sy":1,"depth":13,"w":{"0":-0.10818175752678985,"1":-0.256034230607808,"2":-0.22704414903086287,"3":-0.18397692664414786,"4":0.03094392854514525,"5":-0.16502989171253019,"6":-0.25807464044172135,"7":-0.20586791268199847,"8":-0.2850300389241403,"9":-0.12815415555789103,"10":-0.1907796356177724,"11":-0.13907116204121314,"12":-0.08467580842663548}},{"sx":1,"sy":1,"depth":13,"w":{"0":-0.11659905941273095,"1":-0.2570870341954841,"2":-0.17342479145379325,"3":-0.026659114823656887,"4":-0.07775482633673236,"5":0.01133789231974336,"6":-0.041576727926831876,"7":-0.28912252527213184,"8":-0.19420107072460902,"9":-0.32574576496226193,"10":-0.3061105000766473,"11":-0.04738053251587421,"12":-0.22937893490521152}},{"sx":1,"sy":1,"depth":13,"w":{"0":-0.07454901557817842,"1":-0.21065524599060614,"2":-0.11676066434162749,"3":-0.18286428991602963,"4":-0.12546793033282758,"5":0.07520167678571243,"6":-0.18732198756980847,"7":-0.28959237041107516,"8":-0.1788647204569357,"9":-0.11137042412870397,"10":-0.225330414275778,"11":-0.15592219184457598,"12":-0.33719616997670665}},{"sx":1,"sy":1,"depth":13,"w":{"0":-0.01728602470854291,"1":-0.18684894111959513,"2":-0.2834541181873683,"3":-0.10889448921106762,"4":-0.31866859987877155,"5":0.06648522792566043,"6":-0.46893930494628866,"7":-0.04739182010425776,"8":-0.23276121232367142,"9":-0.08400628718581007,"10":-0.07435545864577611,"11":-0.44217285086819935,"12":-0.25838437542019627}},{"sx":1,"sy":1,"depth":13,"w":{"0":-1.78335421207591,"1":1.076867453520151,"2":3.2072263136993135,"3":0.4737863168845294,"4":-1.4204215040873718,"5":1.2506994576136625,"6":-1.4630485718587967,"7":0.9706050526561644,"8":1.0800624934149763,"9":-0.8524001151522205,"10":2.3979869806856184,"11":-0.1342234257728981,"12":3.199600584328515}},{"sx":1,"sy":1,"depth":13,"w":{"0":3.230305091162054,"1":-0.8390067276957413,"2":-4.71139691610182,"3":2.2684887655128154,"4":2.589134770707937,"5":2.0211799195332563,"6":2.430626152420402,"7":0.11502951733577552,"8":-2.416668109986649,"9":2.7876339781014488,"10":1.0354205487373382,"11":5.347779945580172,"12":-4.8330552443107795}}],"biases":{"sx":1,"sy":1,"depth":14,"w":{"0":-0.6609927009704166,"1":-0.6289533190450082,"2":1.7916115647773594,"3":-0.7357734494293284,"4":-0.8336446039874668,"5":2.346185331237461,"6":-0.618815238428158,"7":-0.7786316998342093,"8":-0.6619761929858052,"9":-0.6492138143951791,"10":-0.6487194756044083,"11":-0.6075913826527704,"12":1.428683798283373,"13":1.2578311830346014}}},{"out_depth":14,"out_sx":1,"out_sy":1,"layer_type":"softmax","num_inputs":14}]},{"layers":[{"out_depth":2,"out_sx":1,"out_sy":1,"layer_type":"input"},{"out_depth":13,"out_sx":1,"out_sy":1,"layer_type":"fc","num_inputs":2,"l1_decay_mul":0,"l2_decay_mul":1,"filters":[{"sx":1,"sy":1,"depth":2,"w":{"0":-0.9641688227412146,"1":5.672789355565357}},{"sx":1,"sy":1,"depth":2,"w":{"0":2.787385666214151,"1":2.523701310037515}},{"sx":1,"sy":1,"depth":2,"w":{"0":-2.492063764458848,"1":10.83358978614697}},{"sx":1,"sy":1,"depth":2,"w":{"0":3.494168217792725,"1":-2.3767476808762966}},{"sx":1,"sy":1,"depth":2,"w":{"0":-4.400737832794045,"1":2.5260826179706424}},{"sx":1,"sy":1,"depth":2,"w":{"0":-1.5850913078019406,"1":-7.220722671154639}},{"sx":1,"sy":1,"depth":2,"w":{"0":3.3471964999537693,"1":-2.4690871395925695}},{"sx":1,"sy":1,"depth":2,"w":{"0":-2.107724594620779,"1":-0.29039918530723474}},{"sx":1,"sy":1,"depth":2,"w":{"0":-3.3792380145310412,"1":-2.455892408210929}},{"sx":1,"sy":1,"depth":2,"w":{"0":5.432574207399302,"1":2.0874891940176554}},{"sx":1,"sy":1,"depth":2,"w":{"0":5.154996119518361,"1":1.180692921677066}},{"sx":1,"sy":1,"depth":2,"w":{"0":-2.206871295736687,"1":-5.194682110939257}},{"sx":1,"sy":1,"depth":2,"w":{"0":1.2759682978882125,"1":5.408627272346887}}],"biases":{"sx":1,"sy":1,"depth":13,"w":{"0":4.193504495572953,"1":4.486089665420835,"2":-7.014164006860407,"3":4.080124309823123,"4":-6.298749860166946,"5":-5.347944232189148,"6":3.5114531755362717,"7":-1.626821908292015,"8":-2.4344727492194838,"9":10.434901810052915,"10":7.6104233992425385,"11":-6.174243114066412,"12":-1.3654955495480026}}},{"out_depth":13,"out_sx":1,"out_sy":1,"layer_type":"sigmoid"},{"out_depth":13,"out_sx":1,"out_sy":1,"layer_type":"fc","num_inputs":13,"l1_decay_mul":0,"l2_decay_mul":1,"filters":[{"sx":1,"sy":1,"depth":13,"w":{"0":0.0184216588577279,"1":2.3162213389305615,"2":1.3986401761796137,"3":0.344670560972838,"4":-0.5480761615699046,"5":-2.3779651810127707,"6":0.12094885729618844,"7":-0.6152567153610463,"8":-0.15171626437934188,"9":3.5120058760083865,"10":0.7580832352207526,"11":-2.7788197778630312,"12":0.7356153139998003}},{"sx":1,"sy":1,"depth":13,"w":{"0":0.4656264641123375,"1":1.1205500388686365,"2":-2.9503794668061207,"3":-1.5401110782635317,"4":1.0393527757863799,"5":-2.510012151428944,"6":-1.8297658045169798,"7":0.14942207350577336,"8":-0.034208158304177075,"9":1.6785786996106897,"10":-0.4351057578959176,"11":-1.9841037438387428,"12":-0.18956291515818827}},{"sx":1,"sy":1,"depth":13,"w":{"0":-0.5664471819876313,"1":2.8578066440103504,"2":1.1690384568719532,"3":0.9544748187464137,"4":-2.6053078066369335,"5":-0.8315855365591279,"6":0.5695629747067287,"7":-1.4040154308591886,"8":-1.5308582233577213,"9":3.8828733156522977,"10":1.7134742301341963,"11":-1.2707929847748565,"12":3.3104809305285117}},{"sx":1,"sy":1,"depth":13,"w":{"0":-2.42173127398626,"1":0.4219152154233066,"2":-2.258932347795899,"3":-1.2974223836088725,"4":2.347694242075732,"5":-1.2717177575462895,"6":-1.2613816963365343,"7":0.560702898406444,"8":0.9279482667919092,"9":1.3493152930296355,"10":-1.2595486028204481,"11":-0.7022942045486168,"12":-0.4511238603559383}},{"sx":1,"sy":1,"depth":13,"w":{"0":3.4822733786643005,"1":-1.3644195939857473,"2":5.595087426885282,"3":1.0118664143577107,"4":-1.5525379832229167,"5":3.2872962904732335,"6":1.1235208394546625,"7":-1.7214766789600462,"8":-3.5829249559712255,"9":-3.6480586966380932,"10":5.678537458189604,"11":2.9327003229442794,"12":0.43376561847105466}},{"sx":1,"sy":1,"depth":13,"w":{"0":-0.5495981718884666,"1":3.478731873125722,"2":-0.7619530241120882,"3":-1.0717044594910752,"4":-0.5487819201360756,"5":-2.421369678573389,"6":-1.3219120008981187,"7":-1.224492324485113,"8":-1.969115072239934,"9":3.8923957583144766,"10":2.001563187262339,"11":-2.4192259564378698,"12":2.8633447791699025}},{"sx":1,"sy":1,"depth":13,"w":{"0":3.052648414287755,"1":0.32034206525169534,"2":0.22930540572450364,"3":-0.5209658107790992,"4":0.5254874905757109,"5":-1.7318018148411736,"6":-0.4806047244990196,"7":0.0019725571090362676,"8":0.3543060971973186,"9":0.38716298111779834,"10":0.14311884541149705,"11":-1.303561273793723,"12":0.37049198764580976}},{"sx":1,"sy":1,"depth":13,"w":{"0":-1.3198457278453937,"1":0.38553435532709596,"2":2.854637361586854,"3":-2.6477121980537714,"4":3.6638363796392808,"5":-0.4455056622556088,