{"out":[{"layers":[{"out_depth":2,"out_sx":1,"out_sy":1,"layer_type":"input"},{"out_depth":13,"out_sx":1,"out_sy":1,"layer_type":"fc","num_inputs":2,"l1_decay_mul":0,"l2_decay_mul":1,"filters":[{"sx":1,"sy":1,"depth":2,"w":{"0":-8.84750523299181,"1":2.066312242215061}},{"sx":1,"sy":1,"depth":2,"w":{"0":2.3492501117149027,"1":6.177049056625893}},{"sx":1,"sy":1,"depth":2,"w":{"0":4.602823159379951,"1":1.9425575261489854}},{"sx":1,"sy":1,"depth":2,"w":{"0":-7.194321201493195,"1":-1.1078846199556247}},{"sx":1,"sy":1,"depth":2,"w":{"0":-5.248840263942431,"1":-3.4102880999425618}},{"sx":1,"sy":1,"depth":2,"w":{"0":-5.214314974177259,"1":4.35164323904298}},{"sx":1,"sy":1,"depth":2,"w":{"0":0.9292266836022224,"1":-9.163163646623621}},{"sx":1,"sy":1,"depth":2,"w":{"0":-3.7260964086100485,"1":3.140506926784461}},{"sx":1,"sy":1,"depth":2,"w":{"0":2.920960886001865,"1":5.697652188459574}},{"sx":1,"sy":1,"depth":2,"w":{"0":-6.019524384848215,"1":1.4316445329472212}},{"sx":1,"sy":1,"depth":2,"w":{"0":4.810514537790178,"1":3.4383099782505853}},{"sx":1,"sy":1,"depth":2,"w":{"0":2.404663715988524,"1":4.659435035702855}},{"sx":1,"sy":1,"depth":2,"w":{"0":-5.234720957701929,"1":-4.294658523282599}}],"biases":{"sx":1,"sy":1,"depth":13,"w":{"0":-0.6287636024598336,"1":-15.36724882545489,"2":6.069700839589459,"3":1.0706223709814473,"4":2.6195727463523433,"5":2.0627890901106514,"6":8.227707677202474,"7":-1.3197672044681306,"8":1.0042828086831561,"9":-7.492222397758618,"10":-5.4135348884591385,"11":-5.170980922299008,"12":4.826959486186675}}},{"out_depth":13,"out_sx":1,"out_sy":1,"layer_type":"sigmoid"},{"out_depth":13,"out_sx":1,"out_sy":1,"layer_type":"fc","num_inputs":13,"l1_decay_mul":0,"l2_decay_mul":1,"filters":[{"sx":1,"sy":1,"depth":13,"w":{"0":2.2386863180882774,"1":1.3692291537675907,"2":-0.0541102857143367,"3":0.8073717254364552,"4":1.302247897039952,"5":2.496737473682428,"6":-1.738639871778636,"7":-0.9374038356031567,"8":0.8975267351164475,"9":0.8418534118295968,"10":-1.3371475407556657,"11":-0.4256385630323754,"12":1.7239889907925037}},{"sx":1,"sy":1,"depth":13,"w":{"0":2.9274781263823106,"1":0.027349292220891122,"2":2.4994240000199035,"3":-0.24815350774232364,"4":-3.0349694708551223,"5":-3.606860900029019,"6":-3.8611794226174667,"7":-2.5141192174164817,"8":-0.9172126470793998,"9":0.2073766743736754,"10":1.7267119998442113,"11":1.292414004036976,"12":-1.65802047180809}},{"sx":1,"sy":1,"depth":13,"w":{"0":3.1553762720853484,"1":-0.4573515096653824,"2":-0.6777290973211673,"3":1.1873994475023413,"4":-0.9253195375379808,"5":-0.04865818171055311,"6":-6.496607416038227,"7":0.3397446375738827,"8":-0.7204095842311234,"9":3.989903704477236,"10":0.019587229233024753,"11":1.3310845867392223,"12":-1.1708808128631485}},{"sx":1,"sy":1,"depth":13,"w":{"0":-3.065753334304664,"1":1.2123491773800255,"2":0.5531457313712097,"3":-3.4372957766567747,"4":-0.09506911634992998,"5":0.15908087990025183,"6":1.4021934037277326,"7":-0.508658672993648,"8":-0.52015721327557,"9":-0.976678107453846,"10":0.8009632006071308,"11":0.5488428331447003,"12":-0.25089907926354016}},{"sx":1,"sy":1,"depth":13,"w":{"0":0.589776031260355,"1":-0.17747599952610738,"2":-0.39853409048526506,"3":1.0021812025176786,"4":1.6635582022624884,"5":-0.5645547882939664,"6":5.97764777721587,"7":-0.6026763953829866,"8":-1.8788002557453702,"9":2.3634164352930918,"10":0.281841528747202,"11":-1.902194288498863,"12":-0.9747734183049107}},{"sx":1,"sy":1,"depth":13,"w":{"0":-1.453934254201363,"1":-0.14550306635982152,"2":0.107036590466503,"3":-0.8395296309968171,"4":-0.22305140979400842,"5":-1.1602777730429843,"6":3.988400395721093,"7":-2.5177029255818177,"8":-0.9233062234189846,"9":-0.4669537106989032,"10":-0.9512520698414975,"11":-1.4122056491857802,"12":0.9826115420178234}},{"sx":1,"sy":1,"depth":13,"w":{"0":-3.01232723101323,"1":-0.19261115906396156,"2":-1.1500753642406585,"3":2.9009004972776222,"4":5.165603563473234,"5":1.744703378589818,"6":1.3851296056164133,"7":-0.11599820063824325,"8":-0.9924161329239465,"9":-0.11469074617071653,"10":-3.2394276286409376,"11":-4.077818455485603,"12":5.320746545623044}},{"sx":1,"sy":1,"depth":13,"w":{"0":-3.2831693295792777,"1":1.7445845661935537,"2":0.4288983546573496,"3":-3.4884731321997404,"4":0.08073251887002095,"5":0.875679252125528,"6":2.033137524890494,"7":-0.652569536986841,"8":-1.4686560507248259,"9":-0.9310921844297991,"10":0.7028692896000279,"11":0.400521394290506,"12":0.16161645759591123}},{"sx":1,"sy":1,"depth":13,"w":{"0":0.17026445059253592,"1":3.2014484817389284,"2":-0.2044996811916619,"3":-1.298023423195441,"4":1.0732943730489248,"5":-2.0929068907168413,"6":0.3914829114863668,"7":-0.3026272494868368,"8":-2.7990584801510296,"9":3.5103472059056053,"10":-0.2837317996296778,"11":0.6914884382731976,"12":0.8372905653537033}},{"sx":1,"sy":1,"depth":13,"w":{"0":0.4794088646072971,"1":-5.9178505193690665,"2":2.0623558202208288,"3":-1.5491115467450132,"4":-0.10008453996411187,"5":0.1822803766093786,"6":-0.057051068489618925,"7":3.59370453374164,"8":2.7921485792116543,"9":-3.227411177969359,"10":-3.2726023841471235,"11":-2.3104729864275675,"12":0.0956279480949505}},{"sx":1,"sy":1,"depth":13,"w":{"0":2.2497381259942784,"1":8.116868592970043,"2":2.0710448323744335,"3":-1.4536069597530565,"4":0.6116411284547563,"5":-6.108309668203486,"6":-0.5611497532921506,"7":-1.4111386368189984,"8":-4.399736623879855,"9":7.526289601949966,"10":2.3516245734623027,"11":-2.534894147467263,"12":1.190946887139094}},{"sx":1,"sy":1,"depth":13,"w":{"0":2.321207350874022,"1":2.70447265093619,"2":-0.1166307406978323,"3":2.009594064032862,"4":-0.860656531669817,"5":-2.3461862129822686,"6":1.3833387273658333,"7":-3.2114929579497886,"8":5.741310681194328,"9":-4.521573156426631,"10":2.164781428085882,"11":-0.5243873183618659,"12":-0.06618660751600289}},{"sx":1,"sy":1,"depth":13,"w":{"0":1.8950051755920554,"1":0.9052032761041569,"2":-4.558118757038777,"3":-1.6154891516097332,"4":0.09525886142259112,"5":-2.7889652478228637,"6":-0.4954359179288584,"7":0.020983189740670594,"8":-1.98079452754402,"9":6.016714231626056,"10":5.729506856815091,"11":4.174765259374824,"12":-3.0134345984241344}}],"biases":{"sx":1,"sy":1,"depth":13,"w":{"0":-1.2967581507765769,"1":6.480249388540097,"2":0.29363822815372925,"3":1.9443794900939166,"4":-2.297413356696344,"5":0.7415742578066692,"6":-2.7528260836722094,"7":2.4018155936109857,"8":1.7396405954250778,"9":-1.6492018504027475,"10":2.7400995671147097,"11":-3.4154248264265488,"12":4.567162514298437}}},{"out_depth":13,"out_sx":1,"out_sy":1,"layer_type":"sigmoid"},{"out_depth":14,"out_sx":1,"out_sy":1,"layer_type":"fc","num_inputs":13,"l1_decay_mul":0,"l2_decay_mul":1,"filters":[{"sx":1,"sy":1,"depth":13,"w":{"0":-0.7674546996818081,"1":-0.44306359105796755,"2":-0.8472144400938315,"3":-0.9393292528604353,"4":-1.5861881506562023,"5":-0.6322682332102509,"6":1.7395097013762297,"7":-1.2577768983320328,"8":-2.4797222015832054,"9":4.104308939543787,"10":-3.3770584550254976,"11":2.2868521572260594,"12":5.555070437465441}},{"sx":1,"sy":1,"depth":13,"w":{"0":-0.4419898615380343,"1":-0.35269184809025694,"2":-0.2658968167201893,"3":-0.049997110983863724,"4":-0.06136460603531683,"5":-0.018212610466009416,"6":-0.1979908461725714,"7":-0.047823412105845974,"8":-0.030342868769262416,"9":-0.2010223563874799,"10":-0.07706051015373291,"11":-0.3461077783841018,"12":-0.28784703088595026}},{"sx":1,"sy":1,"depth":13,"w":{"0":0.7831599309675906,"1":-5.386025945282997,"2":-1.7183101284408264,"3":-1.1000398039396626,"4":3.4324415822708807,"5":-0.5467469170723742,"6":-1.4271783238106714,"7":-1.2210777048405117,"8":-1.6700855832589325,"9":-1.3836722615586132,"10":-3.2290227412188894,"11":5.540001143248448,"12":3.322785425643859}},{"sx":1,"sy":1,"depth":13,"w":{"0":-0.913612803659639,"1":2.8876009258030804,"2":0.008657489256564586,"3":-2.1218270306634457,"4":-0.059175426130232474,"5":2.158736588667656,"6":-9.243634593784616,"7":-2.1409948004417485,"8":-1.5473086100023228,"9":0.09213795716112626,"10":5.894904724571676,"11":4.473545270548137,"12":-10.246215306230896}},{"sx":1,"sy":1,"depth":13,"w":{"0":0.8372080977081753,"1":0.24900439922367315,"2":-0.6108148905108001,"3":-0.7395804323720128,"4":-1.556043733741715,"5":-0.8004572301248373,"6":2.3862644942286746,"7":-0.8112997948296462,"8":-0.6803678362368897,"9":-0.891375852429908,"10":-1.818534143963457,"11":0.40793881063532145,"12":1.065823818617816}},{"sx":1,"sy":1,"depth":13,"w":{"0":-1.4444467279870412,"1":6.645478908389573,"2":4.715226895992494,"3":-1.255655614928951,"4":-0.8660133428948404,"5":3.3169916611377968,"6":1.8728636692598823,"7":-1.405034002760316,"8":3.2188141043616763,"9":-0.43446995882788736,"10":4.663830270213735,"11":2.282152891621898,"12":-6.131922676300094}},{"sx":1,"sy":1,"depth":13,"w":{"0":-0.4452509872026252,"1":-0.33110333927522706,"2":-0.317290071552928,"3":-0.029872712143201002,"4":-0.09934269694968788,"5":-0.023164187352501798,"6":-0.13610762047886427,"7":-0.09236573818743811,"8":-0.08521592335457977,"9":-0.3289497175737434,"10":-0.07538062282126173,"11":-0.31290511874716537,"12":-0.2730518073720112}},{"sx":1,"sy":1,"depth":13,"w":{"0":4.995834009864297,"1":-1.276314325553266,"2":2.209863492992271,"3":2.6812961411923832,"4":-2.619016157221929,"5":2.059359919726505,"6":7.616806648093334,"7":4.164795880993035,"8":-0.40303759818128293,"9":-6.28260099669916,"10":-6.969903544838639,"11":-2.1258093538782994,"12":0.9731026370835578}},{"sx":1,"sy":1,"depth":13,"w":{"0":-0.4466016670465996,"1":-0.4149974500086246,"2":-0.2780956569674853,"3":-0.0985695183074474,"4":-0.0624386458206702,"5":-0.07769132126376478,"6":-0.21235153445259544,"7":-0.05730950756139293,"8":-0.08630910857557703,"9":-0.24369981549613107,"10":-0.06011661977805109,"11":-0.3211783470682435,"12":-0.2968057275636768}},{"sx":1,"sy":1,"depth":13,"w":{"0":1.0661197780705711,"1":-2.35018795246041,"2":3.2948789415186637,"3":-0.5936071970066845,"4":5.193752093661605,"5":-0.8538837951308652,"6":-4.671648365136639,"7":-0.8364313519078316,"8":0.6681690664121879,"9":4.081293064975029,"10":0.2795035047804735,"11":-3.7484173039794078,"12":1.471428526991275}},{"sx":1,"sy":1,"depth":13,"w":{"0":-0.4589490072576809,"1":-0.35925612841887167,"2":-0.283781655861642,"3":-0.09863262503017038,"4":-0.07355767357738387,"5":0.013836123487283258,"6":-0.17947864421772614,"7":-0.02147655329774697,"8":-0.11691222517056647,"9":-0.24589908155387186,"10":-0.0600291991156157,"11":-0.34665339803623113,"12":-0.2710790805503112}},{"sx":1,"sy":1,"depth":13,"w":{"0":-0.4450288030499364,"1":-0.3465150369318993,"2":-0.27213052051353026,"3":-0.04501103661127317,"4":-0.0990918920853415,"5":-0.02859122918955249,"6":-0.1991930198086015,"7":-0.08504206587498067,"8":-0.05230208599100296,"9":-0.2435745636351076,"10":-0.11117912997403777,"11":-0.3370265011142051,"12":-0.25242830326997656}},{"sx":1,"sy":1,"depth":13,"w":{"0":0.804461419997909,"1":1.154262575417367,"2":-3.7750332094675243,"3":2.049788626716667,"4":-2.6624259740066245,"5":-4.435350482152821,"6":1.409657977591806,"7":1.337356975682425,"8":-0.8055289397344723,"9":2.295547352669117,"10":-1.2238928391555461,"11":-0.29602344373855705,"12":-1.3651066093064446}},{"sx":1,"sy":1,"depth":13,"w":{"0":-3.12899078894237,"1":0.2402929062440101,"2":-1.9892014771831041,"3":2.2655565379212725,"4":1.036552042529384,"5":-0.03868562348411021,"6":1.1905393577298833,"7":2.4785920412397378,"8":4.159240732872961,"9":-0.28766860933021177,"10":6.268407417714084,"11":-7.266141274687036,"12":6.720531940371197}}],"biases":{"sx":1,"sy":1,"depth":14,"w":{"0":-2.0325650258409014,"1":-1.9295049633278114,"2":2.3275924047388745,"3":6.13526882420959,"4":1.4562523862585022,"5":-4.101441971768804,"6":-1.8577368078698073,"7":1.6553390353502173,"8":-1.781960029174313,"9":1.471423490474798,"10":-1.8458419182220234,"11":-1.9173386834390838,"12":1.28979840050877,"13":1.1307148581011572}}},{"out_depth":14,"out_sx":1,"out_sy":1,"layer_type":"softmax","num_inputs":14}]},{"layers":[{"out_depth":2,"out_sx":1,"out_sy":1,"layer_type":"input"},{"out_depth":13,"out_sx":1,"out_sy":1,"layer_type":"fc","num_inputs":2,"l1_decay_mul":0,"l2_decay_mul":1,"filters":[{"sx":1,"sy":1,"depth":2,"w":{"0":0.6371011405250466,"1":-7.102668735649937}},{"sx":1,"sy":1,"depth":2,"w":{"0":11.777062465646798,"1":-2.64281289904425}},{"sx":1,"sy":1,"depth":2,"w":{"0":6.046927219986628,"1":-4.135861755333235}},{"sx":1,"sy":1,"depth":2,"w":{"0":-0.4397840483355911,"1":-9.15272108814786}},{"sx":1,"sy":1,"depth":2,"w":{"0":3.997414699318464,"1":-6.16043522258248}},{"sx":1,"sy":1,"depth":2,"w":{"0":-4.662521590919818,"1":-5.947901850386003}},{"sx":1,"sy":1,"depth":2,"w":{"0":-5.14965186343717,"1":2.9922095255978736}},{"sx":1,"sy":1,"depth":2,"w":{"0":-0.23276569215539133,"1":-5.346296747408193}},{"sx":1,"sy":1,"depth":2,"w":{"0":-5.4642533516087575,"1":0.34463882248792194}},{"sx":1,"sy":1,"depth":2,"w":{"0":-7.458636990188243,"1":-0.04361910070249169}},{"sx":1,"sy":1,"depth":2,"w":{"0":-3.166666987468962,"1":3.3112520952872164}},{"sx":1,"sy":1,"depth":2,"w":{"0":8.204310092822078,"1":3.7263217139341807}},{"sx":1,"sy":1,"depth":2,"w":{"0":-9.459985245916426,"1":0.5438503893722764}}],"biases":{"sx":1,"sy":1,"depth":13,"w":{"0":0.02201900645265308,"1":-8.754793562987071,"2":-10.869674450579309,"3":11.861165937059825,"4":-15.77318682631007,"5":-4.822729911683041,"6":4.340109409816585,"7":-14.662512073442223,"8":8.540507112429829,"9":8.735701855131934,"10":7.178623182939596,"11":11.803444922389247,"12":6.266967989461965}}},{"out_depth":13,"out_sx":1,"out_sy":1,"layer_type":"sigmoid"},{"out_depth":13,"out_sx":1,"out_sy":1,"layer_type":"fc","num_inputs":13,"l1_decay_mul":0,"l2_decay_mul":1,"filters":[{"sx":1,"sy":1,"depth":13,"w":{"0":-2.744078727348799,"1":-1.5223614696008316,"2":3.215706773446624,"3":-10.137842336916039,"4":2.4493432666741644,"5":0.09334208512322481,"6":3.6473482119641583,"7":1.6655338106499686,"8":-2.997815294151297,"9":-2.4766348319971883,"10":-1.3993395625174818,"11":4.9172350469130635,"12":4.310722521428585}},{"sx":1,"sy":1,"depth":13,"w":{"0":-6.346902681676603,"1":-2.0609097615773195,"2":-0.2579549009125142,"3":-0.32432095845510145,"4":0.11695878628041133,"5":0.6666681969689022,"6":4.049749820467839,"7":0.9812507437954908,"8":-2.423264098440088,"9":0.15772666801910792,"10":0.5009198563009343,"11":-0.07697606360406743,"12":1.1437578149034693}},{"sx":1,"sy":1,"depth":13,"w":{"0":-3.335389864055833,"1":3.114658584921952,"2":-1.3430861467440958,"3":-0.3054215097559685,"4":-0.5239535055339667,"5":-2.946349828197956,"6":1.061114438117208,"7":0.05016772534248562,"8":1.6282404263529244,"9":-0.9419653802830131,"10":2.044900560979985,"11":0.09123740698733411,"12":-5.783672008327271}},{"sx":1,"sy":1,"depth":13,"w":{"0":0.3992667826923937,"1":1.0776251569460267,"2":-1.9774551669251454,"3":-2.3128712678751304,"4":0.36601902092608896,"5":0.776367153071108,"6":-0.805500610162498,"7":-0.694304867681799,"8":-2.6949788721267804,"9":-6.659551014896977,"10":2.12571468454786,"11":0.6814483075636748,"12":-0.9163462184515934}},{"sx":1,"sy":1,"depth":13,"w":{"0":0.1941476419792922,"1":-2.6394647308529833,"2":-0.42720954303434855,"3":0.19833002657424995,"4":2.5874020309010946,"5":1.7361230685537197,"6":-0.8387951439575192,"7":2.5534143765728374,"8":-0.20178823735072768,"9":-2.5532076412036377,"10":-1.3347874028288287,"11":-0.19164478211966482,"12":3.4408945095827517}},{"sx":1,"sy":1,"depth":13,"w":{"0":-0.10456924659124292,"1":4.081254262777227,"2":3.1625874196066888,"3":3.013626224657605,"4":2.9864814113769373,"5":0.007556331431819644,"6":-3.1056930645122245,"7":-1.7628571314047143,"8":-0.12413235640332862,"9":-1.2791185147142288,"10":-1.8942576743845494,"11":1.0651841557506696,"12":-2.0981321817230785}},{"sx":1,"sy":1,"depth":13,"w":{"0":1.8419255238453618,"1":-4.6387795582754725,"2":-3.2005618056928755,"3":5.539606055173518,"4":-4.508678033488406,"5":-2.43953142470342,"6":-0.6191426291300619,"7":-4.00240081347405,"8":-1.7836400136699182,"9":-1.0102367373649601,"10":2.637760409093114,"11":3.50722324708558,"12":1.0264653973684492}},{"sx":1,"sy":1,"depth":13,"w":{"0":-0.9677771870068829,"1":6.144743180049178,"2":1.3058486737638326,"3":-0.93293832198563,"4":3.3651074119117013,"5":1.6004125738939368,"6":0.04781401740143112,"7":2.6890184649905233,"8":0.3397036239086264,"9":0.1920135540408851,"10":-1.5902327063038284,"11":-7.281556920424747,"12":2.402064710427952}},{"sx":1,"sy":1,"depth":13,"w":{"0":0.9464628993587345,"1":-1.9045333175327521,"2":0.8186092183535078,"3":-1.1874890858784122,"4":-0.4092507830447952,"5":1.6041237532380572,"6":2.9493181354534954,"7":-1.027983274961757,"8":-6.22412307166243,"9":-2.727054715445712,"10":1.0863268355285882,"11":1.0254033079826845,"12":3.48424462361339}},{"sx":1,"sy":1,"depth":13,"w":{"0":-3.6657118728041618,"1":-1.430425932111258,"2":3.719577380332741,"3":-2.074986443092682,"4":0.9660096356946781,"5":7.149331083136,"6":0.4269139597039161,"7":0.6090798701343271,"8":-1.298694580573996,"9":-0.5391831429002552,"10":-3.2145166586562373,"11":0.6510593209261566,"12":3.1124319908049305}},{"sx":1,"sy":1,"depth":13,"w":{"0":5.587778510378796,"1":-1.2722973555560941,"2":-1.407673096644467,"3":0.4283038786069841,"4":4.506261301531362,"5":-2.1697279314599416,"6":-1.7787654614029411,"7":-0.8273077082951059,"8":-2.2242931936811705,"9":-2.813231121944043,"10":0.5335116960081857,"11":0.11576842615982971,"12":4.996734672945311}},{"sx":1,"sy":1,"depth":13,"w":{"0":-2.4342016707837533,"1":7.2616008394351494,"2":1.794275128629355,"3":0.3401794750146796,"4":-1.6082096030957038,"5":4.758834766664374,"6":-0.3107480983081962,"7":-3.0087262473082013,"8":-0.4592409587338227,"9":-1.423335409255849,"10":-0.7979407815640502,"11":1.7196015307397123,"12":-2.0164734416484293}},{"sx":1,"sy":1,"depth":13,"w":{"0":1.5868582672373597,"1":0.7435662591875896,"2":3.317728755653172,"3":-2.387094966153864,"4":-0.5551077480225984,"5":-1.9955506464385777,"6":0.30963789042745155,"7":5.504179924100455,"8":-2.853503737894907,"9":-4.295598265779479,"10":-1.2336901718425992,"11":0.4347287826167237,"12":-2.1378218541548817}}],"biases":{"sx":1,"sy":1,"depth":13,"w":{"0":5.186429375500134,"1":3.074081270206547,"2":0.33208180293841183,"3":4.331501922064973,"4":-1.204952258359841,"5":-1.0013726699167393,"6":-0.29888017530234945,"7":-3.0604725260557513,"8":2.209092357104014,"9":3.9724736960407165,"10":0.3100926486155632,"11":-1.487890946700541,"12":1.517043540432916}}},{"out_depth":13,"out_sx":1,"out_sy":1,"layer_type":"sigmoid"},{"out_depth":14,"out_sx":1,"out_sy":1,"layer_type":"fc","num_inputs":13,"l1_decay_mul":0,"l2_decay_mul":1,"filters":[{"sx":1,"sy":1,"depth":13,"w":{"0":-3.1267560533210714,"1":-1.424345851256215,"2":-1.4930572305593852,"3":6.4984771478131025,"4":-0.2628806490642052,"5":-0.46438674375956757,"6":1.8502424520111591,"7":0.8777609640878681,"8":-2.245151210709128,"9":-3.4797656058892765,"10":0.2610095256011293,"11":-6.002545939398671,"12":1.2932689173732723}},{"sx":1,"sy":1,"depth":13,"w":{"0":-0.05162924609591532,"1":-0.05241155600580138,"2":-0.08272267210467142,"3":-0.04354479822505047,"4":-0.14507840967647267,"5":-0.2708569583639714,"6":-0.19837101377668342,"7":-0.1109041279961525,"8":-0.039182106187370315,"9":-0.2293903019909206,"10":-0.25776823181802616,"11":-0.21095149880854955,"12":-0.017471629457913543}},{"sx":1,"sy":1,"depth":13,"w":{"0":2.8928811240401004,"1":-2.0344645402330266,"2":-1.9615511175218405,"3":-1.0983198895442723,"4":3.985957098736109,"5":-0.2654472133666135,"6":2.634656426331361,"7":3.584019458890173,"8":-1.6685464777286387,"9":3.6017836682080384,"10":-4.584895012014428,"11":2.3945382584718433,"12":-2.378084227778561}},{"sx":1,"sy":1,"depth":13,"w":{"0":-6.306015245355439,"1":5.3936991803789835,"2":1.4457925818880721,"3":0.6195594939347786,"4":-1.6307084344756604,"5":-1.7347288936370486,"6":-8.001711302112943,"7":-1.4460372396430956,"8":2.80196334482734,"9":-3.2588466731721386,"10":4.88642220056819,"11":4.7035470142239655,"12":-1.9844047912605605}},{"sx":1,"sy":1,"depth":13,"w":{"0":-0.7439112923782036,"1":-0.5175779501764664,"2":-3.0413291251824015,"3":-1.1291428315674081,"4":-3.3149569798853307,"5":1.4508815084709215,"6":-0.7606472657681119,"7":-1.7388713771547128,"8":-0.5976308554486773,"9":-0.5606504851133699,"10":-1.4755678676335269,"11":2.2645126941415863,"12":-0.7776164475997944}},{"sx":1,"sy":1,"depth":13,"w":{"0":-5.635881324720965,"1":-3.551440832135461,"2":6.848300485984485,"3":-6.977989034701011,"4":1.9231302638870924,"5":2.5253479421018636,"6":4.527618496410732,"7":2.0062514601305703,"8":0.3165898578824652,"9":4.491636901928396,"10":1.2215124085218367,"11":-1.0274797979843184,"12":7.0931823471166044}},{"sx":1,"sy":1,"depth":13,"w":{"0":-0.04953903475289145,"1":-0.05131240142178667,"2":-0.08616528005724634,"3":-0.040063691050919684,"4":-0.146332679898115,"5":-0.27916165267203846,"6":-0.20098172204733408,"7":-0.11077396968603014,"8":-0.04370192803034926,"9":-0.23214339508159884,"10":-0.26423775101990105,"11":-0.20999486078553553,"12":-0.01850927775248868}},{"sx":1,"sy":1,"depth":13,"w":{"0":1.9488172204822258,"1":0.2321545133619102,"2":-0.5587953587935546,"3":5.030305199830365,"4":1.2231903820584684,"5":-1.468566693172946,"6":-1.9872013053477016,"7":4.262429424527724,"8":-3.464062786647329,"9":-2.5662844484969503,"10":3.6609370159485843,"11":4.534723784971566,"12":-3.3455537437392984}},{"sx":1,"sy":1,"depth":13,"w":{"0":-0.05405553761264909,"1":-0.05271056704740395,"2":-0.08272537383910429,"3":-0.03602324972496058,"4":-0.13950402458871528,"5":-0.26766363902204077,"6":-0.18905047038905776,"7":-0.10903250617752783,"8":-0.045133101846305576,"9":-0.22099475932367943,"10":-0.2565030579438796,"11":-0.2063214244119919,"12":-0.01582939124903678}},{"sx":1,"sy":1,"depth":13,"w":{"0":6.6863578368794245,"1":1.11744748399947,"2":0.2941072222835719,"3":-1.15588827886016,"4":1.143413787314215,"5":4.944261927182275,"6":0.27167206549795353,"7":-1.8134723016190553,"8":-1.3141816431695268,"9":-4.010554745422446,"10":1.4124217804834858,"11":-2.8734263815929197,"12":-0.6730183585263434}},{"sx":1,"sy":1,"depth":13,"w":{"0":3.0763884775752026,"1":0.7175559890514537,"2":-0.23889647470622483,"3":-2.8166663956901385,"4":-1.5819566166875634,"5":0.6803135292980006,"6":-0.6153332861910391,"7":-4.62594543572008,"8":-0.7651447829387912,"9":3.711499276304357,"10":0.5196337668275784,"11":-0.8886963725794145,"12":-0.992032415181269}},{"sx":1,"sy":1,"depth":13,"w":{"0":-0.05211680901664452,"1":-0.048444627922579434,"2":-0.08600273029290116,"3":-0.040811731426116694,"4":-0.14259971518847278,"5":-0.2642471038929519,"6":-0.18981489883917868,"7":-0.10525434928144727,"8":-0.045454871492290015,"9":-0.22778461081850884,"10":-0.25527175883448094,"11":-0.20900554921004297,"12":-0.01286920092053064}},{"sx":1,"sy":1,"depth":13,"w":{"0":-1.1937939694255506,"1":-2.5697440980302675,"2":3.658447099515661,"3":-1.6277605703996427,"4":-0.17235739030465988,"5":-1.0565582891195975,"6":1.9428878691871105,"7":-0.11657040667455963,"8":-0.8816695453086056,"9":-0.7488771496398539,"10":-5.764189039808286,"11":-1.7832348091959331,"12":-1.0736259707285647}},{"sx":1,"sy":1,"depth":13,"w":{"0":2.5993002511850927,"1":2.8544204190987603,"2":-4.63016761657764,"3":2.822225775574414,"4":-0.7624700134882556,"5":-3.5350653335777436,"6":0.9121315821389889,"7":-0.5418477111254145,"8":8.001353658615404,"9":3.73379200249386,"10":0.865291474232918,"11":-0.5057990319278873,"12":2.8990753246469234}}],"biases":{"sx":1,"sy":1,"depth":14,"w":{"0":6.1335711065238865,"1":-2.7880405333072686,"2":-1.640346105641003,"3":6.649661424213679,"4":2.2340306164837664,"5":-5.494309933738269,"6":-2.757566109735793,"7":-0.12365760195596853,"8":-2.8275744626857646,"9":0.017106805130482815,"10":1.5492941696459288,"11":-2.8207852531320956,"12":4.343698006157364,"13":-2.475082127958689}}},{"out_depth":14,"out_sx":1,"out_sy":1,"layer_type":"softmax","num_inputs":14}]},{"layers":[{"out_depth":2,"out_sx":1,"out_sy":1,"layer_type":"input"},{"out_depth":13,"out_sx":1,"out_sy":1,"layer_type":"fc","num_inputs":2,"l1_decay_mul":0,"l2_decay_mul":1,"filters":[{"sx":1,"sy":1,"depth":2,"w":{"0":-5.217330742554968,"1":1.1505184956954806}},{"sx":1,"sy":1,"depth":2,"w":{"0":-3.9984755951050586,"1":-0.09044958297155845}},{"sx":1,"sy":1,"depth":2,"w":{"0":5.192856173077456,"1":5.872904558521805}},{"sx":1,"sy":1,"depth":2,"w":{"0":-5.365964877731657,"1":2.862150315900404}},{"sx":1,"sy":1,"depth":2,"w":{"0":-2.8336081557472217,"1":-2.1199756422537854}},{"sx":1,"sy":1,"depth":2,"w":{"0":-5.980950865338261,"1":-1.626832985305931}},{"sx":1,"sy":1,"depth":2,"w":{"0":2.413164810481915,"1":6.166120628194292}},{"sx":1,"sy":1,"depth":2,"w":{"0":4.89625034148473,"1":-3.091740712316715}},{"sx":1,"sy":1,"depth":2,"w":{"0":-5.860297335364152,"1":-7.54015944416494}},{"sx":1,"sy":1,"depth":2,"w":{"0":5.1959078281468445,"1":-10.584430531359295}},{"sx":1,"sy":1,"depth":2,"w":{"0":7.019930900883831,"1":0.8316524374272489}},{"sx":1,"sy":1,"depth":2,"w":{"0":0.8911235741747969,"1":-7.302436543101134}},{"sx":1,"sy":1,"depth":2,"w":{"0":-4.6735086292179435,"1":3.115088073528333}}],"biases":{"sx":1,"sy":1,"depth":13,"w":{"0":3.2697221208241865,"1":9.700745987036079,"2":-2.516545658407367,"3":-10.120369248041985,"4":-3.3711456493535237,"5":-1.2802999801727593,"6":0.9232808608366612,"7":-5.492276825575324,"8":7.637936884784208,"9":4.936433074657021,"10":-2.8089877084968737,"11":15.070236609931587,"12":6.723736883485126}}},{"out_depth":13,"out_sx":1,"out_sy":1,"layer_type":"sigmoid"},{"out_depth":13,"out_sx":1,"out_sy":1,"layer_type":"fc","num_inputs":13,"l1_decay_mul":0,"l2_decay_mul":1,"filters":[{"sx":1,"sy":1,"depth":13,"w":{"0":-3.4560317050305276,"1":-2.0395444344033615,"2":-2.873257339152526,"3":4.479816542403665,"4":2.123600856293414,"5":-0.5013419262230482,"6":-1.2001988068586849,"7":-2.431196531034068,"8":0.5789041695251924,"9":5.778637923494734,"10":2.1793406325115603,"11":-6.544900139898369,"12":1.4563078405705836}},{"sx":1,"sy":1,"depth":13,"w":{"0":-2.7835621673344204,"1":4.8905111057176525,"2":-2.5699180336368155,"3":0.13837728303855232,"4":-0.10946971482040131,"5":1.4002507910608997,"6":-0.02213071148612189,"7":-5.151867354190719,"8":4.438835564434826,"9":2.577940214807851,"10":1.9663631630505674,"11":4.278633345282696,"12":1.6426275850485461}},{"sx":1,"sy":1,"depth":13,"w":{"0":3.38334244809152,"1":-1.3993285557677022,"2":-5.339398590665823,"3":-0.8937117155918795,"4":2.9241356534362177,"5":1.035512217282391,"6":3.501374388852394,"7":-2.2149666782583926,"8":1.3095414316163638,"9":4.0598175102610154,"10":5.607301328044892,"11":-5.811522506498009,"12":-2.967449869361294}},{"sx":1,"sy":1,"depth":13,"w":{"0":0.15849663916938114,"1":2.0786255433979033,"2":2.992613955189553,"3":-0.38025675617784915,"4":-1.5409116609194091,"5":-1.2369120965294802,"6":0.9358214487869471,"7":0.6120085251829709,"8":-1.1338688805354273,"9":-0.4511360069954713,"10":-1.7072084845121809,"11":0.1809601897461538,"12":-0.06644340699325393}},{"sx":1,"sy":1,"depth":13,"w":{"0":3.788156720688617,"1":0.11389910771442825,"2":4.545240738800833,"3":-1.3908573383057001,"4":1.7692865054166405,"5":1.6997983340040141,"6":-0.7386175579695887,"7":-0.052853732262733426,"8":-1.7484962272075204,"9":4.241933698386499,"10":-3.2471050225350173,"11":-4.405734940259994,"12":-2.2261130976432555}},{"sx":1,"sy":1,"depth":13,"w":{"0":3.2945800183627054,"1":-0.40330628790464174,"2":1.689711750143986,"3":-1.43435142047457,"4":1.2830259109594178,"5":2.2908618255860445,"6":-1.3017310243237792,"7":3.40138566024259,"8":0.10336549514055067,"9":4.6356067003427555,"10":-1.4136197284660241,"11":-0.506456867786288,"12":-3.0289806876763343}},{"sx":1,"sy":1,"depth":13,"w":{"0":0.3788735627847383,"1":0.8843539496993896,"2":1.759095553085838,"3":-0.6445646567825853,"4":-0.9322155860786601,"5":-0.43087001112094486,"6":-0.3212559725375809,"7":-0.5415920128013755,"8":0.3157274138030297,"9":-0.6600233662917991,"10":-0.5654386945275078,"11":-0.9430669170442106,"12":0.4315228823995143}},{"sx":1,"sy":1,"depth":13,"w":{"0":-0.5777662304419414,"1":-1.0674899645817706,"2":-0.2572738141561706,"3":5.152544673972698,"4":0.8442195513163664,"5":-0.292128634981873,"6":-0.27412197627567253,"7":2.408432949433559,"8":1.7567602256158414,"9":-0.6078072361592066,"10":-1.4303615090872843,"11":-1.8273333325031564,"12":-1.875454254003116}},{"sx":1,"sy":1,"depth":13,"w":{"0":3.2728529414434346,"1":-1.468204100850657,"2":-1.195912798575336,"3":-0.8022314092288148,"4":-1.2783114672400424,"5":-3.4077880481752203,"6":1.2889008327346412,"7":1.6511869805288413,"8":1.2401749464988185,"9":-4.292630208490311,"10":2.424579306157713,"11":-4.5546200828022645,"12":0.03332297395874733}},{"sx":1,"sy":1,"depth":13,"w":{"0":5.216909669487365,"1":-0.15708638207832382,"2":-0.6542428501931213,"3":1.5982056589702356,"4":-1.1758526170027817,"5":-3.15614236334922,"6":-0.12231992366933701,"7":0.43977149628734413,"8":4.990926573205727,"9":7.375442287554263,"10":4.937347826630978,"11":-7.142162677535805,"12":-3.1424905479637872}},{"sx":1,"sy":1,"depth":13,"w":{"0":0.28380769762218755,"1":-0.18054711816782065,"2":0.491286717828534,"3":0.04074731805277946,"4":0.29899896913861107,"5":-0.0015940080079242186,"6":3.0340168199621007,"7":-1.1702548455859088,"8":-0.5885149278892398,"9":-0.3691473317672558,"10":0.8575935087239832,"11":0.12369405844338233,"12":2.420807506108071}},{"sx":1,"sy":1,"depth":13,"w":{"0":6.235942557100906,"1":-1.2408959916738889,"2":-2.9963900474200638,"3":0.31917477187791815,"4":0.4625251625590604,"5":0.5751392241193711,"6":-3.646868809175622,"7":-0.6140031433938777,"8":1.0195511276020197,"9":1.6189950273961058,"10":-0.577927104109118,"11":-0.19048769828313106,"12":0.9249596664739301}},{"sx":1,"sy":1,"depth":13,"w":{"0":0.8769108257759417,"1":-0.49915068877652247,"2":3.8539156046398806,"3":-1.769702894983563,"4":0.38221619123764683,"5":3.864235527706942,"6":1.7316823304882984,"7":-1.958061973033757,"8":-3.735269717470373,"9":5.429256977580505,"10":-3.5250911736708312,"11":-8.226330790235147,"12":2.714759564652825}}],"biases":{"sx":1,"sy":1,"depth":13,"w":{"0":5.058474901449633,"1":-6.946821131502783,"2":0.9574465569139322,"3":-0.5797449974247239,"4":0.630631482601678,"5":-0.6785344695343106,"6":-0.013987695403111766,"7":1.721788569921135,"8":1.6730426527247517,"9":1.808338311456672,"10":-0.011403542927039888,"11":3.2522324950172905,"12":3.150421767476553}}},{"out_depth":13,"out_sx":1,"out_sy":1,"layer_type":"sigmoid"},{"out_depth":14,"out_sx":1,"out_sy":1,"layer_type":"fc","num_inputs":13,"l1_decay_mul":0,"l2_decay_mul":1,"filters":[{"sx":1,"sy":1,"depth":13,"w":{"0":-0.026218599011756976,"1":-0.20100574566823085,"2":-0.18439243933636731,"3":-0.3555205195146494,"4":-0.0435600591446697,"5":-0.18088148633633563,"6":-0.24849947802578476,"7":-0.05819233954109761,"8":-0.09384867956641774,"9":-0.12777694448728577,"10":-0.3146353500882948,"11":-0.18368096540908901,"12":-0.21800934644452546}},{"sx":1,"sy":1,"depth":13,"w":{"0":-0.08665108601928995,"1":-0.28337028963620337,"2":-0.0995280503864448,"3":-0.2829932784387725,"4":-0.0745425242069297,"5":-0.06347288724622956,"6":-0.2591576964910808,"7":-0.0746318419485267,"8":-0.10078357036697,"9":-0.1472567067643244,"10":-0.29509787844638286,"11":-0.011952060602544303,"12":-0.19261291133146888}},{"sx":1,"sy":1,"depth":13,"w":{"0":-2.7233487945220047,"1":-4.048574573238922,"2":-0.8383595009156809,"3":0.5386985359356476,"4":4.2089851818102355,"5":2.379438004134161,"6":-0.4335649639272365,"7":-0.8613743585704466,"8":5.420309897729291,"9":1.781137897109076,"10":0.5288225204615045,"11":0.895790483989208,"12":-3.2654779646488272}},{"sx":1,"sy":1,"depth":13,"w":{"0":-0.19997641264690985,"1":3.280359812129336,"2":-2.9736566640244817,"3":0.3254207137886988,"4":-3.1196530966412577,"5":2.2123577794729203,"6":0.46983542228442826,"7":-1.7787978605275765,"8":3.548385906954363,"9":-3.6804003655542497,"10":0.4491641991329986,"11":-1.8969470093168848,"12":5.64653149434831}},{"sx":1,"sy":1,"depth":13,"w":{"0":0.013332865338134407,"1":-0.1806151206009709,"2":-0.1311356607234456,"3":-0.30423197169796945,"4":-0.13934105496551147,"5":-0.18261961706833285,"6":-0.24695681270891745,"7":0.013826856257852429,"8":-0.08551096148211072,"9":-0.10118394836410068,"10":-0.2536868766463519,"11":-0.04244941399638474,"12":-0.2485326692834443}},{"sx":1,"sy":1,"depth":13,"w":{"0":5.749529283036243,"1":1.9991280990528844,"2":-5.544092471519705,"3":2.743253858881099,"4":-5.129530924302591,"5":-6.63206206270846,"6":1.4761941928657225,"7":5.375217943419823,"8":3.5059541480746885,"9":8.988689918808493,"10":-3.2084933174090473,"11":4.064409503023416,"12":-1.9508723668177927}},{"sx":1,"sy":1,"depth":13,"w":{"0":-0.07669174138714878,"1":-0.19200684096085163,"2":-0.08225549820914704,"3":-0.3783917448901474,"4":-0.0495962013676309,"5":-0.04726750164724281,"6":-0.3465702929892807,"7":-0.09587500270126331,"8":-0.08424747087494264,"9":-0.15115923872196083,"10":-0.18071288004819086,"11":-0.12092148157103912,"12":-0.2176024351209522}},{"sx":1,"sy":1,"depth":13,"w":{"0":-6.938334103713782,"1":1.0916057980840157,"2":0.07206559874068337,"3":-1.653251883346837,"4":5.57962771554298,"5":4.594729851691357,"6":0.28229316319862857,"7":-2.0199700100719897,"8":-6.138239055788488,"9":0.8354616916514577,"10":0.1714523253790181,"11":2.285701060165676,"12":3.864426179795907}},{"sx":1,"sy":1,"depth":13,"w":{"0":-0.09828494619987596,"1":-0.26381931929111613,"2":-0.10847160583921518,"3":-0.3523822169591424,"4":-0.07910224289672631,"5":-0.08664622796865529,"6":-0.27684282322335557,"7":-0.03942218072154253,"8":-0.1273488638485399,"9":-0.14991023948026633,"10":-0.29116061857737896,"11":-0.10653326793992438,"12":-0.2602555389514402}},{"sx":1,"sy":1,"depth":13,"w":{"0":0.13822738906428378,"1":4.220260035466866,"2":-0.1701212187445453,"3":1.625890098406749,"4":-0.6796790879522269,"5":1.5396777190849529,"6":0.45086214831726446,"7":1.3196423369414534,"8":1.4303136972699229,"9":0.8384402689049085,"10":0.6487745618114744,"11":-6.287658442203061,"12":-4.700169029777862}},{"sx":1,"sy":1,"depth":13,"w":{"0":-0.07392287120629669,"1":-0.25953512072605506,"2":-0.06147501267167612,"3":-0.2855328295926652,"4":-0.17313636395091891,"5":-0.13172530467636864,"6":-0.3393500647515137,"7":-0.07960237084595556,"8":-0.0880296696789597,"9":-0.05605241229077304,"10":-0.18463153915636005,"11":-0.1226138678191226,"12":-0.25292326347328054}},{"sx":1,"sy":1,"depth":13,"w":{"0":-0.10160261299140065,"1":-0.2804606368548012,"2":-0.09323254620265406,"3":-0.34829505867404587,"4":0.004346410803105708,"5":-0.20654851622253922,"6":-0.23662372410626403,"7":-0.06211476312853452,"8":-0.17836047627510718,"9":-0.06058726286535074,"10":-0.22982637250473759,"11":-0.10320451782192559,"12":-0.25278392953580703}},{"sx":1,"sy":1,"depth":13,"w":{"0":-2.055264595647116,"1":3.4921412704315813,"2":-1.7601256218911587,"3":0.30338949582798636,"4":-2.3407701008120534,"5":-3.993470833843976,"6":0.5955375102220144,"7":-0.39093718693867985,"8":-3.0462246254492436,"9":-1.961714178279679,"10":0.4178563481244411,"11":-3.400020162285321,"12":3.5419101709476806}},{"sx":1,"sy":1,"depth":13,"w":{"0":6.497716194320591,"1":-8.248429429065002,"2":11.861300719884792,"3":-1.8174840882376586,"4":1.8592657080366897,"5":0.7840034049278771,"6":-0.9386661289976278,"7":-1.2295207738058784,"8":-3.6505368393288067,"9":-5.649807042518494,"10":2.841948164658832,"11":5.061419945581046,"12":-1.6902157933489441}}],"biases":{"sx":1,"sy":1,"depth":14,"w":{"0":-1.0580335033743475,"1":-1.2577416334794858,"2":0.2618078206818338,"3":0.2850641245549701,"4":-1.3591443170762243,"5":-2.405801474338616,"6":-1.2250864923234375,"7":-0.9271418190935191,"8":-0.9739179361728779,"9":2.228908287934534,"10":-1.2607067006964632,"11":-1.1471627265443036,"12":1.0625958696208944,"13":7.77636050030679}}},{"out_depth":14,"out_sx":1,"out_sy":1,"layer_type":"softmax","num_inputs":14}]},{"layers":[{"out_depth":2,"out_sx":1,"out_sy":1,"layer_type":"input"},{"out_depth":13,"out_sx":1,"out_sy":1,"layer_type":"fc","num_inputs":2,"l1_decay_mul":0,"l2_decay_mul":1,"filters":[{"sx":1,"sy":1,"depth":2,"w":{"0":-4.191131244280817,"1":9.717906215534017}},{"sx":1,"sy":1,"depth":2,"w":{"0":1.6933897353482572,"1":-8.883212846610567}},{"sx":1,"sy":1,"depth":2,"w":{"0":-6.305109218665697,"1":2.4604582229915968}},{"sx":1,"sy":1,"depth":2,"w":{"0":-8.586490687482053,"1":-1.577533695684532}},{"sx":1,"sy":1,"depth":2,"w":{"0":0.09766909862791096,"1":-8.650463152854355}},{"sx":1,"sy":1,"depth":2,"w":{"0":2.7813886944310617,"1":-6.402228615573548}},{"sx":1,"sy":1,"depth":2,"w":{"0":-6.382031366840097,"1":3.2983446475917773}},{"sx":1,"sy":1,"depth":2,"w":{"0":4.303984311584874,"1":-4.923994415109968}},{"sx":1,"sy":1,"depth":2,"w":{"0":4.701655787396207,"1":1.1650975117855709}},{"sx":1,"sy":1,"depth":2,"w":{"0":-1.3752623048742596,"1":7.67614311011116}},{"sx":1,"sy":1,"depth":2,"w":{"0":4.511703606546456,"1":5.893951792154202}},{"sx":1,"sy":1,"depth":2,"w":{"0":2.1150139204220464,"1":-6.036800807342254}},{"sx":1,"sy":1,"depth":2,"w":{"0":-6.5553376950082844,"1":2.4958450016738287}}],"biases":{"sx":1,"sy":1,"depth":13,"w":{"0":12.300952440697218,"1":-9.228829617558704,"2":-4.038589122402595,"3":-5.084629851351834,"4":-4.12760200666203,"5":-1.4445783961225438,"6":7.322430770779452,"7":1.85102580557584,"8":-4.216262841364964,"9":-8.692739332649243,"10":-9.235119127058683,"11":-4.482005190333357,"12":5.497824392391434}}},{"out_depth":13,"out_sx":1,"out_sy":1,"layer_type":"sigmoid"},{"out_depth":13,"out_sx":1,"out_sy":1,"layer_type":"fc","num_inputs":13,"l1_decay_mul":0,"l2_decay_mul":1,"filters":[{"sx":1,"sy":1,"depth":13,"w":{"0":1.4135117401469794,"1":-3.718560597101643,"2":0.4605571456497858,"3":-4.0033608037888895,"4":0.9626181239466007,"5":-0.4706490665043992,"6":0.27872305650202955,"7":-0.9373654563561605,"8":5.798933737015,"9":0.5278689118927626,"10":0.6555995489014975,"11":-0.43387862795643045,"12":-0.0558389745418218}},{"sx":1,"sy":1,"depth":13,"w":{"0":-3.7396978923928854,"1":-2.749615606243549,"2":-0.09882916407183821,"3":-0.06232056995795244,"4":-2.2211688987994846,"5":-2.86432978104417,"6":-3.7980276872658383,"7":4.302140603588784,"8":0.05233254108086487,"9":6.925830212466461,"10":0.9892037395546285,"11":1.7062099936576598,"12":0.6952804437123558}},{"sx":1,"sy":1,"depth":13,"w":{"0":0.6869163774732469,"1":-0.07437859152577352,"2":-0.12535575975191854,"3":-0.6798762194047954,"4":-1.1942545918252072,"5":-7.476501328919508,"6":-0.6925780081108469,"7":-0.5288928882094958,"8":0.0640426956290884,"9":0.9399117485803132,"10":2.5668680921723985,"11":-2.4517384621839216,"12":0.7773024523512146}},{"sx":1,"sy":1,"depth":13,"w":{"0":0.07858124598876057,"1":3.758760998235254,"2":5.618123483750255,"3":-6.944611954049956,"4":6.339263199513863,"5":-1.3385250557355293,"6":0.8811684780459342,"7":-1.2924107909467906,"8":0.7091440337554538,"9":-0.08772171899935527,"10":-2.515442974399102,"11":-1.1264250322475085,"12":1.274053003105434}},{"sx":1,"sy":1,"depth":13,"w":{"0":-0.06971878837892781,"1":1.2717657191461453,"2":1.7882959592362868,"3":1.0076446644446961,"4":0.2912333486858458,"5":-0.9865959689764063,"6":-4.837955221426978,"7":-5.241205061542675,"8":-2.4975291601227583,"9":6.171262964757458,"10":-0.9897139031520418,"11":0.10921043470376429,"12":-1.886898297938785}},{"sx":1,"sy":1,"depth":13,"w":{"0":-2.3844358844132665,"1":3.8955383693142767,"2":0.6884546240868791,"3":1.0384511784729913,"4":5.99838998375726,"5":1.1498717514377284,"6":1.6009365422938637,"7":0.20936124292642333,"8":-3.2082796550829493,"9":-0.13420086719622273,"10":-3.193225168965481,"11":1.685767746070156,"12":0.43808080144863765}},{"sx":1,"sy":1,"depth":13,"w":{"0":-0.482220670710598,"1":1.1764481242133304,"2":-5.06671519135714,"3":-0.782212432836259,"4":0.8311335512789227,"5":0.5707533347823375,"6":-1.1818332665200662,"7":0.6649280375764324,"8":0.31457576396716624,"9":4.122416519851568,"10":-1.4675649497051833,"11":2.81968197194013,"12":-0.7777868599695499}},{"sx":1,"sy":1,"depth":13,"w":{"0":0.5626199977234102,"1":-5.244203578910671,"2":1.8324185866844809,"3":0.8581809538881524,"4":1.6347950515325864,"5":-4.693468792859379,"6":3.6555114345339583,"7":0.68223150404289,"8":-0.3359367708836715,"9":-1.0843645620843732,"10":0.8131925281545707,"11":-2.6886669519988513,"12":1.614284455090286}},{"sx":1,"sy":1,"depth":13,"w":{"0":3.7692980273856977,"1":-4.277387682847402,"2":1.4535793772634118,"3":-1.3252251829998902,"4":-2.0451892762438937,"5":-0.9196335491984088,"6":-1.9811401265373627,"7":0.5431972533038223,"8":-0.34015414103219815,"9":-3.4961372265248687,"10":-0.1057632569213795,"11":-3.6124766318230295,"12":1.8780155628755424}},{"sx":1,"sy":1,"depth":13,"w":{"0":-4.6741502118435845,"1":2.5280140335760346,"2":3.2758713013139666,"3":-1.2693157946886469,"4":0.6457398731227338,"5":-2.938044099795746,"6":-3.3646946680246055,"7":7.191439558927364,"8":2.619102663302087,"9":-1.8862680609112912,"10":0.7921169814807839,"11":0.6179877565649392,"12":0.32814321698677934}},{"sx":1,"sy":1,"depth":13,"w":{"0":6.188337588169335,"1":-2.401718180504966,"2":-1.7204894025028803,"3":3.2961627367807087,"4":1.858627001680316,"5":1.7599939480012656,"6":-0.8645517431222933,"7":2.3562726358631623,"8":3.850659945440697,"9":2.321925925845346,"10":-6.328541161438846,"11":-1.4243149547462444,"12":-4.027779559935607}},{"sx":1,"sy":1,"depth":13,"w":{"0":-2.7257260635985294,"1":0.8992113835278256,"2":0.39573566727105763,"3":5.136818361830691,"4":1.4822082618038386,"5":0.6737055950168536,"6":-3.9316465986869975,"7":-0.7034032482228579,"8":-1.4919543874673578,"9":-0.06863933736232708,"10":-6.066866341060585,"11":1.592700812843237,"12":-3.4027620680900243}},{"sx":1,"sy":1,"depth":13,"w":{"0":-4.195985163539127,"1":3.3404623832709754,"2":-0.8238657037473791,"3":2.936159641267513,"4":-0.495621003486127,"5":-1.143001604515375,"6":4.102080016452862,"7":2.962036671648846,"8":3.9890107242955013,"9":-5.837295723473899,"10":4.022042177247549,"11":-5.2826099793839685,"12":0.9017723737144144}}],"biases":{"sx":1,"sy":1,"depth":13,"w":{"0":0.8368048348033166,"1":-2.4610501653957457,"2":2.933616496681718,"3":-1.9208786218990026,"4":3.894569494482975,"5":0.4951181600643141,"6":0.36579689569975943,"7":-1.8321013172342642,"8":0.020751326317652936,"9":-0.6080805107285978,"10":-2.9075571125893194,"11":1.011293455124292,"12":-2.6352635941008287}}},{"out_depth":13,"out_sx":1,"out_sy":1,"layer_type":"sigmoid"},{"out_depth":14,"out_sx":1,"out_sy":1,"layer_type":"fc","num_inputs":13,"l1_decay_mul":0,"l2_decay_mul":1,"filters":[{"sx":1,"sy":1,"depth":13,"w":{"0":0.26874189436324036,"1":-3.4858457294768894,"2":2.7606946671249846,"3":1.0403549576739828,"4":-0.5027915804532935,"5":3.9930526375174655,"6":-1.2626103867160448,"7":-2.696241776294927,"8":1.872250745320735,"9":1.9420588394240834,"10":-3.9442405815355013,"11":-7.321953402325377,"12":5.1003633742876}},{"sx":1,"sy":1,"depth":13,"w":{"0":-0.19843690501295122,"1":-0.06778306503643687,"2":-0.10333494252688151,"3":-0.10706023432215823,"4":-0.01278040912171756,"5":-0.16940910071840365,"6":-0.19812528604037682,"7":-0.1091829806558453,"8":-0.13949499700055848,"9":-0.1838982956766086,"10":-0.24459699027155385,"11":-0.047035480867648964,"12":-0.17912883820956113}},{"sx":1,"sy":1,"depth":13,"w":{"0":-1.4229908268960187,"1":-0.38083530468223625,"2":0.6799256619445464,"3":-1.4419236936584514,"4":-0.4604132206548196,"5":1.703896107256972,"6":-1.7144371958842501,"7":1.3798869436287926,"8":1.4711229339737293,"9":-1.3901352200960202,"10":0.3356246210666893,"11":-0.3021508351161033,"12":1.0642348301227695}},{"sx":1,"sy":1,"depth":13,"w":{"0":-4.29125416091953,"1":-4.160275510589256,"2":-0.4866786252739433,"3":-0.7534842415779195,"4":0.25163649161353,"5":-3.532473163881592,"6":0.47648364406323485,"7":7.2116301992768985,"8":-4.961821199888927,"9":5.594574551017208,"10":6.352137909708006,"11":1.1150119131192382,"12":0.36630672970829065}},{"sx":1,"sy":1,"depth":13,"w":{"0":1.1930934040424424,"1":-1.5278750298078696,"2":-2.20377470233318,"3":-0.819980040451257,"4":-0.3734213347850001,"5":0.8009566777914259,"6":1.6860343191815492,"7":-1.981151642022177,"8":-1.6895160822032396,"9":3.054700206457984,"10":2.146475021406228,"11":-2.251836907802147,"12":-3.7020067952345297}},{"sx":1,"sy":1,"depth":13,"w":{"0":2.399687218365967,"1":6.973593953831833,"2":-6.2142006773872245,"3":8.997830320270896,"4":-6.477218350505292,"5":-6.334323035621475,"6":2.8469147508744594,"7":0.8478890639233175,"8":2.3160896350300657,"9":-7.371489869064757,"10":-0.030573445403829932,"11":2.055951237467639,"12":6.101092489634759}},{"sx":1,"sy":1,"depth":13,"w":{"0":-0.18554882790458588,"1":-0.07159981040733486,"2":-0.10956445334706044,"3":-0.08293563533596444,"4":-0.009898659446664763,"5":-0.19109862021003166,"6":-0.20941136883348466,"7":-0.10243108262348,"8":-0.1403862972611617,"9":-0.1963733608122871,"10":-0.24184954937962788,"11":-0.04179842950195957,"12":-0.1839075655703861}},{"sx":1,"sy":1,"depth":13,"w":{"0":-1.3199858712031671,"1":4.353483239750136,"2":-0.37817872944945113,"3":-6.514055869586105,"4":-2.0718759292302718,"5":4.794822390858293,"6":2.1631253268027146,"7":-2.4727903365450703,"8":0.9631665224286805,"9":-2.639715623204671,"10":1.1305579680118936,"11":-1.9736543800477275,"12":-0.42817069146578973}},{"sx":1,"sy":1,"depth":13,"w":{"0":-0.19070721569119056,"1":-0.06341590369528267,"2":-0.11993996516945515,"3":-0.1047600482255005,"4":-0.021037137912130497,"5":-0.19119780635632413,"6":-0.19352602008074304,"7":-0.10582966699676603,"8":-0.14425035782767043,"9":-0.2055610738633918,"10":-0.2535196140029325,"11":-0.04212218455699231,"12":-0.1677434595080206}},{"sx":1,"sy":1,"depth":13,"w":{"0":-0.180122439313081,"1":-0.07290155221820412,"2":-0.10380258087664193,"3":-0.08345830447178408,"4":-0.01812968607189804,"5":-0.18260115346735226,"6":-0.21391605676358705,"7":-0.12321510708255833,"8":-0.14864083505154796,"9":-0.1873709113247351,"10":-0.2392748716356572,"11":-0.03550029288969678,"12":-0.16222020521130437}},{"sx":1,"sy":1,"depth":13,"w":{"0":-0.1941890492083304,"1":-0.06837723804796039,"2":-0.10538266916115377,"3":-0.09359086817374866,"4":-0.02048262249614053,"5":-0.18412933092788633,"6":-0.2116638219050522,"7":-0.1120918461146678,"8":-0.1391052014219549,"9":-0.16968132475444334,"10":-0.21894482846280774,"11":-0.04889828821693194,"12":-0.1857730417630396}},{"sx":1,"sy":1,"depth":13,"w":{"0":-0.1589907018933572,"1":-0.06393534092306817,"2":-0.11035469457358946,"3":-0.09462308175211298,"4":-0.01543503468629811,"5":-0.18242927354817623,"6":-0.22685799692537076,"7":-0.08862697965410733,"8":-0.1595892699139513,"9":-0.19088745375162866,"10":-0.23845672247750085,"11":-0.053934279366842544,"12":-0.17187442957024116}},{"sx":1,"sy":1,"depth":13,"w":{"0":0.10129638836073968,"1":2.7416249127603556,"2":0.9115133647596432,"3":-0.29690719053774756,"4":3.4401261113124444,"5":-0.6110313072513337,"6":0.9183424830880829,"7":-0.40166779789486406,"8":-0.06605660042494751,"9":2.347745452693912,"10":-0.2691301377181171,"11":-0.1336231642294084,"12":-3.8110268980750024}},{"sx":1,"sy":1,"depth":13,"w":{"0":4.188824242914506,"1":-4.1318556286819845,"2":5.555269145928432,"3":0.40975127006392603,"4":6.319652813861786,"5":0.30305657429178406,"6":-3.754256175128884,"7":-1.3288487452596653,"8":0.9442536027345859,"9":-0.41407646929394,"10":-4.268023597038436,"11":9.01993308342989,"12":-3.615814794668432}}],"biases":{"sx":1,"sy":1,"depth":14,"w":{"0":-0.5614660702589817,"1":-1.9834091023731322,"2":0.3230088743213386,"3":2.6805807102448727,"4":0.34325359587096477,"5":2.9747183774085784,"6":-1.95386095251299,"7":2.7831937901485015,"8":-1.9335501505620616,"9":-1.9892225018143297,"10":-2.008906164267501,"11":-1.983764808324334,"12":-1.404481692842701,"13":4.713906094962448}}},{"out_depth":14,"out_sx":1,"out_sy":1,"layer_type":"softmax","num_inputs":14}]},{"layers":[{"out_depth":2,"out_sx":1,"out_sy":1,"layer_type":"input"},{"out_depth":13,"out_sx":1,"out_sy":1,"layer_type":"fc","num_inputs":2,"l1_decay_mul":0,"l2_decay_mul":1,"filters":[{"sx":1,"sy":1,"depth":2,"w":{"0":-1.6862060186758894,"1":5.328214986488764}},{"sx":1,"sy":1,"depth":2,"w":{"0":-1.4614334032055691,"1":6.90953833758378}},{"sx":1,"sy":1,"depth":2,"w":{"0":-0.248704160158634,"1":4.637386542019312}},{"sx":1,"sy":1,"depth":2,"w":{"0":-2.092983249868705,"1":-6.649764012951155}},{"sx":1,"sy":1,"depth":2,"w":{"0":-4.1049315101192345,"1":-0.3195166689975169}},{"sx":1,"sy":1,"depth":2,"w":{"0":4.635676270179085,"1":5.586957163028152}},{"sx":1,"sy":1,"depth":2,"w":{"0":6.035404821884187,"1":-0.539752490183952}},{"sx":1,"sy":1,"depth":2,"w":{"0":-1.9482610359828636,"1":7.629410663405571}},{"sx":1,"sy":1,"depth":2,"w":{"0":0.6633352563049459,"1":6.990017545680133}},{"sx":1,"sy":1,"depth":2,"w":{"0":-4.7129438315255365,"1":-3.634692550666355}},{"sx":1,"sy":1,"depth":2,"w":{"0":-3.0160331377962284,"1":-4.929318733127635}},{"sx":1,"sy":1,"depth":2,"w":{"0":-3.353301060369695,"1":6.018453377954727}},{"sx":1,"sy":1,"depth":2,"w":{"0":-3.48096863873452,"1":-1.1405050455104135}}],"biases":{"sx":1,"sy":1,"depth":13,"w":{"0":1.003762447270465,"1":-1.7967747472248685,"2":-0.3682649486182496,"3":3.156494136128763,"4":-7.461891904243327,"5":-4.537788286412538,"6":-12.944475748164955,"7":7.037131055185412,"8":6.951696694310583,"9":0.3604645410510912,"10":-2.812076012312663,"11":8.429998682685849,"12":-2.4425538400148024}}},{"out_depth":13,"out_sx":1,"out_sy":1,"layer_type":"sigmoid"},{"out_depth":13,"out_sx":1,"out_sy":1,"layer_type":"fc","num_inputs":13,"l1_decay_mul":0,"l2_decay_mul":1,"filters":[{"sx":1,"sy":1,"depth":13,"w":{"0":2.9550998254831753,"1":0.2201951647751857,"2":0.29084884342604533,"3":-0.10203182687119279,"4":-4.11133219314416,"5":4.993995849838526,"6":-1.5043802402058006,"7":3.1361753518416386,"8":7.532152697832824,"9":0.12828009860490974,"10":3.9995651795564453,"11":-2.8635429444147946,"12":0.3931460837195677}},{"sx":1,"sy":1,"depth":13,"w":{"0":3.182238540421059,"1":2.918402780239068,"2":0.6509033831657415,"3":0.22808764478868904,"4":4.818306996778048,"5":-1.430869814368508,"6":-2.9310860652140893,"7":2.928109748966077,"8":1.1093042437328486,"9":0.4366731373835673,"10":1.5184217872374044,"11":-3.498187717602826,"12":1.5087778205519042}},{"sx":1,"sy":1,"depth":13,"w":{"0":-1.7087327472358351,"1":0.07553970208966722,"2":0.19633774560516834,"3":-4.933781099557928,"4":-0.2662671027857353,"5":-0.7233393253695312,"6":0.004551829502934002,"7":3.1613463326052136,"8":0.8087340100221004,"9":-3.569701397335405,"10":-1.3106912535322817,"11":3.1448768136875267,"12":-2.2892514890164484}},{"sx":1,"sy":1,"depth":13,"w":{"0":3.2545442460168346,"1":-2.2826208691394125,"2":-1.5594557812131629,"3":1.1006709074940846,"4":2.0537170567398015,"5":1.5992387285512177,"6":2.2131503253201203,"7":1.4362670380010962,"8":3.91784211855898,"9":-4.705561367002604,"10":-2.045408545333933,"11":1.4362678778534281,"12":-4.1877478239812085}},{"sx":1,"sy":1,"depth":13,"w":{"0":0.7824585106658593,"1":0.3189848869180722,"2":0.4275097720357343,"3":-1.8302893011787125,"4":5.259768872621162,"5":7.552584391591098,"6":0.6852013684384511,"7":2.360004792774199,"8":3.117310037565792,"9":1.4773540239469578,"10":0.16324879032316497,"11":3.3702623058102676,"12":0.32629304358338806}},{"sx":1,"sy":1,"depth":13,"w":{"0":-2.322138408842327,"1":4.103776212149442,"2":3.1261518574774834,"3":-4.095046444921783,"4":3.0849606085082852,"5":-5.549932459620772,"6":2.586908024432463,"7":-3.4253128090765768,"8":6.190637686360703,"9":-2.276526077436194,"10":9.343369654216666,"11":-4.393113471418383,"12":-1.887865973434037}},{"sx":1,"sy":1,"depth":13,"w":{"0":0.350148624201735,"1":-0.7067397293977514,"2":-0.5146991188098032,"3":-0.6503131379944607,"4":4.367860267001435,"5":0.6633290694244038,"6":-1.008782967981138,"7":-6.18889230069979,"8":0.5459404312595187,"9":-0.5524821210609301,"10":-1.6904740903840607,"11":1.8009439373102665,"12":2.1420692882382313}},{"sx":1,"sy":1,"depth":13,"w":{"0":-0.9375586945267456,"1":-1.1985575282828138,"2":-0.27796449482335833,"3":-0.25883695332534956,"4":0.405233178210813,"5":0.9126738658987008,"6":6.9799775840907134,"7":-0.8835690014337934,"8":-0.024522196841776915,"9":-0.8130441697377746,"10":0.19332091810427038,"11":-1.6390183897010546,"12":-0.7307287273114209}},{"sx":1,"sy":1,"depth":13,"w":{"0":2.831566578726488,"1":3.179285867574764,"2":2.1299894570253044,"3":-2.437845582902647,"4":-0.7397503426790412,"5":0.975651240329418,"6":-1.3453956040302024,"7":-0.012684686016644015,"8":-0.3962552674126888,"9":-1.0633664696607863,"10":-0.9064814683587215,"11":0.5126789794301063,"12":-0.7546119132335883}},{"sx":1,"sy":1,"depth":13,"w":{"0":-2.0519977834968652,"1":1.4259117519171156,"2":0.9147047923694591,"3":-2.162845748119612,"4":-2.44448280389907,"5":0.35164341901315144,"6":4.473540022713478,"7":1.9972841016503926,"8":-2.6209504269357358,"9":1.1819214665157045,"10":-2.8830262199593335,"11":4.019879189600405,"12":2.3063767494738854}},{"sx":1,"sy":1,"depth":13,"w":{"0":-2.565716492184313,"1":-1.0583561567784299,"2":-2.294973474860005,"3":1.4055503959772084,"4":1.969393506138405,"5":2.440720575625774,"6":3.9613091013499697,"7":-2.1041962877835836,"8":0.4969026641210096,"9":-1.105894916151514,"10":-0.049551724949046645,"11":-3.6549230282174725,"12":-0.1241641519685243}},{"sx":1,"sy":1,"depth":13,"w":{"0":-0.08907091297414398,"1":-0.20069266148615872,"2":-0.03561397949143216,"3":-0.05821076872455252,"4":1.2889433437255071,"5":0.2027658781370491,"6":-3.9904402472365486,"7":0.14203380478547878,"8":-0.9967217857740591,"9":5.811915613916122,"10":2.55746144912267,"11":-0.4800396622437776,"12":2.348393942295838}},{"sx":1,"sy":1,"depth":13,"w":{"0":0.16993972269297847,"1":-1.3582417917332656,"2":-1.2069507291717652,"3":3.586740330028512,"4":-1.69868614416426,"5":1.7115439193146469,"6":-1.9267167064613804,"7":-0.522032154332947,"8":-7.939890338145478,"9":-0.40434093113183517,"10":-5.871847708808722,"11":3.1952585963002194,"12":-0.38912130208812906}}],"biases":{"sx":1,"sy":1,"depth":13,"w":{"0":-1.0164834254725519,"1":-4.505463119031405,"2":0.5732442841518482,"3":0.016860551231891046,"4":-5.217947074426129,"5":1.2975147134935217,"6":0.17248550577666355,"7":-0.5156476203181448,"8":-2.826883840508623,"9":0.942874782405745,"10":-0.5642738336967094,"11":-3.11040950453528,"12":3.2191358775120196}}},{"out_depth":13,"out_sx":1,"out_sy":1,"layer_type":"sigmoid"},{"out_depth":14,"out_sx":1,"out_sy":1,"layer_type":"fc","num_inputs":13,"l1_decay_mul":0,"l2_decay_mul":1,"filters":[{"sx":1,"sy":1,"depth":13,"w":{"0":1.916049518414947,"1":-1.0104869312965687,"2":-0.5461161012853373,"3":2.3286854065952287,"4":-3.6195401772082683,"5":-4.034556909107754,"6":2.847283068630531,"7":3.772435594342878,"8":4.238805028724294,"9":0.5759332809916299,"10":-4.587811006495681,"11":2.9781104832015517,"12":0.12551598182686347}},{"sx":1,"sy":1,"depth":13,"w":{"0":-0.3424303652698419,"1":-0.0468918174476155,"2":-0.08032994146086284,"3":-0.390713790136192,"4":-0.31567701875783677,"5":-0.07778446905277948,"6":-0.04928308506353267,"7":-0.3072588977854246,"8":-0.019351768797559527,"9":-0.33023201955567144,"10":-0.2555092584998173,"11":-0.2241441015719543,"12":-0.15629912280636604}},{"sx":1,"sy":1,"depth":13,"w":{"0":-5.395362396356079,"1":1.5577692102561536,"2":-4.070740143887053,"3":3.947798095905623,"4":6.387585475502244,"5":-6.949275714894141,"6":-1.5059647971445986,"7":0.5149680647610776,"8":-0.8971761257662262,"9":3.095406049481981,"10":1.0749493912232775,"11":-0.3867148515352397,"12":2.708057126501812}},{"sx":1,"sy":1,"depth":13,"w":{"0":5.629393487845927,"1":4.755406798323893,"2":-4.554171556291445,"3":0.7778742975955053,"4":-4.722407863658714,"5":-4.422437978450946,"6":1.4153103122034456,"7":2.1752216072880066,"8":1.537229647347968,"9":-2.000960655435331,"10":3.6289012788001114,"11":1.9240081810420062,"12":-6.375012664932409}},{"sx":1,"sy":1,"depth":13,"w":{"0":2.6214469477612288,"1":-1.9515471760257925,"2":4.274452351185213,"3":-1.3257455296769094,"4":-3.199074430869958,"5":-0.7467048040969417,"6":2.6836688421327803,"7":0.01791297981456441,"8":-1.468207994264961,"9":1.735358755799316,"10":0.9007398209729067,"11":0.0002869531010753418,"12":2.0678037762365653}},{"sx":1,"sy":1,"depth":13,"w":{"0":-4.785084038735145,"1":0.5913580680619491,"2":-3.40317476076367,"3":5.6227554757151745,"4":2.556308828147652,"5":7.787633756658821,"6":-1.4828019383012183,"7":-0.6736608351330355,"8":-2.7212034856589447,"9":-1.1786859073500335,"10":-1.0029521825485053,"11":1.1220994203643282,"12":-3.8373369169683516}},{"sx":1,"sy":1,"depth":13,"w":{"0":-0.35861782117733554,"1":-0.10053445868502531,"2":-0.06705434580655907,"3":-0.3505037880900713,"4":-0.3285934987313858,"5":-0.23489426205471786,"6":-0.11757096698679088,"7":-0.26336607188583183,"8":-0.06027608617826066,"9":-0.32143593735655435,"10":-0.28624795887543575,"11":-0.20419891397339324,"12":-0.2045330036535357}},{"sx":1,"sy":1,"depth":13,"w":{"0":-4.151956286447335,"1":-6.496411477068052,"2":3.8877255178547183,"3":-1.8609308083029448,"4":4.27655393026443,"5":-0.8764444295796416,"6":3.7476158153793864,"7":-4.524791117882418,"8":2.9545522690877606,"9":2.4729656694852244,"10":2.713452800552395,"11":-1.8072254917042303,"12":0.5208201217220506}},{"sx":1,"sy":1,"depth":13,"w":{"0":1.6478438026196485,"1":-0.3124037541669302,"2":0.8364987557801971,"3":2.0935547590545065,"4":0.15169988915373367,"5":-3.441607935763495,"6":1.1292584612244698,"7":1.3327239322954998,"8":-0.1986141062555,"9":-5.310504532221059,"10":2.4268443650071343,"11":-1.2576470572711762,"12":1.386074680175251}},{"sx":1,"sy":1,"depth":13,"w":{"0":-0.3946377473682842,"1":-0.12064416580460727,"2":-0.08649417198756656,"3":-0.3702532266242298,"4":-0.2617794755540181,"5":-0.14604105068462597,"6":-0.10252067684547542,"7":-0.2565604401768775,"8":-0.11209116101380116,"9":-0.318575114599713,"10":-0.1836054000845444,"11":-0.19828063596011797,"12":-0.21774581671728854}},{"sx":1,"sy":1,"depth":13,"w":{"0":-0.3785863555552702,"1":-0.03866207167035479,"2":-0.10349829067615013,"3":-0.3482685971670564,"4":-0.26207486615243347,"5":-0.18269916067577663,"6":-0.065621612098845,"7":-0.20409277502089074,"8":-0.05018039870383224,"9":-0.3753780735435918,"10":-0.27028348595352625,"11":-0.20378848611458517,"12":-0.18643854803078655}},{"sx":1,"sy":1,"depth":13,"w":{"0":-0.3230027139317413,"1":-0.07127774005243047,"2":-0.10670805637204117,"3":-0.31536338194549995,"4":-0.29671161084790687,"5":-0.1130430802276572,"6":-0.11742338404808149,"7":-0.21952420195812708,"8":-0.07944042884636675,"9":-0.35157633885170225,"10":-0.2455920525722297,"11":-0.19237903477811283,"12":-0.22669148795638555}},{"sx":1,"sy":1,"depth":13,"w":{"0":1.0547826352639327,"1":-0.843076132882114,"2":-0.34675750435076147,"3":-3.5255206201628386,"4":-1.5297994551583136,"5":2.0381126716667493,"6":-1.4830506242134172,"7":2.731469353602463,"8":-0.15801082066933297,"9":-1.1629434944616461,"10":1.68059489232794,"11":3.6997068841580867,"12":-0.7909162661033884}},{"sx":1,"sy":1,"depth":13,"w":{"0":3.0342309532256238,"1":4.017015240283546,"2":4.464284869367469,"3":-6.344036508063893,"4":1.1396282460224714,"5":11.325179860571286,"6":-6.997453819562267,"7":-4.056244526054696,"8":-2.8864832987039044,"9":3.629572440642503,"10":-5.394723713511546,"11":-5.5606566319590405,"12":5.295677126256449}}],"biases":{"sx":1,"sy":1,"depth":14,"w":{"0":0.8012538749373413,"1":-1.7346772082243043,"2":-0.7602390298549743,"3":3.546521958892688,"4":-0.22119480318188445,"5":2.0210761063188056,"6":-1.6710759796551364,"7":2.115115572246596,"8":0.8014149002708668,"9":-1.8052878830900343,"10":-1.7623361475511734,"11":-1.8805209881963039,"12":-1.2575750574922664,"13":1.8075246845794626}}},{"out_depth":14,"out_sx":1,"out_sy":1,"layer_type":"softmax","num_inputs":14}]},{"layers":[{"out_depth":2,"out_sx":1,"out_sy":1,"layer_type":"input"},{"out_depth":13,"out_sx":1,"out_sy":1,"layer_type":"fc","num_inputs":2,"l1_decay_mul":0,"l2_decay_mul":1,"filters":[{"sx":1,"sy":1,"depth":2,"w":{"0":-6.213861141932374,"1":1.1328854256095153}},{"sx":1,"sy":1,"depth":2,"w":{"0":8.94756845654599,"1":3.9287872221937175}},{"sx":1,"sy":1,"depth":2,"w":{"0":-3.8744587353825515,"1":5.761352536987598}},{"sx":1,"sy":1,"depth":2,"w":{"0":-2.0954847494238344,"1":7.272709033817125}},{"sx":1,"sy":1,"depth":2,"w":{"0":6.646044534853044,"1":-1.8618066113389737}},{"sx":1,"sy":1,"depth":2,"w":{"0":5.046001131260322,"1":8.821256995348632}},{"sx":1,"sy":1,"depth":2,"w":{"0":4.31796840516027,"1":-3.879549864526411}},{"sx":1,"sy":1,"depth":2,"w":{"0":5.574767259042851,"1":-7.46952323684571}},{"sx":1,"sy":1,"depth":2,"w":{"0":7.614789046460698,"1":6.041632890555064}},{"sx":1,"sy":1,"depth":2,"w":{"0":-6.393756007221906,"1":-6.611614589715225}},{"sx":1,"sy":1,"depth":2,"w":{"0":1.2696874118852386,"1":8.675275102126088}},{"sx":1,"sy":1,"depth":2,"w":{"0":5.745672009016668,"1":-2.444578909429708}},{"sx":1,"sy":1,"depth":2,"w":{"0":-0.9108769110840021,"1":6.3510258510736275}}],"biases":{"sx":1,"sy":1,"depth":13,"w":{"0":4.264487321389267,"1":0.9568279398114173,"2":-1.7940205620850362,"3":-9.110472541280823,"4":14.857807500899355,"5":-4.704737412789332,"6":6.99052684516645,"7":6.153127512082808,"8":-9.451468293244458,"9":3.8924663237485584,"10":-0.9477684073489865,"11":11.79928072264651,"12":3.541389883338434}}},{"out_depth":13,"out_sx":1,"out_sy":1,"layer_type":"sigmoid"},{"out_depth":13,"out_sx":1,"out_sy":1,"layer_type":"fc","num_inputs":13,"l1_decay_mul":0,"l2_decay_mul":1,"filters":[{"sx":1,"sy":1,"depth":13,"w":{"0":-2.491315736504769,"1":-0.4673322718896264,"2":-0.9507396509091166,"3":-1.4252237361857727,"4":0.4220628482837571,"5":-0.19966186261364727,"6":0.7650621567862828,"7":0.5901266915132701,"8":2.0759242431893847,"9":-0.4403342338173506,"10":-1.8092654928247665,"11":0.42161583519486046,"12":-0.9995535903218257}},{"sx":1,"sy":1,"depth":13,"w":{"0":-3.0979187327195947,"1":0.4659972238108232,"2":0.6161462010619303,"3":-4.564097677938984,"4":-1.5119964966197639,"5":5.050796058206732,"6":-2.835284804613966,"7":-7.992488833335155,"8":1.305957716762036,"9":8.207605224765592,"10":-0.6271519715164178,"11":7.8144474756356725,"12":-2.842866273791187}},{"sx":1,"sy":1,"depth":13,"w":{"0":2.8025333756976,"1":1.8602544494400985,"2":-3.1436285012892964,"3":-2.3142270021887734,"4":-7.258726992726867,"5":-2.5027845031322906,"6":2.6028490704367204,"7":3.2587406478771475,"8":-1.0889043072433053,"9":0.9076999440978777,"10":3.6337066500585466,"11":-3.222452816733556,"12":3.754980759198961}},{"sx":1,"sy":1,"depth":13,"w":{"0":-0.6454012826652824,"1":-1.68992277525737,"2":-1.725909294137789,"3":-4.874496210486076,"4":2.1150552109112066,"5":-2.0661549548765428,"6":0.37489828120755647,"7":2.563128452055763,"8":0.4566812926799221,"9":1.8841816736097496,"10":-2.333711288609425,"11":1.1548747221074478,"12":1.2029512607065693}},{"sx":1,"sy":1,"depth":13,"w":{"0":-0.8140152472401987,"1":5.118717087773167,"2":2.1319292081199754,"3":-5.073413941538504,"4":-2.36772925254438,"5":7.0590027003412255,"6":-2.2712900794128528,"7":-6.276182722635463,"8":5.852606887291578,"9":6.789818384996542,"10":-6.471952845729805,"11":-3.3618039539539426,"12":3.0624350492019254}},{"sx":1,"sy":1,"depth":13,"w":{"0":-2.8656102254466918,"1":-1.6297873240321805,"2":4.629727914973572,"3":-2.0269673950932843,"4":5.363238620446595,"5":0.905969225342794,"6":-0.8176079585904372,"7":6.881440160649676,"8":-6.477495074698489,"9":-0.18029118393233523,"10":-2.4170200097208574,"11":-5.050720296288489,"12":1.989097071369244}},{"sx":1,"sy":1,"depth":13,"w":{"0":-0.9803011235669614,"1":-1.622251680511044,"2":1.811232667836298,"3":0.8349974824379823,"4":0.7129724004345972,"5":0.8070353685640244,"6":-5.075850441619907,"7":2.0222436407357622,"8":-1.7829468015098018,"9":2.382066264637681,"10":-0.2002010586747771,"11":-0.06155845356972291,"12":-3.982754935350289}},{"sx":1,"sy":1,"depth":13,"w":{"0":-0.29221969737209946,"1":0.9664609049755529,"2":-0.11282113570666995,"3":0.8987146583698968,"4":0.6777551065418592,"5":0.8256252063010528,"6":-0.4732177162341597,"7":-0.5708488300380483,"8":0.26367058803734117,"9":-1.1766218744075572,"10":0.7036988087057283,"11":0.5384404995747757,"12":3.790258021992349}},{"sx":1,"sy":1,"depth":13,"w":{"0":-2.805468310560766,"1":-4.660900036980152,"2":0.9921051778631206,"3":5.829993334626126,"4":1.2199240486216811,"5":-0.5394256104959791,"6":-0.13415163791957288,"7":-0.3477489697787833,"8":-0.47331053361482595,"9":0.6728444610375626,"10":-3.3706268999794022,"11":-2.749954941522206,"12":-4.416574360552736}},{"sx":1,"sy":1,"depth":13,"w":{"0":0.5469062834861906,"1":-3.9750831358312437,"2":0.3892742055205904,"3":4.101031044191529,"4":3.365630163321109,"5":-3.498367222382317,"6":-3.4053177834368538,"7":1.2858294480479233,"8":2.7564362725973677,"9":-2.0538563416933404,"10":1.0225451450798664,"11":2.0879210992019464,"12":-0.258003407404435}},{"sx":1,"sy":1,"depth":13,"w":{"0":-4.533377707624998,"1":-2.9216152620100275,"2":1.411718461803594,"3":-0.6799553849211275,"4":0.718602738734426,"5":1.7770696618920558,"6":3.7858632074087115,"7":-0.1267876757326903,"8":1.2338778881843204,"9":-0.3797478266011096,"10":0.12086684306458544,"11":1.142707939259259,"12":-1.3770562470886307}},{"sx":1,"sy":1,"depth":13,"w":{"0":-4.775087640751305,"1":5.275443830984568,"2":0.770832602363939,"3":-1.5926570496384889,"4":1.6846445156613352,"5":-0.45348828408541225,"6":-0.9197937760071577,"7":-1.3282984068676582,"8":-3.8017736000728912,"9":-1.73065567139431,"10":-0.20689003109270185,"11":-3.185823308873833,"12":3.704391925406859}},{"sx":1,"sy":1,"depth":13,"w":{"0":-0.7903599316955585,"1":-5.01678062287565,"2":-0.5165952996794161,"3":4.733233157688648,"4":-4.100667576493276,"5":2.712925069117725,"6":-0.17192986014770442,"7":-0.19384258022295595,"8":-2.228783762333746,"9":-0.4580599407352777,"10":1.2258955371138354,"11":-2.5512015733937274,"12":-0.3329068141718321}}],"biases":{"sx":1,"sy":1,"depth":13,"w":{"0":-0.4277131208851932,"1":-0.8417170830589081,"2":1.9642006454907235,"3":-0.3366367947826059,"4":-0.22518238966286436,"5":0.023355352975168064,"6":5.991899951022114,"7":-1.0468554052756933,"8":3.7179634999476856,"9":-3.350361963544433,"10":-0.9746969460827936,"11":-0.4446650756354906,"12":-0.9702768984562151}}},{"out_depth":13,"out_sx":1,"out_sy":1,"layer_type":"sigmoid"},{"out_depth":14,"out_sx":1,"out_sy":1,"layer_type":"fc","num_inputs":13,"l1_decay_mul":0,"l2_decay_mul":1,"filters":[{"sx":1,"sy":1,"depth":13,"w":{"0":-0.282307928038126,"1":3.0967553667610304,"2":-0.8378436651040431,"3":-0.5409428348412667,"4":1.4330404661970149,"5":-1.6404970173184987,"6":-1.0420760518072427,"7":-0.19079591076262947,"8":-0.19152750770379673,"9":-0.66867658852135,"10":2.5037282406291244,"11":2.8455766853255637,"12":-0.19316815312237298}},{"sx":1,"sy":1,"depth":13,"w":{"0":-0.02787740052024629,"1":-0.19966719876932026,"2":-0.09979099989129997,"3":-0.0648371568438982,"4":-0.3025993115154115,"5":-0.22174952064321996,"6":-0.30363628562681744,"7":-0.44771504988095756,"8":-0.035500831601066034,"9":-0.14426104880800755,"10":-0.13047813810013087,"11":-0.11540595787406532,"12":-0.09917069694584352}},{"sx":1,"sy":1,"depth":13,"w":{"0":-3.593731377180171,"1":-2.6682708813392466,"2":-1.200299181898636,"3":7.136081015027198,"4":1.3689668922914737,"5":2.150726854455008,"6":-0.8785557762232455,"7":0.32745409238538004,"8":0.43989297908567426,"9":-0.05767897506944247,"10":-5.154176436344962,"11":1.8763948613335322,"12":-2.8387830542970334}},{"sx":1,"sy":1,"depth":13,"w":{"0":0.05798521729880395,"1":4.333903553996554,"2":-0.5379044117915617,"3":-7.322233498218228,"4":0.5839728107509832,"5":7.735929867379888,"6":1.3325487854662574,"7":-0.5117891734911959,"8":1.8230595114576718,"9":-4.407116636351551,"10":2.0274586602275417,"11":4.090888981002734,"12":-2.8886009207844414}},{"sx":1,"sy":1,"depth":13,"w":{"0":-0.8582288419105358,"1":4.985400478745213,"2":0.6283059104068297,"3":-1.0306446326215442,"4":2.4500863093987864,"5":0.05439273597535555,"6":-2.7276319561367375,"7":-2.9521214031147824,"8":2.900869157350205,"9":3.8327531574619127,"10":-3.853687892650716,"11":-2.849094718843927,"12":-0.7392866023328837}},{"sx":1,"sy":1,"depth":13,"w":{"0":2.228540888109947,"1":-9.511878727248332,"2":1.8006554263612244,"3":1.135664009416478,"4":11.522270626189458,"5":-4.081701575052986,"6":-5.089866453943173,"7":2.2790033435219734,"8":4.765104554639808,"9":-1.9189484542503639,"10":1.4203493632075301,"11":2.60157917392552,"12":4.9466948497153815}},{"sx":1,"sy":1,"depth":13,"w":{"0":-0.05325351339235584,"1":-0.2015786275180815,"2":-0.18478433490161061,"3":-0.009534800136410398,"4":-0.40455537253680635,"5":-0.1870175430235518,"6":-0.2176934362578419,"7":-0.3059207704643612,"8":-0.03464314071695954,"9":-0.15858442118568344,"10":-0.07588071047822668,"11":-0.13628158188083653,"12":-0.08224890279031521}},{"sx":1,"sy":1,"depth":13,"w":{"0":1.943295416278107,"1":-5.171018755048088,"2":-9.029013925110046,"3":1.0647791875076464,"4":-4.834793111690538,"5":3.753245160784106,"6":1.778082784707455,"7":3.129046337285906,"8":-1.4614879571660009,"9":2.779168845548684,"10":-0.7946452628777182,"11":-0.8088209590169376,"12":-0.27338685127140416}},{"sx":1,"sy":1,"depth":13,"w":{"0":-0.1427420923706737,"1":-0.17727311584807465,"2":-0.1288298461637429,"3":-0.09933216614995746,"4":-0.2708620579582071,"5":-0.21999647908874012,"6":-0.3135677267700091,"7":-0.4185242571243319,"8":-0.05889048118216828,"9":-0.21067446242078486,"10":-0.15563159225905712,"11":-0.17118673341186064,"12":-0.07299012700236661}},{"sx":1,"sy":1,"depth":13,"w":{"0":1.3617156614962158,"1":0.9680441167887721,"2":0.3507793774815953,"3":-0.2255054790549769,"4":-2.8824931431323835,"5":2.006493409755645,"6":1.5992725696599674,"7":-1.081625110175711,"8":1.0017757953197646,"9":1.2736133532597902,"10":1.3587499246335628,"11":-1.5752225747307382,"12":3.8959840870247087}},{"sx":1,"sy":1,"depth":13,"w":{"0":-0.03298063600266179,"1":-0.1661901034531518,"2":-0.07823691626470457,"3":-0.14671736944805236,"4":-0.2590845516918087,"5":-0.2475546920414744,"6":-0.25898928706074137,"7":-0.32673773554739083,"8":-0.09340440741663703,"9":-0.2051337967241861,"10":-0.05953380042002899,"11":-0.19074451186515884,"12":-0.005933555459972462}},{"sx":1,"sy":1,"depth":13,"w":{"0":-0.0982441053623081,"1":-0.1900347954302155,"2":-0.12909467277290074,"3":-0.031926030544901306,"4":-0.29443140726652495,"5":-0.24812050571198932,"6":-0.3087735612421109,"7":-0.33328568513503015,"8":-0.06855452185275239,"9":-0.15459696166154083,"10":-0.07391745195363897,"11":-0.17897521153556425,"12":-0.07250980595168263}},{"sx":1,"sy":1,"depth":13,"w":{"0":-0.05083709412021396,"1":-0.16454844830199203,"2":-0.11418593602357596,"3":-0.12513900050687268,"4":-0.2324966360181009,"5":-0.2122469221716077,"6":-0.2161536996903221,"7":-0.4302841605285884,"8":-0.04497714939521787,"9":-0.19204664815059927,"10":-0.1475251536144367,"11":-0.1393408511941164,"12":-0.10085678669455624}},{"sx":1,"sy":1,"depth":13,"w":{"0":-0.2065039399692516,"1":4.973831674968543,"2":9.317641271761877,"3":0.42850868791852714,"4":-7.709385758519811,"5":-8.659189690165437,"6":6.598218548061478,"7":1.1274922098509825,"8":-8.94677307423667,"9":0.4140532819220769,"10":2.986352807308526,"11":-5.125682180987931,"12":-1.4985086585987786}}],"biases":{"sx":1,"sy":1,"depth":14,"w":{"0":-1.8726023424758922,"1":-1.3345467359216323,"2":1.4160819485425329,"3":-1.2567579706522218,"4":2.201256163811461,"5":-1.4269077358593014,"6":-1.5471208769262277,"7":3.397118190877385,"8":-1.2963385992510381,"9":0.009272225198670912,"10":-1.608282395848733,"11":-1.480063767717519,"12":-1.5196265143317853,"13":6.318518410554143}}},{"out_depth":14,"out_sx":1,"out_sy":1,"layer_type":"softmax","num_inputs":14}]},{"layers":[{"out_depth":2,"out_sx":1,"out_sy":1,"layer_type":"input"},{"out_depth":13,"out_sx":1,"out_sy":1,"layer_type":"fc","num_inputs":2,"l1_decay_mul":0,"l2_decay_mul":1,"filters":[{"sx":1,"sy":1,"depth":2,"w":{"0":-8.2244356845863,"1":-0.849099273914599}},{"sx":1,"sy":1,"depth":2,"w":{"0":-7.796622820264835,"1":1.1167094715870611}},{"sx":1,"sy":1,"depth":2,"w":{"0":-3.7398208631261287,"1":7.730779799362326}},{"sx":1,"sy":1,"depth":2,"w":{"0":7.928048664427734,"1":0.7789281516806738}},{"sx":1,"sy":1,"depth":2,"w":{"0":5.456254032287845,"1":-3.405220533738294}},{"sx":1,"sy":1,"depth":2,"w":{"0":-0.03966559392572169,"1":8.819610337302812}},{"sx":1,"sy":1,"depth":2,"w":{"0":1.3276678172040082,"1":-8.04913968315657}},{"sx":1,"sy":1,"depth":2,"w":{"0":6.742083000238486,"1":-8.637993543142402}},{"sx":1,"sy":1,"depth":2,"w":{"0":0.7533014183953061,"1":6.228223587222775}},{"sx":1,"sy":1,"depth":2,"w":{"0":-2.786230821894866,"1":5.248354892518651}},{"sx":1,"sy":1,"depth":2,"w":{"0":4.287832565112539,"1":-1.9333636783057508}},{"sx":1,"sy":1,"depth":2,"w":{"0":2.9386092719236174,"1":8.950903008721466}},{"sx":1,"sy":1,"depth":2,"w":{"0":-5.495215156709293,"1":3.1061193455374694}}],"biases":{"sx":1,"sy":1,"depth":13,"w":{"0":-3.272142731935375,"1":-7.994324168854841,"2":10.51115900487114,"3":6.772848220234442,"4":3.2020346170345118,"5":2.4155332450094957,"6":13.363990321616951,"7":6.547984630342558,"8":-2.8846613122184372,"9":3.8696848308650442,"10":-1.4010845464700212,"11":-6.661962485084811,"12":-1.548998075788454}}},{"out_depth":13,"out_sx":1,"out_sy":1,"layer_type":"sigmoid"},{"out_depth":13,"out_sx":1,"out_sy":1,"layer_type":"fc","num_inputs":13,"l1_decay_mul":0,"l2_decay_mul":1,"filters":[{"sx":1,"sy":1,"depth":13,"w":{"0":3.110108339743604,"1":0.7555488065310857,"2":-0.7704771808840469,"3":-1.43041498758014,"4":-2.195402444372044,"5":-0.11276868458884608,"6":-5.2218978706738595,"7":-0.5977550286754874,"8":-7.364199044718642,"9":1.2080826858316724,"10":-0.737294174813807,"11":2.446172749248903,"12":3.001756226501016}},{"sx":1,"sy":1,"depth":13,"w":{"0":-0.7572123501964123,"1":0.5738735844021285,"2":6.012463288787584,"3":0.1259537009329013,"4":-3.1916224299240064,"5":2.777447531552309,"6":-0.9423851915178635,"7":-1.0182284880655208,"8":0.7742755090497565,"9":5.048156361890133,"10":-1.5049941962941389,"11":0.5224089431411927,"12":1.2363425588191697}},{"sx":1,"sy":1,"depth":13,"w":{"0":-1.4405809058257095,"1":0.771205912854892,"2":2.9092591926601368,"3":0.07361315268303124,"4":-0.3949465999685284,"5":2.7485996484587965,"6":1.6159642894599073,"7":-1.883604487471617,"8":-0.9538316112277461,"9":-2.8897344997071928,"10":-1.7299700924510912,"11":-1.8915151486225104,"12":-1.2238415866636732}},{"sx":1,"sy":1,"depth":13,"w":{"0":4.598182646868302,"1":-1.8735352386758433,"2":0.5095583738696872,"3":-2.298859624098017,"4":-1.868411640651249,"5":-2.0594072256255433,"6":-2.121860558461854,"7":-0.5301595627845307,"8":-2.5695403860022212,"9":0.5327955481755444,"10":-0.8244378029892495,"11":-5.113455001161767,"12":2.275354191098687}},{"sx":1,"sy":1,"depth":13,"w":{"0":3.769415869145713,"1":0.0912264507145743,"2":-5.304776223923272,"3":4.385262962030919,"4":0.0004129042128877065,"5":0.38607234580563415,"6":-4.530880150789289,"7":-2.981328827517606,"8":1.3465538228619502,"9":-4.160974919493245,"10":-0.9400837819826806,"11":2.0490769261763266,"12":3.164335663991232}},{"sx":1,"sy":1,"depth":13,"w":{"0":-0.6516341568869375,"1":-2.485545904367974,"2":-3.48723834089654,"3":-3.442799333311792,"4":2.4359473272143157,"5":2.3410531856950283,"6":-1.6020588262855717,"7":3.079225933304304,"8":1.6799808998128278,"9":0.05674338844528171,"10":4.140779357664248,"11":1.5003566186212847,"12":-4.713941254572839}},{"sx":1,"sy":1,"depth":13,"w":{"0":0.34653797410304976,"1":-0.6898168276138458,"2":0.43799380817170913,"3":1.8114707347630368,"4":-1.0424045879387207,"5":0.957551830363346,"6":0.2881252315867298,"7":-2.790857334671113,"8":0.4238784607271197,"9":1.7966927084988236,"10":2.0240405106338017,"11":-0.168964933914202,"12":-1.978752769775383}},{"sx":1,"sy":1,"depth":13,"w":{"0":-2.252655412559888,"1":1.8100987442912908,"2":-3.624877254819316,"3":2.437793524441021,"4":3.8037388112901427,"5":0.18800659567360073,"6":-3.690012074733874,"7":1.7784764858708062,"8":0.686832423371746,"9":0.6437875151607675,"10":0.800817908863386,"11":1.8405707075832891,"12":-1.350260615362278}},{"sx":1,"sy":1,"depth":13,"w":{"0":-0.5137940071490402,"1":-0.37855343997597113,"2":1.3649792029587426,"3":0.5171430298048723,"4":2.866715798957464,"5":0.32524927585840296,"6":-3.2836753772259515,"7":-1.489454319867573,"8":0.9126625593363449,"9":-1.6433768096803316,"10":1.2624452086578575,"11":1.109865374076645,"12":-2.226606025449356}},{"sx":1,"sy":1,"depth":13,"w":{"0":3.2375788527098317,"1":1.7372578638032976,"2":3.0769318827511407,"3":4.314533556738637,"4":2.2042607136996533,"5":-1.0248391448612595,"6":-3.247801880167369,"7":3.99130667213495,"8":-2.196936668633028,"9":-1.8117075544802017,"10":-3.192924695586908,"11":0.8025249466290201,"12":0.2597795728189514}},{"sx":1,"sy":1,"depth":13,"w":{"0":2.701817004299743,"1":0.8446818277213161,"2":0.29580785410997096,"3":3.315351100049438,"4":-3.6214591620482577,"5":-0.5547467800774045,"6":0.15221807578755808,"7":0.43147140871294365,"8":-0.16214467382024078,"9":-3.297707379144968,"10":-0.243372682823054,"11":1.8192070341603992,"12":-0.7139883813006392}},{"sx":1,"sy":1,"depth":13,"w":{"0":6.14250414490204,"1":-3.7262098219609556,"2":2.430955697584254,"3":1.169161994401182,"4":3.3074704878878873,"5":-4.060375415663059,"6":3.815345212566881,"7":-5.432675169211771,"8":-0.9462234050583849,"9":-0.47718031337395383,"10":-1.069876848487881,"11":3.7373394500174633,"12":-3.0088226248521557}},{"sx":1,"sy":1,"depth":13,"w":{"0":0.9409893773383877,"1":4.782951314961018,"2":-2.720920167775192,"3":0.2698781242574364,"4":1.5936851753615247,"5":7.463869938125157,"6":0.11150758539408463,"7":0.5625512497044975,"8":-2.7744183461685674,"9":-0.4460255774149276,"10":-2.3442397718368793,"11":-0.4250274550134624,"12":-0.6710172022799081}}],"biases":{"sx":1,"sy":1,"depth":13,"w":{"0":2.5878534939803,"1":-3.2889518976963124,"2":1.3386454186267713,"3":2.0871010217910824,"4":4.48182428284843,"5":-0.9595426695891079,"6":2.0768967502212594,"7":3.3379167597593407,"8":-0.6416940842790678,"9":-5.9354187961759415,"10":-2.380582957020868,"11":-2.3473657924917433,"12":-3.3514842038035155}}},{"out_depth":13,"out_sx":1,"out_sy":1,"layer_type":"sigmoid"},{"out_depth":14,"out_sx":1,"out_sy":1,"layer_type":"fc","num_inputs":13,"l1_decay_mul":0,"l2_decay_mul":1,"filters":[{"sx":1,"sy":1,"depth":13,"w":{"0":1.807896069145977,"1":4.761705241912089,"2":-0.6885198433350572,"3":1.0007464010018636,"4":-3.1252726249605125,"5":-0.06350383624424973,"6":-3.286241177005928,"7":-1.501487150580638,"8":-0.10804186010859905,"9":1.8374191082679272,"10":1.8856481116514676,"11":-0.1521795940249131,"12":-1.6020408795802032}},{"sx":1,"sy":1,"depth":13,"w":{"0":-0.19666720299589838,"1":-0.21463602698197873,"2":-0.2570875751537182,"3":-0.21067081896568549,"4":-0.20573403860540712,"5":-0.04843680036095097,"6":-0.25736640577903236,"7":-0.15108052694922988,"8":-0.03672784074933972,"9":-0.1874848275104794,"10":-0.11138498124731788,"11":-0.21677740079159782,"12":-0.24688099450632472}},{"sx":1,"sy":1,"depth":13,"w":{"0":-0.7404279859444955,"1":3.3355870344852088,"2":1.4741563328066367,"3":-3.857554447937729,"4":1.2371654927370104,"5":-1.8852806661047492,"6":0.8405782117136205,"7":0.40682580710392796,"8":-5.086118210397387,"9":-0.8274208883508398,"10":-2.340478728968274,"11":-0.5871755995163168,"12":-3.8840548626944917}},{"sx":1,"sy":1,"depth":13,"w":{"0":4.280460330295438,"1":-2.586102020185867,"2":0.8145733688036686,"3":0.01863671930425926,"4":1.5447060374145634,"5":-5.504391035385279,"6":-1.9482665657533214,"7":-0.3564064528354662,"8":2.7195042413206663,"9":-1.9542022121132734,"10":-1.4641139988963163,"11":7.430500736963996,"12":0.8363683961348484}},{"sx":1,"sy":1,"depth":13,"w":{"0":-6.0950977217407285,"1":-2.251269690504912,"2":1.8959538655603103,"3":1.8222369603657846,"4":1.29469674854633,"5":-5.2085061649410305,"6":1.8842856358576041,"7":-2.7719748663500523,"8":4.252899052838712,"9":-1.1181420196784095,"10":0.300690506960511,"11":1.197519789406883,"12":-1.2551465954922953}},{"sx":1,"sy":1,"depth":13,"w":{"0":-0.5750552028105878,"1":-0.44969436021146064,"2":0.7768748965016582,"3":-6.264614221208419,"4":3.4523646906106666,"5":-0.40559530946177763,"6":-0.5114024125602628,"7":1.0347840483824644,"8":-2.1278512864593493,"9":6.215672059935861,"10":2.5419140248753638,"11":-0.35475529503476244,"12":3.4825379504796965}},{"sx":1,"sy":1,"depth":13,"w":{"0":-0.20401608724787396,"1":-0.2430684224135833,"2":-0.23593370399397123,"3":-0.18755121910458306,"4":-0.20746317803141617,"5":-0.028543281420494365,"6":-0.2777568705326605,"7":-0.15782362366090186,"8":-0.02177256903638277,"9":-0.21137068513634075,"10":-0.12438745539101803,"11":-0.22958406646825452,"12":-0.27631141596919706}},{"sx":1,"sy":1,"depth":13,"w":{"0":2.353630616617165,"1":-5.960188831696116,"2":1.6135557410680876,"3":1.9801649226013163,"4":-4.770138369694919,"5":3.198050266423799,"6":1.2016744265939752,"7":-0.07265215898587746,"8":0.7516382136305991,"9":-0.39687463264737294,"10":0.42415003688423353,"11":2.380318045267154,"12":3.526542248220558}},{"sx":1,"sy":1,"depth":13,"w":{"0":-0.18698287420803353,"1":-0.24000225203764422,"2":-0.2420424422006542,"3":-0.21262603837022623,"4":-0.1913746691976057,"5":-0.0433792330528518,"6":-0.26110220825715336,"7":-0.14389097066264064,"8":-0.06708787568794859,"9":-0.20332648790509597,"10":-0.11927900696616299,"11":-0.22930015506524032,"12":-0.2630258637913555}},{"sx":1,"sy":1,"depth":13,"w":{"0":0.5745487113775618,"1":-1.110819304079933,"2":-1.4075606463294432,"3":0.5331085561416437,"4":2.4751905501530165,"5":-0.2273882056940179,"6":-1.1278688722552075,"7":-0.7582981791169858,"8":-0.1069063410394097,"9":2.253034423870536,"10":2.274273741765356,"11":-1.4574316443349957,"12":0.5975153917488742}},{"sx":1,"sy":1,"depth":13,"w":{"0":-1.2825379591498243,"1":1.3928277344829902,"2":0.032537492718705874,"3":-1.4810401285692956,"4":4.480966066381682,"5":2.6287232225379378,"6":-0.4202499065783915,"7":-0.6808663300372394,"8":1.7045033535358443,"9":-1.240574390942369,"10":0.8956784985462964,"11":3.6298753365053242,"12":-1.189229752662815}},{"sx":1,"sy":1,"depth":13,"w":{"0":-0.18712255206595713,"1":-0.24648886882245394,"2":-0.249961605486365,"3":-0.22814639597765146,"4":-0.2110163900822588,"5":-0.04447648793115431,"6":-0.28049758438229366,"7":-0.15791793255203673,"8":-0.04161745212316776,"9":-0.20468326060807054,"10":-0.12844997415183546,"11":-0.21606855083849172,"12":-0.2696711366760276}},{"sx":1,"sy":1,"depth":13,"w":{"0":-3.891328531240237,"1":1.631136974305957,"2":1.7733495524576794,"3":0.4077754983046917,"4":-3.5911364583774135,"5":0.7904562894636575,"6":1.2605423059669538,"7":-1.6580906510252398,"8":0.2031315425382875,"9":1.328080158173775,"10":-0.7916572251880567,"11":-2.682770589601506,"12":4.471167935526911}},{"sx":1,"sy":1,"depth":13,"w":{"0":4.328154212656059,"1":2.272841321179232,"2":-5.28990999936578,"3":6.635812171642287,"4":-2.136683818853137,"5":6.8093598586006046,"6":3.2303083908506065,"7":6.8804058417676535,"8":-2.0444205902557235,"9":-5.238988541915598,"10":-3.241211499976667,"11":-8.499793473810971,"12":-3.9081897025474497}}],"biases":{"sx":1,"sy":1,"depth":14,"w":{"0":-0.715748388424761,"1":-2.141969915911929,"2":2.8334148076609074,"3":1.3290788379472702,"4":4.200701746369437,"5":-0.7442144026291058,"6":-2.0503185307318503,"7":1.7545351355745207,"8":-2.0993053344416315,"9":-0.7780124653144269,"10":-3.6837224124503436,"11":-2.020552022514028,"12":-0.301996531823221,"13":4.418109476689772}}},{"out_depth":14,"out_sx":1,"out_sy":1,"layer_type":"softmax","num_inputs":14}]},{"layers":[{"out_depth":2,"out_sx":1,"out_sy":1,"layer_type":"input"},{"out_depth":13,"out_sx":1,"out_sy":1,"layer_type":"fc","num_inputs":2,"l1_decay_mul":0,"l2_decay_mul":1,"filters":[{"sx":1,"sy":1,"depth":2,"w":{"0":5.477254699782021,"1":3.295892038800717}},{"sx":1,"sy":1,"depth":2,"w":{"0":-1.0150821304846858,"1":0.9809035458002657}},{"sx":1,"sy":1,"depth":2,"w":{"0":3.759372591334191,"1":7.167922704611934}},{"sx":1,"sy":1,"depth":2,"w":{"0":2.5679323794973175,"1":0.7502379766187682}},{"sx":1,"sy":1,"depth":2,"w":{"0":1.7052903900732905,"1":3.5898678229282366}},{"sx":1,"sy":1,"depth":2,"w":{"0":-2.9800222799100125,"1":-5.732918366739865}},{"sx":1,"sy":1,"depth":2,"w":{"0":0.9704469374136067,"1":-1.2324090191370634}},{"sx":1,"sy":1,"depth":2,"w":{"0":-8.202080874324208,"1":-2.9109607910860205}},{"sx":1,"sy":1,"depth":2,"w":{"0":-0.7698697394479276,"1":1.2175356444858487}},{"sx":1,"sy":1,"depth":2,"w":{"0":0.5725823556374304,"1":-1.2557475940618026}},{"sx":1,"sy":1,"depth":2,"w":{"0":-3.852708460640801,"1":-1.1464306913583935}},{"sx":1,"sy":1,"depth":2,"w":{"0":1.96981005133551,"1":0.013734872379960017}},{"sx":1,"sy":1,"depth":2,"w":{"0":1.3162017398828236,"1":-1.6619198201076741}}],"biases":{"sx":1,"sy":1,"depth":13,"w":{"0":-4.313707838955458,"1":-0.91842088368754,"2":-2.1004228621569023,"3":2.1193913148751538,"4":-3.1828107009537794,"5":4.325709910818511,"6":1.263028238204501,"7":-1.1538234312331352,"8":-1.1038214152458534,"9":0.6410567093404431,"10":-1.3945367730734457,"11":-1.2735226620198068,"12":2.624406228406204}}},{"out_depth":13,"out_sx":1,"out_sy":1,"layer_type":"sigmoid"},{"out_depth":13,"out_sx":1,"out_sy":1,"layer_type":"fc","num_inputs":13,"l1_decay_mul":0,"l2_decay_mul":1,"filters":[{"sx":1,"sy":1,"depth":13,"w":{"0":2.3784392140745725,"1":-0.3997047404342566,"2":-0.8461804439980397,"3":-0.2447046057615616,"4":-0.3041475591666171,"5":-0.12218248006225008,"6":0.5001440179669777,"7":2.1782180366614696,"8":-0.5678528563685011,"9":0.20473535273505883,"10":1.0752156520002227,"11":0.7053305952569412,"12":0.7033674725257868}},{"sx":1,"sy":1,"depth":13,"w":{"0":-0.7199630285443873,"1":0.07081666761494747,"2":0.5512897910708735,"3":0.17256112218745703,"4":-0.14482775696632846,"5":0.0662411934180725,"6":-0.10657468907245034,"7":-1.0466067148768838,"8":0.12295015394399177,"9":-0.0076180698435570566,"10":-0.5200380758938432,"11":-0.09273971036978125,"12":-0.19232057295206936}},{"sx":1,"sy":1,"depth":13,"w":{"0":-3.1101243952337296,"1":0.6698950398231831,"2":2.6885349619240424,"3":-0.6135530863463351,"4":-0.531473339395652,"5":1.78341807669957,"6":-1.0724925904223046,"7":-3.1889159501504145,"8":0.721546811800625,"9":-0.8435605731732014,"10":-0.8206846131726632,"11":-0.8587452390203791,"12":-1.1191864803862905}},{"sx":1,"sy":1,"depth":13,"w":{"0":0.5104724943305368,"1":0.037813079935118246,"2":-1.241231500824289,"3":0.9544664131267903,"4":1.24271892809793,"5":-1.4288791428713163,"6":0.1640916047645773,"7":0.8831156648542943,"8":-0.12851265294653919,"9":0.2364977623151876,"10":-0.02852641825736649,"11":0.29645596782898,"12":0.07725658118734016}},{"sx":1,"sy":1,"depth":13,"w":{"0":1.353442831605471,"1":-0.05531221136568,"2":-0.5696629710355401,"3":-1.0078883582578289,"4":-0.3494006204508039,"5":0.08317244541480909,"6":0.08183645267497455,"7":2.3198168453586234,"8":-0.2725062189235744,"9":0.1308749871960536,"10":1.420684907944495,"11":0.32958577494565344,"12":-0.09957770911092732}},{"sx":1,"sy":1,"depth":13,"w":{"0":0.48801750707843367,"1":0.09428736605009624,"2":-1.078825190488855,"3":0.6847414916422288,"4":1.5296569493292091,"5":-1.9917205437280798,"6":-0.24208543840469857,"7":0.9132862008408447,"8":0.11856155618650842,"9":-0.24902566156295045,"10":-0.14948108062874188,"11":0.2188025614214747,"12":-0.6341662642171012}},{"sx":1,"sy":1,"depth":13,"w":{"0":1.4005339986081609,"1":-0.19631307010825338,"2":-0.7231828239220397,"3":-0.9441164751542664,"4":-0.41047025793130343,"5":0.45490806301691467,"6":0.0528763536159838,"7":2.1394174992416293,"8":-0.04411951774724844,"9":0.07648909372917363,"10":1.3379834885676507,"11":0.2774693378656029,"12":0.001704354266404108}},{"sx":1,"sy":1,"depth":13,"w":{"0":-0.42167986408277547,"1":0.2523131976902478,"2":0.36977447367778304,"3":0.01639563126485542,"4":0.09579808448559535,"5":0.2858198865507708,"6":-0.0505194201469613,"7":-0.16242260455717714,"8":0.17087719535087093,"9":-0.12364318143477651,"10":0.14358790293880744,"11":0.10354372053701126,"12":-0.07159937570486563}},{"sx":1,"sy":1,"depth":13,"w":{"0":-1.197008517693332,"1":0.34234082208934075,"2":1.8709658393594397,"3":-0.9057610173250129,"4":-0.8729669744326284,"5":1.4432382454115997,"6":-0.19065572498111225,"7":-1.6351324254419444,"8":0.2584163131669308,"9":-0.4624653530197626,"10":-0.3359814499464594,"11":-0.341270892164366,"12":-0.44619109989812444}},{"sx":1,"sy":1,"depth":13,"w":{"0":1.3546966986356117,"1":-0.39526903897444643,"2":-1.6163163096073194,"3":0.6663982801520236,"4":-0.024019527729872658,"5":-0.3216715960790212,"6":0.6075580173214948,"7":1.1583925270993454,"8":-0.3366121539070691,"9":0.5915653740867926,"10":-0.05265601892180495,"11":0.4915921759088417,"12":1.253812812754104}},{"sx":1,"sy":1,"depth":13,"w":{"0":-0.2748654414565211,"1":0.3109607504651216,"2":-0.7038152306268678,"3":0.6786370086483176,"4":1.6812739936814896,"5":-2.198741546409966,"6":-0.6063135386092888,"7":0.32853700852862233,"8":0.43582388080493534,"9":-0.37450438242613904,"10":-0.11157226072307688,"11":0.17108524444513648,"12":-1.3688332435275554}},{"sx":1,"sy":1,"depth":13,"w":{"0":1.9568305422954222,"1":-0.03829165526081086,"2":-3.6185279254223786,"3":1.4246993110601376,"4":1.440408374075173,"5":-2.406873456949096,"6":0.5602256468673028,"7":2.9957793509567905,"8":-0.40340869558347653,"9":0.5820277554145675,"10":0.6674729959053463,"11":0.6844426826017272,"12":0.4910715033225457}},{"sx":1,"sy":1,"depth":13,"w":{"0":-3.309446752783704,"1":0.7343911840303856,"2":2.874842791406013,"3":-0.8116495211509226,"4":-0.7305442980524999,"5":1.5218268733715525,"6":-0.8139056384931379,"7":-3.240404770596935,"8":0.5704536301526947,"9":-0.6394324616966449,"10":-0.8307380293350142,"11":-0.7462162079046615,"12":-1.2298006502434449}}],"biases":{"sx":1,"sy":1,"depth":13,"w":{"0":0.07650559946523537,"1":0.16820863568091307,"2":-0.3438912005704103,"3":0.33212216138028194,"4":-0.24367201432346985,"5":0.05593745327505504,"6":-0.23484471115090128,"7":0.18791692819079822,"8":-0.4269186720059888,"9":0.46616922385335113,"10":-0.44690799223426503,"11":0.5074788261717822,"12":-0.09783711982583312}}},{"out_depth":13,"out_sx":1,"out_sy":1,"layer_type":"sigmoid"},{"out_depth":14,"out_sx":1,"out_sy":1,"layer_type":"fc","num_inputs":13,"l1_decay_mul":0,"l2_decay_mul":1,"filters":[{"sx":1,"sy":1,"depth":13,"w":{"0":-0.2789465193989323,"1":-0.21917638579262413,"2":-0.0005054996824413758,"3":-0.1305220280902865,"4":-0.07266776286116744,"5":-0.24737587209036405,"6":-0.11483829442362635,"7":-0.4060960657542472,"8":-0.3717576644621413,"9":-0.10700015294159468,"10":-0.052793286227455,"11":-0.15118990619626674,"12":-0.011490773811018158}},{"sx":1,"sy":1,"depth":13,"w":{"0":-0.13833001336618314,"1":-0.2363290387646642,"2":-0.24986364947730977,"3":-0.1656483779374171,"4":-0.21256642794746106,"5":0.032986828582578745,"6":-0.15207370983319102,"7":-0.4228849484466098,"8":0.06838816852022259,"9":-0.232645040842846,"10":-0.19680707220777938,"11":-0.04603628478046448,"12":-0.17072242134704607}},{"sx":1,"sy":1,"depth":13,"w":{"0":-0.2511738235419916,"1":1.063159485959488,"2":1.189894885898535,"3":0.14949292973658668,"4":-1.0069776677420843,"5":-0.3911352704883365,"6":-0.5770232142913061,"7":0.6721787221375238,"8":0.8479754565692819,"9":1.2702591112240855,"10":-0.9815780287919973,"11":-0.8577896754450396,"12":1.533469693216501}},{"sx":1,"sy":1,"depth":13,"w":{"0":-0.2591839687064821,"1":-0.15889089060799144,"2":-0.27582947546197356,"3":-0.11633256845554908,"4":-0.34909048826957506,"5":-0.010980939481987648,"6":0.05866737289907775,"7":-0.18025106929874235,"8":-0.18654186149659985,"9":-0.3385369210556753,"10":0.05750805816955601,"11":-0.1692786368173802,"12":-0.08598978234730692}},{"sx":1,"sy":1,"depth":13,"w":{"0":0.14746744855891866,"1":-0.03831607397535026,"2":-0.43790825683615475,"3":-0.4479234744083717,"4":-0.13461695276860372,"5":0.007688677200297236,"6":-0.15856135683332714,"7":-0.398700392852792,"8":0.08956257130969805,"9":-0.04879899827518233,"10":-0.21739173214560423,"11":-0.1098331516672777,"12":-0.13002992716270376}},{"sx":1,"sy":1,"depth":13,"w":{"0":0.6883215129815062,"1":0.3458167013051183,"2":2.43100622941081,"3":-1.1790153088269486,"4":1.6375962929974412,"5":-1.4481087916402104,"6":1.7964279351230075,"7":1.151981848918804,"8":2.4218465009224666,"9":-0.7597457885194471,"10":-1.470519660283313,"11":-2.956144236200329,"12":2.4573255452977794}},{"sx":1,"sy":1,"depth":13,"w":{"0":-0.062293631893621124,"1":-0.3244679477823159,"2":-0.37877443852505466,"3":-0.0762874801870246,"4":-0.1924580222348926,"5":-0.09900465453761935,"6":-0.23835362291353832,"7":-0.15074251239693015,"8":-0.30517374879678183,"9":0.03784724054085328,"10":-0.03540533646136443,"11":-0.00010142425014582294,"12":-0.31856138511928334}},{"sx":1,"sy":1,"depth":13,"w":{"0":-0.10425210997857257,"1":-0.14198256733041092,"2":-0.11591894140184296,"3":-0.4203125816607049,"4":-0.145467531309924,"5":-0.046826645783716474,"6":-0.20024237449002835,"7":-0.1865055842428949,"8":-0.2563257326887657,"9":-0.028291280225689275,"10":-0.2673181493259631,"11":-0.1098244458808465,"12":-0.11245299335753449}},{"sx":1,"sy":1,"depth":13,"w":{"0":-0.10321149281320399,"1":-0.26201118496041487,"2":-0.2300716967544831,"3":-0.18606780268073767,"4":0.04057215782448709,"5":-0.17441342669021792,"6":-0.2750109497368032,"7":-0.20482705926599967,"8":-0.2946858385104237,"9":-0.11930368831183628,"10":-0.20551763869329728,"11":-0.1441560710660907,"12":-0.07356902489668647}},{"sx":1,"sy":1,"depth":13,"w":{"0":-0.11298399991607908,"1":-0.2639435434554561,"2":-0.1721698278514486,"3":-0.01449873157942637,"4":-0.07849603273737892,"5":0.01845108305398912,"6":-0.03829681617286249,"7":-0.29672208516050597,"8":-0.1960333685175589,"9":-0.33643448363081246,"10":-0.331691190052713,"11":-0.044034905831669656,"12":-0.23270383572150305}},{"sx":1,"sy":1,"depth":13,"w":{"0":-0.06636365911155732,"1":-0.2122818584772937,"2":-0.10934190014020578,"3":-0.1847528330657348,"4":-0.13055703137396474,"5":0.08852153374090398,"6":-0.1975832850728758,"7":-0.2963546537150564,"8":-0.1784796706351073,"9":-0.1008628636803579,"10":-0.24325054612831198,"11":-0.16251779494938132,"12":-0.3498090559369627}},{"sx":1,"sy":1,"depth":13,"w":{"0":-0.0029559499749050805,"1":-0.18511113444986343,"2":-0.29064887816657126,"3":-0.10293844853544738,"4":-0.34180476726360903,"5":0.07926850250805191,"6":-0.5055266058016008,"7":-0.03020734465840088,"8":-0.2364625044649082,"9":-0.06962926080583703,"10":-0.07794695579470615,"11":-0.4753561951111727,"12":-0.26244163132768616}},{"sx":1,"sy":1,"depth":13,"w":{"0":-1.818681791687578,"1":1.0749073948466534,"2":3.2241479578320726,"3":0.5151480788460508,"4":-1.4022830101793382,"5":1.2444191321648659,"6":-1.461707479011393,"7":0.992264599099986,"8":1.0371976889554724,"9":-0.8218088121509984,"10":2.3583753084127586,"11":-0.02786910806266283,"12":3.2162646728796727}},{"sx":1,"sy":1,"depth":13,"w":{"0":3.242475284891936,"1":-0.8616088770878002,"2":-4.707287347128313,"3":2.2659419729453583,"4":2.6446713636276424,"5":2.0415063835382794,"6":2.47955635679614,"7":0.11376720253702688,"8":-2.4200054748003987,"9":2.7738604246015055,"10":1.0686981336621384,"11":5.366151035259498,"12":-4.833330703994179}}],"biases":{"sx":1,"sy":1,"depth":14,"w":{"0":-0.6327532348820741,"1":-0.6005772457222815,"2":1.7287465468729788,"3":-0.7101374604495365,"4":-0.8061434583647435,"5":2.262603551813921,"6":-0.5900327479446188,"7":-0.7505823443268452,"8":-0.6334059237988273,"9":-0.621781840142393,"10":-0.6200330391948967,"11":-0.5772853353440416,"12":1.374572424005145,"13":1.17681010747834}}},{"out_depth":14,"out_sx":1,"out_sy":1,"layer_type":"softmax","num_inputs":14}]},{"layers":[{"out_depth":2,"out_sx":1,"out_sy":1,"layer_type":"input"},{"out_depth":13,"out_sx":1,"out_sy":1,"layer_type":"fc","num_inputs":2,"l1_decay_mul":0,"l2_decay_mul":1,"filters":[{"sx":1,"sy":1,"depth":2,"w":{"0":-1.1173187830894538,"1":5.84555070783885}},{"sx":1,"sy":1,"depth":2,"w":{"0":2.678100025405335,"1":2.4611258052321796}},{"sx":1,"sy":1,"depth":2,"w":{"0":-2.351439264471881,"1":10.40244674889807}},{"sx":1,"sy":1,"depth":2,"w":{"0":3.474155204451721,"1":-2.362844758272276}},{"sx":1,"sy":1,"depth":2,"w":{"0":-4.364866406496937,"1":2.530667438520956}},{"sx":1,"sy":1,"depth":2,"w":{"0":-1.5881317935728623,"1":-6.941779498755943}},{"sx":1,"sy":1,"depth":2,"w":{"0":3.327817229422571,"1":-2.455783426182084}},{"sx":1,"sy":1,"depth":2,"w":{"0":-2.110231943195923,"1":-0.2690302026302152}},{"sx":1,"sy":1,"depth":2,"w":{"0":-3.406094050774076,"1":-2.505159270581489}},{"sx":1,"sy":1,"depth":2,"w":{"0":5.359680931285718,"1":2.0861744500439134}},{"sx":1,"sy":1,"depth":2,"w":{"0":5.163335215078923,"1":1.1990911682568421}},{"sx":1,"sy":1,"depth":2,"w":{"0":-2.1319696577689298,"1":-5.197970164011476}},{"sx":1,"sy":1,"depth":2,"w":{"0":1.2606962667930866,"1":5.248255214178661}}],"biases":{"sx":1,"sy":1,"depth":13,"w":{"0":4.024656412581478,"1":4.31665137237722,"2":-6.686356845447434,"3":4.064784954614721,"4":-6.223426518728508,"5":-5.289424251817424,"6":3.4869911871151493,"7":-1.5643328483167291,"8":-2.3547796758255974,"9":10.27127414752892,"10":7.567792399884343,"11":-5.99540156584953,"12":-1.2913127691682234}}},{"out_depth":13,"out_sx":1,"out_sy":1,"layer_type":"sigmoid"},{"out_depth":13,"out_sx":1,"out_sy":1,"layer_type":"fc","num_inputs":13,"l1_decay_mul":0,"l2_decay_mul":1,"filters":[{"sx":1,"sy":1,"depth":13,"w":{"0":0.04080025156164989,"1":2.345171007842999,"2":1.271660685748493,"3":0.3548294029557961,"4":-0.5368812544701178,"5":-2.4773597778308516,"6":0.11299562614918647,"7":-0.6133824277865566,"8":-0.1260822453371171,"9":3.516153541010509,"10":0.7689547997063767,"11":-2.851903619154225,"12":0.8223334615330442}},{"sx":1,"sy":1,"depth":13,"w":{"0":0.4555199168968358,"1":1.1150373902152193,"2":-2.985942554673713,"3":-1.529504106962624,"4":1.01027009983703,"5":-2.414304081357323,"6":-1.8450241167256398,"7":0.10697658940321843,"8":-0.021658015014980665,"9":1.734912869185194,"10":-0.3966062927185456,"11":-1.9508402006958028,"12":-0.12399792550583874}},{"sx":1,"sy":1,"depth":13,"w":{"0":-0.5337123913432784,"1":2.7521154839731117,"2":1.2749502042244871,"3":1.04515468889246,"4":-2.7317252858782286,"5":-0.8674861195992237,"6":0.6297045136397099,"7":-1.4233331434503211,"8":-1.5302162027317132,"9":3.938859042913607,"10":1.6675322436826114,"11":-1.3375630266444094,"12":3.179720080460864}},{"sx":1,"sy":1,"depth":13,"w":{"0":-2.3728540084726384,"1":0.383332821035658,"2":-2.2354912800159212,"3":-1.2863863820999129,"4":2.3023463347878756,"5":-1.1623063315631117,"6":-1.2785130441385737,"7":0.5448412317089167,"8":0.9171434773625292,"9":1.3594240888108506,"10":-1.2738964866539937,"11":-0.6511146614887371,"12":-0.4837845547981876}},{"sx":1,"sy":1,"depth":13,"w":{"0":3.417265042332653,"1":-1.3241989409197834,"2":5.564284142914618,"3":1.0342003798195638,"4":-1.4683575020035802,"5":3.248116814729936,"6":1.1741451281292632,"7":-1.7228373559887775,"8":-3.6700697646305924,"9":-3.626871191284173,"10":5.781624724200098,"11":2.986737640109276,"12":0.48834494846840565}},{"sx":1,"sy":1,"depth":13,"w":{"0":-0.5435594082716126,"1":3.438101240932264,"2":-0.7004995080968759,"3":-1.0406076892787812,"4":-0.6342236933434806,"5":-2.4656331151398816,"6":-1.315290814157487,"7":-1.2354561323693287,"8":-1.995346741890257,"9":4.005943408439165,"10":2.011940194064256,"11":-2.5465925358552153,"12":2.8358659513448843}},{"sx":1,"sy":1,"depth":13,"w":{"0":3.0261946995296864,"1":0.34112518542663983,"2":0.24279163258647427,"3":-0.514792086894003,"4":0.5171349611155769,"5":-1.6423550421281576,"6":-0.4671399448233963,"7":-0.0304124303967915,"8":0.3408885353642519,"9":0.41014842944491153,"10":0.13014473742250923,"11":-1.2422201310011975,"12":0.42296523789484913}},{"sx":1,"sy":1,"depth":13,"w":{"0":-1.282098126986101,"1":0.3396240197164238,"2":2.613454332173871,"3":-2.7376155874561743,"4":3.7516417998184477,"5":-0.35220554679602106,"6":-2.108931375857369,"7":0.45264767101123504,"8":-0.7073385445806769,"9":-0.3566238757073415,