{"out":[{"layers":[{"out_depth":2,"out_sx":1,"out_sy":1,"layer_type":"input"},{"out_depth":13,"out_sx":1,"out_sy":1,"layer_type":"fc","num_inputs":2,"l1_decay_mul":0,"l2_decay_mul":1,"filters":[{"sx":1,"sy":1,"depth":2,"w":{"0":-9.14108461435636,"1":2.1998928082223923}},{"sx":1,"sy":1,"depth":2,"w":{"0":2.293248276555024,"1":5.936049838240334}},{"sx":1,"sy":1,"depth":2,"w":{"0":4.402462158642964,"1":1.8366886739825252}},{"sx":1,"sy":1,"depth":2,"w":{"0":-6.825195520039432,"1":-1.1644958083356551}},{"sx":1,"sy":1,"depth":2,"w":{"0":-5.2000355330124375,"1":-3.3292497966120114}},{"sx":1,"sy":1,"depth":2,"w":{"0":-5.290689626592396,"1":4.399639065806293}},{"sx":1,"sy":1,"depth":2,"w":{"0":1.01728826820286,"1":-9.101063871701685}},{"sx":1,"sy":1,"depth":2,"w":{"0":-3.7643185744925796,"1":3.174473521420784}},{"sx":1,"sy":1,"depth":2,"w":{"0":2.9654485432334297,"1":5.872232526070187}},{"sx":1,"sy":1,"depth":2,"w":{"0":-5.984714568887854,"1":1.5119784283160187}},{"sx":1,"sy":1,"depth":2,"w":{"0":4.794322505402246,"1":3.4570529376932315}},{"sx":1,"sy":1,"depth":2,"w":{"0":2.3474748185986107,"1":4.529110641576206}},{"sx":1,"sy":1,"depth":2,"w":{"0":-5.190067564097958,"1":-4.250482624624914}}],"biases":{"sx":1,"sy":1,"depth":13,"w":{"0":-0.6666225349880901,"1":-14.740478476045755,"2":5.838081467809657,"3":1.2839152357893702,"4":2.612802950670327,"5":2.003262516799323,"6":8.149404391466144,"7":-1.2684127059481738,"8":1.0750983828034104,"9":-7.637548261701703,"10":-5.334137229091935,"11":-4.996672125814156,"12":4.7377434003455035}}},{"out_depth":13,"out_sx":1,"out_sy":1,"layer_type":"sigmoid"},{"out_depth":13,"out_sx":1,"out_sy":1,"layer_type":"fc","num_inputs":13,"l1_decay_mul":0,"l2_decay_mul":1,"filters":[{"sx":1,"sy":1,"depth":13,"w":{"0":2.265008611279741,"1":1.3449476051578262,"2":-0.0863948444007746,"3":1.0618883101454393,"4":1.466894076301305,"5":2.462059559624012,"6":-1.8351980558555137,"7":-1.1452501373907906,"8":0.9121748779259882,"9":0.8866636795605117,"10":-1.3458511345905455,"11":-0.4186813189971367,"12":1.7404500406235401}},{"sx":1,"sy":1,"depth":13,"w":{"0":2.9490958495973434,"1":0.03381182636016058,"2":2.8745339846780706,"3":-0.15349229404137887,"4":-2.7895691061123875,"5":-3.704164982377153,"6":-4.065860298720846,"7":-2.6264527428109052,"8":-0.7362141177601381,"9":0.17662774341268972,"10":1.7397295798168262,"11":1.621743570239962,"12":-1.6000528499300442}},{"sx":1,"sy":1,"depth":13,"w":{"0":3.3666454638112686,"1":-0.32759716024399604,"2":-0.6934743994231651,"3":1.1575715177035717,"4":-0.9422796104806777,"5":-0.08873383520721603,"6":-6.364286004946782,"7":0.19049308180256835,"8":-0.8290523073680457,"9":3.8335747246822063,"10":0.1474124504258249,"11":1.254673279230703,"12":-1.2208852680999853}},{"sx":1,"sy":1,"depth":13,"w":{"0":-3.1970230085268057,"1":1.206654684768038,"2":0.622628479089536,"3":-3.495019670497752,"4":-0.1613225623786745,"5":0.14704003913616265,"6":1.3634724839898607,"7":-0.3427125769714818,"8":-0.41186277924622955,"9":-1.1211319993059319,"10":0.7197734160670692,"11":0.5917125822942265,"12":-0.15813706014062193}},{"sx":1,"sy":1,"depth":13,"w":{"0":0.7383999062666478,"1":-0.21973071051929105,"2":-0.10806475735943191,"3":0.94053550246043,"4":1.4428641679297693,"5":-0.582734406822523,"6":5.4233789878533845,"7":-0.4942182345184042,"8":-2.0010209290032024,"9":2.686197595214584,"10":0.19706284162070326,"11":-1.7897931315163012,"12":-1.0374329140590908}},{"sx":1,"sy":1,"depth":13,"w":{"0":-1.4481151110223813,"1":-0.16969324058868293,"2":0.2179430129524517,"3":-0.701705466753463,"4":-0.14472678535272337,"5":-1.4007311719948903,"6":3.98624565764336,"7":-2.575331785253806,"8":-0.7634085232045019,"9":-0.5058143309381404,"10":-0.8724868407213162,"11":-1.3184880144359616,"12":0.872758567809514}},{"sx":1,"sy":1,"depth":13,"w":{"0":-3.149544890050943,"1":-0.24233093982280732,"2":-1.1972015215156642,"3":2.679980603425487,"4":5.169903456251297,"5":1.7403107355417584,"6":1.3637379980774509,"7":0.08464515254858097,"8":-1.1207200496341367,"9":-0.26498787003902513,"10":-3.3404158625284937,"11":-4.042633814804883,"12":5.365687443465294}},{"sx":1,"sy":1,"depth":13,"w":{"0":-3.505018738854775,"1":1.7843865000845935,"2":0.620285552854321,"3":-3.5829242268405164,"4":0.01581213091756539,"5":0.6941915637686329,"6":1.9625954740380473,"7":-0.5228993225697092,"8":-1.212284760988774,"9":-1.1133163388602823,"10":0.5701880139901864,"11":0.48668705088836905,"12":0.3263608708350402}},{"sx":1,"sy":1,"depth":13,"w":{"0":-0.011795477295914005,"1":2.8646409710205862,"2":-0.29937141906492465,"3":-1.248104788004265,"4":1.008774464435695,"5":-2.1537460751790203,"6":0.5101382643707373,"7":0.10134916306360209,"8":-2.760605392406974,"9":3.586464437583869,"10":-0.2546254235279694,"11":0.8283796819803465,"12":0.7927131869869872}},{"sx":1,"sy":1,"depth":13,"w":{"0":0.5472670112812826,"1":-5.650310652177792,"2":1.7639192937847454,"3":-1.3435938272275842,"4":-0.24955112867153523,"5":0.2608610007609372,"6":-0.06396725860066795,"7":3.412682906991496,"8":3.048351052830243,"9":-3.4580008533647093,"10":-3.2925786043034146,"11":-2.2944500239815215,"12":-0.16170210540797123}},{"sx":1,"sy":1,"depth":13,"w":{"0":2.1210312832122797,"1":7.938741323159188,"2":2.2138571298246834,"3":-1.706838953506175,"4":0.6725280449714263,"5":-6.136314806782861,"6":-0.43005352304275707,"7":-0.9699302939016937,"8":-4.591334800540724,"9":7.580003703840259,"10":2.1933969939720415,"11":-2.585375903040573,"12":1.2828510039899754}},{"sx":1,"sy":1,"depth":13,"w":{"0":2.472271524708314,"1":2.9288168977874838,"2":-0.07217371631237013,"3":1.6122889904410664,"4":-0.812455969688048,"5":-2.477204960277042,"6":1.4170323455432057,"7":-3.137689361019781,"8":5.718656844540831,"9":-4.499961106631904,"10":1.7655384708423747,"11":-0.37777886728082744,"12":-0.15987855507890383}},{"sx":1,"sy":1,"depth":13,"w":{"0":2.182933300852095,"1":1.0998727706715858,"2":-4.368757049927502,"3":-1.4555902045776739,"4":-0.22119683383309274,"5":-2.736008755637085,"6":-0.5972077275949317,"7":-0.3140901879104366,"8":-1.9529054480464838,"9":6.26428624893706,"10":5.864366376601474,"11":4.024059445292457,"12":-2.820457134718931}}],"biases":{"sx":1,"sy":1,"depth":13,"w":{"0":-1.1104560518652526,"1":6.003152994180841,"2":0.3860008237279479,"3":1.8147457561768505,"4":-2.070515246685008,"5":0.7248181851753346,"6":-2.53438937510025,"7":2.2884888758881723,"8":1.5991720391234818,"9":-1.6151050113381626,"10":2.650066615005089,"11":-3.156715078440803,"12":4.200708013498702}}},{"out_depth":13,"out_sx":1,"out_sy":1,"layer_type":"sigmoid"},{"out_depth":14,"out_sx":1,"out_sy":1,"layer_type":"fc","num_inputs":13,"l1_decay_mul":0,"l2_decay_mul":1,"filters":[{"sx":1,"sy":1,"depth":13,"w":{"0":-0.7444521568223814,"1":-0.3946200932013498,"2":-0.8468428657997961,"3":-0.9278878210805852,"4":-1.5920324709353177,"5":-0.598367635053553,"6":1.8159279211042212,"7":-1.288189157623011,"8":-2.614878779325667,"9":4.012494552743616,"10":-3.558483792000478,"11":2.070511692873084,"12":5.555081689430389}},{"sx":1,"sy":1,"depth":13,"w":{"0":-0.4645979623941387,"1":-0.37024550453938115,"2":-0.2719203232809855,"3":-0.05405863453206704,"4":-0.0636190089897295,"5":-0.014924755737268633,"6":-0.21314244308458122,"7":-0.050600918079820006,"8":-0.024777339920844806,"9":-0.20005837934930135,"10":-0.08729503974284025,"11":-0.36802947937935004,"12":-0.30988300173837674}},{"sx":1,"sy":1,"depth":13,"w":{"0":0.9561419787910812,"1":-5.762826370964577,"2":-2.0515187537304667,"3":-1.1292647902473023,"4":2.770644157511801,"5":-0.5051030758407186,"6":-1.3322411529464704,"7":-1.2283810578942085,"8":-1.4932594566494737,"9":-1.1079966766066551,"10":-3.2037672484012365,"11":5.6061464404028705,"12":3.669373468208635}},{"sx":1,"sy":1,"depth":13,"w":{"0":-1.113844352487991,"1":2.979884249271186,"2":0.15439969118598856,"3":-2.1875171711314874,"4":-0.1355889915457549,"5":2.2659620318572977,"6":-9.212905356858068,"7":-2.1904956856922047,"8":-1.1452389991714464,"9":-0.08746583911325966,"10":5.632848262237173,"11":4.698688076344362,"12":-10.176116723298026}},{"sx":1,"sy":1,"depth":13,"w":{"0":0.8280069751391915,"1":0.3586321467647069,"2":-0.5566285392615906,"3":-0.7665263980531728,"4":-1.5709882046539332,"5":-0.7526344767560066,"6":2.4568710239834366,"7":-0.8291302366030213,"8":-0.6877692490363205,"9":-0.7624196743293031,"10":-1.774437893762529,"11":0.3251343384970232,"12":1.1080902814921347}},{"sx":1,"sy":1,"depth":13,"w":{"0":-1.3951157057272603,"1":6.547035100167238,"2":4.614036059225772,"3":-1.2870371848954711,"4":-0.9494550489242366,"5":3.5417769420934673,"6":1.5174600397248772,"7":-1.4576069412270787,"8":2.9306136898215995,"9":-0.5648658193475168,"10":5.067580638412303,"11":2.106666874496751,"12":-6.228784313380664}},{"sx":1,"sy":1,"depth":13,"w":{"0":-0.46605199649914436,"1":-0.33925253853327275,"2":-0.33528953701311337,"3":-0.02806835853046885,"4":-0.11313489945729646,"5":-0.021624433425610337,"6":-0.13326891916815709,"7":-0.10839372411162376,"8":-0.09545165701521847,"9":-0.36577307749794785,"10":-0.0845687813162781,"11":-0.32250684017229103,"12":-0.28743267943306927}},{"sx":1,"sy":1,"depth":13,"w":{"0":5.112281014269708,"1":-1.0157978601129007,"2":2.1355995668759724,"3":2.6482461988712553,"4":-2.4875252247422273,"5":1.934120279754131,"6":7.816503550784352,"7":4.215840762556814,"8":-0.656460955277156,"9":-6.056213264737785,"10":-7.03255316907899,"11":-2.3328433204746277,"12":1.1865387514888506}},{"sx":1,"sy":1,"depth":13,"w":{"0":-0.4640361700953199,"1":-0.44568394497438346,"2":-0.2829309851447922,"3":-0.11687893889026392,"4":-0.06443088078313446,"5":-0.09192388084447417,"6":-0.22939748796610226,"7":-0.06282149628025657,"8":-0.09644918812619208,"9":-0.25226498914320883,"10":-0.06462038361361595,"11":-0.33093808326216334,"12":-0.3172742853599632}},{"sx":1,"sy":1,"depth":13,"w":{"0":0.9922038846694115,"1":-2.566768605299239,"2":3.277589635094724,"3":-0.5726425393853863,"4":5.095450675756684,"5":-0.8963378635746518,"6":-4.868108894223422,"7":-0.799830056653586,"8":0.8372980669327966,"9":4.576633336047566,"10":0.47987226875885,"11":-3.4876343815410578,"12":1.4850845520688958}},{"sx":1,"sy":1,"depth":13,"w":{"0":-0.4829482419320055,"1":-0.37559361868486374,"2":-0.2922527309792761,"3":-0.11672989239070587,"4":-0.07904513034824079,"5":0.026757665545810386,"6":-0.18817849053376962,"7":-0.016210096800144746,"8":-0.13634299698350064,"9":-0.25667561937329425,"10":-0.06475574731232285,"11":-0.36588739044570623,"12":-0.2855058671560531}},{"sx":1,"sy":1,"depth":13,"w":{"0":-0.46878695823144384,"1":-0.36105627357405196,"2":-0.2780532068364081,"3":-0.048030583342610976,"4":-0.11361482183998795,"5":-0.02910876630900393,"6":-0.21711845379394723,"7":-0.09934208926868912,"8":-0.053309211093843636,"9":-0.2574118430638121,"10":-0.13128469633217515,"11":-0.35596878064837834,"12":-0.26169863223586876}},{"sx":1,"sy":1,"depth":13,"w":{"0":0.9672263354505959,"1":1.428566339679071,"2":-3.689586744927693,"3":2.0647454275801467,"4":-2.513972821756266,"5":-4.453613004777665,"6":1.4379185148543754,"7":1.3199589667181837,"8":-0.8059657846061358,"9":2.2297346971313736,"10":-1.3910906041306064,"11":-0.21294651185261107,"12":-1.606368076086523}},{"sx":1,"sy":1,"depth":13,"w":{"0":-3.263200809382547,"1":0.20961708292564452,"2":-1.7437734129815738,"3":2.4239417991010335,"4":1.711278251388105,"5":-0.2834624870805526,"6":1.2824432928220977,"7":2.600526026075457,"8":4.157318519539317,"9":-0.8684245446510992,"10":6.347788349928701,"11":-7.172490909680887,"12":6.448553651461188}}],"biases":{"sx":1,"sy":1,"depth":14,"w":{"0":-1.8628286189475527,"1":-1.8310426542342129,"2":2.3826793245733633,"3":6.004522753260091,"4":1.2716669299341423,"5":-3.732922370107204,"6":-1.756836847960252,"7":1.2214133780290812,"8":-1.6777423575576513,"9":1.3158487643508014,"10":-1.7440903022561718,"11":-1.8192211025624103,"12":0.9596809304629498,"13":1.2688721730142742}}},{"out_depth":14,"out_sx":1,"out_sy":1,"layer_type":"softmax","num_inputs":14}]},{"layers":[{"out_depth":2,"out_sx":1,"out_sy":1,"layer_type":"input"},{"out_depth":13,"out_sx":1,"out_sy":1,"layer_type":"fc","num_inputs":2,"l1_decay_mul":0,"l2_decay_mul":1,"filters":[{"sx":1,"sy":1,"depth":2,"w":{"0":0.5708191601813497,"1":-7.067150365906685}},{"sx":1,"sy":1,"depth":2,"w":{"0":11.453058367941505,"1":-2.5546109134723953}},{"sx":1,"sy":1,"depth":2,"w":{"0":6.022593212864742,"1":-4.088341186188517}},{"sx":1,"sy":1,"depth":2,"w":{"0":-0.2664669414877451,"1":-9.074391841933764}},{"sx":1,"sy":1,"depth":2,"w":{"0":4.20685983725111,"1":-5.935926497572882}},{"sx":1,"sy":1,"depth":2,"w":{"0":-4.554650291253392,"1":-5.659831733854078}},{"sx":1,"sy":1,"depth":2,"w":{"0":-4.833820188004008,"1":2.797440788360555}},{"sx":1,"sy":1,"depth":2,"w":{"0":-0.05480594250825363,"1":-4.603601477502583}},{"sx":1,"sy":1,"depth":2,"w":{"0":-5.413848072996977,"1":0.26747114458307564}},{"sx":1,"sy":1,"depth":2,"w":{"0":-7.343548640989277,"1":-0.10156353994120412}},{"sx":1,"sy":1,"depth":2,"w":{"0":-3.129113979577699,"1":3.258814335440579}},{"sx":1,"sy":1,"depth":2,"w":{"0":8.630694115443593,"1":3.527593548591132}},{"sx":1,"sy":1,"depth":2,"w":{"0":-9.325305343126509,"1":0.5116760008961869}}],"biases":{"sx":1,"sy":1,"depth":13,"w":{"0":0.1839207174454746,"1":-8.461731403906747,"2":-10.764616722075049,"3":11.485466515164354,"4":-15.33482385871222,"5":-4.462165416064586,"6":3.970834574500307,"7":-12.556243325038466,"8":8.450574886768658,"9":8.481081804517109,"10":7.0796015341103615,"11":11.336620507633286,"12":6.107902230921632}}},{"out_depth":13,"out_sx":1,"out_sy":1,"layer_type":"sigmoid"},{"out_depth":13,"out_sx":1,"out_sy":1,"layer_type":"fc","num_inputs":13,"l1_decay_mul":0,"l2_decay_mul":1,"filters":[{"sx":1,"sy":1,"depth":13,"w":{"0":-2.8222996973012515,"1":-1.6968489212358586,"2":3.1181178878632982,"3":-10.117803582953128,"4":2.803710653505991,"5":-0.009185994482594988,"6":3.540113598558354,"7":1.6744126989742227,"8":-2.8731651442600157,"9":-2.775288151509689,"10":-1.4064079798463958,"11":4.90397009609991,"12":4.418128311018611}},{"sx":1,"sy":1,"depth":13,"w":{"0":-6.528255506750356,"1":-1.9857830922556419,"2":-0.5419596084131344,"3":-0.29544973306359845,"4":0.07327478075637409,"5":0.5760366577824546,"6":3.522747907216578,"7":0.7912162764947047,"8":-2.535460951469943,"9":0.39579930496890375,"10":0.7390989358963722,"11":0.15139853930762445,"12":1.2087565353945386}},{"sx":1,"sy":1,"depth":13,"w":{"0":-3.120042722507285,"1":2.953648326374315,"2":-1.4499859862436297,"3":-0.254087100665659,"4":-0.7176313028510849,"5":-2.943864968010559,"6":1.042740773260867,"7":-0.17892082136265583,"8":1.2817775587328133,"9":-1.232051215710295,"10":2.1915098119507928,"11":0.15918203972263079,"12":-5.543181625188937}},{"sx":1,"sy":1,"depth":13,"w":{"0":0.30482200720346786,"1":1.2534790568442622,"2":-1.7940804361624998,"3":-2.136955103500296,"4":0.3560868409850273,"5":0.6415414435402462,"6":-0.7876799684987896,"7":-0.3534717743292437,"8":-2.75028469458148,"9":-6.609398002251877,"10":1.9194240087180907,"11":0.7168452019774727,"12":-0.9341762596801705}},{"sx":1,"sy":1,"depth":13,"w":{"0":0.20145634487536038,"1":-2.048307321305467,"2":-0.6553085868455584,"3":0.17833002591287497,"4":2.154907199237825,"5":1.8256765619522652,"6":-1.0947753060638514,"7":2.5260121661671144,"8":0.10962238915777585,"9":-2.6324253834766633,"10":-1.3017149967918247,"11":-0.2687776502719175,"12":3.364392159637095}},{"sx":1,"sy":1,"depth":13,"w":{"0":-0.046825890830989245,"1":3.6882743768351016,"2":3.2285860771511907,"3":3.1152705149240907,"4":3.2232558107296523,"5":-0.6024087792041287,"6":-3.0042044010888223,"7":-0.9201672552695256,"8":-0.22635819322179113,"9":-1.0681343549943543,"10":-1.741757322072442,"11":1.2771292282416067,"12":-2.0839686213274393}},{"sx":1,"sy":1,"depth":13,"w":{"0":1.8360911025082227,"1":-4.4936385645428265,"2":-2.9840514686612147,"3":5.456675144829586,"4":-4.4904604499465925,"5":-2.537077435750961,"6":-0.7800676119801162,"7":-3.98442432557576,"8":-1.8607132567904359,"9":-1.0496051608383126,"10":2.5899734912509933,"11":3.857103061800802,"12":1.2468885675174128}},{"sx":1,"sy":1,"depth":13,"w":{"0":-0.9952505417586082,"1":5.837877521304453,"2":1.4228500290500616,"3":-0.9572088820487519,"4":3.3674677036666565,"5":1.5008545644067874,"6":0.009010769945103757,"7":2.6999027538217524,"8":0.3843021375843224,"9":0.36299612543125426,"10":-1.8080412492539835,"11":-7.46861233643346,"12":2.284891289790624}},{"sx":1,"sy":1,"depth":13,"w":{"0":0.7252539624737158,"1":-1.6145784308517566,"2":0.6907916541242733,"3":-0.9771872189825581,"4":-0.15670000064041162,"5":1.6841773528632273,"6":3.0246048972538726,"7":-0.7881392775630204,"8":-6.254061810216554,"9":-2.4159505535813905,"10":1.248269980783418,"11":0.855645934019318,"12":3.3025111165219805}},{"sx":1,"sy":1,"depth":13,"w":{"0":-3.5010327568621955,"1":-1.2454785865861393,"2":3.890912481606397,"3":-2.0733647432685665,"4":1.0861380062741646,"5":6.8053475673973995,"6":0.3561987578328414,"7":0.909592667554833,"8":-1.0870770258045828,"9":-0.35443129538777324,"10":-3.2781626312618166,"11":0.6404465233112868,"12":2.829507728201274}},{"sx":1,"sy":1,"depth":13,"w":{"0":5.428148789019045,"1":-1.6516587646633338,"2":-1.3399769375004142,"3":0.330291751901771,"4":4.434103810455364,"5":-1.947032752403094,"6":-1.7415217298146555,"7":-0.7710062702433454,"8":-2.1063281135713785,"9":-2.250604016287444,"10":0.430238134243824,"11":0.0009976701312076055,"12":4.8854910753095036}},{"sx":1,"sy":1,"depth":13,"w":{"0":-2.4982903730722668,"1":7.23838643719075,"2":1.938171219069572,"3":0.47197778423544096,"4":-1.2846211984442075,"5":4.490566395775005,"6":-0.6158353964768987,"7":-2.61044164618475,"8":-0.5145953142144268,"9":-1.4496104485008219,"10":-0.6585778992022142,"11":1.545630815568522,"12":-2.171224408432154}},{"sx":1,"sy":1,"depth":13,"w":{"0":1.40796423737865,"1":0.7684236112324597,"2":3.4613258069244908,"3":-2.322439439910516,"4":-0.3099125027563715,"5":-2.071543698529578,"6":0.19378411993799644,"7":4.808224456838197,"8":-2.7889763212483927,"9":-4.050752822458689,"10":-1.1319514716244485,"11":0.3705453835841321,"12":-1.9962348681379325}}],"biases":{"sx":1,"sy":1,"depth":13,"w":{"0":5.339404073088363,"1":3.0171567866062494,"2":0.4769782685641273,"3":4.010315319717526,"4":-1.3080758203571516,"5":-1.1616720474859903,"6":-0.6758344923774513,"7":-2.7324967888685694,"8":1.8407209725991698,"9":3.5875652147586266,"10":0.2651874209557137,"11":-1.4005829964436334,"12":1.4125965112077175}}},{"out_depth":13,"out_sx":1,"out_sy":1,"layer_type":"sigmoid"},{"out_depth":14,"out_sx":1,"out_sy":1,"layer_type":"fc","num_inputs":13,"l1_decay_mul":0,"l2_decay_mul":1,"filters":[{"sx":1,"sy":1,"depth":13,"w":{"0":-3.1593584328228674,"1":-1.0049090487639403,"2":-1.3775466630282887,"3":6.7574865782912035,"4":-0.26928001070350405,"5":0.15785910745815387,"6":1.8804898755035404,"7":0.9746415891613966,"8":-2.4267638901655144,"9":-3.4292391045866033,"10":0.7147197576595533,"11":-6.258566196845899,"12":1.1840409478786729}},{"sx":1,"sy":1,"depth":13,"w":{"0":-0.05963752821119283,"1":-0.06090892518387941,"2":-0.09194672710483666,"3":-0.05238930217223433,"4":-0.15981382549319537,"5":-0.2971399081597963,"6":-0.2217586888231631,"7":-0.11912391438624474,"8":-0.04587785616585706,"9":-0.24416363810780295,"10":-0.2784181620866825,"11":-0.23377441880338248,"12":-0.022733876472927607}},{"sx":1,"sy":1,"depth":13,"w":{"0":3.177083466818801,"1":-2.0293437433681403,"2":-1.9986163567009632,"3":-1.0471888279131678,"4":3.1933279311497555,"5":-0.2925835539320568,"6":2.2035564438151676,"7":3.37762003037104,"8":-1.7767931579001879,"9":3.9787391977719446,"10":-4.331529503139715,"11":1.9389939514072556,"12":-2.612662364957652}},{"sx":1,"sy":1,"depth":13,"w":{"0":-6.334228879436513,"1":5.528551990648812,"2":1.7633789834236673,"3":0.48082102061781984,"4":-1.5298698047740873,"5":-1.3692656201011149,"6":-7.863242128967142,"7":-1.5237955790486495,"8":2.589621787394275,"9":-3.135439132660029,"10":5.143855376800349,"11":4.422947527837741,"12":-1.5003601260217017}},{"sx":1,"sy":1,"depth":13,"w":{"0":-0.7601904507475137,"1":-0.4888250106813614,"2":-2.897407413538606,"3":-1.0927707123042234,"4":-3.6637677375541515,"5":1.4410549204347785,"6":-0.971704808147709,"7":-1.7507987421110376,"8":-0.5257949281727496,"9":-0.22258511036055612,"10":-1.1918304845622878,"11":2.3336642860702916,"12":-0.8750947001468641}},{"sx":1,"sy":1,"depth":13,"w":{"0":-5.548840111892433,"1":-3.7692822803739183,"2":6.33820178668544,"3":-6.876402654442467,"4":2.03444133721065,"5":2.729599521842228,"6":4.540768523659755,"7":2.0053729490624446,"8":0.41664680570541124,"9":4.204692081089512,"10":0.5505056009732615,"11":-1.064866805825948,"12":6.995691794921897}},{"sx":1,"sy":1,"depth":13,"w":{"0":-0.05574178501314884,"1":-0.05854286750007434,"2":-0.09661797240776814,"3":-0.04639441862462215,"4":-0.16077069543666875,"5":-0.3083811414803005,"6":-0.22430860383318985,"7":-0.11800585478053709,"8":-0.05286816194819227,"9":-0.24665347477330787,"10":-0.2868646274833616,"11":-0.23050472740649428,"12":-0.024319607321448816}},{"sx":1,"sy":1,"depth":13,"w":{"0":1.6908698020161246,"1":-0.01600819339766146,"2":-0.4630397383782508,"3":4.779519223914803,"4":1.771501406592737,"5":-1.6954600392773957,"6":-1.7635322103416924,"7":4.334827707928131,"8":-2.901916382949178,"9":-2.819262381518185,"10":3.1020722181848375,"11":4.687607468536702,"12":-3.164438006025965}},{"sx":1,"sy":1,"depth":13,"w":{"0":-0.06410808494234341,"1":-0.06197288872204801,"2":-0.092870739011276,"3":-0.04057312154629605,"4":-0.15233529106304308,"5":-0.2946619715435092,"6":-0.2086923571433346,"7":-0.11735634408145669,"8":-0.05582941105019449,"9":-0.23313478997728082,"10":-0.27907935845903437,"11":-0.22828673537367244,"12":-0.020178552979555984}},{"sx":1,"sy":1,"depth":13,"w":{"0":6.669348699262466,"1":1.0312970375713704,"2":0.10139583226107471,"3":-1.0676831255633603,"4":1.3067163580204082,"5":4.890699057842036,"6":0.359484340260823,"7":-1.7229515225939969,"8":-1.3267048846634946,"9":-3.9949971141598755,"10":1.208634387640124,"11":-2.592741477352712,"12":-0.5957825871586377}},{"sx":1,"sy":1,"depth":13,"w":{"0":2.9683099962669783,"1":0.7343622420716879,"2":-0.2652089316696971,"3":-2.964136097238676,"4":-1.135100826442963,"5":0.366395088314095,"6":-0.5144904731231399,"7":-4.584262813223752,"8":-0.693414017172131,"9":3.614057528359073,"10":0.12458098579436447,"11":-0.4147729553425307,"12":-1.0587436989891785}},{"sx":1,"sy":1,"depth":13,"w":{"0":-0.06090112223759087,"1":-0.05500217056904494,"2":-0.0979971707122278,"3":-0.04826632226326265,"4":-0.15710177942857562,"5":-0.288750188316409,"6":-0.20956681884514688,"7":-0.11104696073542014,"8":-0.05629776993774474,"9":-0.2437366827439653,"10":-0.27662321335416395,"11":-0.23232525912992427,"12":-0.015387243550120984}},{"sx":1,"sy":1,"depth":13,"w":{"0":-1.247700477164052,"1":-2.4292503961153753,"2":3.87326568000491,"3":-1.6999357162366184,"4":-0.1652603420628737,"5":-1.3790764140367557,"6":1.9894906939073302,"7":-0.08514549142275339,"8":-1.060228169851368,"9":-0.6435024826531364,"10":-5.512503289968755,"11":-1.4766037369870295,"12":-1.3741246663752062}},{"sx":1,"sy":1,"depth":13,"w":{"0":2.769049217680997,"1":2.700509037536296,"2":-4.718793417589855,"3":2.92493740627672,"4":-0.950011094511755,"5":-3.6697638573657074,"6":0.9972153975439596,"7":-0.5410304489991219,"8":7.932417178132197,"9":3.42073778478238,"10":1.2621770676962953,"11":-0.6832277676252044,"12":3.0784684673709912}}],"biases":{"sx":1,"sy":1,"depth":14,"w":{"0":5.242424954157491,"1":-2.642909352360324,"2":-1.2163433311378111,"3":6.1248289912555425,"4":1.9533895503238223,"5":-4.910804925340793,"6":-2.6100676037861925,"7":0.2550392114579243,"8":-2.685379895712731,"9":-0.1427476571089451,"10":1.6421118642553747,"11":-2.678120449644591,"12":3.922847265872528,"13":-2.2542686222308013}}},{"out_depth":14,"out_sx":1,"out_sy":1,"layer_type":"softmax","num_inputs":14}]},{"layers":[{"out_depth":2,"out_sx":1,"out_sy":1,"layer_type":"input"},{"out_depth":13,"out_sx":1,"out_sy":1,"layer_type":"fc","num_inputs":2,"l1_decay_mul":0,"l2_decay_mul":1,"filters":[{"sx":1,"sy":1,"depth":2,"w":{"0":-5.199312170765066,"1":1.1886464252443745}},{"sx":1,"sy":1,"depth":2,"w":{"0":-3.8136677047550234,"1":-0.09867573994014273}},{"sx":1,"sy":1,"depth":2,"w":{"0":5.161088586245883,"1":5.867175512287947}},{"sx":1,"sy":1,"depth":2,"w":{"0":-5.251546583527333,"1":2.766953933950268}},{"sx":1,"sy":1,"depth":2,"w":{"0":-2.6682639349113915,"1":-2.035317265589518}},{"sx":1,"sy":1,"depth":2,"w":{"0":-6.226321918870088,"1":-1.7136208270527562}},{"sx":1,"sy":1,"depth":2,"w":{"0":2.403674645107934,"1":6.162341682572423}},{"sx":1,"sy":1,"depth":2,"w":{"0":4.942384596915788,"1":-3.102275048584862}},{"sx":1,"sy":1,"depth":2,"w":{"0":-5.7229016872533345,"1":-7.362572566853877}},{"sx":1,"sy":1,"depth":2,"w":{"0":5.3092844014169485,"1":-10.776716630945534}},{"sx":1,"sy":1,"depth":2,"w":{"0":6.859729753769767,"1":0.8173351241524275}},{"sx":1,"sy":1,"depth":2,"w":{"0":0.8795958800434268,"1":-7.259074178956937}},{"sx":1,"sy":1,"depth":2,"w":{"0":-4.463765470708895,"1":2.985097778002888}}],"biases":{"sx":1,"sy":1,"depth":13,"w":{"0":3.20970514871979,"1":9.244566369137937,"2":-2.48096724624639,"3":-9.838058064728719,"4":-3.216861895690122,"5":-1.3048803663272452,"6":0.9468401252534662,"7":-5.6861568144354555,"8":7.394263548476772,"9":5.040313014927557,"10":-2.727876371122169,"11":14.98623222381105,"12":6.470286406000918}}},{"out_depth":13,"out_sx":1,"out_sy":1,"layer_type":"sigmoid"},{"out_depth":13,"out_sx":1,"out_sy":1,"layer_type":"fc","num_inputs":13,"l1_decay_mul":0,"l2_decay_mul":1,"filters":[{"sx":1,"sy":1,"depth":13,"w":{"0":-3.2046641038086747,"1":-2.008396864576988,"2":-2.9768552924998684,"3":4.438328969079565,"4":2.1852045343006408,"5":-0.45537977189908735,"6":-1.1246473461525055,"7":-2.610102048421118,"8":0.6600612616255682,"9":5.752609074510213,"10":2.550088117973437,"11":-6.642601500064105,"12":1.3721374242543343}},{"sx":1,"sy":1,"depth":13,"w":{"0":-2.773316487539137,"1":4.806330512816399,"2":-2.6165942591552462,"3":0.3410758977994757,"4":-0.07556509289916227,"5":1.2912123956196904,"6":-0.2731079184453309,"7":-5.494405627947564,"8":4.421446800192973,"9":2.7239024042773288,"10":1.9275151102501475,"11":4.142968158367037,"12":1.6922697718010662}},{"sx":1,"sy":1,"depth":13,"w":{"0":3.4362144300980177,"1":-1.4598878076446513,"2":-5.295443352250707,"3":-0.8900664375784443,"4":2.7886627828563513,"5":1.2646035463428513,"6":3.4641740437571578,"7":-2.2585345778934673,"8":1.3002267044249145,"9":4.0685085733967075,"10":5.620571449026773,"11":-5.809832526955057,"12":-3.1519001179968527}},{"sx":1,"sy":1,"depth":13,"w":{"0":0.1313180374122558,"1":2.245439943066172,"2":3.1864945693221363,"3":-0.3496854247952395,"4":-1.580168008841218,"5":-1.3017541044304113,"6":0.9991732835762392,"7":0.6475755914676476,"8":-1.20117580675799,"9":-0.47906343628180603,"10":-1.811138336022499,"11":0.09747735516291561,"12":0.0026581527793457602}},{"sx":1,"sy":1,"depth":13,"w":{"0":3.7903494332092813,"1":0.18453356792665856,"2":4.573887571062016,"3":-1.57028097942542,"4":1.5683047460992077,"5":1.6456984942207378,"6":-1.1890144773892806,"7":-0.1812032267349999,"8":-1.7465526411077887,"9":4.362813646513127,"10":-3.3196510272818807,"11":-4.398263687208477,"12":-1.8632476483639595}},{"sx":1,"sy":1,"depth":13,"w":{"0":3.1800121134228396,"1":-0.534898061719137,"2":1.273558226375995,"3":-0.9233044688368716,"4":1.239296302292076,"5":1.9595764195882581,"6":-1.3963922519001224,"7":3.279703193599565,"8":0.14090285674344824,"9":4.615805054726945,"10":-1.165266655602734,"11":-0.03509921038392391,"12":-3.095521086345046}},{"sx":1,"sy":1,"depth":13,"w":{"0":0.36469737682780384,"1":0.9561033537217262,"2":1.9115567643673395,"3":-0.7090946932781503,"4":-0.9728752624108384,"5":-0.4387416002748399,"6":-0.3020619544067092,"7":-0.4839912903652946,"8":0.3150110509844007,"9":-0.7961970901594317,"10":-0.622918612996359,"11":-0.9702604454146009,"12":0.4845645302869445}},{"sx":1,"sy":1,"depth":13,"w":{"0":-0.706589305193284,"1":-0.9387732286207064,"2":-0.4895432448990233,"3":5.342843993074044,"4":0.9469644595725705,"5":-0.44325377382297554,"6":-0.12368336314256592,"7":2.2961861754226818,"8":1.9554578992728922,"9":-0.4574038714808666,"10":-1.34527218514813,"11":-2.031909260560665,"12":-1.7881616717678976}},{"sx":1,"sy":1,"depth":13,"w":{"0":3.1445897245669108,"1":-1.393770881023999,"2":-1.0277830041080922,"3":-0.8388396987396805,"4":-1.3840286309609444,"5":-3.433913817507718,"6":1.186165038728491,"7":1.9164492345046653,"8":1.0828045702706817,"9":-4.298581726006141,"10":2.246338809695965,"11":-4.5409248552232135,"12":0.2510726738587371}},{"sx":1,"sy":1,"depth":13,"w":{"0":5.248967126001055,"1":-0.3828942791715931,"2":-0.8138274482194197,"3":1.7389325842611416,"4":-1.0690657661675602,"5":-3.242008854810112,"6":-0.08060414123605383,"7":0.43349863525308563,"8":4.940239690968262,"9":7.245741030862127,"10":4.97505598316331,"11":-7.004577977908111,"12":-2.797890254349582}},{"sx":1,"sy":1,"depth":13,"w":{"0":0.373185836704675,"1":0.06967397581595791,"2":0.7585157745006358,"3":0.0021021989456002843,"4":0.24057046211201752,"5":0.04227959763091531,"6":3.398489290667759,"7":-1.2942122540409895,"8":-0.727455520013112,"9":-0.560564232040761,"10":0.6805422595138825,"11":0.08021128685918835,"12":2.6386993383053112}},{"sx":1,"sy":1,"depth":13,"w":{"0":6.340231367808567,"1":-1.230075920818171,"2":-2.909545452279237,"3":0.3980073844162529,"4":0.5529350701342387,"5":0.6360215913551941,"6":-3.5773583415885324,"7":-0.5873367299242683,"8":1.069584491664469,"9":1.6891741600621346,"10":-0.7112074075338456,"11":-0.3211669290605209,"12":0.9578134314031835}},{"sx":1,"sy":1,"depth":13,"w":{"0":0.8950494024267017,"1":-0.23806805783048685,"2":3.7951103219531683,"3":-1.546439037001464,"4":0.4969416679877349,"5":3.8840584509656932,"6":1.8222480276005741,"7":-1.7508592322540604,"8":-3.7054986951959155,"9":5.229682561988379,"10":-3.460126579309231,"11":-8.293617637086301,"12":2.761416205526105}}],"biases":{"sx":1,"sy":1,"depth":13,"w":{"0":4.799009670492764,"1":-6.467697500221224,"2":1.0874939282363854,"3":-0.5803763996775674,"4":0.5940469348731802,"5":-0.6298353815129974,"6":-0.030981672785604753,"7":1.6019609012368066,"8":1.4858742512562049,"9":1.6464583925652754,"10":-0.06144776731528188,"11":3.2473619642163403,"12":2.8085306007339943}}},{"out_depth":13,"out_sx":1,"out_sy":1,"layer_type":"sigmoid"},{"out_depth":14,"out_sx":1,"out_sy":1,"layer_type":"fc","num_inputs":13,"l1_decay_mul":0,"l2_decay_mul":1,"filters":[{"sx":1,"sy":1,"depth":13,"w":{"0":-0.016909228772438802,"1":-0.20042523576069027,"2":-0.2188883947146455,"3":-0.37614015665841205,"4":-0.04018716254332862,"5":-0.19708539379463266,"6":-0.2626176666824362,"7":-0.06656055014983812,"8":-0.09906157579923416,"9":-0.12207480969984008,"10":-0.3243245471391533,"11":-0.20716245268096334,"12":-0.2251119710526281}},{"sx":1,"sy":1,"depth":13,"w":{"0":-0.09240205351806204,"1":-0.305012804860519,"2":-0.1160914970021206,"3":-0.29308014349752437,"4":-0.07878796124685146,"5":-0.0559854294423292,"6":-0.2791116561828722,"7":-0.08678366945320418,"8":-0.10850369444611788,"9":-0.14891778840248734,"10":-0.3059112886378417,"11":0.0018461370800165733,"12":-0.19798466950658883}},{"sx":1,"sy":1,"depth":13,"w":{"0":-2.6662796031971223,"1":-3.8730895309615296,"2":-0.7521758006311925,"3":0.5386147627115977,"4":4.424696113917527,"5":2.2521558982584047,"6":-0.47356305443725766,"7":-1.1746433261304907,"8":5.782250092678002,"9":1.8872632293676006,"10":0.5166549492322683,"11":1.013203383211502,"12":-3.411412788043941}},{"sx":1,"sy":1,"depth":13,"w":{"0":-0.45817414658221106,"1":3.3819627052174344,"2":-2.843164979302948,"3":0.34276265453946214,"4":-3.0903432973146567,"5":1.8865906892877,"6":0.5627666095480479,"7":-1.861964577936732,"8":3.445063684417011,"9":-3.4973095542141084,"10":0.4678331653741152,"11":-1.8853726310949368,"12":5.626719430543065}},{"sx":1,"sy":1,"depth":13,"w":{"0":0.028969253666377297,"1":-0.18125440086975544,"2":-0.154775761315587,"3":-0.3212467213398045,"4":-0.15844056658994124,"5":-0.2023524207091395,"6":-0.26582765718105494,"7":0.020704733124756566,"8":-0.09074234001985394,"9":-0.09424897437845267,"10":-0.25786814141393744,"11":-0.03636534160722867,"12":-0.26772415355140716}},{"sx":1,"sy":1,"depth":13,"w":{"0":5.74203051485882,"1":1.9988485448572122,"2":-5.414203314056694,"3":2.901640942195213,"4":-5.308536969883878,"5":-6.553772183890491,"6":1.4468944885431219,"7":5.610830469737894,"8":3.3344301766634445,"9":8.759032624735232,"10":-3.4969691465397656,"11":3.959743176652703,"12":-1.913662556792902}},{"sx":1,"sy":1,"depth":13,"w":{"0":-0.07918789365467674,"1":-0.19199842426095623,"2":-0.09475858021099756,"3":-0.407335071998559,"4":-0.04802788948179516,"5":-0.035051331714614435,"6":-0.3845100961535277,"7":-0.11257467823936307,"8":-0.08845182482702556,"9":-0.15203992284840684,"10":-0.16466716859200473,"11":-0.13129127138271537,"12":-0.22687924536720597}},{"sx":1,"sy":1,"depth":13,"w":{"0":-6.79893653652425,"1":0.647860932565095,"2":0.06421602957301316,"3":-1.8548552267553056,"4":5.801213513697995,"5":4.58561746475564,"6":0.31838841662036044,"7":-2.178278400704562,"8":-6.476222309393859,"9":0.8732964330336889,"10":0.3814254665293049,"11":2.3941320296194024,"12":3.8625871438963117}},{"sx":1,"sy":1,"depth":13,"w":{"0":-0.10466305837472693,"1":-0.2756830496368747,"2":-0.12627302014139735,"3":-0.370297948706635,"4":-0.08296672282105033,"5":-0.08125390245569197,"6":-0.29569135768121946,"7":-0.04326109054619131,"8":-0.13895563759163174,"9":-0.14808010431538146,"10":-0.29357260637970073,"11":-0.1119120548224251,"12":-0.2755874683308902}},{"sx":1,"sy":1,"depth":13,"w":{"0":-0.030812058397960924,"1":4.370256708203295,"2":-0.1957199025724434,"3":1.6667289148780882,"4":-0.7566601282131175,"5":1.652239996219741,"6":0.611084889160609,"7":1.5050520389832456,"8":1.542497013687338,"9":0.7860910139575065,"10":0.48941347484128905,"11":-6.296718397972097,"12":-4.6936042427054625}},{"sx":1,"sy":1,"depth":13,"w":{"0":-0.07627673696324073,"1":-0.2758539931170039,"2":-0.06961994116867941,"3":-0.2956563400790459,"4":-0.19902463575904775,"5":-0.13877497848826328,"6":-0.3767530495339878,"7":-0.09279687613459794,"8":-0.09296050134082753,"9":-0.0372324300641113,"10":-0.1708935181220194,"11":-0.13415125304041825,"12":-0.27115578207736163}},{"sx":1,"sy":1,"depth":13,"w":{"0":-0.10960332295525828,"1":-0.29920183800749073,"2":-0.10810396974907209,"3":-0.36990388771495186,"4":0.017797255132902475,"5":-0.22920765086127037,"6":-0.24987186572061876,"7":-0.07143658483511445,"8":-0.202560870711449,"9":-0.04165175402583644,"10":-0.22367303040317055,"11":-0.10916512010842273,"12":-0.26927016008175253}},{"sx":1,"sy":1,"depth":13,"w":{"0":-2.1011776666711097,"1":3.649792108066273,"2":-1.8656206176286645,"3":0.2985966435329407,"4":-2.2885273016838688,"5":-3.996719518632268,"6":0.6208750446020974,"7":-0.4295923822760283,"8":-3.0638272180810944,"9":-2.096211830135391,"10":0.4475105096913476,"11":-3.7134115133131225,"12":3.569051070319472}},{"sx":1,"sy":1,"depth":13,"w":{"0":6.785961814054916,"1":-8.293165810433948,"2":11.756997097360426,"3":-1.7538147501714034,"4":1.5926474052743589,"5":1.0959573593343583,"6":-1.034785354873857,"7":-0.9964742776985549,"8":-3.363240667475251,"9":-5.532129931021653,"10":3.0565341333335048,"11":5.294787261012136,"12":-1.5453457796143009}}],"biases":{"sx":1,"sy":1,"depth":14,"w":{"0":-1.004471146885585,"1":-1.209064781418754,"2":0.14225965970621685,"3":0.2272681753876532,"4":-1.3126340928378784,"5":-2.1219958620810226,"6":-1.1746195821805958,"7":-0.6728251247609123,"8":-0.9183525820857859,"9":2.1900416670238974,"10":-1.211568075336005,"11":-1.0959806380609896,"12":1.010218803591093,"13":7.151723579938585}}},{"out_depth":14,"out_sx":1,"out_sy":1,"layer_type":"softmax","num_inputs":14}]},{"layers":[{"out_depth":2,"out_sx":1,"out_sy":1,"layer_type":"input"},{"out_depth":13,"out_sx":1,"out_sy":1,"layer_type":"fc","num_inputs":2,"l1_decay_mul":0,"l2_decay_mul":1,"filters":[{"sx":1,"sy":1,"depth":2,"w":{"0":-4.020885342219066,"1":9.350611706899432}},{"sx":1,"sy":1,"depth":2,"w":{"0":1.6127722251109242,"1":-8.501968586033525}},{"sx":1,"sy":1,"depth":2,"w":{"0":-5.515313569289809,"1":2.4839852772435567}},{"sx":1,"sy":1,"depth":2,"w":{"0":-8.886825164135628,"1":-1.6522486821206155}},{"sx":1,"sy":1,"depth":2,"w":{"0":0.06680570000433998,"1":-8.488937992961278}},{"sx":1,"sy":1,"depth":2,"w":{"0":2.723887960084824,"1":-6.065237780266925}},{"sx":1,"sy":1,"depth":2,"w":{"0":-6.451836785282829,"1":3.3132239342302774}},{"sx":1,"sy":1,"depth":2,"w":{"0":3.875475896942699,"1":-4.492689222040007}},{"sx":1,"sy":1,"depth":2,"w":{"0":4.8212923124499225,"1":1.1461057138414774}},{"sx":1,"sy":1,"depth":2,"w":{"0":-1.642829112559302,"1":7.1468899730302065}},{"sx":1,"sy":1,"depth":2,"w":{"0":4.302444510210906,"1":6.389393092765114}},{"sx":1,"sy":1,"depth":2,"w":{"0":2.056592058553437,"1":-6.089806540668027}},{"sx":1,"sy":1,"depth":2,"w":{"0":-6.294402052440603,"1":2.461415335315321}}],"biases":{"sx":1,"sy":1,"depth":13,"w":{"0":11.785335036595875,"1":-8.810910180899308,"2":-3.0911319644024378,"3":-5.238380603313387,"4":-3.986573827531527,"5":-1.631051693990118,"6":7.3303161623755955,"7":1.6938669898505279,"8":-4.345243002570738,"9":-7.13740812994024,"10":-8.448532522116755,"11":-4.3775881814597,"12":5.204164059403811}}},{"out_depth":13,"out_sx":1,"out_sy":1,"layer_type":"sigmoid"},{"out_depth":13,"out_sx":1,"out_sy":1,"layer_type":"fc","num_inputs":13,"l1_decay_mul":0,"l2_decay_mul":1,"filters":[{"sx":1,"sy":1,"depth":13,"w":{"0":1.5779488470255705,"1":-3.7291790207155304,"2":0.1548991553047288,"3":-3.97980593005864,"4":0.8247377558373138,"5":-0.35046730182919533,"6":0.1915773425556533,"7":-0.7628269848047132,"8":5.688345459693472,"9":0.41645100788117084,"10":0.6495176652175185,"11":-0.5733753385785763,"12":-0.1299329944924204}},{"sx":1,"sy":1,"depth":13,"w":{"0":-2.8943874759230748,"1":-2.1588791626454555,"2":-0.13814518733760878,"3":-0.08626047879459209,"4":-1.7190847588165863,"5":-2.6257419373995186,"6":-4.182623493672594,"7":3.654132586657047,"8":-0.05237527145726986,"9":6.927896132251476,"10":0.7251344078128635,"11":1.631286305278909,"12":-0.2517766086774631}},{"sx":1,"sy":1,"depth":13,"w":{"0":0.804131755683003,"1":-0.13796402930881144,"2":-0.10162472579276995,"3":-0.9004819609062609,"4":-1.2740422784046546,"5":-7.4232997437419295,"6":-0.7641260180295463,"7":-0.7070880330280607,"8":0.07224397653306962,"9":1.3295594938001105,"10":2.7034616972174197,"11":-2.5696831263558755,"12":0.9191334219701135}},{"sx":1,"sy":1,"depth":13,"w":{"0":-0.48539176796652117,"1":3.6621304413952878,"2":5.364080808903247,"3":-6.63972767544808,"4":6.445469854226959,"5":-1.2405839798028608,"6":1.176872382659779,"7":-1.4142905021751144,"8":0.288923348267133,"9":-0.20190325454765545,"10":-2.464546762600506,"11":-0.6885396784008208,"12":0.9594535434809176}},{"sx":1,"sy":1,"depth":13,"w":{"0":0.32364946360709534,"1":1.1752483453054898,"2":2.0607649812123223,"3":1.196882724354952,"4":0.2521840347273226,"5":-1.1947481482658624,"6":-5.022497710381497,"7":-5.588626586419283,"8":-2.109656047463537,"9":5.48681588568519,"10":-0.5745977879533641,"11":-0.1981826680802098,"12":-1.4983016655039112}},{"sx":1,"sy":1,"depth":13,"w":{"0":-2.1281616581923,"1":4.146726560952873,"2":0.6365694019921305,"3":0.8884101380669664,"4":6.005933043473036,"5":0.8920262157268961,"6":1.5897162695774572,"7":0.12365446319787227,"8":-2.8845472797810707,"9":-0.26805096316648225,"10":-3.6369233550280957,"11":2.0178714329041956,"12":0.4705310689262181}},{"sx":1,"sy":1,"depth":13,"w":{"0":0.3230664033468329,"1":1.456082489214704,"2":-4.492268933919166,"3":-0.9615791890738707,"4":0.9829877094165955,"5":0.2699971029381324,"6":-1.3015746411161662,"7":0.21301508537009703,"8":0.08463151487916777,"9":2.8519348867450613,"10":-1.187470215262946,"11":2.6601912113219357,"12":-0.6728338672298071}},{"sx":1,"sy":1,"depth":13,"w":{"0":0.6931826146258383,"1":-5.4019191581721815,"2":1.8630614748415246,"3":0.5470895326698124,"4":1.498052665764029,"5":-4.62236301070083,"6":3.812735956861086,"7":0.6998874870011311,"8":-0.33416258966951307,"9":-0.833849245942192,"10":0.7550903029895938,"11":-2.0422894357349035,"12":1.2483980856604102}},{"sx":1,"sy":1,"depth":13,"w":{"0":3.826409171092975,"1":-4.3126062024592695,"2":1.4487516035166699,"3":-1.2425628983470938,"4":-1.9457343660981155,"5":-0.7650701431148718,"6":-2.1571331487881626,"7":0.676532032796849,"8":-0.5813065977990565,"9":-3.4448148820343794,"10":0.25059079922475863,"11":-4.317982883536228,"12":2.1620209506961463}},{"sx":1,"sy":1,"depth":13,"w":{"0":-4.92430773967069,"1":2.432768678641136,"2":3.1374976071851877,"3":-1.0943350385493957,"4":0.5159370723917487,"5":-2.492248763575682,"6":-3.585897000531053,"7":7.156739140544077,"8":2.5645042853148743,"9":-2.082438470398258,"10":1.5699107264403453,"11":0.44761293210076286,"12":0.33261207933672243}},{"sx":1,"sy":1,"depth":13,"w":{"0":5.685243793883282,"1":-2.3349570740816294,"2":-1.686065195114114,"3":2.5525638234092622,"4":1.995236962027285,"5":1.5576620483597146,"6":-0.12393722584940003,"7":2.4151240776093044,"8":4.277925532026555,"9":1.2542517927421706,"10":-6.61091079478562,"11":-2.011399375500502,"12":-3.6705489153576867}},{"sx":1,"sy":1,"depth":13,"w":{"0":-3.228383876963134,"1":0.46854811315098427,"2":0.7829721696716871,"3":5.038475834968314,"4":1.6119796192681604,"5":0.8621849033191155,"6":-4.006163059076878,"7":-0.6013690749373218,"8":-1.5772772743763954,"9":-0.13638552348121183,"10":-6.0926934135025,"11":1.332463651405105,"12":-3.2745000011460963}},{"sx":1,"sy":1,"depth":13,"w":{"0":-4.216762418896771,"1":2.980453592383595,"2":-0.8923171210628905,"3":2.9230320503609524,"4":-0.11377113776302705,"5":-1.3081744876095103,"6":3.919552359743086,"7":2.5753772172474365,"8":3.7891394735448283,"9":-5.194019757353084,"10":3.846978030124153,"11":-4.823251219467352,"12":0.8982735347883255}}],"biases":{"sx":1,"sy":1,"depth":13,"w":{"0":0.7363635540453399,"1":-2.3912709323541264,"2":2.7318119159263534,"3":-1.8669754194647181,"4":3.3351059467159705,"5":0.3694491001348405,"6":0.3919182400418519,"7":-1.8182423876094995,"8":-0.26147347135833027,"9":-0.5043790956813363,"10":-2.53528614054196,"11":1.0920211740279182,"12":-2.1727719058835437}}},{"out_depth":13,"out_sx":1,"out_sy":1,"layer_type":"sigmoid"},{"out_depth":14,"out_sx":1,"out_sy":1,"layer_type":"fc","num_inputs":13,"l1_decay_mul":0,"l2_decay_mul":1,"filters":[{"sx":1,"sy":1,"depth":13,"w":{"0":0.5743715614484006,"1":-3.5805939732454557,"2":2.8735631760291778,"3":1.430201987335266,"4":-0.45276341200565234,"5":4.024601286389026,"6":-1.397517977570403,"7":-2.720080426931706,"8":2.2156286661362814,"9":2.0366766642430276,"10":-4.0905880976616755,"11":-7.256075219192079,"12":4.9939148348361755}},{"sx":1,"sy":1,"depth":13,"w":{"0":-0.22061270385351847,"1":-0.07885560490595787,"2":-0.11234621919460323,"3":-0.11638791437844691,"4":-0.012401608397460986,"5":-0.17785645567106428,"6":-0.20943012132938257,"7":-0.13062880190849496,"8":-0.15354363699353266,"9":-0.19198790511764333,"10":-0.26785211510494916,"11":-0.05396456463492357,"12":-0.1909654105448607}},{"sx":1,"sy":1,"depth":13,"w":{"0":-1.455916914553939,"1":-0.39119824100634953,"2":0.6064836232754118,"3":-1.473854107629668,"4":-0.44965254394560933,"5":1.7051250939326765,"6":-1.8052627308785267,"7":1.2404236769029875,"8":1.5537942562280798,"9":-1.3591223935406553,"10":0.2905538608103949,"11":-0.31862111143723565,"12":1.1225203677877176}},{"sx":1,"sy":1,"depth":13,"w":{"0":-4.462611528437535,"1":-4.338786186445542,"2":-0.4115821627989788,"3":-1.1593984058419895,"4":0.43721338926759795,"5":-3.313256377705637,"6":0.48873815010166083,"7":6.780975818770418,"8":-4.97930487841652,"9":5.562978430087129,"10":6.388355296237156,"11":1.4550702838030332,"12":0.6472862648628483}},{"sx":1,"sy":1,"depth":13,"w":{"0":1.0855450798374724,"1":-1.0083137964939384,"2":-2.1813159112126574,"3":-0.7366661688423738,"4":-0.2610507419046496,"5":0.8105847758971049,"6":1.2510514103421946,"7":-2.018437524734576,"8":-2.3484563893039687,"9":3.1784157315809716,"10":2.7314917163352863,"11":-2.187637701741455,"12":-3.5753150661412048}},{"sx":1,"sy":1,"depth":13,"w":{"0":3.0794809551268165,"1":6.215807657811584,"2":-6.306136247716511,"3":8.533312838626449,"4":-6.010346234483006,"5":-6.366902032995832,"6":2.8814339849182398,"7":1.0543661478733999,"8":2.64148911974868,"9":-7.249821840812665,"10":-0.8080596666068248,"11":2.0626377878839146,"12":5.413984588135098}},{"sx":1,"sy":1,"depth":13,"w":{"0":-0.20087574475111447,"1":-0.08414074089199707,"2":-0.12074200869995562,"3":-0.08074031607171049,"4":-0.008100268549891172,"5":-0.208476525619538,"6":-0.22474219814661076,"7":-0.12032707871778586,"8":-0.15398672911807276,"9":-0.20914051089792554,"10":-0.26239404492761775,"11":-0.04623569788268998,"12":-0.19697054237724027}},{"sx":1,"sy":1,"depth":13,"w":{"0":-1.2839177312135859,"1":4.430835287433428,"2":-0.35996569520370064,"3":-6.895906463226172,"4":-1.9788233930169126,"5":4.8978606924965025,"6":2.193075653795766,"7":-2.3105229158565312,"8":0.43384836275063,"9":-2.4947239898381617,"10":1.095979851932431,"11":-2.4626111943699343,"12":-0.20214287802070097}},{"sx":1,"sy":1,"depth":13,"w":{"0":-0.20753216533427327,"1":-0.07202546549613115,"2":-0.13554932219912855,"3":-0.11214906349092131,"4":-0.024235164002883086,"5":-0.20791580131203422,"6":-0.2007255894568382,"7":-0.1251198395116248,"8":-0.15923588529477078,"9":-0.2214769639558782,"10":-0.27859691187154756,"11":-0.04648121472671522,"12":-0.1726529584066929}},{"sx":1,"sy":1,"depth":13,"w":{"0":-0.19379616041682096,"1":-0.08637467954901012,"2":-0.11318164783443245,"3":-0.08202299956510586,"4":-0.020218809135175157,"5":-0.19714029028197938,"6":-0.23217921760459473,"7":-0.15133624667874904,"8":-0.16688872734853596,"9":-0.1966427396909115,"10":-0.26014956324237165,"11":-0.037086127545176185,"12":-0.1662706181661785}},{"sx":1,"sy":1,"depth":13,"w":{"0":-0.2148820802729315,"1":-0.07984137219677888,"2":-0.11558290807874098,"3":-0.09762680957871686,"4":-0.02362666014147065,"5":-0.2007032544597854,"6":-0.2301281139988366,"7":-0.13534592048205166,"8":-0.15325264709718445,"9":-0.17209797570336513,"10":-0.23143099360035949,"11":-0.057025192284894964,"12":-0.20148970453365633}},{"sx":1,"sy":1,"depth":13,"w":{"0":-0.16287662254892168,"1":-0.07310142590687971,"2":-0.12213220450153733,"3":-0.09911298053407465,"4":-0.016185276337984746,"5":-0.19752182951252434,"6":-0.25165785933733126,"7":-0.10051326297541935,"8":-0.18226689383750452,"9":-0.20240127953015996,"10":-0.2587208137888363,"11":-0.06429768978733189,"12":-0.18038643705818114}},{"sx":1,"sy":1,"depth":13,"w":{"0":0.14594366238629167,"1":3.2297377114531933,"2":0.8967023148952011,"3":-0.23772298962841035,"4":2.9120640791367345,"5":-0.5754702238058416,"6":0.8713917173650059,"7":0.043476930238214986,"8":-0.020151241291100637,"9":2.088991485319561,"10":-0.4637999068111773,"11":-0.11885471249739386,"12":-3.4734196267520634}},{"sx":1,"sy":1,"depth":13,"w":{"0":3.5313491179443366,"1":-4.1208845385327875,"2":5.56142094997862,"3":1.2081327027618571,"4":5.948668350747464,"5":0.03187890768528095,"6":-2.98005146897435,"7":-1.426926255776278,"8":1.4404270506991836,"9":-0.5843218911383509,"10":-3.5612962800276184,"11":9.041755144023238,"12":-3.7827774881598777}}],"biases":{"sx":1,"sy":1,"depth":14,"w":{"0":-0.932786771030094,"1":-1.8912404742708828,"2":0.2965796258521449,"3":2.4065759549801413,"4":0.21244787239556548,"5":3.574097989845832,"6":-1.8603110404052474,"7":2.7824132772293266,"8":-1.8390494994098536,"9":-1.8969996158452875,"10":-1.917934867703271,"11":-1.8918220458121333,"12":-1.2987555756737976,"13":4.256785169848315}}},{"out_depth":14,"out_sx":1,"out_sy":1,"layer_type":"softmax","num_inputs":14}]},{"layers":[{"out_depth":2,"out_sx":1,"out_sy":1,"layer_type":"input"},{"out_depth":13,"out_sx":1,"out_sy":1,"layer_type":"fc","num_inputs":2,"l1_decay_mul":0,"l2_decay_mul":1,"filters":[{"sx":1,"sy":1,"depth":2,"w":{"0":-1.6824228784867006,"1":5.5432901366823994}},{"sx":1,"sy":1,"depth":2,"w":{"0":-1.4741815242953331,"1":7.08382890919587}},{"sx":1,"sy":1,"depth":2,"w":{"0":-0.2586198312900339,"1":4.566507956880213}},{"sx":1,"sy":1,"depth":2,"w":{"0":-2.1699557755006866,"1":-6.887112769463068}},{"sx":1,"sy":1,"depth":2,"w":{"0":-3.967236734499973,"1":-0.29520515276196824}},{"sx":1,"sy":1,"depth":2,"w":{"0":4.861429996110169,"1":5.857749817753009}},{"sx":1,"sy":1,"depth":2,"w":{"0":5.554489934027264,"1":-0.4440298649716338}},{"sx":1,"sy":1,"depth":2,"w":{"0":-1.8737014479559384,"1":7.264705655132822}},{"sx":1,"sy":1,"depth":2,"w":{"0":0.6453811408365179,"1":6.862659355555201}},{"sx":1,"sy":1,"depth":2,"w":{"0":-4.693709986754844,"1":-3.5885116475830703}},{"sx":1,"sy":1,"depth":2,"w":{"0":-3.0498116071351715,"1":-4.982723106164456}},{"sx":1,"sy":1,"depth":2,"w":{"0":-3.377738616935923,"1":6.119595524263321}},{"sx":1,"sy":1,"depth":2,"w":{"0":-3.4908774942685152,"1":-1.2129833976817186}}],"biases":{"sx":1,"sy":1,"depth":13,"w":{"0":0.9409336349070835,"1":-1.7493815738329463,"2":-0.3462080725543398,"3":3.2802158246357545,"4":-7.146850721731556,"5":-4.687135104130562,"6":-11.865607510335185,"7":6.68727842801506,"8":6.782456610470608,"9":0.42640353126123354,"10":-2.8444365796990088,"11":8.649420682225152,"12":-2.2437519996887425}}},{"out_depth":13,"out_sx":1,"out_sy":1,"layer_type":"sigmoid"},{"out_depth":13,"out_sx":1,"out_sy":1,"layer_type":"fc","num_inputs":13,"l1_decay_mul":0,"l2_decay_mul":1,"filters":[{"sx":1,"sy":1,"depth":13,"w":{"0":2.800758752383827,"1":0.26785151042633143,"2":0.3470457298165412,"3":-0.1340596600256391,"4":-3.947286596474653,"5":5.262222144132504,"6":-1.626749340434205,"7":3.2785009562117584,"8":7.490615986403008,"9":0.11475151321795045,"10":3.9816534134835857,"11":-2.8776206551647197,"12":0.3425269598887454}},{"sx":1,"sy":1,"depth":13,"w":{"0":3.0363861457168766,"1":2.5233038871673386,"2":0.9434673124889418,"3":0.026966904582274017,"4":4.84151063414017,"5":-1.4952951434501003,"6":-2.947827026509916,"7":2.923363445705232,"8":1.1200555095765332,"9":0.4762505269646832,"10":1.49486589191996,"11":-3.5281782226827145,"12":1.5954196862548367}},{"sx":1,"sy":1,"depth":13,"w":{"0":-1.4442594217649887,"1":0.10702860949608561,"2":0.13527267870072132,"3":-4.854077119254237,"4":-0.4720805803174019,"5":-0.6693483744505845,"6":0.008405534904679431,"7":2.874842119063348,"8":0.8801430543439748,"9":-3.4704346925964202,"10":-1.2014819640889296,"11":3.3352236672838687,"12":-2.452361775482151}},{"sx":1,"sy":1,"depth":13,"w":{"0":3.302541170370365,"1":-2.5634319568767268,"2":-1.580919475441173,"3":1.0646558105437507,"4":1.8578372924102098,"5":1.7165667355485732,"6":2.216194143174502,"7":1.4449066008640494,"8":3.85730822287278,"9":-4.382244726933141,"10":-2.140010379110132,"11":1.509764714674539,"12":-4.148692448456594}},{"sx":1,"sy":1,"depth":13,"w":{"0":0.9032456073742124,"1":0.37600846170541946,"2":0.4620305309832673,"3":-2.0390394363172972,"4":5.407494040146388,"5":7.544383236236954,"6":0.6302543716137954,"7":2.3987014354917124,"8":2.930165004908257,"9":1.4715855321201945,"10":0.011533548040116649,"11":3.3026636366328046,"12":0.37161790133506917}},{"sx":1,"sy":1,"depth":13,"w":{"0":-2.3506935616393325,"1":4.371241787772971,"2":3.046501593884258,"3":-4.199615240339398,"4":3.104308287609248,"5":-5.39693715230029,"6":2.285582605073582,"7":-3.3954452137597886,"8":6.119032158369607,"9":-2.176840726185713,"10":9.405698503439618,"11":-4.6389818290747815,"12":-2.1187296907163566}},{"sx":1,"sy":1,"depth":13,"w":{"0":0.2813830544362883,"1":-0.5430417317999361,"2":-0.42792752598642547,"3":-0.6873042228736789,"4":4.378555701385692,"5":0.8585045892182475,"6":-1.1614766637698175,"7":-6.090705310166975,"8":0.3658901595688806,"9":-0.25341673604192433,"10":-1.4154804090078013,"11":1.7977644481205466,"12":1.963825102273707}},{"sx":1,"sy":1,"depth":13,"w":{"0":-0.9131502640295256,"1":-1.213112209078131,"2":-0.3923729260520028,"3":-0.2654852850701515,"4":0.4194548879509777,"5":0.9326579343556488,"6":7.091942817324649,"7":-0.9493448239374275,"8":-0.02369787821006995,"9":-0.9147321351238266,"10":0.25631485555628714,"11":-1.6591682128126781,"12":-0.765875890333465}},{"sx":1,"sy":1,"depth":13,"w":{"0":2.7915511880226327,"1":3.502120211571433,"2":2.1823625714559474,"3":-2.5594349571728143,"4":-0.7097601510511657,"5":0.9001634812761076,"6":-1.5267345468994058,"7":0.01253601104180821,"8":-0.43892682941996586,"9":-1.0691739117622476,"10":-0.8563530358070809,"11":0.39987237429497036,"12":-0.7313744376502651}},{"sx":1,"sy":1,"depth":13,"w":{"0":-2.0405188254186357,"1":1.4747491487817919,"2":0.7965846281049613,"3":-2.341473114087505,"4":-2.5524967857978824,"5":0.36780190497506343,"6":4.160018514847776,"7":1.8034197720778629,"8":-2.391732703817068,"9":1.1509417479878865,"10":-2.4249222629524434,"11":3.9088866567929106,"12":2.1473081355363055}},{"sx":1,"sy":1,"depth":13,"w":{"0":-2.77506432927854,"1":-1.1544983306491636,"2":-2.08536451569997,"3":1.571917224868096,"4":1.879304248768113,"5":2.5026580400143037,"6":3.9099434838719587,"7":-2.3488826860142744,"8":0.5647504107379643,"9":-1.2121593913165263,"10":-0.0995373540896504,"11":-3.6065658803165506,"12":-0.1698901476579113}},{"sx":1,"sy":1,"depth":13,"w":{"0":-0.2362438328677668,"1":-0.17108987475683024,"2":-0.008560753170762346,"3":-0.12925432005828694,"4":1.113101954595091,"5":0.1672333599788364,"6":-4.177867115359584,"7":0.11110773224276019,"8":-1.0090211131848588,"9":5.725502205725,"10":2.6660607378057715,"11":-0.5405610399744989,"12":2.415351191932135}},{"sx":1,"sy":1,"depth":13,"w":{"0":0.13714455160340594,"1":-1.3168830319056315,"2":-1.1004510558455614,"3":3.489880957395629,"4":-1.5999085348403426,"5":1.656880654225625,"6":-1.9255817263415191,"7":-0.3661774611251212,"8":-7.8978985405841415,"9":-0.3296780773680444,"10":-5.749047292879261,"11":3.0039919491000844,"12":-0.4722837815878895}}],"biases":{"sx":1,"sy":1,"depth":13,"w":{"0":-1.0282749387176162,"1":-4.4049804193783935,"2":0.4201095826844177,"3":0.032325304793236094,"4":-4.94531543890697,"5":1.675974707815152,"6":-0.21745543590331426,"7":-0.4364315187979688,"8":-2.775932953452286,"9":1.0681902870959907,"10":-0.5277441005952516,"11":-3.000075761757029,"12":3.1776008920810765}}},{"out_depth":13,"out_sx":1,"out_sy":1,"layer_type":"sigmoid"},{"out_depth":14,"out_sx":1,"out_sy":1,"layer_type":"fc","num_inputs":13,"l1_decay_mul":0,"l2_decay_mul":1,"filters":[{"sx":1,"sy":1,"depth":13,"w":{"0":1.746222877193783,"1":-0.987050198369362,"2":-0.49610507904455686,"3":2.479814755558246,"4":-3.6885965682061044,"5":-4.307176321837955,"6":2.9658387103123607,"7":3.712762116371744,"8":4.4239730431510775,"9":0.4776317042624087,"10":-4.4276002554625835,"11":2.945297067551964,"12":0.17778428771956317}},{"sx":1,"sy":1,"depth":13,"w":{"0":-0.3540825784629922,"1":-0.05174333901700426,"2":-0.07331464454453357,"3":-0.4139793192710325,"4":-0.34119677564826256,"5":-0.07263703549807751,"6":-0.04632808989010899,"7":-0.32514887088252464,"8":-0.021446205677165757,"9":-0.33543147503348464,"10":-0.26204355490629994,"11":-0.25601617592055226,"12":-0.15392744740745246}},{"sx":1,"sy":1,"depth":13,"w":{"0":-5.633518576021311,"1":1.5294012722268104,"2":-3.8877925066006487,"3":3.852728637177705,"4":6.504654149579613,"5":-7.2027495786424085,"6":-1.6779236945165923,"7":0.4653536825873331,"8":-0.8206565852399401,"9":3.014019903627696,"10":1.0775802409838267,"11":-0.28451068323995166,"12":2.7034809668641904}},{"sx":1,"sy":1,"depth":13,"w":{"0":5.713224876989575,"1":4.850155986785053,"2":-4.389799134005213,"3":0.6845108599856018,"4":-4.719183448175508,"5":-4.105556204345589,"6":1.2012882535439884,"7":2.1863279496337666,"8":1.3319524223946813,"9":-1.8618872784864988,"10":3.6379321567999767,"11":2.037556066169331,"12":-6.267376475186613}},{"sx":1,"sy":1,"depth":13,"w":{"0":2.3874275378044656,"1":-1.945598472949816,"2":4.164316172167909,"3":-1.17767299145852,"4":-3.1831936545689032,"5":-0.9211723567644974,"6":2.9051919011204848,"7":0.10948768642275891,"8":-1.347815644104905,"9":1.3550899254780402,"10":1.0614765522962848,"11":0.00791008176245932,"12":2.110092512344866}},{"sx":1,"sy":1,"depth":13,"w":{"0":-4.554579596678424,"1":0.6183780459032988,"2":-3.263623972477146,"3":5.446320544461732,"4":2.547267491432278,"5":7.920053704597385,"6":-1.5193376676941839,"7":-0.6926123461431162,"8":-2.9019317433887277,"9":-1.1915176235825835,"10":-1.1904475632459652,"11":1.098112725345677,"12":-3.7591660035875374}},{"sx":1,"sy":1,"depth":13,"w":{"0":-0.3715179620172045,"1":-0.11979631958693607,"2":-0.054284508166046255,"3":-0.36011715812291945,"4":-0.3544701519082589,"5":-0.2718153884006728,"6":-0.13347316894528685,"7":-0.268021983223399,"8":-0.07315556603331429,"9":-0.3218536486236713,"10":-0.29951699665063386,"11":-0.2304935137147869,"12":-0.21551742025670179}},{"sx":1,"sy":1,"depth":13,"w":{"0":-4.115890267416886,"1":-6.356314944169139,"2":3.703383127840901,"3":-1.7581825869807126,"4":4.390603045712014,"5":-0.7578441059531235,"6":3.9704847753562773,"7":-4.492233823833934,"8":3.1591007713311234,"9":2.514903948116925,"10":2.838195883219268,"11":-2.0475794394163733,"12":0.5448394820391236}},{"sx":1,"sy":1,"depth":13,"w":{"0":1.874050824102858,"1":-0.36442145115502245,"2":0.5864149937532132,"3":2.1668580987407835,"4":0.25688647031094713,"5":-3.2002086465650623,"6":0.8194678280861323,"7":1.1967219083478393,"8":-0.20847513974307477,"9":-4.987270783824719,"10":2.391100343212226,"11":-1.423195859777081,"12":1.2003032754030316}},{"sx":1,"sy":1,"depth":13,"w":{"0":-0.4213649551984933,"1":-0.14591419298490987,"2":-0.08002598080771342,"3":-0.38900168524696777,"4":-0.2734393055330053,"5":-0.16007072856605603,"6":-0.11516844261234879,"7":-0.2609896742886425,"8":-0.139010952321381,"9":-0.3226527995401843,"10":-0.17119071025971813,"11":-0.22586805413213765,"12":-0.23420537732852018}},{"sx":1,"sy":1,"depth":13,"w":{"0":-0.4001658303060426,"1":-0.04173653718393746,"2":-0.10178776408296243,"3":-0.36053702222260975,"4":-0.27304429249218914,"5":-0.20614682244361168,"6":-0.06792896386257237,"7":-0.19488901098739048,"8":-0.06051309296047883,"9":-0.3934102757041447,"10":-0.2809315709126239,"11":-0.2314975231441303,"12":-0.1937666567062858}},{"sx":1,"sy":1,"depth":13,"w":{"0":-0.333005714535514,"1":-0.08362664614825809,"2":-0.10682102064891733,"3":-0.32182755449646294,"4":-0.31946133222265943,"5":-0.11908274349043987,"6":-0.1346663872808073,"7":-0.21641353579324368,"8":-0.09770144446033903,"9":-0.366956248514493,"10":-0.2516855981887042,"11":-0.2189806542054283,"12":-0.24689065688505396}},{"sx":1,"sy":1,"depth":13,"w":{"0":1.0958584924954813,"1":-0.8693909287630831,"2":-0.323225451880269,"3":-3.534233265641177,"4":-1.6413761402661282,"5":2.0807829237670434,"6":-1.5326440692989276,"7":2.681910729438114,"8":-0.19435776865916615,"9":-1.1602251549400426,"10":1.6682417024646794,"11":3.8311080910803,"12":-0.751465164410726}},{"sx":1,"sy":1,"depth":13,"w":{"0":3.0818499402173276,"1":3.878715807624244,"2":4.446395509908138,"3":-6.391343093612922,"4":1.0643726209331303,"5":11.229403107868341,"6":-6.759336643791969,"7":-3.852679509587495,"8":-2.949439241558197,"9":3.7804053320553326,"10":-5.539955998442242,"11":-5.3946057257706626,"12":5.223518027479729}}],"biases":{"sx":1,"sy":1,"depth":14,"w":{"0":0.9435407294432373,"1":-1.6526955103118268,"2":-0.5660952644386549,"3":3.2700420198414895,"4":0.14082657546457897,"5":1.9368668640686668,"6":-1.587149114348395,"7":1.8923083342481866,"8":0.4773672359062367,"9":-1.7255734496415136,"10":-1.6815076093000212,"11":-1.8032806972302269,"12":-1.2920611794174286,"13":1.6474110657154122}}},{"out_depth":14,"out_sx":1,"out_sy":1,"layer_type":"softmax","num_inputs":14}]},{"layers":[{"out_depth":2,"out_sx":1,"out_sy":1,"layer_type":"input"},{"out_depth":13,"out_sx":1,"out_sy":1,"layer_type":"fc","num_inputs":2,"l1_decay_mul":0,"l2_decay_mul":1,"filters":[{"sx":1,"sy":1,"depth":2,"w":{"0":-6.079827763763969,"1":1.0812441702767868}},{"sx":1,"sy":1,"depth":2,"w":{"0":9.21134379571349,"1":4.039711848982878}},{"sx":1,"sy":1,"depth":2,"w":{"0":-3.8630721289010688,"1":5.663378140266424}},{"sx":1,"sy":1,"depth":2,"w":{"0":-2.1032988507942574,"1":7.282220247270061}},{"sx":1,"sy":1,"depth":2,"w":{"0":6.324519352651099,"1":-1.7539864707775623}},{"sx":1,"sy":1,"depth":2,"w":{"0":4.825250708237484,"1":8.440329264832803}},{"sx":1,"sy":1,"depth":2,"w":{"0":4.260495657619851,"1":-3.8493377713734342}},{"sx":1,"sy":1,"depth":2,"w":{"0":5.604924477830493,"1":-7.519814456777087}},{"sx":1,"sy":1,"depth":2,"w":{"0":7.719794474314221,"1":6.130515610097421}},{"sx":1,"sy":1,"depth":2,"w":{"0":-6.4513497518873,"1":-6.681807670208043}},{"sx":1,"sy":1,"depth":2,"w":{"0":1.2996182715403253,"1":8.695607778540413}},{"sx":1,"sy":1,"depth":2,"w":{"0":5.646332709334074,"1":-2.3863685133359738}},{"sx":1,"sy":1,"depth":2,"w":{"0":-0.8903453443757212,"1":6.321212161629198}}],"biases":{"sx":1,"sy":1,"depth":13,"w":{"0":4.189472688008364,"1":1.080422308670546,"2":-1.6732665052880205,"3":-9.134008411051248,"4":14.16609671726544,"5":-4.471198145712207,"6":6.896498492516402,"7":6.165265896466294,"8":-9.436046006532381,"9":3.9717317946887865,"10":-0.9063878064233922,"11":11.577171115501331,"12":3.5713408865497245}}},{"out_depth":13,"out_sx":1,"out_sy":1,"layer_type":"sigmoid"},{"out_depth":13,"out_sx":1,"out_sy":1,"layer_type":"fc","num_inputs":13,"l1_decay_mul":0,"l2_decay_mul":1,"filters":[{"sx":1,"sy":1,"depth":13,"w":{"0":-2.5394332784879703,"1":-0.556589298438503,"2":-1.210987987898366,"3":-1.6570512884475999,"4":0.3777126868473318,"5":-0.4106597467018409,"6":0.8353148768069063,"7":0.814111348119794,"8":2.1644227113262273,"9":-0.3641852556722639,"10":-1.8329155313030987,"11":0.3744361678480081,"12":-1.0896045685577882}},{"sx":1,"sy":1,"depth":13,"w":{"0":-2.8635486364753944,"1":0.5924984157011982,"2":0.46289312052544507,"3":-4.595302095454318,"4":-1.4749683075941566,"5":4.951971245016029,"6":-2.7989227172552353,"7":-7.868198122923346,"8":1.1810363360693994,"9":8.252534484483961,"10":-0.5184358484225497,"11":7.808087746777594,"12":-2.933123468556157}},{"sx":1,"sy":1,"depth":13,"w":{"0":2.999890520803049,"1":1.6540989997476896,"2":-3.1245664238867144,"3":-2.60860083308747,"4":-7.340810381082411,"5":-2.386096955938491,"6":2.6107700584167635,"7":3.350211463836936,"8":-0.795444173424864,"9":0.8809573369246058,"10":3.708099827586414,"11":-3.478292855830928,"12":3.73075680207446}},{"sx":1,"sy":1,"depth":13,"w":{"0":-0.7875190270961018,"1":-1.8940575594958138,"2":-1.7362388425513666,"3":-4.556193419098003,"4":2.183467148086078,"5":-2.2085704709143155,"6":0.4337281906116985,"7":2.7422666678732552,"8":0.46067130262437983,"9":2.025690049644559,"10":-2.18103359126265,"11":1.1598016595263383,"12":1.0370981598616449}},{"sx":1,"sy":1,"depth":13,"w":{"0":-0.7842515325925268,"1":4.78467562982538,"2":2.0854375211670337,"3":-5.182407811368496,"4":-2.2676353967919827,"5":6.86104350739148,"6":-2.3061707384015357,"7":-6.338298060010679,"8":6.055817949850901,"9":6.516178368503823,"10":-6.169271857145549,"11":-3.475798761304457,"12":2.9953585493217583}},{"sx":1,"sy":1,"depth":13,"w":{"0":-2.956925071601077,"1":-1.3148290109362686,"2":4.474562767643925,"3":-1.8594671446865532,"4":5.530331698624717,"5":0.520171441799836,"6":-1.0310939363401002,"7":6.704327287358623,"8":-6.477172574872051,"9":-0.17441702120127747,"10":-2.4392591608695917,"11":-5.046389957322135,"12":2.216574712653675}},{"sx":1,"sy":1,"depth":13,"w":{"0":-0.8436909839699391,"1":-1.5557190091788151,"2":1.7851124556106868,"3":0.9982506456050907,"4":0.8494366223627438,"5":0.47500810849155295,"6":-5.085852297486542,"7":1.933630176117326,"8":-1.4534265483166018,"9":2.630060994932023,"10":-0.6542999891026585,"11":-0.07454172340030747,"12":-3.9078331599568554}},{"sx":1,"sy":1,"depth":13,"w":{"0":-0.35003046403551097,"1":0.8741834395030853,"2":-0.14193846944590435,"3":0.9391138406289482,"4":0.6287888052391463,"5":0.8774124313707052,"6":-0.4925735472561841,"7":-0.6200859987413145,"8":0.23924447749197578,"9":-1.1868236885539214,"10":0.7932309246026786,"11":0.5261953073188397,"12":3.857049465131216}},{"sx":1,"sy":1,"depth":13,"w":{"0":-2.5653125554532523,"1":-4.734116561037427,"2":0.8010112699478696,"3":5.933315555147456,"4":1.188062479780718,"5":-0.24284914659179016,"6":-0.19540407655188585,"7":-0.22694386700911032,"8":-0.5002056125613762,"9":1.0338249287740238,"10":-3.4879989233609083,"11":-2.7838788307129274,"12":-4.506619027323528}},{"sx":1,"sy":1,"depth":13,"w":{"0":0.4819484621719054,"1":-4.216876565262799,"2":0.28449158320698964,"3":4.199141089486348,"4":3.038700605370244,"5":-3.4185300557746587,"6":-3.0963696631389697,"7":1.202242872230979,"8":2.655659627936706,"9":-2.252027920167424,"10":0.9068261586314024,"11":2.162537875784215,"12":-0.30837374786781707}},{"sx":1,"sy":1,"depth":13,"w":{"0":-4.530504265284563,"1":-2.9789672858015477,"2":1.3976954798134418,"3":-0.7229601894642979,"4":0.7005144506521439,"5":1.5038301640586993,"6":3.7789299727821413,"7":-0.17947409435736975,"8":1.4208537649161928,"9":-0.49566586169189786,"10":0.1237710825074588,"11":1.1625821331411084,"12":-1.240812368936059}},{"sx":1,"sy":1,"depth":13,"w":{"0":-4.592579862166714,"1":5.311600569352348,"2":0.8496624548225453,"3":-1.664752104752258,"4":1.3357949859114524,"5":-0.32379612504065275,"6":-0.684236278193463,"7":-1.4771881040998982,"8":-3.6681857750263718,"9":-1.5636107785100501,"10":0.11981745323094481,"11":-3.2244119381564404,"12":3.3740920285993474}},{"sx":1,"sy":1,"depth":13,"w":{"0":-0.8116286551393117,"1":-4.83446241667905,"2":-0.4903140127524443,"3":4.55589335105361,"4":-3.911788198939831,"5":2.5145024714669266,"6":-0.1875817520803109,"7":-0.20592147041456993,"8":-2.2679960073501775,"9":-0.5744243351008018,"10":1.3632935701460427,"11":-2.582679334938382,"12":-0.26967073781833845}}],"biases":{"sx":1,"sy":1,"depth":13,"w":{"0":-0.447976764679918,"1":-0.9008212518846543,"2":2.0305253372414898,"3":-0.43965653451045605,"4":0.004439549414114615,"5":0.12472643262728043,"6":5.816675178686486,"7":-1.0071158956099877,"8":3.3848516569493983,"9":-2.916431300715113,"10":-0.9130745884691333,"11":-0.5860015914198883,"12":-0.8252496908093365}}},{"out_depth":13,"out_sx":1,"out_sy":1,"layer_type":"sigmoid"},{"out_depth":14,"out_sx":1,"out_sy":1,"layer_type":"fc","num_inputs":13,"l1_decay_mul":0,"l2_decay_mul":1,"filters":[{"sx":1,"sy":1,"depth":13,"w":{"0":-0.2693700646722865,"1":3.0832295351455405,"2":-0.951323241014038,"3":-0.5484375869971314,"4":1.4389790619179628,"5":-1.7350015452014427,"6":-0.9424888127739058,"7":-0.2952491591493695,"8":-0.22374511270363395,"9":-0.523060612961133,"10":2.569542034784972,"11":2.9028314521410263,"12":-0.22491174898861066}},{"sx":1,"sy":1,"depth":13,"w":{"0":-0.02748496071382078,"1":-0.226536603261084,"2":-0.10507193314431092,"3":-0.07083614554053085,"4":-0.31435916590438506,"5":-0.2365537900605586,"6":-0.3253227847967901,"7":-0.4821937258926342,"8":-0.03278756716660783,"9":-0.1460413918637022,"10":-0.13785523374753172,"11":-0.11046848687424442,"12":-0.10954155356875853}},{"sx":1,"sy":1,"depth":13,"w":{"0":-3.718901992886069,"1":-2.839100678596556,"2":-1.0026634541921207,"3":7.297096505288986,"4":1.5265978957515052,"5":2.1950279808745656,"6":-1.0057727783082917,"7":0.5430865553054793,"8":0.408409030981854,"9":-0.2645669812220306,"10":-5.190302147836697,"11":1.6626532675724164,"12":-2.97607926040518}},{"sx":1,"sy":1,"depth":13,"w":{"0":-0.03870186666450826,"1":4.174392829456052,"2":-0.5191699370289727,"3":-6.971554242701192,"4":0.6064827570428083,"5":7.551194108972992,"6":1.124019226823219,"7":-0.6027393552235998,"8":2.0484032231203337,"9":-4.59728375909307,"10":2.1958297416559285,"11":4.431715313509767,"12":-2.602904835440563}},{"sx":1,"sy":1,"depth":13,"w":{"0":-0.9934973875806394,"1":5.21167512495911,"2":0.3363808690226183,"3":-1.115985488328474,"4":2.525071940220474,"5":-0.12334977367539966,"6":-2.3636244529495727,"7":-2.902239500472231,"8":2.916427892917804,"9":3.5479488446539054,"10":-3.855707795482948,"11":-2.8458018821737565,"12":-0.6765543449126042}},{"sx":1,"sy":1,"depth":13,"w":{"0":2.386300536766235,"1":-9.338668953618244,"2":2.095809812064095,"3":1.1233222356184962,"4":11.105093623939531,"5":-3.9545221732869136,"6":-5.048022535808432,"7":2.4276917096728474,"8":4.802661943378639,"9":-1.762446082444849,"10":1.3473123912833616,"11":2.552553333286873,"12":4.623828654244391}},{"sx":1,"sy":1,"depth":13,"w":{"0":-0.05906098454051319,"1":-0.23115075502018334,"2":-0.21196528766597317,"3":-0.002851814722719254,"4":-0.4465150717334489,"5":-0.19658314262649498,"6":-0.22349545526638542,"7":-0.3132713059625462,"8":-0.032773422157478804,"9":-0.16682598803075246,"10":-0.07196327252486934,"11":-0.1390734849293402,"12":-0.0897987117465657}},{"sx":1,"sy":1,"depth":13,"w":{"0":2.0568013489051937,"1":-5.338668437343449,"2":-9.172384270039036,"3":1.062064995107248,"4":-4.547905832275914,"5":4.057622917524105,"6":1.6309253926450695,"7":3.2566755602021797,"8":-1.5525156511949276,"9":2.8374241245089187,"10":-0.8795149277909432,"11":-1.0483674379314807,"12":-0.34934029643495884}},{"sx":1,"sy":1,"depth":13,"w":{"0":-0.17023734491707185,"1":-0.19834684531346633,"2":-0.14066305610412078,"3":-0.1143048654086113,"4":-0.27381977036498556,"5":-0.23428669816427172,"6":-0.336894464600376,"7":-0.4450844104339882,"8":-0.06147013873802322,"9":-0.22743451639877185,"10":-0.16955920317852838,"11":-0.17937248183830298,"12":-0.07652103481723377}},{"sx":1,"sy":1,"depth":13,"w":{"0":1.4460197797974712,"1":0.8429212317740397,"2":0.2181450904628694,"3":-0.15029504328140034,"4":-2.6264362840652535,"5":2.0155084822861427,"6":1.6967892851508486,"7":-1.2290247764689788,"8":0.743658806060876,"9":1.5147409636787745,"10":1.3956590635026536,"11":-1.7788465990017244,"12":3.931226726112399}},{"sx":1,"sy":1,"depth":13,"w":{"0":-0.0349847783929323,"1":-0.18715048575604243,"2":-0.08025139680167434,"3":-0.17392640729231956,"4":-0.26753534514531824,"5":-0.2732566403196487,"6":-0.2765178912839557,"7":-0.3409835780009415,"8":-0.10545567355481685,"9":-0.22513152375687775,"10":-0.05299375264733578,"11":-0.20819009909823272,"12":0.005136413796878587}},{"sx":1,"sy":1,"depth":13,"w":{"0":-0.1150089966265861,"1":-0.21563994864518288,"2":-0.1429367283954962,"3":-0.03098848209553714,"4":-0.3081327896322384,"5":-0.27243184292916184,"6":-0.3359989119912053,"7":-0.34505533790387155,"8":-0.07476113775572235,"9":-0.16082111128734428,"10":-0.06865032158986731,"11":-0.19136704839057186,"12":-0.07759807267762296}},{"sx":1,"sy":1,"depth":13,"w":{"0":-0.05710804896492935,"1":-0.18480247208240122,"2":-0.12418790373920979,"3":-0.14693222487705923,"4":-0.23201689727644606,"5":-0.22781122814915683,"6":-0.22029147215031833,"7":-0.46668851008061657,"8":-0.04513539336401763,"9":-0.20757799232017177,"10":-0.16243045945247855,"11":-0.14286836204023287,"12":-0.11216753841006362}},{"sx":1,"sy":1,"depth":13,"w":{"0":-0.10191868303879259,"1":5.333395662426903,"2":9.50019127248304,"3":0.05171080215729928,"4":-7.978144492298295,"5":-8.586938736529254,"6":6.566305090466082,"7":1.0270918826084652,"8":-8.797172224729914,"9":0.60604372397255,"10":2.896527114360616,"11":-4.752404134348926,"12":-1.2929341351749946}}],"biases":{"sx":1,"sy":1,"depth":14,"w":{"0":-1.9023575921300546,"1":-1.2667395005252737,"2":1.3807692522594566,"3":-1.2384549968709753,"4":2.027860381070437,"5":-1.534074032335853,"6":-1.4854226185646784,"7":3.232557531844968,"8":-1.227836707465816,"9":0.04665259275689374,"10":-1.548806475528821,"11":-1.4166961495536012,"12":-1.4576594409039456,"13":6.3902077559473165}}},{"out_depth":14,"out_sx":1,"out_sy":1,"layer_type":"softmax","num_inputs":14}]},{"layers":[{"out_depth":2,"out_sx":1,"out_sy":1,"layer_type":"input"},{"out_depth":13,"out_sx":1,"out_sy":1,"layer_type":"fc","num_inputs":2,"l1_decay_mul":0,"l2_decay_mul":1,"filters":[{"sx":1,"sy":1,"depth":2,"w":{"0":-8.291556061789104,"1":-0.8983720891889838}},{"sx":1,"sy":1,"depth":2,"w":{"0":-7.613124009761544,"1":1.166256264385822}},{"sx":1,"sy":1,"depth":2,"w":{"0":-3.5322997575116406,"1":7.3179278147092495}},{"sx":1,"sy":1,"depth":2,"w":{"0":7.773222670891004,"1":0.757642287692972}},{"sx":1,"sy":1,"depth":2,"w":{"0":5.521184537204513,"1":-3.520603743040192}},{"sx":1,"sy":1,"depth":2,"w":{"0":-0.0473028932182366,"1":8.77646798266658}},{"sx":1,"sy":1,"depth":2,"w":{"0":1.2098573015316694,"1":-7.917626248450526}},{"sx":1,"sy":1,"depth":2,"w":{"0":6.474465188322228,"1":-8.29130473378172}},{"sx":1,"sy":1,"depth":2,"w":{"0":0.7332188979588027,"1":6.265522945818746}},{"sx":1,"sy":1,"depth":2,"w":{"0":-3.0126616921947806,"1":5.513112928959153}},{"sx":1,"sy":1,"depth":2,"w":{"0":4.2004119583801796,"1":-1.9400071563924595}},{"sx":1,"sy":1,"depth":2,"w":{"0":2.891691643301622,"1":8.800130186026859}},{"sx":1,"sy":1,"depth":2,"w":{"0":-5.437689024450159,"1":3.0769217781552998}}],"biases":{"sx":1,"sy":1,"depth":13,"w":{"0":-3.286787759302947,"1":-7.833159973684328,"2":9.909257116285266,"3":6.614667912205559,"4":3.270471164738297,"5":2.4124249755995066,"6":13.094976758377063,"7":6.253540000044443,"8":-2.9546324611623604,"9":4.332677986966573,"10":-1.3017169634323573,"11":-6.501203000871409,"12":-1.4678502018791446}}},{"out_depth":13,"out_sx":1,"out_sy":1,"layer_type":"sigmoid"},{"out_depth":13,"out_sx":1,"out_sy":1,"layer_type":"fc","num_inputs":13,"l1_decay_mul":0,"l2_decay_mul":1,"filters":[{"sx":1,"sy":1,"depth":13,"w":{"0":2.9694658412581476,"1":0.7512539708067105,"2":-0.7895122661901232,"3":-1.4793204826560478,"4":-2.1342419324845503,"5":0.039396941194415336,"6":-5.02839696423256,"7":-0.37820887919172413,"8":-7.136888558449502,"9":1.2452817386603872,"10":-0.8655648071490066,"11":2.4593049734681887,"12":3.1205429766750306}},{"sx":1,"sy":1,"depth":13,"w":{"0":-0.6656891840305131,"1":0.5573518544517261,"2":5.709336095215036,"3":0.04880958806423194,"4":-3.1934816420494965,"5":2.8315417797875626,"6":-0.9858341558573795,"7":-1.09698515792634,"8":0.8648669572610437,"9":5.289687147977656,"10":-1.6076574929688998,"11":0.7183187448051042,"12":1.1131071289775547}},{"sx":1,"sy":1,"depth":13,"w":{"0":-1.3315091358600455,"1":0.45016279580877666,"2":2.9332287655190754,"3":0.272705445020002,"4":-0.5172332012577331,"5":2.6698850500801288,"6":1.4501764300030204,"7":-2.000127093203003,"8":-0.7991019107365976,"9":-2.8604784780079138,"10":-1.2895537441546792,"11":-1.7055767502298518,"12":-1.193246378980622}},{"sx":1,"sy":1,"depth":13,"w":{"0":4.6116985842544835,"1":-1.7945308280452867,"2":0.6423082712115434,"3":-2.4213605151958313,"4":-1.804854858619104,"5":-2.02481727904998,"6":-2.503301422247802,"7":-0.40692598043671835,"8":-2.607746272664689,"9":0.6061330112565422,"10":-0.7790029502573075,"11":-5.017965347966842,"12":2.273221724017849}},{"sx":1,"sy":1,"depth":13,"w":{"0":3.774824982779861,"1":0.3375453602831589,"2":-4.701981863257329,"3":4.4925851608884395,"4":0.02697447911850006,"5":0.4383800883428531,"6":-4.523760485909383,"7":-2.7071780029835883,"8":1.2836200810625213,"9":-4.323124165265589,"10":-0.9752817305990915,"11":2.021098426059719,"12":3.156008261447213}},{"sx":1,"sy":1,"depth":13,"w":{"0":-0.8801391044151723,"1":-2.130348107724074,"2":-3.530197758287239,"3":-3.379051620205526,"4":2.192960478208279,"5":2.2997990969100615,"6":-1.4039910778700682,"7":2.886531899434719,"8":1.794361709203693,"9":-0.07881308370615087,"10":4.178831596332366,"11":1.6529189990238822,"12":-4.530149496791538}},{"sx":1,"sy":1,"depth":13,"w":{"0":0.2138031695804496,"1":-0.6541823111943319,"2":0.7379529785288923,"3":1.7843601826848936,"4":-0.8817043153576383,"5":1.0430030351820812,"6":0.2969570894827923,"7":-2.7778868465630375,"8":0.45070059068171,"9":1.8282634846402703,"10":2.2388910720588884,"11":-0.12749539861937184,"12":-2.125890865692631}},{"sx":1,"sy":1,"depth":13,"w":{"0":-2.2348227078303586,"1":1.8931516038175205,"2":-3.3398111514587288,"3":2.5909067222269466,"4":3.885562126850475,"5":0.4205529100293942,"6":-3.869519038090724,"7":1.8092401452393607,"8":0.516091548540214,"9":0.5539242382217142,"10":0.9580845691635628,"11":1.6633197027631084,"12":-1.2476088534849927}},{"sx":1,"sy":1,"depth":13,"w":{"0":-0.5286284532445532,"1":-0.396791506560589,"2":0.7125216535850385,"3":0.33761930859750566,"4":2.9398564254896455,"5":0.5176110254859999,"6":-3.5786861762322277,"7":-1.4338867899713412,"8":1.0586207480297989,"9":-1.074459755645798,"10":1.3075017884061872,"11":1.2413738913760106,"12":-2.1699693110308895}},{"sx":1,"sy":1,"depth":13,"w":{"0":3.170761613853922,"1":1.6032802616882642,"2":2.7975658539267427,"3":4.047119445313221,"4":2.3585979474869974,"5":-0.9189484562706399,"6":-3.1885512701747567,"7":3.7773690669528133,"8":-2.031056052955591,"9":-1.8441645561055569,"10":-3.1135562824072442,"11":0.6424392020059116,"12":0.3798787995010715}},{"sx":1,"sy":1,"depth":13,"w":{"0":2.6240108286382706,"1":0.9201826372045115,"2":0.5319290073663935,"3":3.0983249686429786,"4":-3.776575958560267,"5":-0.4480772936309594,"6":0.10465088019236857,"7":0.5580523433725806,"8":-0.3314125226187831,"9":-3.397953063958859,"10":-0.3522859689738953,"11":1.784741736407897,"12":-0.9063328511781561}},{"sx":1,"sy":1,"depth":13,"w":{"0":6.119894886462233,"1":-3.883771444506903,"2":2.311720215802034,"3":0.9741624851163929,"4":3.4680760676866895,"5":-4.074231085993031,"6":3.973357612752848,"7":-5.596202048527241,"8":-0.8651579268154285,"9":-0.16133701462470604,"10":-0.7224261335784912,"11":3.806033647437145,"12":-3.1308656061625615}},{"sx":1,"sy":1,"depth":13,"w":{"0":1.1601562015792604,"1":4.496664291841327,"2":-2.1978667792264197,"3":0.295984870446853,"4":1.4129814722155787,"5":7.340871931542531,"6":0.09295689179004202,"7":0.7549184954453606,"8":-2.609225795079884,"9":-0.9232298272370356,"10":-2.2955615396986144,"11":-0.7187665792998489,"12":-0.7730260922885642}}],"biases":{"sx":1,"sy":1,"depth":13,"w":{"0":2.097587055450497,"1":-2.9942752668000066,"2":1.2308931885831358,"3":2.157964549852259,"4":3.7180279239357037,"5":-1.0038000285362174,"6":1.917703820060985,"7":3.008943858081932,"8":-0.6262581807630637,"9":-5.504095986601187,"10":-2.079274772308905,"11":-2.4047940079910104,"12":-3.2956562094726487}}},{"out_depth":13,"out_sx":1,"out_sy":1,"layer_type":"sigmoid"},{"out_depth":14,"out_sx":1,"out_sy":1,"layer_type":"fc","num_inputs":13,"l1_decay_mul":0,"l2_decay_mul":1,"filters":[{"sx":1,"sy":1,"depth":13,"w":{"0":1.736252701064601,"1":5.169403434882872,"2":-1.311625117755943,"3":0.9912014056465546,"4":-3.0592532365212692,"5":-0.0672413917234802,"6":-3.302940055388277,"7":-1.4777183350269822,"8":-0.11837446896189342,"9":1.7745314926208873,"10":1.784645296387417,"11":-0.302528248402,"12":-1.2118121700156508}},{"sx":1,"sy":1,"depth":13,"w":{"0":-0.21315571112713114,"1":-0.22129929803832035,"2":-0.2676113515778217,"3":-0.2221650953826343,"4":-0.21688399900744962,"5":-0.060901453221449554,"6":-0.27205808987137226,"7":-0.1614721164701796,"8":-0.040907712287644664,"9":-0.18890426790232187,"10":-0.11746134463186111,"11":-0.23679363699122277,"12":-0.2639731289677743}},{"sx":1,"sy":1,"depth":13,"w":{"0":-0.6016115054042421,"1":3.5711871178079173,"2":1.0591817509573416,"3":-3.650726501511698,"4":1.0655713165660536,"5":-1.983704179838836,"6":0.9349482538162671,"7":0.4746662906301263,"8":-5.217095634814934,"9":-1.1001670916999329,"10":-2.3897774687218796,"11":-0.5937173989436239,"12":-3.7454158768520505}},{"sx":1,"sy":1,"depth":13,"w":{"0":4.221415857926556,"1":-2.7798448541282608,"2":0.9583897387069482,"3":0.05377989786695703,"4":1.3390100052064384,"5":-5.405033686771937,"6":-1.9388396328923108,"7":-0.5551815871766184,"8":2.8966553471975938,"9":-1.6683144446158253,"10":-1.14576595847134,"11":7.473235895854728,"12":0.7728532251276191}},{"sx":1,"sy":1,"depth":13,"w":{"0":-5.861216995437907,"1":-2.6670458739063228,"2":2.4853565204395878,"3":1.8293036034616594,"4":1.2073989514673482,"5":-5.291508312215973,"6":2.101598056470365,"7":-2.8404345115668868,"8":4.163057755713114,"9":-0.7725443936336732,"10":0.35493967972426127,"11":1.2374436596534402,"12":-1.305608756736972}},{"sx":1,"sy":1,"depth":13,"w":{"0":-0.6104625375265152,"1":-0.08067447516209379,"2":0.16553204137415425,"3":-6.411637155758055,"4":3.2232543708357864,"5":-0.4883719959238683,"6":-0.5493160257422167,"7":0.944095860869201,"8":-1.9195629999094992,"9":6.131632394183418,"10":2.756202363477071,"11":-0.2530676893971819,"12":3.6687083935330524}},{"sx":1,"sy":1,"depth":13,"w":{"0":-0.22027020528552435,"1":-0.2588676017484344,"2":-0.23337043788904324,"3":-0.18519365718066325,"4":-0.2159705599370387,"5":-0.032187408676658404,"6":-0.29753979339376113,"7":-0.16848020818309598,"8":-0.0190740871442617,"9":-0.21860725429640013,"10":-0.13374806422832086,"11":-0.2518511283251629,"12":-0.3020351709604672}},{"sx":1,"sy":1,"depth":13,"w":{"0":2.3805495854507943,"1":-5.992804628226315,"2":2.0780810005962684,"3":2.259602093897285,"4":-4.6990594017134,"5":3.025609168595008,"6":0.9280071032538938,"7":0.18093438502171963,"8":0.527498914908899,"9":-0.4212967665491177,"10":0.5505015004644916,"11":2.3400859213234004,"12":2.999363211331482}},{"sx":1,"sy":1,"depth":13,"w":{"0":-0.19755429845507566,"1":-0.25614073022744277,"2":-0.24436468900089942,"3":-0.2230021995538441,"4":-0.19449121920820234,"5":-0.0535749042093498,"6":-0.27591897804341153,"7":-0.1502806645137303,"8":-0.08388462684343423,"9":-0.2095571707308981,"10":-0.1274024525985742,"11":-0.2534904935462063,"12":-0.2848441640988361}},{"sx":1,"sy":1,"depth":13,"w":{"0":0.5078976160610771,"1":-1.041209730601725,"2":-1.6195211692305873,"3":0.47696324702351006,"4":2.504831264880886,"5":-0.21550567353411054,"6":-1.0902405806903115,"7":-0.7886057959576666,"8":-0.10912342223358602,"9":1.9389997443171527,"10":2.3001329613429413,"11":-1.4197969519816667,"12":0.5846200224602639}},{"sx":1,"sy":1,"depth":13,"w":{"0":-1.340275315269919,"1":1.1465212937837819,"2":0.19967080831983086,"3":-1.557572746872289,"4":4.693010803167694,"5":2.4910148158245615,"6":-0.5246486543615813,"7":-0.7543696362183904,"8":1.6239941906245763,"9":-0.9892337469697223,"10":0.6701814019875825,"11":3.617725647264563,"12":-1.3138530667947281}},{"sx":1,"sy":1,"depth":13,"w":{"0":-0.19590976940417845,"1":-0.2627643049469769,"2":-0.2521880597314891,"3":-0.24264063684067236,"4":-0.22029778400942218,"5":-0.054690872985397196,"6":-0.30008572603733225,"7":-0.1677172297865174,"8":-0.04708374825532437,"9":-0.20836385718091088,"10":-0.13919684626465886,"11":-0.2316265857726052,"12":-0.2919448623496314}},{"sx":1,"sy":1,"depth":13,"w":{"0":-3.711235925946286,"1":1.6392214675394041,"2":1.81108601138959,"3":0.207782689368354,"4":-3.5887709542615367,"5":0.44997374244099353,"6":1.0425313077256886,"7":-1.4068542124158971,"8":0.013484578374633467,"9":1.1769165542593334,"10":-0.8424852488064809,"11":-2.372573266426736,"12":4.644851398941654}},{"sx":1,"sy":1,"depth":13,"w":{"0":4.08492015309967,"1":2.164719609175829,"2":-4.814437195851339,"3":6.612217418055997,"4":-1.7726436272023538,"5":7.639386226243422,"6":3.6107298054247394,"7":6.745781159341719,"8":-1.6821765841692518,"9":-5.172472774161928,"10":-3.5187890343072916,"11":-8.735468957005528,"12":-3.9231033868804808}}],"biases":{"sx":1,"sy":1,"depth":14,"w":{"0":-0.731083698057802,"1":-2.0238279303443907,"2":2.7509802992547794,"3":1.3977905569828857,"4":3.86599033103327,"5":-0.5333216042341987,"6":-1.9267323928277356,"7":1.7310988182231921,"8":-1.9786143130228235,"9":-0.6975951134340642,"10":-3.4208334828228533,"11":-1.895705678808506,"12":-0.3623823888830304,"13":3.8242365969416605}}},{"out_depth":14,"out_sx":1,"out_sy":1,"layer_type":"softmax","num_inputs":14}]},{"layers":[{"out_depth":2,"out_sx":1,"out_sy":1,"layer_type":"input"},{"out_depth":13,"out_sx":1,"out_sy":1,"layer_type":"fc","num_inputs":2,"l1_decay_mul":0,"l2_decay_mul":1,"filters":[{"sx":1,"sy":1,"depth":2,"w":{"0":5.626503434165343,"1":3.249679318136758}},{"sx":1,"sy":1,"depth":2,"w":{"0":-1.0178294422276135,"1":0.9555108694154026}},{"sx":1,"sy":1,"depth":2,"w":{"0":3.806590172195856,"1":7.221725689481714}},{"sx":1,"sy":1,"depth":2,"w":{"0":2.5814584395108544,"1":0.8402760415662698}},{"sx":1,"sy":1,"depth":2,"w":{"0":1.7681356809419144,"1":3.6244003697759846}},{"sx":1,"sy":1,"depth":2,"w":{"0":-2.943155793352081,"1":-5.573407487126813}},{"sx":1,"sy":1,"depth":2,"w":{"0":0.9697355702256296,"1":-1.2010382479835529}},{"sx":1,"sy":1,"depth":2,"w":{"0":-8.279397164735181,"1":-2.9093683587535675}},{"sx":1,"sy":1,"depth":2,"w":{"0":-0.7328928801805507,"1":1.206966826029683}},{"sx":1,"sy":1,"depth":2,"w":{"0":0.5318684732064235,"1":-1.2665896526117213}},{"sx":1,"sy":1,"depth":2,"w":{"0":-3.9836624840876316,"1":-1.208414264325404}},{"sx":1,"sy":1,"depth":2,"w":{"0":2.0927704211391314,"1":-0.028380215677918343}},{"sx":1,"sy":1,"depth":2,"w":{"0":1.3635844401715635,"1":-1.5494012503344818}}],"biases":{"sx":1,"sy":1,"depth":13,"w":{"0":-4.177381204739391,"1":-0.8475649382049365,"2":-2.042184036395336,"3":1.990713186273034,"4":-3.0702015029494754,"5":4.080190471820598,"6":1.166589173123894,"7":-1.194478747868047,"8":-1.0100491431731988,"9":0.5830314337774627,"10":-1.3401856077214733,"11":-1.3121884607564862,"12":2.396992969610727}}},{"out_depth":13,"out_sx":1,"out_sy":1,"layer_type":"sigmoid"},{"out_depth":13,"out_sx":1,"out_sy":1,"layer_type":"fc","num_inputs":13,"l1_decay_mul":0,"l2_decay_mul":1,"filters":[{"sx":1,"sy":1,"depth":13,"w":{"0":2.3815002363248965,"1":-0.4133255785452793,"2":-0.8666531243682607,"3":-0.20856974553701385,"4":-0.28277937668901904,"5":-0.07992004472640074,"6":0.5248686595536478,"7":2.187563077468516,"8":-0.5930994030392361,"9":0.20840419917926867,"10":1.114234510332043,"11":0.7531222603847532,"12":0.7050820329745479}},{"sx":1,"sy":1,"depth":13,"w":{"0":-0.7014089039923634,"1":0.07702689197146205,"2":0.5633633346436704,"3":0.17295813891617667,"4":-0.1729598532933655,"5":0.05271911486677918,"6":-0.10480491611177012,"7":-1.04586023991013,"8":0.13226193467406364,"9":0.0007153007651030043,"10":-0.530851186437382,"11":-0.09191497609920041,"12":-0.1826771160325603}},{"sx":1,"sy":1,"depth":13,"w":{"0":-3.0913159938084855,"1":0.6896856781227423,"2":2.6841549532077837,"3":-0.6420277395087738,"4":-0.5820752149191671,"5":1.733945909142279,"6":-1.1021889322410645,"7":-3.1599881892488386,"8":0.7394950330255846,"9":-0.8794349651385857,"10":-0.8322356848576269,"11":-0.9084813011417542,"12":-1.0560772851131248}},{"sx":1,"sy":1,"depth":13,"w":{"0":0.5046446433793318,"1":0.04285946396002942,"2":-1.2597968650105313,"3":0.9508744007529063,"4":1.2814111273804274,"5":-1.4310552700230978,"6":0.14776263988044006,"7":0.9013193543552016,"8":-0.140106166699943,"9":0.23926057332166153,"10":-0.018408268789299877,"11":0.3095238920509267,"12":0.026363544714721347}},{"sx":1,"sy":1,"depth":13,"w":{"0":1.3550475898302476,"1":-0.06365829783827058,"2":-0.5821841878311887,"3":-1.0218522448601468,"4":-0.3179618073108435,"5":0.08553724319170601,"6":0.10760325058331424,"7":2.34323456188078,"8":-0.29597588857062695,"9":0.15242395486392954,"10":1.4657184985848846,"11":0.36247996201346616,"12":-0.10003414119514266}},{"sx":1,"sy":1,"depth":13,"w":{"0":0.5023769476175589,"1":0.079760248519297,"2":-1.1102995035923273,"3":0.6768692616384312,"4":1.5268640026647629,"5":-1.9548936680858284,"6":-0.2425337775037439,"7":0.9422458861095583,"8":0.10267220887082795,"9":-0.24847447050610438,"10":-0.15115574146504637,"11":0.24753068448637286,"12":-0.6804149731897416}},{"sx":1,"sy":1,"depth":13,"w":{"0":1.412289352820762,"1":-0.225112972107261,"2":-0.7480166064278346,"3":-0.93750568241156,"4":-0.3991849425989239,"5":0.5105354497087584,"6":0.09090456757371314,"7":2.1477780920630165,"8":-0.053331658416104155,"9":0.10343238539833952,"10":1.3707245922112294,"11":0.3101084301858484,"12":0.032876214490057724}},{"sx":1,"sy":1,"depth":13,"w":{"0":-0.4247112618511935,"1":0.2704739545870621,"2":0.375628822420155,"3":0.0353659459421309,"4":0.10765333739227498,"5":0.2933438706004548,"6":-0.04093406423620151,"7":-0.15252642669180558,"8":0.18089288527687816,"9":-0.12556386115370025,"10":0.1561344707199767,"11":0.12082699967427561,"12":-0.05244040786777335}},{"sx":1,"sy":1,"depth":13,"w":{"0":-1.1826364055186611,"1":0.3527711516486752,"2":1.8646321850113414,"3":-0.9339315681419924,"4":-0.9302237526955832,"5":1.4491100438846491,"6":-0.15766462860592043,"7":-1.62528652438115,"8":0.25857558203454273,"9":-0.47287478118635357,"10":-0.3422212603999084,"11":-0.3495912130291352,"12":-0.3887081396877035}},{"sx":1,"sy":1,"depth":13,"w":{"0":1.3457818719706591,"1":-0.38547234663128743,"2":-1.6339605168950984,"3":0.68243144400918,"4":0.03313124649779385,"5":-0.32374182423858516,"6":0.5920177220349251,"7":1.1504248745595462,"8":-0.31567224454221515,"9":0.597972599528013,"10":-0.061094936131918326,"11":0.5151068227818396,"12":1.2362186891766622}},{"sx":1,"sy":1,"depth":13,"w":{"0":-0.2803097807864617,"1":0.294264184397374,"2":-0.7511399853125235,"3":0.6733497129234393,"4":1.6418402237538898,"5":-2.1597226489791597,"6":-0.6037430015021062,"7":0.37319269132305954,"8":0.4250226108992862,"9":-0.35993846265401336,"10":-0.08999697052014591,"11":0.20913054604440068,"12":-1.4186038020943794}},{"sx":1,"sy":1,"depth":13,"w":{"0":1.9632145436126032,"1":-0.008432299230834245,"2":-3.6649644497100864,"3":1.4552044152207464,"4":1.5180191135273413,"5":-2.4060274676338422,"6":0.5205530581602856,"7":3.0054273499846595,"8":-0.4056052004823465,"9":0.575509326825702,"10":0.684435309393596,"11":0.7062747777452222,"12":0.36436050029879585}},{"sx":1,"sy":1,"depth":13,"w":{"0":-3.3152341136369676,"1":0.7542410154606788,"2":2.897231104361625,"3":-0.8464056895553063,"4":-0.800381769181743,"5":1.4487663666905493,"6":-0.8025355445394081,"7":-3.2077359965600296,"8":0.5679042636084728,"9":-0.6437730355833868,"10":-0.8417508665759973,"11":-0.7787995619359757,"12":-1.1545796209762347}}],"biases":{"sx":1,"sy":1,"depth":13,"w":{"0":0.08900303497141444,"1":0.17496079035191464,"2":-0.33600962624859876,"3":0.3045638649466431,"4":-0.2238534443565585,"5":0.05098464481272662,"6":-0.2086878329477263,"7":0.19420018393255634,"8":-0.40673954025685555,"9":0.45450574624082873,"10":-0.44287667156052224,"11":0.46203083758533026,"12":-0.08113934107591411}}},{"out_depth":13,"out_sx":1,"out_sy":1,"layer_type":"sigmoid"},{"out_depth":14,"out_sx":1,"out_sy":1,"layer_type":"fc","num_inputs":13,"l1_decay_mul":0,"l2_decay_mul":1,"filters":[{"sx":1,"sy":1,"depth":13,"w":{"0":-0.2901607468690723,"1":-0.2217084679141942,"2":0.017684846252242512,"3":-0.1277685181862944,"4":-0.07285360208718968,"5":-0.2644997721866959,"6":-0.11813884794137162,"7":-0.4238322639265031,"8":-0.38993337811592477,"9":-0.09654350816796231,"10":-0.054359404440472825,"11":-0.1579251116272126,"12":0.006609354267788572}},{"sx":1,"sy":1,"depth":13,"w":{"0":-0.13606562611583958,"1":-0.24041764007233998,"2":-0.2553370627018178,"3":-0.16614507528385236,"4":-0.22599569903922118,"5":0.04260884742635434,"6":-0.15884686469034953,"7":-0.4421122799506702,"8":0.0921625617330406,"9":-0.2340536781953716,"10":-0.2120250015153209,"11":-0.04268291754823333,"12":-0.16770801613470224}},{"sx":1,"sy":1,"depth":13,"w":{"0":-0.21886938208368162,"1":1.0680665522243464,"2":1.1930790386681673,"3":0.13524547784327823,"4":-0.9984097140850884,"5":-0.3493645019896598,"6":-0.5307217303753462,"7":0.695013458131186,"8":0.8642012583677865,"9":1.289877041379741,"10":-0.9534961569814951,"11":-0.8800545829165755,"12":1.5650088353730098}},{"sx":1,"sy":1,"depth":13,"w":{"0":-0.2699543571797328,"1":-0.15744024868633089,"2":-0.2855762589153234,"3":-0.11357313121125985,"4":-0.37613585508510666,"5":-0.006042816080548423,"6":0.071219889859636,"7":-0.1784455431786938,"8":-0.18877037534453073,"9":-0.35213496722428145,"10":0.06630332182039071,"11":-0.1783145374103433,"12":-0.07681761827346921}},{"sx":1,"sy":1,"depth":13,"w":{"0":0.1767699498574112,"1":-0.023806878966160364,"2":-0.4615269162839197,"3":-0.475557330516962,"4":-0.14070881588122483,"5":0.014684589261414319,"6":-0.16602953589326747,"7":-0.4159103614597642,"8":0.11516920142756362,"9":-0.03293347300216806,"10":-0.2347650110706983,"11":-0.11273844502296851,"12":-0.12339980920283884}},{"sx":1,"sy":1,"depth":13,"w":{"0":0.7025617871745249,"1":0.3390572020377791,"2":2.4280243712023064,"3":-1.1952371081778164,"4":1.6605303683592323,"5":-1.4368200960805249,"6":1.8382845456880221,"7":1.1784496250367593,"8":2.464095892666189,"9":-0.7710968033122881,"10":-1.4357060429038762,"11":-2.9962890034073495,"12":2.4420107907528967}},{"sx":1,"sy":1,"depth":13,"w":{"0":-0.05252461508331359,"1":-0.3366427275653486,"2":-0.3962719225165505,"3":-0.06795495745098791,"4":-0.20385416212253735,"5":-0.10173636267218021,"6":-0.2532077267224459,"7":-0.14372320865901986,"8":-0.3167233895043352,"9":0.06252810042213765,"10":-0.03510624262264299,"11":0.007867864401519476,"12":-0.32936240798957545}},{"sx":1,"sy":1,"depth":13,"w":{"0":-0.09870677257197805,"1":-0.1370002589730382,"2":-0.10856592262922186,"3":-0.4450562253359812,"4":-0.15257024900214297,"5":-0.044916162859947144,"6":-0.2116391590596952,"7":-0.18318430262821458,"8":-0.26334618262723397,"9":-0.010113744156262901,"10":-0.2893881674869581,"11":-0.11263269640324663,"12":-0.10380019257699513}},{"sx":1,"sy":1,"depth":13,"w":{"0":-0.09737539922520044,"1":-0.26830154280820373,"2":-0.23341529050908882,"3":-0.18834613802441755,"4":0.05133556863798165,"5":-0.18451158410030855,"6":-0.29336005459128234,"7":-0.20302504846463915,"8":-0.30520282358674033,"9":-0.10962899146581796,"10":-0.22159646544483624,"11":-0.1500853604876814,"12":-0.06104663847510005}},{"sx":1,"sy":1,"depth":13,"w":{"0":-0.10880149696232207,"1":-0.2713931086597282,"2":-0.17094698409089223,"3":-0.001158688242972732,"4":-0.07925659990459527,"5":0.02652562667483938,"6":-0.034376728599575475,"7":-0.30469249259031767,"8":-0.19807039965846832,"9":-0.3485504953370716,"10":-0.3597920249156191,"11":-0.040690094381454475,"12":-0.2363277301221044}},{"sx":1,"sy":1,"depth":13,"w":{"0":-0.05697930210227784,"1":-0.2137675140318506,"2":-0.10114328467348294,"3":-0.18681124268123456,"4":-0.1360699464076807,"5":0.10352432901092817,"6":-0.20855688910422043,"7":-0.30318564306922174,"8":-0.17790366153192522,"9":-0.0893626263129092,"10":-0.2628471149997631,"11":-0.17011882321532845,"12":-0.36351913798136226}},{"sx":1,"sy":1,"depth":13,"w":{"0":0.013507615066203809,"1":-0.182522534660369,"2":-0.29828089879360337,"3":-0.09605303303982433,"4":-0.36716470763053805,"5":0.09380185911953497,"6":-0.5454654360839886,"7":-0.010153292595298853,"8":-0.24008644940512922,"9":-0.05348223138308273,"10":-0.08163781341383282,"11":-0.5122480483326104,"12":-0.26633146003214175}},{"sx":1,"sy":1,"depth":13,"w":{"0":-1.854679322210587,"1":1.070703981360591,"2":3.2377187365439655,"3":0.5618339251424312,"4":-1.3804635249249573,"5":1.2414712340371215,"6":-1.4629016282528449,"7":1.0137453998208146,"8":0.988672781724701,"9":-0.7873148641273551,"10":2.3172173454183715,"11":0.07941381295252775,"12":3.231238269014687}},{"sx":1,"sy":1,"depth":13,"w":{"0":3.2548945148325106,"1":-0.8850521387363977,"2":-4.700443670845919,"3":2.2639473691905976,"4":2.7018179876098043,"5":2.0644705820378357,"6":2.528706574759887,"7":0.11191906859570096,"8":-2.422904475322309,"9":2.7581945002978014,"10":1.1048801092047942,"11":5.389176823982533,"12":-4.831030028571563}}],"biases":{"sx":1,"sy":1,"depth":14,"w":{"0":-0.6041784922034207,"1":-0.5718573525270404,"2":1.6627422184269214,"3":-0.684239847436528,"4":-0.7778008310899425,"5":2.1773111045061864,"6":-0.5608258892848615,"7":-0.7217725934129899,"8":-0.6043020949168927,"9":-0.5941026501756835,"10":-0.5908220476226224,"11":-0.5459138706021033,"12":1.3173643330104712,"13":1.0983980133285645}}},{"out_depth":14,"out_sx":1,"out_sy":1,"layer_type":"softmax","num_inputs":14}]},{"layers":[{"out_depth":2,"out_sx":1,"out_sy":1,"layer_type":"input"},{"out_depth":13,"out_sx":1,"out_sy":1,"layer_type":"fc","num_inputs":2,"l1_decay_mul":0,"l2_decay_mul":1,"filters":[{"sx":1,"sy":1,"depth":2,"w":{"0":-1.2801137115436412,"1":6.031117073205976}},{"sx":1,"sy":1,"depth":2,"w":{"0":2.5578595321244926,"1":2.4032494227787926}},{"sx":1,"sy":1,"depth":2,"w":{"0":-2.1513410383813483,"1":9.800112374750295}},{"sx":1,"sy":1,"depth":2,"w":{"0":3.437131176328223,"1":-2.3417185830191785}},{"sx":1,"sy":1,"depth":2,"w":{"0":-4.313519895586192,"1":2.5334658052082215}},{"sx":1,"sy":1,"depth":2,"w":{"0":-1.5829442109194827,"1":-6.564609154810728}},{"sx":1,"sy":1,"depth":2,"w":{"0":3.293036407206197,"1":-2.440787456901212}},{"sx":1,"sy":1,"depth":2,"w":{"0":-2.115947665384833,"1":-0.24006794243957838}},{"sx":1,"sy":1,"depth":2,"w":{"0":-3.440426985690104,"1":-2.563147882210586}},{"sx":1,"sy":1,"depth":2,"w":{"0":5.291829896551667,"1":2.0961493525044834}},{"sx":1,"sy":1,"depth":2,"w":{"0":5.1645211650317595,"1":1.2216816990600183}},{"sx":1,"sy":1,"depth":2,"w":{"0":-2.0466088725709044,"1":-5.131185827652077}},{"sx":1,"sy":1,"depth":2,"w":{"0":1.2363506662731965,"1":5.044695310803581}}],"biases":{"sx":1,"sy":1,"depth":13,"w":{"0":3.8681628767762533,"1":4.125716919022853,"2":-6.228963175267042,"3":4.031451868515748,"4":-6.119459909661413,"5":-5.190236557139952,"6":3.445700626650335,"7":-1.5101079567307005,"8":-2.2896768259600573,"9":10.096044639995574,"10":7.5061900620104804,"11":-5.774406005065623,"12":-1.2130682573561564}}},{"out_depth":13,"out_sx":1,"out_sy":1,"layer_type":"sigmoid"},{"out_depth":13,"out_sx":1,"out_sy":1,"layer_type":"fc","num_inputs":13,"l1_decay_mul":0,"l2_decay_mul":1,"filters":[{"sx":1,"sy":1,"depth":13,"w":{"0":0.07171055526141965,"1":2.3658885657463804,"2":1.1263633411593759,"3":0.36164506382372846,"4":-0.5139696425686684,"5":-2.5712850370885754,"6":0.10034468765572403,"7":-0.605975753004741,"8":-0.0926747365579079,"9":3.5039798551456913,"10":0.7782593032143764,"11":-2.919187650857272,"12":0.9166330107410654}},{"sx":1,"sy":1,"depth":13,"w":{"0":0.4338563857412582,"1":1.1194707375356818,"2":-3.0167216931579306,"3":-1.4884508995509402,"4":0.954431878959032,"5":-2.3012360698717504,"6":-1.8328692849116315,"7":0.0521455263011843,"8":-0.01106422018687618,"9":1.8103334661810817,"10":-0.3382691978229404,"11":-1.9011861726225925,"12":-0.042614090902268593}},{"sx":1,"sy":1,"depth":13,"w":{"0":-0.48960937299884305,"1":2.637610528455471,"2":1.3864130460397415,"3":1.144304620573099,"4":-2.8616157129056727,"5":-0.901338153899112,"6":0.6961325155132657,"7":-1.4383111379290616,"8":-1.5241391668194209,"9":3.995354323584462,"10":1.6116741918756987,"11":-1.4058903558410216,"12":3.020288426218543}},{"sx":1,"sy":1,"depth":13,"w":{"0":-2.3165505380179225,"1":0.34494687597781354,"2":-2.1944152282720157,"3":-1.2726730098171486,"4":2.245913037164465,"5":-1.0269160892552178,"6":-1.2977645604584058,"7":0.5262841136169255,"8":0.9024340433240438,"9":1.369574740026326,"10":-1.2919353459101524,"11":-0.5752796458267704,"12":-0.5108813558214451}},{"sx":1,"sy":1,"depth":13,"w":{"0":3.3160630860113245,"1":-1.2702690491266722,"2":5.5091838327428455,"3":1.0628104264670135,"4":-1.3644685137243333,"5":3.191110826024583,"6":1.2367058636575912,"7":-1.7153777533855896,"8":-3.7613796058144224,"9":-3.594888626343004,"10":5.876227063468666,"11":3.025948149610191,"12":0.54231453585866}},{"sx":1,"sy":1,"depth":13,"w":{"0":-0.5281865942169468,"1":3.3876912208274796,"2":-0.6335628781366173,"3":-1.0038936759115713,"4":-0.7216056741785037,"5":-2.513190872464777,"6":-1.3043520404428801,"7":-1.2398176459914212,"8":-2.0186227901443314,"9":4.118781416164503,"10":2.0180139658726053,"11":-2.6733621589771435,"12":2.777720328217445}},{"sx":1,"sy":1,"depth":13,"w":{"0":2.980755237618255,"1":0.3722501496273314,"2":0.25662601235974764,"3":-0.4899629094699029,"4":0.5001963027859035,"5":-1.5461567246444141,"6":-0.43537515446285563,"7":-0.0608119016611312,"8":0.33449011675036805,"9":0.44788528221964247,"10":0.12537016938487958,"11":-1.1743029553146977,"12":0.4820156017295689}},{"sx":1,"sy":1,"depth":13,"w":{"0":-1.2584598228831259,"1":0.28793125396939157,"2":2.3289280561019616,"3":-2.8172402604988678,"4":3.826927213435551,"5":-0.2555471421838018,"6":-2.157449640218632,"7":0.47405805165485587,