{"layers":[{"out_depth":2,"out_sx":1,"out_sy":1,"layer_type":"input"},{"out_depth":13,"out_sx":1,"out_sy":1,"layer_type":"fc","num_inputs":2,"l1_decay_mul":0,"l2_decay_mul":1,"filters":[{"sx":1,"sy":1,"depth":2,"w":{"0":-4.823737700732209,"1":-5.075528573928513}},{"sx":1,"sy":1,"depth":2,"w":{"0":6.378009656361293,"1":-0.9660878034717375}},{"sx":1,"sy":1,"depth":2,"w":{"0":-6.492784888198379,"1":0.24121317247887636}},{"sx":1,"sy":1,"depth":2,"w":{"0":-3.005929016656718,"1":3.817804545488912}},{"sx":1,"sy":1,"depth":2,"w":{"0":-8.135609636345073,"1":-0.6926559558253517}},{"sx":1,"sy":1,"depth":2,"w":{"0":-0.46443476182460786,"1":8.013985068807546}},{"sx":1,"sy":1,"depth":2,"w":{"0":2.252643230010916,"1":7.863628191492333}},{"sx":1,"sy":1,"depth":2,"w":{"0":7.3033179601829685,"1":-5.92395871352176}},{"sx":1,"sy":1,"depth":2,"w":{"0":2.215514287420196,"1":6.071499337013992}},{"sx":1,"sy":1,"depth":2,"w":{"0":0.10383608919553178,"1":-4.793811640761027}},{"sx":1,"sy":1,"depth":2,"w":{"0":6.569497657171908,"1":-1.443077123795834}},{"sx":1,"sy":1,"depth":2,"w":{"0":2.7752167215631123,"1":-8.200837880009798}},{"sx":1,"sy":1,"depth":2,"w":{"0":-2.3794846361282103,"1":-5.118894565308032}}],"biases":{"sx":1,"sy":1,"depth":13,"w":{"0":18.583719791949747,"1":-4.197585794696656,"2":29.275943814481074,"3":-7.27638508394459,"4":27.028783672178758,"5":-18.712629246216057,"6":-16.896806058409055,"7":-14.423856153205689,"8":-18.252771193835564,"9":3.6266181159115205,"10":-6.3844010791901535,"11":5.126345668852888,"12":22.439791502021937}}},{"out_depth":13,"out_sx":1,"out_sy":1,"layer_type":"sigmoid"},{"out_depth":13,"out_sx":1,"out_sy":1,"layer_type":"fc","num_inputs":13,"l1_decay_mul":0,"l2_decay_mul":1,"filters":[{"sx":1,"sy":1,"depth":13,"w":{"0":0.6490033727632463,"1":0.4325299758371008,"2":-2.3595116208495854,"3":-2.083680104530935,"4":-0.31726324672158185,"5":-1.8515369483623756,"6":0.6361013206941317,"7":-3.5080220132283544,"8":4.6857255896051555,"9":5.512221552833443,"10":1.4495530444388227,"11":0.754720743546007,"12":0.940469580896142}},{"sx":1,"sy":1,"depth":13,"w":{"0":1.2327752797832476,"1":-2.8187972846536917,"2":-1.7809640534440134,"3":3.1042948963013943,"4":0.37783129229986967,"5":-1.6270627039315704,"6":2.1035166818460542,"7":1.4498066328630361,"8":-0.3846975628551528,"9":5.694838091789978,"10":1.729317594891165,"11":-3.746016390955542,"12":-2.864079438490856}},{"sx":1,"sy":1,"depth":13,"w":{"0":2.8003576110608903,"1":-2.011527427117225,"2":-0.3138662913438983,"3":1.13403635129508,"4":2.748615200579495,"5":-1.5176634907144304,"6":-1.0023177246111186,"7":-4.432999287246815,"8":-3.168661529274632,"9":-0.9694441654831585,"10":-0.8796523307042403,"11":0.33613451732176713,"12":-2.7150230791593852}},{"sx":1,"sy":1,"depth":13,"w":{"0":-0.026115274507747945,"1":-0.8038470831037852,"2":1.7622592380548117,"3":1.9808854243002498,"4":-0.9540766491528706,"5":5.4699243784269145,"6":-0.3335039017150255,"7":-1.7475372588232807,"8":1.5032041861602343,"9":0.01404296077348345,"10":-1.8529678207478393,"11":-0.2403590791226783,"12":-2.7502215499220264}},{"sx":1,"sy":1,"depth":13,"w":{"0":3.183508237629808,"1":-0.1773890754112004,"2":3.295657485751721,"3":-0.4347785744280766,"4":2.0586014880085,"5":-2.00676793526907,"6":1.1544165584553499,"7":4.859501873312666,"8":3.405123691954831,"9":-1.707684722644094,"10":-2.2091497921235534,"11":-2.2439361730953413,"12":-1.646914927748944}},{"sx":1,"sy":1,"depth":13,"w":{"0":-1.6295915001841121,"1":-2.683060222538261,"2":5.565445106792622,"3":-2.7710881219971553,"4":1.272681500008476,"5":-1.6981975803459164,"6":-2.534408390040176,"7":2.6833332546888653,"8":0.9610577439688553,"9":1.6554888743797678,"10":2.4301349786738755,"11":-0.6164768258779248,"12":1.4117633439507893}},{"sx":1,"sy":1,"depth":13,"w":{"0":3.1797505128993517,"1":-0.4857526510117757,"2":-2.745920623063311,"3":-1.1685767954535173,"4":1.8579533676586388,"5":0.18363599050453205,"6":7.010052458817843,"7":-2.7874655639672254,"8":-2.820762254950766,"9":-0.6159106899597059,"10":1.7361941386945443,"11":1.5850337339269644,"12":2.3435147078084553}},{"sx":1,"sy":1,"depth":13,"w":{"0":2.640054563740443,"1":-0.33877568998190416,"2":0.5405471601831571,"3":3.4721243221692086,"4":-3.1108505150351937,"5":1.6706081280110436,"6":-1.4446364956709867,"7":0.9459540096833552,"8":-1.7890518786524052,"9":1.099819074857439,"10":0.3123618268093226,"11":4.786854321524606,"12":-3.7905170613131984}},{"sx":1,"sy":1,"depth":13,"w":{"0":-0.017721691837775225,"1":4.353072410932546,"2":-3.3266825763377557,"3":0.9427494284108445,"4":1.7278554564162107,"5":4.402980143557452,"6":-2.015022312219886,"7":2.5721700824824483,"8":2.4456239610300217,"9":-4.079398011902875,"10":-3.4241827703828274,"11":-2.1719577554421194,"12":-1.2945099359697168}},{"sx":1,"sy":1,"depth":13,"w":{"0":3.0172334457096768,"1":-0.14593352501237744,"2":-2.4984150872256903,"3":3.5487419134001628,"4":-2.170607068752406,"5":-1.5079304146436159,"6":-0.9839399600089819,"7":-5.06066402835416,"8":0.7189296118771095,"9":1.3035174760429522,"10":0.028859020050190233,"11":3.107841683803286,"12":-2.933977134261691}},{"sx":1,"sy":1,"depth":13,"w":{"0":0.2563357263014241,"1":1.5358224729029815,"2":1.1928265487886243,"3":-0.8693780905212463,"4":0.34241557783493937,"5":-3.111906649582444,"6":2.2648091106902637,"7":-3.68679695242768,"8":5.210247036167875,"9":1.9503726101183152,"10":3.4645094824927933,"11":-2.2232807242862447,"12":3.222820202682109}},{"sx":1,"sy":1,"depth":13,"w":{"0":-1.972886597579641,"1":-0.570518269961281,"2":1.8937718741165572,"3":0.3770946759350245,"4":-2.6042574442895354,"5":3.69899587264331,"6":3.988468418828241,"7":-0.21451151928313356,"8":-1.779790940274806,"9":-0.8672892712110091,"10":-2.8826784271006427,"11":0.382567714593641,"12":-0.7136839743578908}},{"sx":1,"sy":1,"depth":13,"w":{"0":-0.7851724805559702,"1":-2.534226680527761,"2":-3.4467467275958943,"3":-0.7812678138644362,"4":4.124200008366254,"5":3.521295689221749,"6":1.644334848284301,"7":-0.6156959174542935,"8":4.368888202299202,"9":-1.1175781546335768,"10":-0.19017701211169807,"11":-0.061726552346061316,"12":-2.902393062629407}}],"biases":{"sx":1,"sy":1,"depth":13,"w":{"0":0.10166586015729619,"1":1.5941535055719702,"2":6.997229276991123,"3":-1.8261674084618655,"4":-3.2435047330489355,"5":-1.7674065244974462,"6":-5.985872513469692,"7":2.168581649577405,"8":1.4191381724793577,"9":4.795245851759218,"10":-11.736454484262584,"11":0.4891537974814362,"12":2.362668382142583}}},{"out_depth":13,"out_sx":1,"out_sy":1,"layer_type":"sigmoid"},{"out_depth":14,"out_sx":1,"out_sy":1,"layer_type":"fc","num_inputs":13,"l1_decay_mul":0,"l2_decay_mul":1,"filters":[{"sx":1,"sy":1,"depth":13,"w":{"0":-1.2037789544405129,"1":-3.770389914043094,"2":-1.6413116843388078,"3":2.2368561475448705,"4":0.8528095626041373,"5":0.5588038679390814,"6":-1.2476347353362571,"7":-3.0253959954569933,"8":-2.2954620060014554,"9":0.4885505109552929,"10":1.3845811809539421,"11":-0.8459595762367,"12":0.23046670840873074}},{"sx":1,"sy":1,"depth":13,"w":{"0":-0.024485667545104926,"1":-0.00571901066185978,"2":-0.017998961205141065,"3":-0.005666729600790724,"4":-0.03084181616945353,"5":-0.036820334929425075,"6":-0.014925181440677024,"7":-0.021054007862787515,"8":-0.020306174863673362,"9":-0.009281595108333745,"10":-0.008810296056599007,"11":-0.025188640169156486,"12":-0.015428223745351159}},{"sx":1,"sy":1,"depth":13,"w":{"0":-2.474464777118551,"1":0.807207536752098,"2":-3.2396178200667274,"3":-3.159527717862377,"4":-2.2103487786001086,"5":3.091805190084683,"6":4.062852047828568,"7":0.573386986066951,"8":3.24480570329402,"9":1.2410834405094646,"10":-2.575869219107499,"11":-1.449232786106514,"12":1.7026829910780044}},{"sx":1,"sy":1,"depth":13,"w":{"0":1.5505464405218967,"1":0.5535480341355175,"2":2.592026716935007,"3":-0.059332422536362124,"4":-1.8635071965517642,"5":-1.5432676136266132,"6":0.3969943208112692,"7":1.2642426735351557,"8":2.7950558183879726,"9":-2.230668693560509,"10":2.8297563376286354,"11":1.4710028549539218,"12":-3.5036863036502597}},{"sx":1,"sy":1,"depth":13,"w":{"0":-3.0878632870794136,"1":-2.285313152733492,"2":-0.8954417921002253,"3":-4.434424169184287,"4":0.314830207923611,"5":-1.82038341922842,"6":-0.21784632051608127,"7":1.7971364480168197,"8":1.8515381294398858,"9":-0.9714313479690759,"10":1.0390018683655495,"11":0.24901365322989016,"12":2.2494839188600184}},{"sx":1,"sy":1,"depth":13,"w":{"0":4.495101688363197,"1":-1.1477685519789738,"2":-0.2383871834591581,"3":2.638367250124586,"4":0.9624342048040898,"5":3.662650055933197,"6":2.4277861625602988,"7":-0.7436725494296225,"8":-2.8415315711770144,"9":-1.3814036296921912,"10":-4.012553513734431,"11":-1.3380178451529117,"12":2.7930140917609427}},{"sx":1,"sy":1,"depth":13,"w":{"0":-0.02437122900608924,"1":-0.00569243697267238,"2":-0.017914029014230122,"3":-0.0056405967829836375,"4":-0.03069728305834139,"5":-0.03664641928336926,"6":-0.014854916944128401,"7":-0.020953861340800604,"8":-0.020211797898812316,"9":-0.009237531522541646,"10":-0.008769573198347072,"11":-0.025070361021640498,"12":-0.015356947334735346}},{"sx":1,"sy":1,"depth":13,"w":{"0":0.28648466949940704,"1":-2.81716794281168,"2":-1.7666324594337652,"3":1.4063619777348473,"4":4.277782708035148,"5":-2.940114490036855,"6":2.1961365683012883,"7":3.4130730900340813,"8":1.1843855145467939,"9":3.2958910144473292,"10":2.365477088548576,"11":-2.838933321422344,"12":-1.4345494930889828}},{"sx":1,"sy":1,"depth":13,"w":{"0":-3.368889149898148,"1":-0.2915038243317942,"2":-1.0521435064037212,"3":-0.23216370648685375,"4":-1.3145564708406134,"5":0.19991278572485915,"6":-0.13488536974344006,"7":1.2490313451571222,"8":-0.8142892699248474,"9":-0.5855048084372666,"10":-0.39186897317477015,"11":1.9659251173550656,"12":-0.6924536186592672}},{"sx":1,"sy":1,"depth":13,"w":{"0":1.3316557340397503,"1":-1.2083085293407776,"2":4.056210268331886,"3":0.9501468056700304,"4":1.7838451005681482,"5":-2.0822650066871917,"6":-4.393187775985991,"7":-0.6704550437082017,"8":-4.302872707473096,"9":-1.966946738419149,"10":-1.0669312925744827,"11":1.4590920888811603,"12":-1.5089796181624862}},{"sx":1,"sy":1,"depth":13,"w":{"0":-1.9574466207334964,"1":3.182661953851521,"2":0.9049786852520517,"3":-2.7442131262586997,"4":1.8287256649832078,"5":-1.904810143999125,"6":0.43033446191785923,"7":-2.227872215590141,"8":-0.33392858600723274,"9":-0.29024781735270827,"10":-1.4698534416806743,"11":2.644435514369553,"12":1.7901602507075183}},{"sx":1,"sy":1,"depth":13,"w":{"0":-0.024315983206023104,"1":-0.0056796078603352776,"2":-0.01787303031036746,"3":-0.005627979864590841,"4":-0.030627510253331994,"5":-0.03656246688098649,"6":-0.014820998165811006,"7":-0.020905521135626597,"8":-0.020166235060920128,"9":-0.00921626185983496,"10":-0.008749912435131854,"11":-0.025013263027802227,"12":-0.015322535436750223}},{"sx":1,"sy":1,"depth":13,"w":{"0":2.6438294746322546,"1":0.2997553199912836,"2":0.8004002962449223,"3":0.9693071834438344,"4":-3.5747564534041962,"5":-0.03238680196169873,"6":-5.31377060438021,"7":-2.2941725063569125,"8":2.704733596739557,"9":-0.2462985403347864,"10":-2.413805035363928,"11":-2.6313953184606715,"12":-0.2113708043982029}},{"sx":1,"sy":1,"depth":13,"w":{"0":1.8579976619710825,"1":6.694370126004227,"2":0.5337044995686888,"3":2.4455570840589704,"4":-0.9650919400408723,"5":2.920084796951792,"6":1.8378223410930723,"7":0.7276111580715394,"8":-1.1317504140010088,"9":2.6747119983444,"10":4.338394781829353,"11":1.3893418828081256,"12":-1.3686604163391243}}],"biases":{"sx":1,"sy":1,"depth":14,"w":{"0":5.465579942129925,"1":-6.4099751397773606,"2":1.4589472684853295,"3":2.8437850622248515,"4":3.9255578405103746,"5":-1.0960687533370894,"6":-6.415146037260874,"7":1.4830972321458618,"8":0.6958234122697152,"9":3.829430710788793,"10":-0.3552260829051398,"11":-6.417650129843827,"12":5.000179020537667,"13":-4.0083343459660705}}},{"out_depth":14,"out_sx":1,"out_sy":1,"layer_type":"softmax","num_inputs":14}]}