{"layers":[{"out_depth":2,"out_sx":1,"out_sy":1,"layer_type":"input"},{"out_depth":13,"out_sx":1,"out_sy":1,"layer_type":"fc","num_inputs":2,"l1_decay_mul":0,"l2_decay_mul":1,"filters":[{"sx":1,"sy":1,"depth":2,"w":{"0":-2.722334102991011,"1":-1.8227995524614804}},{"sx":1,"sy":1,"depth":2,"w":{"0":1.6554955233133821,"1":0.841379054609313}},{"sx":1,"sy":1,"depth":2,"w":{"0":-1.3088497953851455,"1":-1.306585313683853}},{"sx":1,"sy":1,"depth":2,"w":{"0":-4.181308035989496,"1":1.7749378472400958}},{"sx":1,"sy":1,"depth":2,"w":{"0":-2.2529114418538447,"1":-1.0335469632890177}},{"sx":1,"sy":1,"depth":2,"w":{"0":-0.180020912020754,"1":2.02152226432503}},{"sx":1,"sy":1,"depth":2,"w":{"0":-0.15738637393183386,"1":3.045027749210771}},{"sx":1,"sy":1,"depth":2,"w":{"0":2.5856922955908863,"1":-3.5156120530775476}},{"sx":1,"sy":1,"depth":2,"w":{"0":0.3857834990836462,"1":4.288425010433058}},{"sx":1,"sy":1,"depth":2,"w":{"0":0.052385468391136704,"1":-3.355465067566007}},{"sx":1,"sy":1,"depth":2,"w":{"0":5.608641366725123,"1":-1.5555761061256472}},{"sx":1,"sy":1,"depth":2,"w":{"0":2.923737697770465,"1":-5.377186918189885}},{"sx":1,"sy":1,"depth":2,"w":{"0":0.5627520881220983,"1":-1.7533588342981687}}],"biases":{"sx":1,"sy":1,"depth":13,"w":{"0":7.652359068983366,"1":-3.822028272320843,"2":7.615307061732728,"3":-1.5048639595849478,"4":7.709833559803892,"5":-4.3787317401240555,"6":-4.711477001354868,"7":-1.610259491484278,"8":-8.80405357344157,"9":1.8162881595434401,"10":-3.3809925635227653,"11":-1.1893896888889146,"12":3.2751269032728163}}},{"out_depth":13,"out_sx":1,"out_sy":1,"layer_type":"sigmoid"},{"out_depth":13,"out_sx":1,"out_sy":1,"layer_type":"fc","num_inputs":13,"l1_decay_mul":0,"l2_decay_mul":1,"filters":[{"sx":1,"sy":1,"depth":13,"w":{"0":-1.2000862884757504,"1":1.1175658544235492,"2":0.1788474521846668,"3":-0.4572388263046332,"4":-3.114045547332274,"5":-0.5317091920236848,"6":-1.262070245452966,"7":0.6910195071669719,"8":-0.8367216958677096,"9":1.5656713207905808,"10":3.951007748664462,"11":0.5104687064988687,"12":0.8146383699892311}},{"sx":1,"sy":1,"depth":13,"w":{"0":-1.3175042608198537,"1":0.7156125100928179,"2":-0.03426141655709577,"3":-0.5022499153556301,"4":1.5686822138752368,"5":2.0919594363044447,"6":-1.358771539372707,"7":-0.3161033575232219,"8":-1.5545800697869572,"9":1.2205469911847218,"10":0.07003889477773419,"11":-0.1377033769520138,"12":-1.302337331658217}},{"sx":1,"sy":1,"depth":13,"w":{"0":1.948430693330896,"1":-1.1250028522265594,"2":-0.9164812213243065,"3":0.294264272434854,"4":4.482099000999071,"5":-0.23412977774542296,"6":0.6849424645612169,"7":-0.3055882401347556,"8":1.2140591292761487,"9":0.9099342596877471,"10":-1.9373094518534055,"11":1.6185064039768409,"12":0.23610591781546988}},{"sx":1,"sy":1,"depth":13,"w":{"0":-1.7471013889515066,"1":0.7466591245664056,"2":-2.1278314888112586,"3":-0.033879970648200926,"4":-0.23503206336504875,"5":2.274926504318076,"6":0.5061843095582044,"7":-1.2630618277644876,"8":0.680186473136325,"9":0.08109715047406328,"10":-1.3259124157376243,"11":-0.612634369849484,"12":-2.013980131955022}},{"sx":1,"sy":1,"depth":13,"w":{"0":1.7160425151032008,"1":-0.7801560668931052,"2":-0.41770111538446303,"3":0.014082489219997987,"4":0.37806967218559157,"5":-1.0573167070116019,"6":2.069881664034759,"7":-0.13282661452520095,"8":3.5481935931891555,"9":0.0595859732370417,"10":-0.9378548895008487,"11":-0.7942064711826028,"12":0.5846240188301126}},{"sx":1,"sy":1,"depth":13,"w":{"0":-2.7395751051717627,"1":0.3081950763250804,"2":3.7386312206212633,"3":-4.604701637733264,"4":0.7417958703505447,"5":-2.0250816662376265,"6":1.670376993772957,"7":0.08300914803041799,"8":0.5954892855359817,"9":-3.835082936324119,"10":0.056919331860872835,"11":-0.636782144068948,"12":2.1579785139463126}},{"sx":1,"sy":1,"depth":13,"w":{"0":1.6423577740293285,"1":-1.1731257428293551,"2":-2.491793773918961,"3":-0.9073020295181742,"4":0.8180173166600301,"5":0.39811257329778676,"6":1.2023917619399158,"7":-0.5693209156014414,"8":2.900630376107654,"9":-0.2640535652780149,"10":0.4688391108112337,"11":-0.8415906789379842,"12":0.09373547659415998}},{"sx":1,"sy":1,"depth":13,"w":{"0":-0.08535710279614994,"1":-0.40066078677813466,"2":2.752651417933694,"3":0.1141987528736884,"4":-0.41365569177834427,"5":-2.1135192582200535,"6":-2.7315260138088524,"7":0.23080197450114656,"8":-3.9279406237172467,"9":1.1163901950878647,"10":-0.38386323641381553,"11":-1.1980264969233236,"12":1.4591554362041774}},{"sx":1,"sy":1,"depth":13,"w":{"0":-1.146460199341796,"1":1.1008927978319383,"2":-3.1242696707679496,"3":0.42756433437257235,"4":-1.119492752953155,"5":2.4343440956404496,"6":1.8551764078107202,"7":-1.8171724516134988,"8":4.39941248618507,"9":-0.2987395622727301,"10":2.135441890981734,"11":-2.628559819383326,"12":-1.6301364653634052}},{"sx":1,"sy":1,"depth":13,"w":{"0":2.0078462323576183,"1":-0.6323153835488787,"2":-1.2870564928842891,"3":1.024938227258591,"4":0.19305968942427543,"5":0.5966308010757505,"6":-0.1681781416982597,"7":1.1740152024075128,"8":-1.5839150138441516,"9":-2.8161652129697985,"10":1.2049709032314435,"11":0.7158161425445346,"12":-0.4462084244376116}},{"sx":1,"sy":1,"depth":13,"w":{"0":1.568603335158113,"1":-0.6384081226194694,"2":-1.2330383490030805,"3":-0.32582478209274685,"4":-0.41315476447861893,"5":1.9555446455496492,"6":-0.19720385662359355,"7":-2.869536103114676,"8":0.11033631592191225,"9":-0.0271665411484755,"10":3.1670995053889963,"11":-1.757163684076381,"12":-1.6777321557226803}},{"sx":1,"sy":1,"depth":13,"w":{"0":-1.210717747241071,"1":0.04271438793504777,"2":-1.3363908863952316,"3":-1.2152699256789243,"4":-0.5475655114883449,"5":0.03488829355855349,"6":0.6941661859427367,"7":2.5654043318821595,"8":0.8601598773081627,"9":-2.7605586154503126,"10":-1.761379067915675,"11":3.4150206014299944,"12":0.13236291287542623}},{"sx":1,"sy":1,"depth":13,"w":{"0":-1.7206085557812925,"1":1.2351424663527613,"2":-0.9971487358703922,"3":-0.5567684296697203,"4":-0.9694678504765785,"5":1.0271495524496945,"6":2.25475166423259,"7":-2.431143477921815,"8":3.46502880842186,"9":-0.40380593339489673,"10":-0.7554859650885858,"11":-4.852408009614078,"12":-0.7004887738445893}}],"biases":{"sx":1,"sy":1,"depth":13,"w":{"0":0.48919503706764106,"1":0.3690952703111567,"2":0.039375293319964075,"3":-0.2280964532586574,"4":-0.25782989441712434,"5":-1.3421378221393345,"6":-1.176223227074999,"7":0.06628059519413303,"8":0.2119144804954015,"9":-0.14350625168539194,"10":-0.023534855675365954,"11":-0.9773488889573448,"12":0.46305107673884016}}},{"out_depth":13,"out_sx":1,"out_sy":1,"layer_type":"sigmoid"},{"out_depth":14,"out_sx":1,"out_sy":1,"layer_type":"fc","num_inputs":13,"l1_decay_mul":0,"l2_decay_mul":1,"filters":[{"sx":1,"sy":1,"depth":13,"w":{"0":-0.09935619257849114,"1":0.27085492455396004,"2":-1.5262739262001228,"3":0.836834955699471,"4":2.1655574399137856,"5":2.460736967858443,"6":-0.9523647673572406,"7":-0.006996233485551113,"8":-0.8155426634412837,"9":-2.119822748322002,"10":0.5753871780488716,"11":-0.45745550503984655,"12":-0.17278391174334706}},{"sx":1,"sy":1,"depth":13,"w":{"0":-0.5525071894406439,"1":-0.37730662947536714,"2":-0.5962205805391877,"3":-0.2570181948165845,"4":-0.43429428577881124,"5":-0.7275175767134305,"6":-0.5086612777431927,"7":-0.4187999269629074,"8":-0.441012535325724,"9":-0.4498780589791105,"10":0.011687296448891623,"11":-0.5653410810183477,"12":-0.22819111943024578}},{"sx":1,"sy":1,"depth":13,"w":{"0":-0.6741551033356536,"1":-1.0430171680666505,"2":-1.2492002030464653,"3":-1.9687829001365724,"4":-0.6578502276052764,"5":2.0857783861742907,"6":1.6632685802281388,"7":-0.44106902088527256,"8":-3.100137447888224,"9":1.3461126699723733,"10":0.7251737675234461,"11":1.2220816426524805,"12":2.2668868990039654}},{"sx":1,"sy":1,"depth":13,"w":{"0":-0.07104700246273501,"1":0.6302009224229639,"2":0.04169761019553022,"3":0.0021554374914509056,"4":-2.0571066475300177,"5":3.122287517497091,"6":-0.7426345852756079,"7":0.07958697471512965,"8":2.595660350276931,"9":1.856539161866976,"10":1.9252230922236488,"11":-0.6640195285984837,"12":-0.13089997812339513}},{"sx":1,"sy":1,"depth":13,"w":{"0":-0.7128277170067747,"1":-1.2524444544241164,"2":-0.6624545565004942,"3":-1.4244669902346778,"4":-1.1835018432254607,"5":1.3293183757164764,"6":1.501988619777783,"7":0.7991249648997866,"8":0.24058908431902024,"9":1.1322096109357354,"10":1.2140004413288377,"11":1.8654383926899336,"12":1.0558315505486688}},{"sx":1,"sy":1,"depth":13,"w":{"0":2.219310078306355,"1":1.5098512770184018,"2":0.7704180150371747,"3":-0.3596067158569717,"4":-0.20301585478897666,"5":2.0556410225041737,"6":0.16171174706061986,"7":-2.4240383519327797,"8":-0.7741295159991788,"9":0.4447708907869552,"10":0.06903568363750033,"11":-1.6452954912641056,"12":-0.3882016747752082}},{"sx":1,"sy":1,"depth":13,"w":{"0":-0.7906720852920102,"1":-0.45992268817379905,"2":-0.4666072605262003,"3":-0.20010676056441648,"4":-0.44464480276926677,"5":-0.5322030041514788,"6":-0.4997239992677095,"7":-0.2854059569756343,"8":-0.38217660783889834,"9":-0.4376719250715541,"10":-0.19807363980182494,"11":-0.5764335767879912,"12":-0.304703339769621}},{"sx":1,"sy":1,"depth":13,"w":{"0":2.1384835922702754,"1":-0.14516609508587158,"2":3.538411626104859,"3":0.9457661017971162,"4":1.5130298291490574,"5":-1.2067736611898936,"6":0.7330997508772176,"7":-1.8041098181189434,"8":0.3583581328781767,"9":1.0362895533219547,"10":2.111159088783959,"11":0.27615960827618474,"12":-4.130797770079776}},{"sx":1,"sy":1,"depth":13,"w":{"0":0.4533085303406718,"1":-0.33683375843516283,"2":-1.1401812883874358,"3":-0.44996997573043673,"4":-1.4252933356543447,"5":0.12471718378800913,"6":-0.8449427726563075,"7":-0.09143223131697116,"8":-1.0589349463291393,"9":0.7178850754869082,"10":-0.5025905902074717,"11":1.2676412762022067,"12":-1.3854360582053422}},{"sx":1,"sy":1,"depth":13,"w":{"0":-2.0205437694155304,"1":2.213934987273251,"2":1.8816122933506163,"3":2.049548474664552,"4":-0.05516455092118343,"5":0.2751144329155252,"6":-1.7164203587512683,"7":1.105340092710346,"8":2.210946271138108,"9":-0.9193256638342088,"10":-2.2178136696062127,"11":1.037964798152934,"12":-2.185675076996047}},{"sx":1,"sy":1,"depth":13,"w":{"0":-3.067740848123395,"1":-1.5868963307659483,"2":0.593815793436148,"3":-0.5284672095084318,"4":0.4745828038571297,"5":-0.4195575576739513,"6":1.5758457665898493,"7":-1.4814265752897469,"8":0.848431971489966,"9":0.06979340726787882,"10":-1.5849112090153543,"11":1.4609778038154493,"12":2.8484424755321776}},{"sx":1,"sy":1,"depth":13,"w":{"0":-0.5252107031519208,"1":-0.3107184333070685,"2":-0.4395386018204426,"3":-0.2734585995618989,"4":-0.38836656226872507,"5":-0.7121281970031608,"6":-0.36936323717695324,"7":-0.35606221683373546,"8":-0.4221733822561383,"9":-0.582968288608696,"10":-0.13602145607499572,"11":-0.7146198744325256,"12":-0.19214989317026435}},{"sx":1,"sy":1,"depth":13,"w":{"0":-0.647388620692532,"1":0.9272006384992224,"2":-1.2720106511548182,"3":1.9354295902211047,"4":0.6886197171656846,"5":-1.4688358335997884,"6":1.3446356388673102,"7":4.413598547467592,"8":0.5602660500341151,"9":-1.1062651011493732,"10":0.3894488982821849,"11":0.9006081896840991,"12":0.34232112710454476}},{"sx":1,"sy":1,"depth":13,"w":{"0":4.224504478092961,"1":0.04992749814253727,"2":0.1467341063305612,"3":-0.2975567911773722,"4":2.087569283531415,"5":-6.527799076708312,"6":-1.7611550339419286,"7":1.7337098190578097,"8":0.4947068063700888,"9":-0.6961186967755334,"10":-1.876507043483214,"11":-2.943451557027883,"12":3.173068364897057}}],"biases":{"sx":1,"sy":1,"depth":14,"w":{"0":0.2908395036761646,"1":-1.6672025674769195,"2":0.7616438710559448,"3":-0.6052427857626518,"4":-0.6692751072529177,"5":1.3773020098627669,"6":-1.7292917726591044,"7":-0.008490300762233848,"8":-0.6889447815933448,"9":1.1810460587177527,"10":-0.8459033923827374,"11":-1.7680508152173304,"12":0.04097878521912917,"13":4.330591294575501}}},{"out_depth":14,"out_sx":1,"out_sy":1,"layer_type":"softmax","num_inputs":14}]}