{"layers":[{"out_depth":2,"out_sx":1,"out_sy":1,"layer_type":"input"},{"out_depth":13,"out_sx":1,"out_sy":1,"layer_type":"fc","num_inputs":2,"l1_decay_mul":0,"l2_decay_mul":1,"filters":[{"sx":1,"sy":1,"depth":2,"w":{"0":-1.3401794460548675,"1":-3.354220487704039}},{"sx":1,"sy":1,"depth":2,"w":{"0":3.0549315052457304,"1":-5.596467599310201}},{"sx":1,"sy":1,"depth":2,"w":{"0":-2.4492972276657117,"1":-4.824348630015115}},{"sx":1,"sy":1,"depth":2,"w":{"0":0.42272693170186093,"1":-5.068462247605622}},{"sx":1,"sy":1,"depth":2,"w":{"0":3.5432764016895284,"1":-5.030352626497568}},{"sx":1,"sy":1,"depth":2,"w":{"0":-4.51570959224664,"1":-4.427442901137377}},{"sx":1,"sy":1,"depth":2,"w":{"0":1.3633459328596973,"1":-3.400947520125574}},{"sx":1,"sy":1,"depth":2,"w":{"0":2.7446054713803343,"1":4.086003876830543}},{"sx":1,"sy":1,"depth":2,"w":{"0":-5.142144589312704,"1":1.374736045466746}},{"sx":1,"sy":1,"depth":2,"w":{"0":-6.3817884019845135,"1":0.4250236696142065}},{"sx":1,"sy":1,"depth":2,"w":{"0":5.564740207254984,"1":1.580286304747853}},{"sx":1,"sy":1,"depth":2,"w":{"0":-5.5566445953026085,"1":1.9659643938957585}},{"sx":1,"sy":1,"depth":2,"w":{"0":-3.9192794635127406,"1":4.393251408988885}}],"biases":{"sx":1,"sy":1,"depth":13,"w":{"0":5.665016266945659,"1":15.42206014756292,"2":25.321530972953507,"3":11.955700138413247,"4":3.8776709024319134,"5":13.183365919075904,"6":-0.018689395123145807,"7":-18.26877745507361,"8":17.838734300795696,"9":4.011681891860367,"10":-11.860107181978096,"11":12.439036309640297,"12":-5.341394984823283}}},{"out_depth":13,"out_sx":1,"out_sy":1,"layer_type":"sigmoid"},{"out_depth":13,"out_sx":1,"out_sy":1,"layer_type":"fc","num_inputs":13,"l1_decay_mul":0,"l2_decay_mul":1,"filters":[{"sx":1,"sy":1,"depth":13,"w":{"0":-1.367098443989829,"1":3.182511497402534,"2":1.0754151085415953,"3":1.555214518926774,"4":-2.5636818792900087,"5":-0.13524122667540164,"6":-2.30394811908658,"7":-3.054349750002662,"8":-2.264183614711405,"9":-1.7177425366583146,"10":-0.7223821927803697,"11":-2.1886908445778728,"12":-1.9153716137508399}},{"sx":1,"sy":1,"depth":13,"w":{"0":-0.13622943652601313,"1":-0.5833024086406338,"2":-0.36984873960352693,"3":-3.2951244176782684,"4":-1.326158101391576,"5":-0.6739214933499946,"6":-0.28135792412970173,"7":0.534297603561908,"8":1.0072361121685878,"9":-0.2999829614005279,"10":0.6882545579554398,"11":0.27379738902327233,"12":0.45802264645744395}},{"sx":1,"sy":1,"depth":13,"w":{"0":0.7164161593381329,"1":0.43126208137580796,"2":-2.5125799955809303,"3":-0.01832272591023114,"4":-0.05658723755269767,"5":0.3455398076397218,"6":1.5794406611249854,"7":-2.4772203800258454,"8":1.155358040540378,"9":5.095646354588687,"10":4.4366232040164775,"11":-1.4767263604085739,"12":0.5117610882367502}},{"sx":1,"sy":1,"depth":13,"w":{"0":0.40196100918253935,"1":2.602523058389588,"2":-2.8517092304191496,"3":2.7814146690479498,"4":0.5189157011152623,"5":-2.0252438128953614,"6":1.6001085667920885,"7":-2.4862064160149475,"8":2.1237851112870514,"9":-0.0160496474249357,"10":0.07712319456786375,"11":0.5395355630744408,"12":1.829884787235733}},{"sx":1,"sy":1,"depth":13,"w":{"0":-0.5649158479250971,"1":-2.96231080314277,"2":3.6238164877948478,"3":-1.75021552398858,"4":-0.1339582363039235,"5":3.385794523652954,"6":-0.6953828519705236,"7":-1.0379776094299795,"8":3.9376123889902352,"9":-1.6215826678140313,"10":1.762461648751405,"11":-0.9812486423974318,"12":-3.2810143959766163}},{"sx":1,"sy":1,"depth":13,"w":{"0":0.47615902522650555,"1":-0.5802502780280656,"2":0.2830690328364414,"3":1.2820737678445857,"4":3.162322849447612,"5":2.1448433579250983,"6":0.17065657904515724,"7":0.9845829953870189,"8":0.9591411666787326,"9":1.3734565981606839,"10":-1.8882208462768473,"11":-1.8637222573686778,"12":-0.15119921789048252}},{"sx":1,"sy":1,"depth":13,"w":{"0":0.16649263607139433,"1":0.41895307037289475,"2":0.7180116695473895,"3":1.0188065764231686,"4":1.702077720356984,"5":0.4186168800492402,"6":-0.15020813211138043,"7":0.572108553526542,"8":-0.6006300559796441,"9":0.45539559147895403,"10":-2.97724312827225,"11":-0.6480414320896611,"12":0.8681336564900185}},{"sx":1,"sy":1,"depth":13,"w":{"0":0.23221040660277373,"1":-1.0787447263784355,"2":0.20771662982608002,"3":-0.5285584221209617,"4":-0.7043318829124472,"5":-1.298153910349623,"6":0.12243159215459312,"7":-0.18457070565753042,"8":0.48297838732295445,"9":-0.541691676286976,"10":2.362617273580511,"11":3.165522116553772,"12":-0.5288807584183614}},{"sx":1,"sy":1,"depth":13,"w":{"0":1.031571164577344,"1":-0.30563834420738406,"2":-0.403264119210002,"3":-1.2924769138487417,"4":0.44411767452658785,"5":0.7273648005200886,"6":1.8230557867441883,"7":3.5179394380300892,"8":-1.5413590189566744,"9":1.9877087906636417,"10":0.5178612017538569,"11":0.5132165924618067,"12":2.128592675523199}},{"sx":1,"sy":1,"depth":13,"w":{"0":3.4683295073871343,"1":-2.5396197719367923,"2":-2.6229670198873287,"3":-0.5240821950204549,"4":2.4989337584495814,"5":-3.6636075090261024,"6":3.1464507749647854,"7":1.440875374902103,"8":0.035015026475307104,"9":-1.6648819540990378,"10":0.12246444183070117,"11":4.83102178174857,"12":1.4799629283282298}},{"sx":1,"sy":1,"depth":13,"w":{"0":1.3898318899100177,"1":0.6055320518059365,"2":-3.716712776017017,"3":0.9355819825890586,"4":0.2741809248426873,"5":-1.1224969517817152,"6":2.2603359665052953,"7":-0.6068473724474367,"8":0.5337048755902924,"9":2.979839878758633,"10":2.542533344971571,"11":0.9511094094849651,"12":0.5677844238271166}},{"sx":1,"sy":1,"depth":13,"w":{"0":-0.8992412466774443,"1":-0.8702395455794443,"2":1.736142279564443,"3":1.178449850623155,"4":-2.9020929780453555,"5":-0.25126891037300075,"6":-1.6229004558660736,"7":1.3200865673313458,"8":-3.2738666247999735,"9":-1.0921661059066374,"10":-0.5807356966077942,"11":0.9378844920547487,"12":-0.6491957457029803}},{"sx":1,"sy":1,"depth":13,"w":{"0":2.1719744445870055,"1":0.057521226454636316,"2":-0.036513998292373534,"3":1.0931312380183933,"4":2.824920951731607,"5":2.9009013713112672,"6":0.8140260340732527,"7":-0.7274653811652573,"8":0.9121136880319008,"9":0.05638294411069833,"10":-0.15117332473456582,"11":-0.3215943406289393,"12":-1.4230416649588313}}],"biases":{"sx":1,"sy":1,"depth":13,"w":{"0":2.1560332143360235,"1":1.8402866240871498,"2":-0.9450034087694947,"3":-1.8495837014574348,"4":-2.3816477359956663,"5":-0.31025290890205176,"6":0.3681472042239971,"7":-2.9386183879667294,"8":0.11122309616894009,"9":-0.5079454238136468,"10":-1.2019290770404603,"11":2.0427482456744728,"12":-5.402980753485384}}},{"out_depth":13,"out_sx":1,"out_sy":1,"layer_type":"sigmoid"},{"out_depth":14,"out_sx":1,"out_sy":1,"layer_type":"fc","num_inputs":13,"l1_decay_mul":0,"l2_decay_mul":1,"filters":[{"sx":1,"sy":1,"depth":13,"w":{"0":-0.035559460877525345,"1":-0.03125429432463788,"2":-0.03306375294591899,"3":-0.04238973587241514,"4":-0.031571640095157866,"5":-0.03810482300323775,"6":-0.0372604106289167,"7":-0.019797654637098608,"8":-0.03266750397059291,"9":-0.023251765549563194,"10":-0.024655019939158057,"11":-0.028637560721465075,"12":-0.01090643035212652}},{"sx":1,"sy":1,"depth":13,"w":{"0":2.0734138261504724,"1":0.30049866123433305,"2":2.3406294958030047,"3":1.6764719094262042,"4":1.7616939464371213,"5":-2.7855759634151367,"6":-2.6901404361113777,"7":2.9094874490694487,"8":-2.6048063974067373,"9":-0.3102444927376595,"10":0.7318353461473954,"11":-0.0005029899914653738,"12":-0.7574335428679917}},{"sx":1,"sy":1,"depth":13,"w":{"0":-0.03604240570360069,"1":-0.031681187773558626,"2":-0.033512154684268,"3":-0.04296442628202167,"4":-0.031999230845073126,"5":-0.038620486476243304,"6":-0.03776515153379371,"7":-0.020066890440461747,"8":-0.03311261253892922,"9":-0.023567724701055465,"10":-0.024988879950934087,"11":-0.029027794587787453,"12":-0.011053122013361344}},{"sx":1,"sy":1,"depth":13,"w":{"0":2.176908978047848,"1":-2.1916951217358567,"2":2.507705190404683,"3":1.0961417109401475,"4":3.3604356529433996,"5":2.1516092126266066,"6":-0.19198583104787503,"7":-1.8699445454644683,"8":-3.06682666270928,"9":-4.6420191485372575,"10":0.47302806422768784,"11":-1.2402310621811663,"12":1.0429009803368516}},{"sx":1,"sy":1,"depth":13,"w":{"0":-0.03395200370870298,"1":-0.029833787519631814,"2":-0.031571054942517315,"3":-0.040476564418226085,"4":-0.03014833509744532,"5":-0.03638793229328603,"6":-0.035580063976429606,"7":-0.018901476698650284,"8":-0.0311863301439786,"9":-0.0221999546051983,"10":-0.023543602574365247,"11":-0.027338910452104112,"12":-0.01041782462117373}},{"sx":1,"sy":1,"depth":13,"w":{"0":-0.036295742282379286,"1":-0.03190516078541733,"2":-0.033747388300825694,"3":-0.043265871759188126,"4":-0.032223446806996986,"5":-0.03889098541939075,"6":-0.03802993933625277,"7":-0.020208149005714986,"8":-0.0333461084016215,"9":-0.023733537942320516,"10":-0.02516398664683804,"11":-0.029232484682032798,"12":-0.011130072475827318}},{"sx":1,"sy":1,"depth":13,"w":{"0":2.4995740107660245,"1":1.3972691110280693,"2":1.246199004495354,"3":-2.1361688952218674,"4":-1.7414275458561728,"5":-2.172629633087364,"6":-1.4830763180362205,"7":-1.2001110602796192,"8":1.1974606146158258,"9":-1.6872852436532355,"10":1.3683775735947938,"11":2.344604673309431,"12":-0.26937589312205656}},{"sx":1,"sy":1,"depth":13,"w":{"0":-2.42555254043763,"1":2.2533016285328444,"2":0.9469485539153725,"3":-2.8344368300589813,"4":3.2367502321452495,"5":2.3144081783306847,"6":0.5595162780031426,"7":-1.5287302379581942,"8":1.7076686170936,"9":-2.052338865033261,"10":-1.3456239994087762,"11":-2.0810522782005605,"12":-0.7947665928538497}},{"sx":1,"sy":1,"depth":13,"w":{"0":-0.03523809727149966,"1":-0.030970217557630762,"2":-0.03276532551066884,"3":-0.042007222090264244,"4":-0.03128714462843314,"5":-0.03776157015221026,"6":-0.03692446899759997,"7":-0.019618465399913465,"8":-0.032371332290834255,"9":-0.023041455590619642,"10":-0.024432828670116917,"11":-0.028377881501000086,"12":-0.01080877455365287}},{"sx":1,"sy":1,"depth":13,"w":{"0":-0.03379172380180692,"1":-0.029692193875493253,"2":-0.03142221459787305,"3":-0.04028581362881573,"4":-0.03000640554732118,"5":-0.03621673762865398,"6":-0.035412513425118745,"7":-0.018812143973807312,"8":-0.031038677595546557,"9":-0.02209508982228133,"10":-0.023432756498530934,"11":-0.02720946740029676,"12":-0.010369156907935082}},{"sx":1,"sy":1,"depth":13,"w":{"0":2.2476023501986484,"1":-2.294941452533735,"2":-1.6676955335285326,"3":-0.8889024418430148,"4":-3.54005301173197,"5":2.523931089668653,"6":2.714626000442996,"7":-1.4392502933813205,"8":0.8914702022525586,"9":-2.461261397293929,"10":-2.1263892613079034,"11":2.8526843703249756,"12":-3.1937435899674678}},{"sx":1,"sy":1,"depth":13,"w":{"0":-1.960065127559009,"1":0.8922493131989594,"2":-3.0428642629215035,"3":-2.935552101224161,"4":3.1424866864876164,"5":-1.8067002612970395,"6":-1.258209816694532,"7":2.83067796618669,"8":1.5046411143963045,"9":1.9350028097646539,"10":-1.6887614225527092,"11":1.847935757239381,"12":-0.1961822830854865}},{"sx":1,"sy":1,"depth":13,"w":{"0":1.1383808236745356,"1":0.5528782582085473,"2":-5.390148393092522,"3":1.4217911506438525,"4":-0.4058618326223937,"5":-1.2369607024020746,"6":1.9026997310150418,"7":-0.8089679533199682,"8":-2.5799387321669958,"9":2.533029542503083,"10":-2.473060991419323,"11":-0.3124677442295892,"12":3.5461403046742754}},{"sx":1,"sy":1,"depth":13,"w":{"0":-5.539382867735342,"1":-0.7242234686915668,"2":3.2553078817852064,"3":4.852045116024637,"4":-5.626787966594817,"5":1.2379006025222374,"6":0.6675431276760574,"7":1.2242434929113388,"8":3.144053820390431,"9":6.823006317395073,"10":5.206811750793934,"11":-3.2411466302576595,"12":0.6871460310564078}}],"biases":{"sx":1,"sy":1,"depth":14,"w":{"0":-2.6727299834898566,"1":0.6611382060194467,"2":-2.65712955343544,"3":0.8562289536474055,"4":-2.725994025177189,"5":-2.649016901291506,"6":1.7351932327959099,"7":2.1072088904299604,"8":-2.6832124962999635,"9":-2.7314221542538424,"10":3.8829161334351676,"11":2.8224895479758363,"12":5.878585263994607,"13":-1.824255114349231}}},{"out_depth":14,"out_sx":1,"out_sy":1,"layer_type":"softmax","num_inputs":14}]}