{"layers":[{"out_depth":2,"out_sx":1,"out_sy":1,"layer_type":"input"},{"out_depth":13,"out_sx":1,"out_sy":1,"layer_type":"fc","num_inputs":2,"l1_decay_mul":0,"l2_decay_mul":1,"filters":[{"sx":1,"sy":1,"depth":2,"w":{"0":-4.743375338525971,"1":-4.848034277293477}},{"sx":1,"sy":1,"depth":2,"w":{"0":6.022516142777136,"1":-0.9413648091086714}},{"sx":1,"sy":1,"depth":2,"w":{"0":-6.617774494059819,"1":0.14351929651189263}},{"sx":1,"sy":1,"depth":2,"w":{"0":-3.28539294366229,"1":3.898109153218908}},{"sx":1,"sy":1,"depth":2,"w":{"0":-8.192280962645484,"1":-0.2814716155514604}},{"sx":1,"sy":1,"depth":2,"w":{"0":-0.6282242101128518,"1":8.8122538815282}},{"sx":1,"sy":1,"depth":2,"w":{"0":2.084579696264317,"1":7.727526202203363}},{"sx":1,"sy":1,"depth":2,"w":{"0":6.9853244323578245,"1":-5.625299008249101}},{"sx":1,"sy":1,"depth":2,"w":{"0":2.197739100991472,"1":6.01987577116314}},{"sx":1,"sy":1,"depth":2,"w":{"0":0.09718904992887471,"1":-4.158684438114225}},{"sx":1,"sy":1,"depth":2,"w":{"0":6.400187453791084,"1":-1.326178558488791}},{"sx":1,"sy":1,"depth":2,"w":{"0":2.704387450722104,"1":-8.213035736223894}},{"sx":1,"sy":1,"depth":2,"w":{"0":-2.6211138917442276,"1":-5.202946685541736}}],"biases":{"sx":1,"sy":1,"depth":13,"w":{"0":18.105707682869618,"1":-3.999582583913936,"2":29.945123306467213,"3":-7.314859611368692,"4":26.313104841530045,"5":-20.23642820540381,"6":-16.30479253916088,"7":-13.638547208609678,"8":-17.88992512263792,"9":3.1798222594886165,"10":-6.397633213609149,"11":5.438438249501181,"12":23.343488101478076}}},{"out_depth":13,"out_sx":1,"out_sy":1,"layer_type":"sigmoid"},{"out_depth":13,"out_sx":1,"out_sy":1,"layer_type":"fc","num_inputs":13,"l1_decay_mul":0,"l2_decay_mul":1,"filters":[{"sx":1,"sy":1,"depth":13,"w":{"0":0.6557577298087758,"1":0.5154309455676253,"2":-1.686387623591362,"3":-2.2820811383710997,"4":-0.9161135998624453,"5":-2.217637726685303,"6":0.6650005764467204,"7":-4.556939493499909,"8":5.154093555552541,"9":5.220150302149315,"10":1.4983937947098274,"11":0.9605305616182563,"12":1.0964205995634544}},{"sx":1,"sy":1,"depth":13,"w":{"0":1.7947984210021386,"1":-2.7321632370526285,"2":-2.117215073726541,"3":3.6465825274991124,"4":-0.314853985914071,"5":-1.8316874216215422,"6":1.9927476388380598,"7":0.9914352436139322,"8":-0.03815016513438844,"9":5.890188627214578,"10":1.5735984243380012,"11":-3.2892938658000976,"12":-2.9492050796236597}},{"sx":1,"sy":1,"depth":13,"w":{"0":2.2599157968366144,"1":-2.0650521748866995,"2":-0.16473622939718285,"3":1.208510973580817,"4":3.9947632758419283,"5":-2.6336505533868024,"6":-0.2726830839417489,"7":-3.5433445957277274,"8":-3.3040768589269276,"9":-0.6455394158704784,"10":-1.1203743919411813,"11":0.30410479340743324,"12":-3.403097622467069}},{"sx":1,"sy":1,"depth":13,"w":{"0":-0.11379542593118042,"1":-0.6850827575470222,"2":2.027942950170427,"3":1.812030199604442,"4":-1.7754069013079288,"5":5.678757946696977,"6":-0.2838090953053921,"7":-2.368751235724125,"8":1.9290958453695888,"9":0.0347163898140911,"10":-2.0792853651521135,"11":-0.2848367359629039,"12":-2.3083815779131034}},{"sx":1,"sy":1,"depth":13,"w":{"0":3.4516100678969326,"1":-0.19493260018297315,"2":3.6448906474743956,"3":-0.14776097490677584,"4":1.95818142945718,"5":-2.0659604473012827,"6":1.5198784256006344,"7":4.749704182652781,"8":3.3318520729468295,"9":-1.590986553823541,"10":-2.3579420617584095,"11":-2.1734120874918337,"12":-1.604017914133379}},{"sx":1,"sy":1,"depth":13,"w":{"0":-1.4632315407062004,"1":-2.576034338800795,"2":5.108716840382295,"3":-2.420220760855971,"4":1.7670700578930905,"5":-1.8185626645686634,"6":-2.2874786899960853,"7":2.693905425045919,"8":0.8286128148982583,"9":1.788213371504801,"10":2.46213498707402,"11":-0.5579551278019191,"12":0.5292338506184102}},{"sx":1,"sy":1,"depth":13,"w":{"0":2.770065958503716,"1":-0.3775338084112151,"2":-2.8972876350965264,"3":-1.489279807736185,"4":1.7049778933741022,"5":-0.18044157611415992,"6":6.983809137612037,"7":-3.28297845757625,"8":-2.726165494197999,"9":0.10586994994312961,"10":1.524711441065829,"11":1.9124577622759487,"12":2.3100345355024583}},{"sx":1,"sy":1,"depth":13,"w":{"0":2.3646048841637706,"1":-0.8411975900239692,"2":0.02825899778836184,"3":2.5855542629288086,"4":-2.2223411183660193,"5":1.2951352490101522,"6":-0.261116105266456,"7":0.7961531598184783,"8":-1.7596585907143576,"9":0.5407694632319318,"10":0.4727326886675096,"11":4.703243889507482,"12":-3.1402985780728065}},{"sx":1,"sy":1,"depth":13,"w":{"0":0.44824492898303736,"1":3.8767833213433263,"2":-3.456252577576992,"3":0.7702838476337734,"4":2.1116144788324944,"5":3.8524611546827097,"6":-1.766382558187091,"7":2.7670346984820684,"8":2.1403218447039243,"9":-3.906103978169822,"10":-2.594270800214166,"11":-2.3273551647276314,"12":-0.36978738750147344}},{"sx":1,"sy":1,"depth":13,"w":{"0":3.2833432579569806,"1":0.5142790748468126,"2":-2.5717028269095317,"3":3.5593604759393647,"4":-1.4838406308325884,"5":-0.15540723433740103,"6":-1.463288872264055,"7":-4.286097944026674,"8":0.8814201890803272,"9":0.19370506017745576,"10":-0.3313865380695414,"11":4.081740382824058,"12":-3.5988787964058386}},{"sx":1,"sy":1,"depth":13,"w":{"0":0.20853742861393923,"1":2.091324607001388,"2":0.46040625818698944,"3":-0.8267427664621085,"4":0.0634564659625788,"5":-2.8674652689103977,"6":2.5421323213990994,"7":-3.9663983144180124,"8":5.029417169721453,"9":-0.16116438353135853,"10":3.373856586041725,"11":-2.6292790309325023,"12":3.2491856895746745}},{"sx":1,"sy":1,"depth":13,"w":{"0":-1.7271667915664404,"1":-0.3865119282384744,"2":2.057046339267564,"3":0.5872039484688506,"4":-2.3357892023134355,"5":5.068234573073243,"6":3.621650000117462,"7":0.5083179297121853,"8":-1.3203576415908056,"9":-1.0988415883566853,"10":-2.553069622132842,"11":-0.3500514296769247,"12":0.3182035757323547}},{"sx":1,"sy":1,"depth":13,"w":{"0":-0.7523354021808327,"1":-1.8075141824227923,"2":-3.398364682548218,"3":-0.8141653345978352,"4":3.778697280863654,"5":3.6613772020725563,"6":0.7685698519751935,"7":-0.4991328511026051,"8":4.3944208240910285,"9":-0.6021676907071913,"10":-0.7399939368485554,"11":-0.6065255214605936,"12":-2.9323772133918653}}],"biases":{"sx":1,"sy":1,"depth":13,"w":{"0":-0.17601601999126015,"1":2.149095445679954,"2":6.70007146088583,"3":-1.8856504883579157,"4":-3.71047709211861,"5":-1.4520127267758525,"6":-5.329506966875711,"7":1.5918463805312835,"8":0.25379742177380926,"9":3.9820567819253725,"10":-11.258887912752934,"11":-1.470188601228628,"12":2.979887436347877}}},{"out_depth":13,"out_sx":1,"out_sy":1,"layer_type":"sigmoid"},{"out_depth":14,"out_sx":1,"out_sy":1,"layer_type":"fc","num_inputs":13,"l1_decay_mul":0,"l2_decay_mul":1,"filters":[{"sx":1,"sy":1,"depth":13,"w":{"0":-1.4616867817731694,"1":-3.7016420589944485,"2":-2.3651650906291226,"3":2.1397917950765764,"4":1.5900206947888542,"5":-0.06335474440448353,"6":-0.6282287398769265,"7":-2.981381652867669,"8":-2.2931608120482894,"9":0.0007310478055536459,"10":1.3933141372436437,"11":-1.915998708726439,"12":0.1513027066599232}},{"sx":1,"sy":1,"depth":13,"w":{"0":-0.023848455129853362,"1":-0.005984158583359589,"2":-0.016718240205327452,"3":-0.005760871213026349,"4":-0.029125458520750082,"5":-0.034388136121065525,"6":-0.014426745525401314,"7":-0.019730983368134586,"8":-0.019514685102912543,"9":-0.007880613931002934,"10":-0.008073590053739076,"11":-0.022391296016040448,"12":-0.014946227217440407}},{"sx":1,"sy":1,"depth":13,"w":{"0":-2.265021743223068,"1":0.488030880837556,"2":-2.8126183033702,"3":-3.357610734131499,"4":-2.4404482549592843,"5":3.6852125728877887,"6":3.8345650962213633,"7":0.4084474477142456,"8":3.372212345995017,"9":1.2931279273414154,"10":-2.5659620228391247,"11":-0.7292801767415803,"12":1.8402704724804666}},{"sx":1,"sy":1,"depth":13,"w":{"0":1.676367108108873,"1":0.2920232041963977,"2":2.5773642186443952,"3":-0.3755543633678745,"4":-2.2377839344994435,"5":-1.50611706262959,"6":-0.08569782139447046,"7":0.9905617858172692,"8":2.773408111887978,"9":-1.5872774608220523,"10":2.1901410256093437,"11":2.1053585923533724,"12":-3.260142592876209}},{"sx":1,"sy":1,"depth":13,"w":{"0":-2.9418229546854144,"1":-3.1554606153967697,"2":-1.2324491705639224,"3":-4.512974359267187,"4":0.27215713178302187,"5":-1.6015437770857242,"6":-0.4716467880250039,"7":1.700862310172027,"8":1.8808400916770198,"9":-0.3755588625843651,"10":0.7255836489090053,"11":0.38757055949628316,"12":2.645991863535213}},{"sx":1,"sy":1,"depth":13,"w":{"0":4.710411786737165,"1":-0.38161948140685226,"2":0.08967345080824843,"3":3.4708818012758815,"4":1.0897899444586219,"5":2.9488661492770154,"6":2.6882978429479194,"7":0.5531277925299837,"8":-2.015664688190659,"9":-2.7408067780900662,"10":-3.128159720416298,"11":-2.4979865601546885,"12":2.299229505053855}},{"sx":1,"sy":1,"depth":13,"w":{"0":-0.02374095545287038,"1":-0.0059573726406621785,"2":-0.016642340266030734,"3":-0.005735284401574414,"4":-0.02899397901000503,"5":-0.0342316776430977,"6":-0.014361402591861033,"7":-0.019640556510476817,"8":-0.019427282543191482,"9":-0.007844686713400795,"10":-0.00803759308655453,"11":-0.0222900813824099,"12":-0.014879652508011874}},{"sx":1,"sy":1,"depth":13,"w":{"0":-0.16380058083879404,"1":-2.054644865351829,"2":-1.7678822521346262,"3":0.6811926256415806,"4":4.071224901816993,"5":-2.1989373282410614,"6":1.9327914506526074,"7":2.8993473734247015,"8":1.454355986739638,"9":3.991278733676907,"10":2.6536593039425886,"11":-2.22906016538152,"12":-1.7422055881613394}},{"sx":1,"sy":1,"depth":13,"w":{"0":-3.5757559798916794,"1":-0.3875835264040811,"2":-1.0877202578960519,"3":-0.27130313356639807,"4":-1.3486723944221515,"5":0.2308319126756084,"6":-0.1175705227720587,"7":1.1693931242879558,"8":-0.8646265069848245,"9":-0.36561258688133913,"10":-0.4104119608599242,"11":2.4886520174338562,"12":-0.7362448067818966}},{"sx":1,"sy":1,"depth":13,"w":{"0":1.2616578092513255,"1":-1.3128446545786472,"2":4.188708028979917,"3":1.1779808767163225,"4":1.6638652089149286,"5":-1.9821809668300103,"6":-4.171017896946175,"7":-0.26486005779216587,"8":-4.076694681855861,"9":-1.659178014846198,"10":-1.5280161982215028,"11":1.6428220466147312,"12":-1.5159545885131078}},{"sx":1,"sy":1,"depth":13,"w":{"0":-1.7585158014722324,"1":2.9689747115155534,"2":1.2077629606093343,"3":-2.453407132605758,"4":1.5867252760592208,"5":-2.0045511071702484,"6":0.49904837270136554,"7":-2.294431085460686,"8":-0.8127998497780102,"9":-0.5013838342138226,"10":-1.7422622520580353,"11":2.604747454765548,"12":1.9812874112553898}},{"sx":1,"sy":1,"depth":13,"w":{"0":-0.02368904829991394,"1":-0.005944438207659487,"2":-0.016605693095986605,"3":-0.005722928363817272,"4":-0.028930493599657863,"5":-0.034156135103163975,"6":-0.014329852237708756,"7":-0.01959689806096493,"8":-0.019385077590381692,"9":-0.007827340256399286,"10":-0.008020210311954646,"11":-0.02224120993463066,"12":-0.0148475037116914}},{"sx":1,"sy":1,"depth":13,"w":{"0":3.2263006276813977,"1":0.30742297560797993,"2":0.7848170296333424,"3":0.9380933651088753,"4":-3.4155081481723095,"5":-0.4764562634583458,"6":-5.621784848393442,"7":-2.725808059302035,"8":2.1681465037125163,"9":-0.3250688115810836,"10":-2.1282029356431247,"11":-2.823088557178664,"12":-0.062068970010237264}},{"sx":1,"sy":1,"depth":13,"w":{"0":1.363144968988223,"1":6.955229399407063,"2":0.46747565948649367,"3":2.580128343097582,"4":-0.7443204946380136,"5":3.0710065638464177,"6":2.184361855239816,"7":0.6037094594160836,"8":-1.5276894559181613,"9":2.293301281095636,"10":4.564448367785681,"11":1.0331860848523724,"12":-1.5567920292046564}}],"biases":{"sx":1,"sy":1,"depth":14,"w":{"0":6.455972695979782,"1":-6.45954826844211,"2":0.5254233311297789,"3":2.9711245974575142,"4":3.878890862937644,"5":-1.4138377794147972,"6":-6.464497005934142,"7":1.1380122278807054,"8":0.673208354816783,"9":3.4573918165747646,"10":-0.08563108143823905,"11":-6.466893823155494,"12":5.458674031663566,"13":-3.6682899600538437}}},{"out_depth":14,"out_sx":1,"out_sy":1,"layer_type":"softmax","num_inputs":14}]}