{"layers":[{"out_depth":2,"out_sx":1,"out_sy":1,"layer_type":"input"},{"out_depth":13,"out_sx":1,"out_sy":1,"layer_type":"fc","num_inputs":2,"l1_decay_mul":0,"l2_decay_mul":1,"filters":[{"sx":1,"sy":1,"depth":2,"w":{"0":-5.0789492993115015,"1":-3.4188909387088198}},{"sx":1,"sy":1,"depth":2,"w":{"0":4.8866469007674125,"1":3.4756811334498505}},{"sx":1,"sy":1,"depth":2,"w":{"0":-7.562116360823579,"1":1.115335969862911}},{"sx":1,"sy":1,"depth":2,"w":{"0":-4.801917907860937,"1":3.621938054927033}},{"sx":1,"sy":1,"depth":2,"w":{"0":-7.028393380475075,"1":-5.981394850932254}},{"sx":1,"sy":1,"depth":2,"w":{"0":-0.12453109481737512,"1":7.420605098891088}},{"sx":1,"sy":1,"depth":2,"w":{"0":1.6876235328710196,"1":7.776762355800118}},{"sx":1,"sy":1,"depth":2,"w":{"0":7.975816903466298,"1":-6.443357786848289}},{"sx":1,"sy":1,"depth":2,"w":{"0":1.373153768020654,"1":8.17373618540338}},{"sx":1,"sy":1,"depth":2,"w":{"0":-0.29822786353780295,"1":-5.352609992846259}},{"sx":1,"sy":1,"depth":2,"w":{"0":6.031505650162148,"1":-0.7454964542329883}},{"sx":1,"sy":1,"depth":2,"w":{"0":2.543358785641757,"1":-7.459083344174401}},{"sx":1,"sy":1,"depth":2,"w":{"0":0.5212627880320602,"1":-8.869672464514203}}],"biases":{"sx":1,"sy":1,"depth":13,"w":{"0":18.090230556422455,"1":-27.11399837388889,"2":31.594930180767957,"3":-5.721379710449807,"4":34.253200079393345,"5":-19.71041573669082,"6":-14.847278399402342,"7":-16.69328207508228,"8":-19.757983327358552,"9":3.984471845293372,"10":-6.210985856647824,"11":5.083207472757742,"12":19.32494911631695}}},{"out_depth":13,"out_sx":1,"out_sy":1,"layer_type":"sigmoid"},{"out_depth":13,"out_sx":1,"out_sy":1,"layer_type":"fc","num_inputs":13,"l1_decay_mul":0,"l2_decay_mul":1,"filters":[{"sx":1,"sy":1,"depth":13,"w":{"0":1.830038048559185,"1":2.927463199582489,"2":0.3757107318865572,"3":2.4098929708368755,"4":-3.991841906129283,"5":1.1859641170272721,"6":-4.487125689175972,"7":-5.459918605145939,"8":1.2962590069807876,"9":-0.8473450403610402,"10":-3.2230584992231024,"11":0.9517752423084003,"12":4.822481092830089}},{"sx":1,"sy":1,"depth":13,"w":{"0":4.360851722672798,"1":1.5458535928715547,"2":0.8404187745669359,"3":-2.570792153931903,"4":-2.0216174059588834,"5":0.17693256770854152,"6":1.2395273645712341,"7":-3.932348650086573,"8":-0.31164716082817334,"9":0.3195047140123339,"10":-1.218600514078186,"11":-0.9279261912389914,"12":0.8359725228983387}},{"sx":1,"sy":1,"depth":13,"w":{"0":-0.12291667771722407,"1":4.494881047999062,"2":-4.534185447494378,"3":-1.1190693400029363,"4":6.261123733646468,"5":-0.8076802166358458,"6":-1.1251706437468727,"7":-1.9788637849211879,"8":0.32625303457144333,"9":1.9968373210671964,"10":0.25549388327914047,"11":-2.6158954280607896,"12":-2.122503587019977}},{"sx":1,"sy":1,"depth":13,"w":{"0":1.0669982995384166,"1":-0.21579692023650554,"2":-1.9360898003334766,"3":-3.01695436978125,"4":-0.5878099258115312,"5":4.5440022613081625,"6":0.28749224963094044,"7":-1.1341987590366875,"8":1.2514719094982898,"9":0.14493410194176026,"10":0.13283212571974284,"11":0.07513540277200452,"12":-2.0087265791821127}},{"sx":1,"sy":1,"depth":13,"w":{"0":0.19822662989043702,"1":2.4958316518334547,"2":-1.2097610725067085,"3":4.147519927272214,"4":-4.010787598636275,"5":-1.2781855532226192,"6":-0.4231031051291588,"7":-2.7721836592964,"8":1.6307995841567338,"9":1.8550032836199297,"10":0.2613171593799527,"11":-0.442727752781338,"12":-0.3982580144711336}},{"sx":1,"sy":1,"depth":13,"w":{"0":-1.2830592785782564,"1":-1.9363847056278656,"2":4.671042428415895,"3":-2.878271376741894,"4":0.2244130263393602,"5":-1.700686969578743,"6":-0.3918739853637654,"7":2.5119095006903844,"8":0.7181638972323168,"9":3.31518136653484,"10":6.394151813705081,"11":1.2282330796500598,"12":0.677020422551207}},{"sx":1,"sy":1,"depth":13,"w":{"0":-2.4639452687243684,"1":-2.743845651139427,"2":1.600257382377443,"3":-3.5478958538147314,"4":0.6642625931722083,"5":-1.4394255155902556,"6":0.8196258629324734,"7":6.874557392955045,"8":3.982846788907051,"9":-2.057509411544413,"10":-0.010213320327152232,"11":-0.4015910954810985,"12":-3.555282852443936}},{"sx":1,"sy":1,"depth":13,"w":{"0":1.755296603878162,"1":0.650780768510226,"2":4.485152299905558,"3":-1.2241389228106014,"4":-2.0544452667456636,"5":-1.3084866002024436,"6":-4.87931376628979,"7":2.0701806629961776,"8":-1.016338573644016,"9":0.21998206589835473,"10":1.962893472352871,"11":-0.5131473011301229,"12":1.8459844289904195}},{"sx":1,"sy":1,"depth":13,"w":{"0":-1.9064684742994007,"1":-1.2476482867496759,"2":4.017561253583006,"3":1.571271812124125,"4":-1.10408365907565,"5":1.1249742753558818,"6":1.68939065064805,"7":-1.7325852842512983,"8":3.0161676431699638,"9":0.14758233342936236,"10":0.032524267474263895,"11":-3.2797604194680203,"12":-2.83615077860746}},{"sx":1,"sy":1,"depth":13,"w":{"0":-2.3840103395660934,"1":-0.7842946544296897,"2":0.6070930620543589,"3":-0.6244718249538571,"4":2.2843437165219096,"5":-0.49408166807951376,"6":0.40633902639475367,"7":-4.074289117241164,"8":1.703142078573293,"9":-6.339977233827003,"10":3.043212992541897,"11":3.417697927142841,"12":4.417238621326883}},{"sx":1,"sy":1,"depth":13,"w":{"0":0.6596295846748789,"1":1.8283339489141253,"2":-2.028551421984476,"3":0.7643945400122425,"4":0.24179821208834146,"5":-5.106153313993837,"6":1.430201087933339,"7":-2.877711547919982,"8":2.7659097295221264,"9":3.952608048043142,"10":1.845247120014635,"11":-0.17607631414178104,"12":-0.8085624265303832}},{"sx":1,"sy":1,"depth":13,"w":{"0":0.5680958892843834,"1":3.406646742156366,"2":-1.7242999203537117,"3":-0.16543136421978313,"4":0.9402195981188954,"5":-0.2745105316528403,"6":3.9666713582118462,"7":-1.2395581121315524,"8":-4.243299746362259,"9":-0.5330844704193308,"10":-0.20209338710661537,"11":-0.5840327335496939,"12":-5.069282247678393}},{"sx":1,"sy":1,"depth":13,"w":{"0":-4.558656673465437,"1":-1.3111490852448622,"2":-1.8149529966682054,"3":-2.3471350343212958,"4":4.173250934287149,"5":-2.8516613670906694,"6":-2.025815298068086,"7":-0.9521950816295269,"8":3.4036374139454666,"9":-2.2554064719767557,"10":-0.15208058145555506,"11":-2.827969688297221,"12":-0.7219975847442615}}],"biases":{"sx":1,"sy":1,"depth":13,"w":{"0":7.536687402883804,"1":0.27111829474086785,"2":4.691232580119428,"3":-1.7984092995109962,"4":2.2079866058415156,"5":-8.156456804211988,"6":-2.4775909572501273,"7":-4.0460211590581645,"8":-0.422675285771442,"9":-5.646521899637551,"10":-1.252571583878315,"11":2.4120962172506335,"12":4.538195951603975}}},{"out_depth":13,"out_sx":1,"out_sy":1,"layer_type":"sigmoid"},{"out_depth":14,"out_sx":1,"out_sy":1,"layer_type":"fc","num_inputs":13,"l1_decay_mul":0,"l2_decay_mul":1,"filters":[{"sx":1,"sy":1,"depth":13,"w":{"0":-0.06612215953628747,"1":1.898521366520558,"2":-3.05354149172025,"3":2.2216168620057384,"4":-0.22095431320346987,"5":-2.4878774538107886,"6":0.7025375042704244,"7":-2.5709725493995097,"8":-0.11938635009437465,"9":3.1523025159863334,"10":-0.5795611454266912,"11":-3.2211467347073905,"12":2.3579986140827756}},{"sx":1,"sy":1,"depth":13,"w":{"0":-0.03052530675341659,"1":-0.017843887376512386,"2":-0.025380977521041306,"3":-0.004459290923467262,"4":-0.010716488962192662,"5":-0.023797795481172963,"6":-0.02161107705666636,"7":-0.01624786248119064,"8":-0.017565827916406755,"9":-0.025013706070018692,"10":-0.011850075404964827,"11":-0.013010271885527282,"12":-0.022814675324703264}},{"sx":1,"sy":1,"depth":13,"w":{"0":-2.2295314581319516,"1":0.23658948993917883,"2":1.3803614630180965,"3":-4.731569810471364,"4":-0.5477322248322746,"5":1.3076995433476575,"6":0.7854987966456375,"7":-1.437685869507549,"8":-2.882834892238264,"9":-0.9631162487432589,"10":-0.45706218795449016,"11":3.290283541291821,"12":-0.34321674968677146}},{"sx":1,"sy":1,"depth":13,"w":{"0":0.14999863292982316,"1":-1.1641941031297387,"2":-2.3937338440832536,"3":2.5005385891399103,"4":-0.7651690183938151,"5":-0.11544616971277821,"6":-2.2699378412507167,"7":1.548800138688122,"8":1.1219546888428207,"9":1.8676124842698734,"10":2.5031814587404875,"11":2.3481649820946395,"12":0.5049541653767833}},{"sx":1,"sy":1,"depth":13,"w":{"0":-2.436240147634852,"1":1.4232180922702664,"2":-1.7372478640369031,"3":-1.6392600076219146,"4":0.29824611504124665,"5":-1.7187925355656593,"6":2.51200556030235,"7":1.3635870854088143,"8":-2.144348832925856,"9":-0.9398642023543514,"10":3.4753775036461456,"11":0.502597833935552,"12":0.7499274811745134}},{"sx":1,"sy":1,"depth":13,"w":{"0":4.144559640920075,"1":2.5192206509239536,"2":2.145102200411341,"3":-0.4972033393388452,"4":-3.1616010421433196,"5":5.309981511648921,"6":3.027413246630246,"7":-4.1972846954297625,"8":-1.5945185476599286,"9":-2.138995052619287,"10":-1.7524650952168919,"11":-0.44768409494185335,"12":-0.9964836420529715}},{"sx":1,"sy":1,"depth":13,"w":{"0":-0.030379316482355798,"1":-0.017758965184532363,"2":-0.025260111660036763,"3":-0.004438331475248951,"4":-0.010665485388604547,"5":-0.0236840372935025,"6":-0.02150799333080777,"7":-0.016169197256615166,"8":-0.017483094558807217,"9":-0.02489396061705458,"10":-0.011794562586084816,"11":-0.012948704237684513,"12":-0.022706350479900085}},{"sx":1,"sy":1,"depth":13,"w":{"0":0.3709439839579632,"1":1.0357107701838686,"2":3.5569474477547236,"3":-0.4432317832239554,"4":3.0707210827493037,"5":-3.2802261620457456,"6":2.3124903384733586,"7":1.370842997520467,"8":0.9425213410961746,"9":5.541791107542255,"10":-1.0643926568805753,"11":-0.35901561571332463,"12":-4.114131033299397}},{"sx":1,"sy":1,"depth":13,"w":{"0":-3.6432943788323504,"1":-0.5876166315736974,"2":-1.8484614460148072,"3":-0.06616827481469992,"4":-0.7175332505787375,"5":0.1396294214996301,"6":0.5358949088933793,"7":1.4776093462809068,"8":-0.7976489179223827,"9":0.672262647510411,"10":-0.5838096877620619,"11":0.4536564477582798,"12":-1.159966359542964}},{"sx":1,"sy":1,"depth":13,"w":{"0":4.484950379012241,"1":-3.6305072295826952,"2":-1.0388663513388672,"3":0.924714114642422,"4":-2.8552818914498035,"5":-1.2910036336646853,"6":-1.3042857607385516,"7":2.4533466945473523,"8":3.4160089375759255,"9":-1.0339550137334597,"10":-2.715250516750468,"11":-0.9233978257393113,"12":-0.6977426348277815}},{"sx":1,"sy":1,"depth":13,"w":{"0":0.038504292746862276,"1":-1.8310193412959297,"2":1.1543482503002385,"3":-3.5736141348382957,"4":0.2733018965601526,"5":-2.2918210857702617,"6":-1.664249542302808,"7":-1.6045244409204813,"8":0.768289126937545,"9":-2.037091726253976,"10":0.9897757442119348,"11":2.8267457412548618,"12":2.0457962775824323}},{"sx":1,"sy":1,"depth":13,"w":{"0":-0.030308775171709317,"1":-0.01771793006138068,"2":-0.02520170844543688,"3":-0.004428202762743875,"4":-0.010640840003204956,"5":-0.023629070091412914,"6":-0.021458183209945306,"7":-0.016131190213104128,"8":-0.017443114046237444,"9":-0.02483610102629732,"10":-0.011767735221002502,"11":-0.012918953008948209,"12":-0.022654006084248713}},{"sx":1,"sy":1,"depth":13,"w":{"0":4.327411003251002,"1":-1.0751397107471417,"2":3.109674120391627,"3":2.184948257231502,"4":2.2037178117023215,"5":1.3843085968503257,"6":1.5459918346610968,"7":2.811977435198635,"8":-1.8044864427537275,"9":-1.4143424469099064,"10":-1.931795946682611,"11":0.21546967658807373,"12":3.7049735206200713}},{"sx":1,"sy":1,"depth":13,"w":{"0":-5.049966390275565,"1":1.2285374291135691,"2":-1.198739687055311,"3":3.1325553524508765,"4":2.4543076489021733,"5":3.114658870088997,"6":-6.118781791986913,"7":-1.1671478924359482,"8":3.1469419256638482,"9":-2.6318602969813454,"10":2.1514149032874554,"11":-4.6467960226890614,"12":-1.9839346075378281}}],"biases":{"sx":1,"sy":1,"depth":14,"w":{"0":2.9080408232060697,"1":-6.341880941491707,"2":4.358337024786229,"3":2.9728873251379317,"4":3.4451105161012063,"5":-0.5438085465355746,"6":-6.347163164829436,"7":-1.3424625194680853,"8":1.636549376242918,"9":2.2168974236560275,"10":0.6375455833900698,"11":-6.349723703099451,"12":-7.671673497204771,"13":10.421344300103671}}},{"out_depth":14,"out_sx":1,"out_sy":1,"layer_type":"softmax","num_inputs":14}]}